SVM-light Version V6.02
0 # kernel type
3 # kernel parameter -d 
1 # kernel parameter -g 
1 # kernel parameter -s 
1 # kernel parameter -r 
empty# kernel parameter -u 
16 # highest feature index 
3352 # number of training documents 
3336 # number of support vectors plus 1 
0 # threshold b, each following line is a SV (starting with alpha*y)
-78.164385959440267015452263876796 1:0.1875 2:0.1875 3:0.125 5:0.25 6:0.125 14:0.0625 16:0.0625 #
-424.32095235124705823182011954486 1:0.33333334 2:0.25 4:0.083333336 5:0.25 13:0.083333336 #
-78.164385959440267015452263876796 1:0.22727273 2:0.22727273 3:0.090909094 4:0.045454547 5:0.13636364 9:0.090909094 13:0.13636364 16:0.045454547 #
-78.164385959440267015452263876796 1:0.25 2:0.1 3:0.1 4:0.1 5:0.15000001 6:0.15000001 9:0.050000001 13:0.050000001 14:0.050000001 #
312.6575438377611249052279163152 1:0.35897437 2:0.12820514 3:0.051282052 4:0.051282052 5:0.15384616 6:0.025641026 8:0.025641026 9:0.051282052 10:0.025641026 13:0.1025641 14:0.025641026 #
-78.164385959440267015452263876796 1:0.39393941 2:0.060606062 3:0.030303031 4:0.090909094 5:0.18181819 6:0.030303031 8:0.030303031 9:0.060606062 13:0.090909094 14:0.030303031 #
-78.164385959440267015452263876796 1:0.33333334 2:0.22222222 4:0.037037037 5:0.22222222 6:0.037037037 13:0.037037037 16:0.11111111 #
-78.164385959440267015452263876796 1:0.41025642 2:0.15384616 3:0.025641026 4:0.051282052 5:0.17948718 6:0.051282052 7:0.025641026 9:0.07692308 13:0.025641026 #
-78.164385959440267015452263876796 1:0.41666666 2:0.25 4:0.083333336 5:0.16666667 13:0.083333336 #
-78.164385959440267015452263876796 1:0.2 2:0.2 3:0.050000001 4:0.050000001 5:0.2 6:0.1 13:0.1 14:0.050000001 16:0.050000001 #
312.6575438377611249052279163152 1:0.30555555 2:0.11111111 3:0.055555556 4:0.11111111 5:0.19444445 6:0.083333336 9:0.055555556 13:0.027777778 14:0.055555556 #
234.49315787832091473319451324642 1:0.25 2:0.1875 4:0.125 5:0.1875 6:0.0625 13:0.125 15:0.0625 #
-44.665363405394444384910457301885 1:0.53571427 2:0.14285715 3:0.017857144 4:0.071428575 5:0.10714286 9:0.035714287 13:0.071428575 16:0.017857144 #
-78.164385959440267015452263876796 1:0.38095239 2:0.095238097 3:0.047619049 4:0.095238097 5:0.16666667 6:0.047619049 9:0.071428575 13:0.095238097 #
33.499022554045836841396521776915 1:0.75961536 2:0.057692308 3:0.009615385 4:0.03846154 5:0.067307696 9:0.01923077 13:0.048076924 #
-55.831704256743051928424392826855 1:0.47619048 2:0.11904762 3:0.023809524 4:0.095238097 5:0.14285715 6:0.023809524 8:0.023809524 9:0.047619049 13:0.047619049 #
-78.164385959440267015452263876796 1:0.33333334 2:0.16666667 4:0.055555556 5:0.22222222 8:0.055555556 9:0.055555556 10:0.055555556 14:0.055555556 #
323.82388468910971823788713663816 1:0.35897437 2:0.12820514 3:0.051282052 4:0.051282052 5:0.15384616 6:0.025641026 8:0.025641026 9:0.07692308 13:0.1025641 14:0.025641026 #
-55.831704256743051928424392826855 1:0.5 2:0.11111111 3:0.027777778 4:0.027777778 5:0.22222222 6:0.027777778 9:0.055555556 13:0.027777778 #
-11.166340851348611096227614325471 5:0.2 6:0.2 11:0.40000001 16:0.2 #
334.99022554045831157054635696113 1:0.3888889 2:0.055555556 3:0.055555556 4:0.055555556 5:0.19444445 6:0.083333336 9:0.083333336 13:0.055555556 14:0.027777778 #
-66.998045108091659471938328351825 1:0.42424244 2:0.12121212 3:0.060606062 4:0.030303031 5:0.15151516 6:0.060606062 9:0.090909094 13:0.060606062 #
-78.164385959440267015452263876796 1:0.22222222 2:0.22222222 3:0.11111111 5:0.16666667 6:0.11111111 10:0.055555556 11:0.055555556 13:0.055555556 #
-78.164385959440267015452263876796 3:0.1 5:0.40000001 7:0.1 8:0.1 9:0.1 13:0.2 #
-78.164385959440267015452263876796 1:0.29166666 2:0.20833333 3:0.041666668 4:0.041666668 5:0.20833333 9:0.083333336 13:0.083333336 16:0.041666668 #
-78.164385959440267015452263876796 1:0.15000001 2:0.1 3:0.1 4:0.050000001 5:0.15000001 6:0.1 7:0.050000001 9:0.15000001 10:0.050000001 13:0.1 #
290.32486213506393823990947566926 1:0.25 2:0.1 3:0.050000001 4:0.15000001 5:0.1 6:0.1 10:0.050000001 13:0.15000001 14:0.050000001 #
-22.332681702697222192455228650942 1:0.6388889 2:0.055555556 3:0.055555556 5:0.1388889 9:0.083333336 13:0.027777778 #
-11.166340851348611096227614325471 1:0.68367344 2:0.040816326 3:0.030612245 4:0.081632651 5:0.06122449 9:0.020408163 10:0.010204081 13:0.071428575 #
-78.164385959440267015452263876796 1:0.37037036 2:0.14814815 4:0.11111111 5:0.14814815 6:0.074074075 13:0.14814815 #
-78.164385959440267015452263876796 1:0.21428572 2:0.2857143 4:0.071428575 5:0.2857143 9:0.071428575 13:0.071428575 #
-66.998045108091659471938328351825 1:0.375 2:0.083333336 3:0.041666668 4:0.083333336 5:0.125 6:0.041666668 8:0.041666668 9:0.041666668 13:0.16666667 #
-44.665363405394444384910457301885 1:0.53571427 2:0.14285715 3:0.017857144 4:0.071428575 5:0.10714286 9:0.035714287 13:0.071428575 16:0.017857144 #
-55.831704256743051928424392826855 1:0.5 2:0.11538462 3:0.01923077 4:0.07692308 5:0.15384616 9:0.03846154 13:0.07692308 14:0.01923077 #
-78.164385959440267015452263876796 1:0.41666666 2:0.083333336 3:0.027777778 4:0.083333336 5:0.19444445 6:0.027777778 9:0.027777778 13:0.11111111 14:0.027777778 #
-78.164385959440267015452263876796 1:0.2 2:0.2 3:0.1 4:0.1 5:0.1 6:0.1 9:0.050000001 13:0.15000001 #
334.99022554045831157054635696113 1:0.41666666 2:0.19444445 4:0.11111111 5:0.16666667 6:0.027777778 13:0.083333336 #
-11.166340851348611096227614325471 5:0.2 6:0.2 11:0.40000001 16:0.2 #
-78.164385959440267015452263876796 1:0.2 2:0.25 4:0.1 5:0.34999999 13:0.050000001 14:0.050000001 #
-78.164385959440267015452263876796 1:0.45238096 2:0.11904762 3:0.023809524 4:0.071428575 5:0.21428572 6:0.023809524 13:0.071428575 14:0.023809524 #
256.82583958101815824193181470037 1:0.16666667 2:0.33333334 4:0.083333336 5:0.16666667 6:0.083333336 12:0.083333336 16:0.083333336 #
290.32486213506393823990947566926 1:0.375 2:0.25 4:0.0625 5:0.125 6:0.0625 10:0.0625 13:0.0625 #
-78.164385959440267015452263876796 1:0.33333334 2:0.125 3:0.041666668 4:0.083333336 5:0.16666667 6:0.083333336 7:0.041666668 13:0.083333336 14:0.041666668 #
-66.998045108091659471938328351825 1:0.625 2:0.1875 4:0.03125 5:0.0625 9:0.03125 13:0.0625 #
-66.998045108091659471938328351825 1:0.40000001 2:0.13333334 5:0.13333334 8:0.06666667 13:0.13333334 16:0.13333334 #
200.9941353242750494700885610655 1:0.22222222 2:0.11111111 4:0.16666667 5:0.16666667 6:0.11111111 7:0.055555556 13:0.11111111 14:0.055555556 #
290.32486213506393823990947566926 1:0.46666667 2:0.13333334 3:0.033333335 4:0.06666667 5:0.13333334 9:0.033333335 13:0.13333334 #
-78.164385959440267015452263876796 1:0.33333334 2:0.16666667 4:0.083333336 5:0.33333334 14:0.083333336 #
290.32486213506393823990947566926 1:0.375 2:0.25 4:0.0625 5:0.125 6:0.0625 10:0.0625 13:0.0625 #
44.665363405394444384910457301885 1:0.80000001 2:0.018181818 3:0.027272727 4:0.045454547 5:0.027272727 9:0.018181818 12:0.0090909088 13:0.054545455 #
-78.164385959440267015452263876796 1:0.22222222 2:0.11111111 4:0.16666667 5:0.16666667 6:0.11111111 7:0.055555556 13:0.11111111 14:0.055555556 #
-78.164385959440267015452263876796 1:0.2857143 2:0.2857143 4:0.095238097 5:0.095238097 8:0.095238097 13:0.095238097 14:0.047619049 #
290.32486213506393823990947566926 1:0.33333334 2:0.16666667 4:0.125 5:0.16666667 13:0.125 14:0.041666668 16:0.041666668 #
-78.164385959440267015452263876796 1:0.45833334 2:0.083333336 4:0.083333336 5:0.083333336 6:0.041666668 7:0.041666668 12:0.041666668 13:0.16666667 #
-66.998045108091659471938328351825 1:0.46666667 2:0.13333334 4:0.1 5:0.13333334 13:0.13333334 16:0.033333335 #
-78.164385959440267015452263876796 1:0.44444445 2:0.14814815 3:0.074074075 4:0.037037037 5:0.22222222 9:0.074074075 #
290.32486213506393823990947566926 1:0.4074074 2:0.14814815 3:0.037037037 5:0.18518518 6:0.037037037 7:0.037037037 9:0.074074075 13:0.074074075 #
-401.98827064854987156650167889893 2:0.33333334 5:0.33333334 13:0.33333334 #
290.32486213506393823990947566926 1:0.375 2:0.083333336 4:0.125 5:0.20833333 7:0.041666668 12:0.041666668 13:0.125 #
-100.49706766213748210248013492674 2:0.16666667 4:0.16666667 5:0.33333334 6:0.16666667 13:0.16666667 #
-66.998045108091659471938328351825 1:0.4642857 2:0.10714286 4:0.14285715 5:0.10714286 8:0.035714287 13:0.14285715 #
-66.998045108091659471938328351825 1:0.57499999 2:0.1 3:0.050000001 4:0.050000001 5:0.125 9:0.025 13:0.075000003 #
-78.164385959440267015452263876796 1:0.46875 2:0.125 4:0.09375 5:0.15625 8:0.03125 13:0.09375 14:0.03125 #
290.32486213506393823990947566926 1:0.42857143 2:0.071428575 4:0.14285715 5:0.17857143 13:0.10714286 14:0.071428575 #
290.32486213506393823990947566926 1:0.44444445 2:0.16666667 4:0.055555556 5:0.16666667 8:0.055555556 13:0.055555556 14:0.055555556 #
-66.998045108091659471938328351825 1:0.53125 2:0.1875 4:0.03125 5:0.09375 8:0.03125 13:0.09375 16:0.03125 #
-390.82192979720127823384245857596 1:0.41666666 2:0.11111111 3:0.055555556 4:0.083333336 5:0.16666667 9:0.055555556 13:0.11111111 #
-401.98827064854987156650167889893 1:0.25 2:0.33333334 5:0.33333334 13:0.083333336 #
-66.998045108091659471938328351825 1:0.5 2:0.083333336 3:0.041666668 4:0.041666668 5:0.20833333 9:0.041666668 13:0.083333336 #
424.32095235124705823182011954486 1:0.52499998 2:0.125 3:0.025 4:0.050000001 5:0.15000001 8:0.025 9:0.025 13:0.050000001 14:0.025 #
-78.164385959440267015452263876796 1:0.4848485 2:0.12121212 3:0.060606062 4:0.060606062 5:0.12121212 9:0.030303031 13:0.12121212 #
-390.82192979720127823384245857596 1:0.52380955 2:0.23809524 4:0.095238097 5:0.047619049 7:0.047619049 13:0.047619049 #
-78.164385959440267015452263876796 1:0.375 2:0.25 5:0.125 6:0.0625 10:0.0625 13:0.125 #
-78.164385959440267015452263876796 1:0.25 2:0.1875 4:0.0625 5:0.25 6:0.125 13:0.125 #
-78.164385959440267015452263876796 1:0.33333334 2:0.16666667 4:0.125 5:0.16666667 13:0.125 14:0.041666668 16:0.041666668 #
-78.164385959440267015452263876796 1:0.38095239 2:0.19047619 3:0.047619049 4:0.095238097 5:0.19047619 10:0.047619049 13:0.047619049 #
-78.164385959440267015452263876796 1:0.375 2:0.16666667 3:0.083333336 4:0.041666668 5:0.20833333 6:0.041666668 9:0.083333336 #
290.32486213506393823990947566926 1:0.31818181 2:0.18181819 3:0.045454547 4:0.045454547 5:0.31818181 16:0.090909094 #
-78.164385959440267015452263876796 1:0.44 2:0.12 4:0.12 5:0.16 6:0.039999999 13:0.12 #
-66.998045108091659471938328351825 1:0.5625 2:0.09375 3:0.03125 4:0.0625 5:0.15625 9:0.03125 13:0.0625 #
33.499022554045836841396521776915 1:0.79090911 2:0.027272727 3:0.0090909088 4:0.054545455 5:0.036363635 9:0.018181818 13:0.054545455 15:0.0090909088 #
-323.82388468910971823788713663816 1:0.45833334 2:0.041666668 4:0.083333336 5:0.20833333 8:0.041666668 13:0.083333336 14:0.083333336 #
256.82583958101815824193181470037 1:0.5 2:0.16666667 3:0.041666668 4:0.041666668 5:0.083333336 8:0.041666668 13:0.083333336 14:0.041666668 #
-122.82974936483469718950800597668 1:0.26666668 3:0.06666667 4:0.13333334 5:0.06666667 6:0.06666667 9:0.2 13:0.2 #
267.99218043236675157459103502333 1:0.25 2:0.1875 3:0.125 4:0.0625 5:0.1875 6:0.0625 9:0.0625 13:0.0625 #
122.82974936483471140036272117868 1:0.4074074 2:0.074074075 3:0.074074075 4:0.14814815 5:0.11111111 9:0.037037037 13:0.11111111 16:0.037037037 #
-111.66340851348608964599407045171 1:0.5 2:0.041666668 3:0.0625 4:0.10416666 5:0.0625 9:0.0625 12:0.020833334 13:0.125 16:0.020833334 #
-111.66340851348608964599407045171 1:0.5 2:0.0625 4:0.0625 5:0.125 6:0.0625 8:0.0625 13:0.125 #
122.82974936483469718950800597668 1:0.4375 2:0.125 4:0.09375 5:0.125 6:0.03125 10:0.03125 13:0.125 16:0.03125 #
-122.82974936483469718950800597668 1:0.46666667 2:0.15555556 3:0.06666667 4:0.044444446 5:0.13333334 9:0.088888891 13:0.044444446 #
122.82974936483471140036272117868 1:0.4074074 2:0.074074075 3:0.074074075 4:0.14814815 5:0.11111111 9:0.037037037 13:0.11111111 16:0.037037037 #
-111.66340851348608964599407045171 1:0.47619048 2:0.14285715 3:0.047619049 4:0.047619049 5:0.047619049 8:0.047619049 9:0.047619049 13:0.14285715 #
122.82974936483469718950800597668 1:0.46666667 2:0.15555556 3:0.06666667 4:0.044444446 5:0.13333334 9:0.088888891 13:0.044444446 #
-3.5527136788005009293556213378906e-15 1:0.27777779 2:0.11111111 4:0.11111111 5:0.27777779 10:0.055555556 13:0.055555556 14:0.055555556 15:0.055555556 #
122.82974936483471140036272117868 1:0.5 2:0.1388889 3:0.027777778 4:0.055555556 5:0.19444445 13:0.055555556 14:0.027777778 #
122.82974936483469718950800597668 1:0.41666666 2:0.041666668 3:0.041666668 4:0.125 5:0.125 6:0.041666668 7:0.041666668 9:0.041666668 13:0.083333336 14:0.041666668 #
-122.82974936483469718950800597668 1:0.40625 2:0.0625 3:0.0625 4:0.125 5:0.125 6:0.03125 9:0.03125 10:0.03125 13:0.125 #
-323.82388468910971823788713663816 1:0.45833334 2:0.041666668 4:0.083333336 5:0.20833333 8:0.041666668 13:0.083333336 14:0.083333336 #
334.99022554045831157054635696113 1:0.66666669 2:0.041666668 3:0.041666668 4:0.083333336 5:0.125 13:0.041666668 #
334.99022554045831157054635696113 1:0.59090906 2:0.06818182 3:0.090909094 4:0.06818182 5:0.090909094 7:0.022727273 9:0.045454547 13:0.022727273 #
-133.99609021618331894387665670365 1:0.22727273 2:0.090909094 3:0.090909094 4:0.045454547 5:0.22727273 9:0.13636364 10:0.045454547 13:0.13636364 #
256.82583958101815824193181470037 1:0.375 2:0.20833333 3:0.041666668 4:0.041666668 5:0.20833333 9:0.041666668 13:0.041666668 16:0.041666668 #
-122.82974936483469718950800597668 1:0.40000001 2:0.2 4:0.1 5:0.1 6:0.1 9:0.1 #
-122.82974936483469718950800597668 1:0.33333334 2:0.16666667 5:0.16666667 6:0.16666667 8:0.055555556 13:0.055555556 16:0.055555556 #
-334.99022554045831157054635696113 1:0.29166666 2:0.125 3:0.041666668 4:0.083333336 5:0.125 6:0.041666668 7:0.041666668 9:0.083333336 13:0.125 16:0.041666668 #
-133.99609021618331894387665670365 1:0.2962963 2:0.074074075 3:0.11111111 4:0.14814815 5:0.074074075 6:0.037037037 9:0.074074075 12:0.037037037 13:0.14814815 #
145.16243106753194069824530743062 1:0.4074074 2:0.037037037 3:0.074074075 4:0.14814815 5:0.037037037 9:0.074074075 13:0.18518518 16:0.037037037 #
279.1585212837153449072502553463 1:0.5714286 2:0.14285715 3:0.035714287 4:0.035714287 5:0.071428575 9:0.071428575 13:0.071428575 #
-122.82974936483469718950800597668 1:0.41666666 2:0.083333336 3:0.041666668 4:0.083333336 5:0.083333336 6:0.041666668 7:0.041666668 9:0.083333336 13:0.041666668 15:0.041666668 16:0.041666668 #
-133.99609021618331894387665670365 1:0.375 2:0.125 3:0.125 4:0.0625 5:0.125 6:0.0625 9:0.0625 13:0.0625 #
-11.166340851348611096227614325471 1:0.8051948 2:0.051948052 4:0.038961038 5:0.064935066 13:0.038961038 #
122.82974936483469718950800597668 1:0.3888889 2:0.16666667 3:0.055555556 4:0.11111111 5:0.11111111 6:0.055555556 7:0.055555556 13:0.055555556 #
-133.99609021618331894387665670365 1:0.11111111 2:0.22222222 3:0.11111111 5:0.11111111 6:0.22222222 8:0.11111111 9:0.11111111 #
-133.99609021618331894387665670365 1:0.2962963 2:0.14814815 3:0.037037037 4:0.074074075 5:0.14814815 6:0.037037037 8:0.037037037 9:0.074074075 12:0.037037037 13:0.074074075 15:0.037037037 #
78.164385959440267015452263876796 1:0.5 2:0.041666668 3:0.041666668 4:0.125 5:0.041666668 9:0.083333336 13:0.16666667 #
-245.65949872966953648756316397339 1:0.16666667 2:0.083333336 3:0.16666667 4:0.125 5:0.083333336 8:0.041666668 9:0.16666667 13:0.125 14:0.041666668 #
-122.82974936483469718950800597668 1:0.69999999 2:0.1 3:0.050000001 4:0.025 5:0.050000001 9:0.050000001 13:0.025 #
55.831704256743051928424392826855 1:0.41666666 2:0.041666668 3:0.041666668 4:0.16666667 5:0.125 9:0.041666668 13:0.125 14:0.041666668 #
279.1585212837153449072502553463 1:0.2857143 2:0.21428572 4:0.071428575 5:0.14285715 7:0.071428575 9:0.071428575 11:0.071428575 14:0.071428575 #
-234.49315787832091473319451324642 1:0.39285713 2:0.071428575 3:0.10714286 4:0.14285715 5:0.17857143 9:0.035714287 13:0.071428575 #
-223.32681702697229297882586251944 1:0.41666666 2:0.083333336 4:0.16666667 5:0.125 9:0.041666668 13:0.16666667 #
111.66340851348608964599407045171 1:0.71875 2:0.0625 4:0.03125 5:0.09375 9:0.03125 13:0.0625 #
-234.49315787832091473319451324642 1:0.39285713 2:0.071428575 3:0.10714286 4:0.14285715 5:0.17857143 9:0.035714287 13:0.071428575 #
334.99022554045831157054635696113 1:0.4848485 2:0.090909094 3:0.030303031 4:0.090909094 5:0.12121212 7:0.030303031 9:0.060606062 13:0.060606062 14:0.030303031 #
55.831704256743051928424392826855 1:0.4848485 2:0.090909094 3:0.060606062 4:0.090909094 5:0.15151516 9:0.030303031 13:0.060606062 14:0.030303031 #
223.32681702697229297882586251944 1:0.375 2:0.0625 3:0.0625 4:0.1875 5:0.0625 9:0.0625 13:0.125 14:0.0625 #
11.166340851348614648941293125972 1:0.16666667 2:0.083333336 4:0.25 5:0.083333336 13:0.33333334 14:0.083333336 #
-234.49315787832091473319451324642 1:0.42857143 2:0.095238097 4:0.14285715 5:0.095238097 8:0.047619049 13:0.14285715 14:0.047619049 #
111.66340851348608964599407045171 1:0.68333334 2:0.033333335 3:0.033333335 4:0.1 5:0.033333335 9:0.016666668 13:0.1 #
78.164385959440267015452263876796 1:0.5 2:0.125 3:0.041666668 4:0.041666668 5:0.16666667 9:0.083333336 13:0.041666668 #
78.164385959440267015452263876796 1:0.5777778 2:0.13333334 3:0.022222223 4:0.044444446 5:0.13333334 6:0.022222223 9:0.022222223 13:0.044444446 #
33.499022554045836841396521776915 1:0.37037036 2:0.18518518 3:0.074074075 4:0.037037037 5:0.11111111 6:0.037037037 9:0.037037037 11:0.037037037 13:0.074074075 14:0.037037037 #
-234.49315787832091473319451324642 1:0.36666667 2:0.13333334 3:0.06666667 4:0.1 5:0.2 9:0.1 13:0.033333335 #
290.32486213506393823990947566926 1:0.3888889 2:0.22222222 4:0.055555556 5:0.27777779 13:0.055555556 #
-44.665363405394444384910457301885 1:0.1 2:0.15000001 3:0.2 4:0.1 5:0.1 8:0.050000001 9:0.15000001 13:0.1 14:0.050000001 #
33.499022554045836841396521776915 1:0.40000001 2:0.13333334 3:0.1 4:0.1 5:0.2 9:0.033333335 13:0.033333335 #
-133.99609021618331894387665670365 1:0.66666669 2:0.088888891 3:0.022222223 4:0.088888891 5:0.044444446 13:0.088888891 #
44.665363405394444384910457301885 1:0.36363637 2:0.060606062 3:0.12121212 4:0.12121212 5:0.12121212 9:0.090909094 13:0.12121212 #
-245.65949872966953648756316397339 1:0.16666667 2:0.083333336 3:0.16666667 4:0.125 5:0.083333336 8:0.041666668 9:0.16666667 13:0.125 14:0.041666668 #
267.99218043236675157459103502333 1:0.51851851 2:0.14814815 3:0.074074075 4:0.037037037 5:0.11111111 9:0.037037037 13:0.074074075 #
-200.9941353242750494700885610655 1:0.53333336 2:0.16666667 5:0.2 8:0.033333335 9:0.033333335 13:0.033333335 #
55.831704256743051928424392826855 1:0.39393941 2:0.15151516 3:0.060606062 4:0.090909094 5:0.12121212 9:0.060606062 13:0.12121212 #
-234.49315787832091473319451324642 1:0.42857143 2:0.095238097 4:0.14285715 5:0.095238097 8:0.047619049 13:0.14285715 14:0.047619049 #
89.330726810788874558966199401766 1:0.57499999 2:0.1 3:0.025 4:0.050000001 5:0.125 8:0.025 9:0.050000001 13:0.050000001 #
167.49511277022918420698260888457 1:0.25 2:0.3125 3:0.0625 4:0.0625 5:0.125 9:0.0625 13:0.125 #
-66.998045108091659471938328351825 1:0.76249999 2:0.037500001 3:0.037500001 4:0.037500001 5:0.037500001 9:0.037500001 13:0.050000001 #
33.499022554045836841396521776915 1:0.40000001 2:0.13333334 3:0.1 4:0.1 5:0.2 9:0.033333335 13:0.033333335 #
22.332681702697225745168907451443 1:0.14285715 2:0.14285715 3:0.071428575 4:0.14285715 5:0.21428572 9:0.14285715 13:0.14285715 #
-66.998045108091659471938328351825 1:0.36666667 2:0.13333334 3:0.1 4:0.06666667 5:0.16666667 9:0.1 13:0.06666667 #
66.998045108091659471938328351825 1:0.21428572 2:0.2857143 3:0.071428575 5:0.2857143 7:0.071428575 9:0.071428575 #
-66.998045108091659471938328351825 1:0.48148149 2:0.25925925 3:0.037037037 4:0.037037037 5:0.14814815 13:0.037037037 #
223.32681702697229297882586251944 1:0.46153846 2:0.15384616 4:0.1025641 5:0.15384616 9:0.025641026 13:0.1025641 #
-334.99022554045831157054635696113 1:0.56363636 2:0.07272727 3:0.054545455 4:0.090909094 5:0.07272727 9:0.07272727 13:0.07272727 #
-223.32681702697229297882586251944 1:0.63636363 2:0.054545455 3:0.07272727 4:0.054545455 5:0.054545455 9:0.054545455 13:0.07272727 #
-44.665363405394444384910457301885 1:0.48717949 2:0.051282052 3:0.1025641 4:0.1025641 5:0.07692308 9:0.1025641 13:0.07692308 #
167.49511277022918420698260888457 1:0.3888889 2:0.055555556 3:0.11111111 5:0.27777779 6:0.055555556 13:0.11111111 #
301.49120298641253157256869599223 1:0.46666667 2:0.13333334 3:0.044444446 4:0.088888891 5:0.15555556 9:0.022222223 13:0.088888891 #
-22.332681702697218639741549850442 1:0.66071427 2:0.053571429 4:0.071428575 5:0.10714286 9:0.035714287 13:0.071428575 #
-66.998045108091659471938328351825 1:0.41666666 2:0.20833333 5:0.16666667 7:0.083333336 9:0.041666668 10:0.041666668 13:0.041666668 #
312.6575438377611249052279163152 1:0.48888889 2:0.17777778 4:0.06666667 5:0.15555556 9:0.022222223 13:0.088888891 #
33.499022554045836841396521776915 1:0.79000002 2:0.050000001 3:0.029999999 4:0.02 5:0.059999999 9:0.029999999 13:0.02 #
55.831704256743051928424392826855 1:0.34375 2:0.09375 3:0.125 4:0.0625 5:0.1875 9:0.09375 13:0.09375 #
-279.1585212837153449072502553463 1:0.71794873 2:0.089743592 3:0.025641026 4:0.03846154 5:0.051282052 6:0.012820513 9:0.012820513 13:0.051282052 #
-44.665363405394444384910457301885 1:0.41666666 2:0.19444445 4:0.055555556 5:0.22222222 13:0.083333336 16:0.027777778 #
200.9941353242750494700885610655 1:0.7638889 2:0.083333336 3:0.013888889 4:0.027777778 5:0.069444448 9:0.013888889 13:0.027777778 #
223.32681702697229297882586251944 1:0.4848485 2:0.090909094 3:0.060606062 4:0.12121212 5:0.090909094 9:0.030303031 13:0.12121212 #
-234.49315787832091473319451324642 1:0.60000002 2:0.083333336 3:0.050000001 4:0.050000001 5:0.083333336 9:0.033333335 10:0.016666668 13:0.06666667 16:0.016666668 #
-22.332681702697225745168907451443 1:0.58333331 2:0.050000001 3:0.050000001 4:0.06666667 5:0.033333335 7:0.016666668 9:0.1 13:0.083333336 16:0.016666668 #
122.82974936483471140036272117868 1:0.5 2:0.11111111 4:0.16666667 5:0.11111111 9:0.027777778 13:0.083333336 #
-234.49315787832091473319451324642 1:0.66666669 2:0.083333336 3:0.041666668 4:0.041666668 5:0.083333336 13:0.083333336 #
-234.49315787832091473319451324642 1:0.5151515 2:0.090909094 3:0.060606062 4:0.060606062 5:0.12121212 9:0.060606062 13:0.090909094 #
-346.1565663918069049032055772841 1:0.3125 2:0.21875 3:0.15625 5:0.15625 9:0.09375 13:0.0625 #
-44.665363405394444384910457301885 1:0.53125 2:0.09375 3:0.09375 4:0.09375 5:0.0625 9:0.0625 13:0.0625 #
122.82974936483469718950800597668 1:0.56666666 2:0.13333334 3:0.06666667 4:0.033333335 5:0.1 9:0.033333335 13:0.06666667 #
-234.49315787832091473319451324642 1:0.5151515 2:0.090909094 3:0.060606062 4:0.060606062 5:0.12121212 9:0.060606062 13:0.090909094 #
323.82388468910971823788713663816 1:0.5 2:0.11111111 4:0.11111111 5:0.1388889 9:0.027777778 13:0.11111111 #
-44.665363405394444384910457301885 1:0.52777779 2:0.083333336 3:0.027777778 4:0.083333336 5:0.1388889 9:0.027777778 13:0.11111111 #
-234.49315787832091473319451324642 1:0.63636363 2:0.060606062 3:0.060606062 4:0.045454547 5:0.090909094 9:0.030303031 12:0.015151516 13:0.060606062 #
312.6575438377611249052279163152 1:0.48888889 2:0.17777778 4:0.06666667 5:0.15555556 9:0.022222223 13:0.088888891 #
-44.665363405394444384910457301885 1:0.46666667 2:0.13333334 3:0.1 5:0.16666667 9:0.1 13:0.033333335 #
234.49315787832091473319451324642 1:0.64583331 2:0.0625 3:0.020833334 4:0.020833334 5:0.16666667 9:0.020833334 13:0.041666668 16:0.020833334 #
122.82974936483471140036272117868 1:0.48717949 2:0.051282052 3:0.1025641 4:0.1025641 5:0.07692308 9:0.1025641 13:0.07692308 #
44.665363405394444384910457301885 1:0.58333331 2:0.083333336 4:0.083333336 5:0.11111111 12:0.027777778 13:0.027777778 14:0.027777778 15:0.027777778 16:0.027777778 #
33.499022554045836841396521776915 1:0.34999999 2:0.1 4:0.1 5:0.2 6:0.050000001 8:0.050000001 13:0.1 14:0.050000001 #
33.499022554045836841396521776915 1:0.5 2:0.06818182 3:0.06818182 4:0.090909094 5:0.06818182 7:0.045454547 9:0.022727273 10:0.045454547 13:0.090909094 #
-111.66340851348608964599407045171 1:0.80000001 2:0.050000001 3:0.029999999 4:0.02 5:0.039999999 9:0.02 12:0.0099999998 13:0.029999999 #
33.499022554045836841396521776915 1:0.41666666 2:0.041666668 4:0.083333336 5:0.16666667 6:0.041666668 8:0.083333336 13:0.083333336 14:0.083333336 #
33.499022554045836841396521776915 1:0.55555558 3:0.18518518 4:0.074074075 5:0.037037037 9:0.037037037 13:0.037037037 14:0.037037037 16:0.037037037 #
33.499022554045836841396521776915 1:0.38095239 2:0.19047619 3:0.047619049 4:0.047619049 5:0.19047619 9:0.047619049 13:0.047619049 16:0.047619049 #
33.499022554045836841396521776915 1:0.5 2:0.06818182 3:0.06818182 4:0.090909094 5:0.06818182 7:0.045454547 9:0.022727273 10:0.045454547 13:0.090909094 #
55.831704256743051928424392826855 1:0.58333331 2:0.06666667 3:0.033333335 4:0.050000001 5:0.050000001 6:0.016666668 7:0.016666668 8:0.033333335 9:0.016666668 10:0.016666668 12:0.016666668 13:0.06666667 14:0.033333335 #
33.499022554045836841396521776915 1:0.4642857 2:0.21428572 4:0.035714287 5:0.14285715 8:0.035714287 13:0.071428575 15:0.035714287 #
33.499022554045836841396521776915 1:0.45454547 2:0.13636364 3:0.045454547 4:0.045454547 5:0.18181819 9:0.045454547 13:0.06818182 16:0.022727273 #
33.499022554045836841396521776915 1:0.4074074 2:0.11111111 3:0.037037037 4:0.074074075 5:0.18518518 7:0.037037037 12:0.037037037 13:0.074074075 14:0.037037037 #
33.499022554045836841396521776915 1:0.44999999 2:0.1 4:0.075000003 5:0.2 6:0.025 8:0.025 9:0.025 13:0.075000003 15:0.025 #
-390.82192979720127823384245857596 2:0.33333334 4:0.083333336 5:0.16666667 9:0.16666667 10:0.083333336 13:0.16666667 #
33.499022554045836841396521776915 1:0.4074074 2:0.074074075 3:0.11111111 4:0.074074075 5:0.11111111 6:0.037037037 9:0.074074075 10:0.037037037 13:0.074074075 #
55.831704256743051928424392826855 1:0.55555558 2:0.16666667 3:0.027777778 4:0.027777778 5:0.11111111 8:0.027777778 13:0.083333336 #
33.499022554045836841396521776915 1:0.41666666 2:0.083333336 3:0.083333336 4:0.055555556 5:0.1388889 9:0.055555556 11:0.027777778 12:0.027777778 13:0.083333336 16:0.027777778 #
33.499022554045836841396521776915 1:0.47499999 2:0.175 4:0.025 5:0.22499999 8:0.025 13:0.050000001 16:0.025 #
33.499022554045836841396521776915 1:0.5 2:0.0625 3:0.083333336 4:0.041666668 5:0.125 6:0.020833334 8:0.020833334 9:0.0625 12:0.020833334 13:0.020833334 14:0.041666668 #
-390.82192979720127823384245857596 1:0.4848485 2:0.12121212 3:0.030303031 4:0.060606062 5:0.18181819 12:0.030303031 13:0.090909094 #
33.499022554045836841396521776915 1:0.36666667 2:0.13333334 3:0.033333335 4:0.1 5:0.23333333 9:0.033333335 13:0.06666667 16:0.033333335 #
33.499022554045836841396521776915 1:0.38095239 2:0.19047619 3:0.047619049 4:0.047619049 5:0.19047619 9:0.047619049 13:0.047619049 16:0.047619049 #
33.499022554045836841396521776915 1:0.30769232 2:0.15384616 3:0.07692308 4:0.11538462 5:0.1923077 9:0.03846154 11:0.03846154 13:0.03846154 15:0.03846154 #
44.665363405394444384910457301885 1:0.5625 2:0.15625 4:0.0625 5:0.09375 6:0.03125 10:0.03125 13:0.03125 15:0.03125 #
55.831704256743051928424392826855 1:0.59523809 2:0.11904762 4:0.047619049 5:0.071428575 6:0.023809524 8:0.023809524 9:0.023809524 13:0.023809524 14:0.023809524 15:0.023809524 16:0.023809524 #
33.499022554045836841396521776915 1:0.34999999 2:0.15000001 4:0.1 5:0.1 6:0.050000001 8:0.050000001 9:0.050000001 13:0.1 14:0.050000001 #
33.499022554045836841396521776915 1:0.38461539 2:0.1025641 3:0.051282052 4:0.051282052 5:0.15384616 6:0.025641026 7:0.025641026 8:0.025641026 9:0.07692308 13:0.1025641 #
33.499022554045836841396521776915 1:0.44444445 2:0.11111111 3:0.055555556 5:0.16666667 9:0.055555556 12:0.055555556 15:0.055555556 16:0.055555556 #
33.499022554045836841396521776915 1:0.36363637 2:0.090909094 3:0.045454547 4:0.045454547 5:0.18181819 9:0.090909094 12:0.045454547 13:0.13636364 #
33.499022554045836841396521776915 2:0.125 5:0.375 9:0.25 13:0.125 16:0.125 #
55.831704256743051928424392826855 1:0.4074074 2:0.074074075 4:0.074074075 5:0.11111111 6:0.037037037 9:0.11111111 11:0.037037037 13:0.11111111 16:0.037037037 #
33.499022554045836841396521776915 1:0.30769232 2:0.15384616 3:0.07692308 4:0.11538462 5:0.1923077 9:0.03846154 11:0.03846154 13:0.03846154 15:0.03846154 #
33.499022554045836841396521776915 1:0.41666666 2:0.083333336 3:0.083333336 4:0.055555556 5:0.1388889 9:0.055555556 11:0.027777778 12:0.027777778 13:0.083333336 16:0.027777778 #
22.332681702697222192455228650942 1:0.30769232 2:0.15384616 3:0.15384616 4:0.03846154 5:0.1923077 8:0.03846154 9:0.03846154 13:0.03846154 14:0.03846154 #
55.831704256743051928424392826855 1:0.65714288 2:0.11428571 4:0.057142857 5:0.14285715 13:0.028571429 #
55.831704256743051928424392826855 1:0.60000002 2:0.090909094 3:0.036363635 4:0.054545455 5:0.14545454 13:0.036363635 16:0.036363635 #
-357.32290724315549823586479760706 1:0.5 2:0.125 5:0.27500001 13:0.025 16:0.075000003 #
33.499022554045836841396521776915 1:0.38095239 2:0.14285715 4:0.095238097 5:0.14285715 6:0.047619049 8:0.047619049 10:0.047619049 13:0.047619049 15:0.047619049 #
55.831704256743051928424392826855 1:0.6857143 2:0.11428571 4:0.057142857 5:0.085714288 13:0.057142857 #
-89.330726810788874558966199401766 1:0.80909091 2:0.027272727 3:0.027272727 4:0.045454547 5:0.018181818 9:0.027272727 13:0.045454547 #
66.998045108091659471938328351825 1:0.5 2:0.125 4:0.125 5:0.125 13:0.125 #
66.998045108091659471938328351825 1:0.60714287 2:0.10714286 3:0.035714287 4:0.035714287 5:0.14285715 9:0.035714287 13:0.035714287 #
44.665363405394444384910457301885 1:0.33333334 2:0.22222222 4:0.055555556 5:0.22222222 13:0.11111111 16:0.055555556 #
390.82192979720127823384245857596 1:0.5714286 2:0.071428575 4:0.035714287 5:0.21428572 13:0.071428575 16:0.035714287 #
22.332681702697222192455228650942 1:0.25 2:0.33333334 4:0.083333336 5:0.083333336 6:0.083333336 13:0.083333336 16:0.083333336 #
-290.32486213506393823990947566926 1:0.58333331 2:0.083333336 3:0.16666667 4:0.083333336 13:0.083333336 #
44.665363405394444384910457301885 1:0.33333334 2:0.16666667 4:0.11111111 5:0.16666667 13:0.16666667 16:0.055555556 #
-312.6575438377611249052279163152 1:0.30000001 2:0.2 4:0.1 5:0.25 9:0.050000001 13:0.050000001 16:0.050000001 #
66.998045108091659471938328351825 1:0.60714287 2:0.071428575 4:0.10714286 5:0.10714286 13:0.10714286 #
55.831704256743051928424392826855 1:0.41666666 2:0.16666667 3:0.041666668 4:0.041666668 5:0.20833333 13:0.083333336 16:0.041666668 #
357.32290724315549823586479760706 1:0.375 2:0.20833333 4:0.041666668 5:0.20833333 6:0.083333336 13:0.083333336 #
111.66340851348608964599407045171 1:0.78571427 2:0.053571429 4:0.071428575 5:0.017857144 13:0.071428575 #
66.998045108091659471938328351825 1:0.46666667 2:0.06666667 4:0.13333334 5:0.13333334 13:0.13333334 16:0.06666667 #
55.831704256743051928424392826855 1:0.5 2:0.16666667 4:0.11111111 5:0.16666667 13:0.055555556 #
55.831704256743051928424392826855 1:0.45833334 2:0.125 4:0.083333336 5:0.125 8:0.041666668 13:0.16666667 #
66.998045108091659471938328351825 1:0.46666667 2:0.06666667 4:0.13333334 5:0.13333334 13:0.13333334 16:0.06666667 #
55.831704256743051928424392826855 1:0.4074074 2:0.18518518 4:0.11111111 5:0.14814815 6:0.037037037 13:0.074074075 16:0.037037037 #
-301.49120298641253157256869599223 1:0.42424244 2:0.12121212 3:0.060606062 4:0.090909094 5:0.15151516 6:0.030303031 9:0.060606062 13:0.060606062 #
44.665363405394444384910457301885 1:0.3888889 2:0.16666667 4:0.11111111 5:0.22222222 13:0.11111111 #
55.831704256743051928424392826855 1:0.5 2:0.11111111 3:0.055555556 4:0.055555556 5:0.16666667 13:0.11111111 #
55.831704256743051928424392826855 1:0.45833334 2:0.16666667 4:0.083333336 5:0.20833333 6:0.041666668 13:0.041666668 #
-267.99218043236675157459103502333 1:0.625 2:0.125 3:0.041666668 4:0.041666668 5:0.083333336 13:0.083333336 #
-145.16243106753194069824530743062 1:0.80000001 2:0.050000001 3:0.0099999998 4:0.050000001 5:0.039999999 9:0.0099999998 13:0.039999999 #
-267.99218043236675157459103502333 1:0.625 4:0.1875 13:0.1875 #
55.831704256743051928424392826855 1:0.48148149 2:0.14814815 3:0.037037037 4:0.11111111 5:0.074074075 9:0.037037037 13:0.11111111 #
66.998045108091659471938328351825 1:0.54166669 2:0.083333336 4:0.083333336 5:0.125 6:0.041666668 13:0.083333336 16:0.041666668 #
357.32290724315549823586479760706 1:0.38095239 2:0.19047619 4:0.095238097 5:0.19047619 13:0.14285715 #
44.665363405394444384910457301885 1:0.3888889 2:0.16666667 4:0.11111111 5:0.33333334 #
357.32290724315549823586479760706 1:0.375 2:0.20833333 4:0.041666668 5:0.20833333 6:0.083333336 13:0.083333336 #
-379.655588945852684901183238253 1:0.58333331 2:0.083333336 4:0.083333336 5:0.125 6:0.041666668 13:0.041666668 16:0.041666668 #
-312.6575438377611249052279163152 1:0.2857143 2:0.071428575 3:0.071428575 4:0.21428572 5:0.071428575 10:0.071428575 13:0.14285715 16:0.071428575 #
11.166340851348614648941293125972 1:0.2857143 2:0.19047619 3:0.047619049 4:0.14285715 5:0.14285715 6:0.047619049 13:0.14285715 #
-279.1585212837153449072502553463 1:0.5 2:0.125 4:0.125 5:0.125 13:0.125 #
-279.1585212837153449072502553463 1:0.5 2:0.13333334 3:0.06666667 4:0.033333335 5:0.1 9:0.1 13:0.06666667 #
-22.332681702697225745168907451443 1:0.16666667 2:0.27777779 3:0.055555556 5:0.16666667 6:0.11111111 7:0.055555556 9:0.11111111 10:0.055555556 #
-256.82583958101815824193181470037 1:0.63636363 2:0.13636364 4:0.06818182 5:0.11363637 13:0.045454547 #
55.831704256743051928424392826855 1:0.5 2:0.17857143 4:0.10714286 5:0.14285715 13:0.071428575 #
66.998045108091659471938328351825 1:0.58333331 2:0.125 4:0.125 5:0.083333336 13:0.083333336 #
357.32290724315549823586479760706 1:0.42857143 2:0.2857143 4:0.047619049 5:0.14285715 13:0.095238097 #
55.831704256743051928424392826855 1:0.44444445 2:0.16666667 4:0.055555556 5:0.16666667 13:0.16666667 #
-100.49706766213748210248013492674 1:0.625 2:0.041666668 4:0.083333336 5:0.083333336 9:0.041666668 13:0.125 #
167.49511277022918420698260888457 1:0.25 2:0.16666667 4:0.083333336 5:0.16666667 6:0.16666667 15:0.083333336 16:0.083333336 #
-89.330726810788874558966199401766 1:0.6964286 2:0.017857144 3:0.035714287 4:0.10714286 5:0.017857144 9:0.035714287 13:0.089285716 #
-100.49706766213748210248013492674 1:0.25 2:0.050000001 4:0.15000001 5:0.1 7:0.1 8:0.050000001 9:0.050000001 10:0.050000001 13:0.2 #
-100.49706766213748210248013492674 1:0.2857143 2:0.071428575 3:0.071428575 4:0.14285715 5:0.14285715 9:0.071428575 13:0.21428572 #
-111.66340851348608964599407045171 1:0.27777779 2:0.11111111 3:0.11111111 5:0.27777779 6:0.055555556 9:0.055555556 13:0.11111111 #
167.49511277022918420698260888457 1:0.25 2:0.16666667 4:0.083333336 5:0.16666667 6:0.16666667 15:0.083333336 16:0.083333336 #
29.166163879592488683556439355016 1:0.4642857 2:0.071428575 3:0.035714287 5:0.17857143 6:0.035714287 9:0.035714287 13:0.071428575 16:0.10714286 #
-100.49706766213748210248013492674 1:0.69444442 2:0.027777778 3:0.055555556 4:0.055555556 5:0.027777778 9:0.055555556 13:0.083333336 #
-133.99609021618331894387665670365 1:0.11111111 2:0.22222222 3:0.055555556 4:0.055555556 5:0.16666667 6:0.11111111 9:0.055555556 12:0.055555556 13:0.11111111 16:0.055555556 #
-133.99609021618331894387665670365 1:0.2 2:0.15000001 4:0.25 5:0.1 7:0.050000001 9:0.050000001 13:0.15000001 14:0.050000001 #
-133.99609021618331894387665670365 1:0.1875 2:0.0625 3:0.0625 4:0.125 5:0.125 6:0.0625 7:0.0625 9:0.125 13:0.125 14:0.0625 #
-234.49315787832091473319451324642 1:0.5 2:0.125 3:0.0625 4:0.03125 5:0.125 8:0.03125 9:0.0625 13:0.0625 #
216.49333485007701938229729421437 1:0.2857143 2:0.095238097 4:0.095238097 5:0.19047619 6:0.095238097 7:0.047619049 9:0.047619049 13:0.095238097 14:0.047619049 #
-345.48938947736826321488479152322 1:0.2857143 2:0.071428575 3:0.071428575 4:0.14285715 5:0.071428575 6:0.071428575 10:0.071428575 13:0.14285715 16:0.071428575 #
167.49511277022918420698260888457 1:0.25 2:0.15000001 3:0.1 4:0.1 5:0.2 6:0.050000001 10:0.050000001 13:0.1 #
-100.49706766213748210248013492674 1:0.25 2:0.050000001 4:0.15000001 5:0.1 7:0.1 8:0.050000001 9:0.050000001 10:0.050000001 13:0.2 #
-3.5527136788005009293556213378906e-15 1:0.52777779 2:0.055555556 3:0.055555556 4:0.11111111 5:0.11111111 6:0.027777778 9:0.027777778 13:0.083333336 #
-44.665363405394444384910457301885 1:0.55555558 2:0.11111111 3:0.055555556 4:0.055555556 5:0.055555556 9:0.055555556 13:0.055555556 14:0.055555556 #
-33.499022554045836841396521776915 1:0.85714287 2:0.035714287 3:0.011904762 4:0.023809524 5:0.047619049 9:0.011904762 13:0.011904762 #
256.82583958101815824193181470037 1:0.37037036 2:0.14814815 3:0.037037037 4:0.11111111 5:0.074074075 6:0.037037037 8:0.037037037 9:0.037037037 13:0.14814815 #
-223.32681702697229297882586251944 1:0.59375 2:0.09375 3:0.0625 4:0.0625 5:0.0625 9:0.03125 13:0.0625 14:0.03125 #
-100.49706766213748210248013492674 1:0.375 2:0.20833333 3:0.041666668 4:0.041666668 5:0.20833333 13:0.125 #
-100.49706766213748210248013492674 1:0.2857143 2:0.071428575 3:0.071428575 4:0.14285715 5:0.14285715 9:0.071428575 13:0.21428572 #
267.99218043236675157459103502333 1:0.45454547 2:0.12121212 3:0.030303031 4:0.090909094 5:0.12121212 9:0.060606062 13:0.12121212 #
-133.99609021618331894387665670365 1:0.25 2:0.33333334 4:0.16666667 5:0.083333336 13:0.16666667 #
267.99218043236675157459103502333 1:0.46666667 2:0.06666667 4:0.06666667 5:0.2 13:0.13333334 16:0.06666667 #
-346.1565663918069049032055772841 1:0.16666667 2:0.083333336 3:0.083333336 4:0.25 5:0.083333336 6:0.083333336 11:0.083333336 13:0.16666667 #
290.32486213506393823990947566926 1:0.64814812 2:0.074074075 3:0.018518519 4:0.055555556 5:0.11111111 9:0.037037037 13:0.037037037 14:0.018518519 #
44.665363405394444384910457301885 1:0.58333331 2:0.041666668 3:0.041666668 4:0.125 5:0.083333336 9:0.041666668 13:0.083333336 #
267.99218043236675157459103502333 1:0.42424244 2:0.12121212 3:0.060606062 4:0.12121212 5:0.090909094 9:0.060606062 13:0.12121212 #
167.49511277022918420698260888457 1:0.27777779 2:0.11111111 4:0.11111111 5:0.16666667 6:0.055555556 8:0.055555556 13:0.11111111 14:0.055555556 15:0.055555556 #
155.66159500444192076429317239672 2:0.22222222 4:0.11111111 5:0.11111111 6:0.11111111 7:0.11111111 9:0.11111111 13:0.22222222 #
212.16047617562367122445721179247 3:0.14285715 5:0.2857143 6:0.14285715 11:0.14285715 13:0.2857143 #
156.3287719188805624526139581576 1:0.2 2:0.1 3:0.1 4:0.1 5:0.30000001 13:0.2 #
-212.16047617562367122445721179247 1:0.51851851 2:0.14814815 5:0.25925925 9:0.037037037 11:0.037037037 #
379.655588945852684901183238253 1:0.25 2:0.0625 4:0.125 5:0.1875 6:0.0625 8:0.0625 13:0.1875 14:0.0625 #
-122.82974936483469718950800597668 1:0.27777779 2:0.16666667 4:0.055555556 5:0.16666667 6:0.11111111 12:0.055555556 13:0.055555556 15:0.055555556 16:0.055555556 #
234.49315787832091473319451324642 1:0.3125 2:0.125 4:0.0625 5:0.25 12:0.0625 13:0.125 16:0.0625 #
-346.1565663918069049032055772841 1:0.11111111 2:0.22222222 3:0.055555556 4:0.055555556 5:0.16666667 6:0.11111111 9:0.055555556 12:0.055555556 13:0.11111111 16:0.055555556 #
-100.49706766213748210248013492674 1:0.33333334 2:0.14285715 4:0.095238097 5:0.14285715 6:0.047619049 8:0.047619049 13:0.095238097 14:0.047619049 16:0.047619049 #
-174.3370003367377023550943704322 1:0.5714286 2:0.035714287 3:0.035714287 4:0.035714287 5:0.10714286 9:0.10714286 13:0.071428575 16:0.035714287 #
-267.99218043236675157459103502333 1:0.69047618 2:0.047619049 3:0.023809524 4:0.047619049 5:0.095238097 12:0.023809524 13:0.047619049 16:0.023809524 #
-290.32486213506393823990947566926 1:0.6111111 2:0.037037037 3:0.037037037 4:0.11111111 5:0.018518519 9:0.055555556 13:0.11111111 16:0.018518519 #
100.49706766213748210248013492674 1:0.54166669 2:0.125 3:0.041666668 4:0.083333336 5:0.083333336 9:0.041666668 13:0.083333336 #
89.330726810788874558966199401766 1:0.42857143 2:0.14285715 3:0.071428575 4:0.14285715 5:0.071428575 13:0.14285715 #
-3.5527136788005009293556213378906e-15 1:0.30000001 2:0.15000001 4:0.1 5:0.25 9:0.050000001 10:0.050000001 15:0.050000001 16:0.050000001 #
100.49706766213748210248013492674 1:0.5 2:0.16666667 3:0.1 4:0.033333335 5:0.1 9:0.1 #
-256.82583958101815824193181470037 1:0.2857143 2:0.21428572 3:0.071428575 4:0.071428575 5:0.2857143 13:0.071428575 #
312.6575438377611249052279163152 1:0.46666667 2:0.13333334 3:0.033333335 4:0.06666667 5:0.1 9:0.1 13:0.06666667 16:0.033333335 #
-55.831704256743051928424392826855 1:0.42857143 2:0.071428575 3:0.071428575 5:0.14285715 9:0.21428572 13:0.071428575 #
-55.831704256743051928424392826855 1:0.45833334 2:0.041666668 3:0.16666667 4:0.041666668 5:0.125 9:0.041666668 12:0.041666668 13:0.041666668 16:0.041666668 #
33.499022554045836841396521776915 1:0.40000001 2:0.2 3:0.050000001 4:0.050000001 5:0.2 13:0.1 #
-82.020418973128244033432565629482 1:0.4074074 2:0.14814815 3:0.074074075 4:0.11111111 5:0.074074075 9:0.11111111 13:0.037037037 14:0.037037037 #
111.66340851348608964599407045171 1:0.34999999 2:0.15000001 3:0.15000001 4:0.1 5:0.1 9:0.050000001 13:0.1 #
-33.499022554045836841396521776915 1:0.57692307 2:0.057692308 3:0.03846154 4:0.096153848 5:0.11538462 9:0.01923077 13:0.096153848 #
-33.499022554045836841396521776915 1:0.56666666 2:0.1 3:0.033333335 4:0.033333335 5:0.13333334 8:0.033333335 9:0.033333335 13:0.06666667 #
234.49315787832091473319451324642 1:0.55000001 2:0.075000003 3:0.050000001 4:0.075000003 5:0.15000001 9:0.025 13:0.075000003 #
-167.49511277022918420698260888457 1:0.2857143 2:0.21428572 3:0.071428575 4:0.071428575 5:0.2857143 13:0.071428575 #
-223.32681702697229297882586251944 1:0.5 2:0.1388889 4:0.083333336 5:0.1388889 9:0.027777778 13:0.11111111 #
301.49120298641253157256869599223 1:0.375 2:0.125 4:0.125 5:0.125 9:0.125 13:0.125 #
234.49315787832091473319451324642 1:0.47222221 2:0.11111111 3:0.027777778 4:0.083333336 5:0.16666667 9:0.027777778 13:0.083333336 14:0.027777778 #
-167.96353304138131079525919631124 1:0.5714286 2:0.035714287 3:0.035714287 4:0.035714287 5:0.10714286 9:0.10714286 13:0.071428575 16:0.035714287 #
-178.66145362157780596135125961155 1:0.66666669 2:0.071428575 3:0.047619049 4:0.071428575 5:0.071428575 9:0.023809524 13:0.047619049 #
-122.82974936483469718950800597668 1:0.27777779 2:0.11111111 3:0.055555556 4:0.055555556 5:0.22222222 9:0.16666667 13:0.055555556 14:0.055555556 #
256.82583958101815824193181470037 1:0.7962963 2:0.0092592593 3:0.027777778 4:0.064814813 5:0.0092592593 9:0.027777778 13:0.064814813 #
234.49315787832091473319451324642 1:0.5 2:0.13333334 3:0.033333335 4:0.06666667 5:0.1 9:0.1 13:0.06666667 #
-200.9941353242750494700885610655 1:0.57692307 2:0.057692308 3:0.03846154 4:0.096153848 5:0.11538462 9:0.01923077 13:0.096153848 #
-178.66145362157780596135125961155 1:0.625 2:0.125 4:0.0625 5:0.09375 9:0.03125 13:0.0625 #
111.66340851348610385684878565371 1:0.60000002 3:0.079999998 4:0.039999999 5:0.079999998 9:0.039999999 13:0.079999998 16:0.079999998 #
111.66340851348610385684878565371 1:0.66666669 2:0.027777778 3:0.055555556 4:0.055555556 5:0.027777778 9:0.055555556 13:0.083333336 16:0.027777778 #
-223.32681702697229297882586251944 1:0.60000002 2:0.15000001 3:0.025 4:0.025 5:0.15000001 9:0.025 13:0.025 #
-223.32681702697229297882586251944 1:0.55555558 2:0.1388889 4:0.083333336 5:0.083333336 7:0.027777778 9:0.055555556 13:0.055555556 #
346.1565663918069049032055772841 1:0.625 2:0.083333336 3:0.041666668 4:0.083333336 5:0.041666668 9:0.041666668 13:0.083333336 #
357.32290724315549823586479760706 1:0.52380955 2:0.14285715 4:0.047619049 5:0.19047619 13:0.095238097 #
-279.1585212837153449072502553463 1:0.64814812 2:0.055555556 3:0.09259259 4:0.018518519 5:0.055555556 9:0.09259259 10:0.018518519 13:0.018518519 #
-290.32486213506393823990947566926 1:0.4642857 2:0.071428575 4:0.14285715 5:0.14285715 6:0.035714287 13:0.10714286 16:0.035714287 #
201.38351989631468086372478865087 1:0.42857143 2:0.19047619 3:0.047619049 5:0.14285715 6:0.047619049 7:0.047619049 10:0.047619049 13:0.047619049 #
-66.998045108091659471938328351825 1:0.45833334 2:0.125 3:0.083333336 5:0.041666668 6:0.083333336 9:0.083333336 10:0.041666668 13:0.083333336 #
-66.998045108091659471938328351825 1:0.375 2:0.16666667 4:0.125 5:0.20833333 9:0.083333336 13:0.041666668 #
-66.998045108091659471938328351825 1:0.5 2:0.16666667 5:0.1 9:0.1 12:0.033333335 13:0.1 #
-66.998045108091659471938328351825 1:0.55769229 2:0.07692308 3:0.057692308 4:0.07692308 5:0.07692308 9:0.057692308 13:0.096153848 #
223.32681702697229297882586251944 1:0.4642857 3:0.10714286 5:0.10714286 6:0.035714287 9:0.14285715 13:0.035714287 16:0.10714286 #
223.32681702697229297882586251944 1:0.43333334 2:0.1 3:0.06666667 4:0.06666667 5:0.13333334 9:0.1 10:0.033333335 13:0.06666667 #
-100.49706766213748210248013492674 1:0.25 2:0.25 3:0.0625 4:0.0625 5:0.1875 9:0.0625 13:0.125 #
223.32681702697229297882586251944 1:0.41666666 2:0.125 3:0.083333336 5:0.20833333 6:0.041666668 9:0.083333336 13:0.041666668 #
-100.49706766213748210248013492674 1:0.27777779 2:0.11111111 3:0.22222222 4:0.055555556 5:0.16666667 9:0.11111111 13:0.055555556 #
223.32681702697229297882586251944 1:0.3888889 2:0.11111111 3:0.11111111 4:0.055555556 5:0.055555556 9:0.16666667 10:0.055555556 13:0.055555556 #
-111.66340851348608964599407045171 1:0.2 2:0.1 3:0.15000001 4:0.15000001 5:0.2 9:0.050000001 10:0.050000001 13:0.1 #
-323.82388468910971823788713663816 1:0.40000001 2:0.1 4:0.1 5:0.2 9:0.050000001 10:0.050000001 13:0.050000001 16:0.050000001 #
-66.998045108091659471938328351825 1:0.3125 2:0.25 4:0.0625 5:0.125 6:0.0625 9:0.125 13:0.0625 #
334.99022554045831157054635696113 1:0.66666669 2:0.044444446 3:0.11111111 5:0.06666667 9:0.06666667 10:0.022222223 13:0.022222223 #
-100.49706766213748210248013492674 1:0.27777779 2:0.11111111 3:0.22222222 4:0.055555556 5:0.16666667 9:0.11111111 13:0.055555556 #
334.99022554045831157054635696113 1:0.6857143 2:0.057142857 3:0.071428575 4:0.028571429 5:0.042857144 7:0.014285714 9:0.057142857 13:0.042857144 #
234.49315787832091473319451324642 1:0.66666669 2:0.06666667 4:0.06666667 5:0.06666667 9:0.06666667 13:0.06666667 #
-66.998045108091659471938328351825 1:0.42857143 2:0.047619049 3:0.047619049 4:0.14285715 5:0.095238097 9:0.095238097 13:0.095238097 16:0.047619049 #
-66.998045108091659471938328351825 1:0.66666669 2:0.047619049 3:0.095238097 4:0.047619049 5:0.095238097 13:0.047619049 #
-66.998045108091659471938328351825 1:0.33333334 2:0.16666667 3:0.041666668 4:0.083333336 5:0.16666667 9:0.041666668 13:0.041666668 16:0.125 #
-66.998045108091659471938328351825 1:0.55000001 2:0.075000003 3:0.075000003 4:0.050000001 5:0.075000003 6:0.025 7:0.025 9:0.075000003 13:0.025 16:0.025 #
-56.22108882878268332206062041223 1:0.4642857 3:0.10714286 5:0.10714286 6:0.035714287 9:0.14285715 13:0.035714287 16:0.10714286 #
-66.998045108091659471938328351825 1:0.5151515 2:0.060606062 3:0.060606062 4:0.090909094 5:0.090909094 9:0.060606062 13:0.060606062 16:0.060606062 #
323.82388468910971823788713663816 1:0.375 2:0.16666667 3:0.083333336 5:0.20833333 8:0.041666668 9:0.083333336 13:0.041666668 #
-66.998045108091659471938328351825 1:0.51851851 2:0.037037037 3:0.074074075 4:0.11111111 5:0.037037037 9:0.11111111 13:0.074074075 16:0.037037037 #
-66.998045108091659471938328351825 1:0.42857143 2:0.047619049 3:0.047619049 4:0.14285715 5:0.095238097 9:0.095238097 13:0.095238097 16:0.047619049 #
-66.998045108091659471938328351825 1:0.375 2:0.125 3:0.16666667 4:0.041666668 5:0.083333336 9:0.083333336 13:0.083333336 16:0.041666668 #
334.99022554045831157054635696113 1:0.38095239 2:0.14285715 4:0.047619049 5:0.19047619 6:0.047619049 9:0.095238097 13:0.095238097 #
-66.998045108091659471938328351825 1:0.60000002 2:0.079999998 3:0.039999999 4:0.039999999 5:0.12 9:0.039999999 13:0.079999998 #
-290.32486213506393823990947566926 1:0.66666669 2:0.047619049 3:0.095238097 4:0.047619049 5:0.095238097 13:0.047619049 #
-66.998045108091659471938328351825 1:0.46666667 2:0.13333334 3:0.033333335 4:0.06666667 5:0.06666667 7:0.033333335 9:0.13333334 13:0.06666667 #
-323.82388468910971823788713663816 1:0.53333336 2:0.1 4:0.06666667 5:0.16666667 8:0.033333335 13:0.1 #
446.6536340539442448971385601908 1:0.55555558 2:0.088888891 3:0.044444446 4:0.044444446 5:0.088888891 8:0.022222223 9:0.044444446 13:0.06666667 14:0.022222223 16:0.022222223 #
-167.49511277022918420698260888457 1:0.5 2:0.33333334 5:0.16666667 #
-156.3287719188805624526139581576 1:0.44444445 2:0.074074075 3:0.074074075 4:0.074074075 5:0.14814815 9:0.11111111 13:0.074074075 #
-379.655588945852684901183238253 1:0.64999998 2:0.1 4:0.1 5:0.050000001 13:0.1 #
178.66145362157780596135125961155 1:0.39393941 2:0.060606062 3:0.060606062 4:0.060606062 5:0.12121212 9:0.15151516 10:0.030303031 13:0.12121212 #
-357.32290724315549823586479760706 1:0.25 2:0.125 4:0.125 5:0.125 9:0.125 13:0.25 #
200.9941353242750494700885610655 1:0.53333336 2:0.088888891 3:0.044444446 4:0.044444446 5:0.088888891 8:0.044444446 9:0.06666667 13:0.044444446 14:0.044444446 #
212.16047617562367122445721179247 1:0.58333331 4:0.125 5:0.125 13:0.16666667 #
-145.16243106753194069824530743062 1:0.45833334 2:0.125 4:0.083333336 5:0.16666667 9:0.083333336 13:0.083333336 #
-167.49511277022918420698260888457 1:0.3888889 2:0.11111111 3:0.055555556 4:0.11111111 5:0.11111111 9:0.055555556 13:0.16666667 #
-167.49511277022918420698260888457 1:0.43333334 2:0.1 4:0.13333334 5:0.16666667 9:0.033333335 13:0.06666667 14:0.033333335 16:0.033333335 #
-323.82388468910971823788713663816 1:0.60714287 2:0.071428575 3:0.10714286 4:0.035714287 5:0.071428575 9:0.071428575 13:0.035714287 #
66.998045108091659471938328351825 1:0.25 2:0.33333334 4:0.083333336 5:0.25 13:0.083333336 #
-11.166340851348611096227614325471 1:0.83116883 2:0.019480519 3:0.025974026 4:0.038961038 5:0.025974026 9:0.019480519 13:0.038961038 #
-368.48924809450409156852401793003 2:0.40000001 4:0.2 9:0.2 13:0.2 #
-111.66340851348608964599407045171 1:0.5 2:0.125 4:0.0625 5:0.15625 13:0.09375 16:0.0625 #
212.16047617562367122445721179247 1:0.52499998 2:0.1 4:0.1 5:0.15000001 9:0.025 13:0.1 #
-357.32290724315549823586479760706 1:0.44444445 2:0.14814815 3:0.11111111 4:0.037037037 5:0.11111111 6:0.037037037 9:0.11111111 #
212.16047617562367122445721179247 1:0.55769229 2:0.07692308 3:0.057692308 4:0.057692308 5:0.11538462 9:0.057692308 10:0.01923077 13:0.057692308 #
145.16243106753194069824530743062 1:0.30000001 2:0.1 3:0.15000001 4:0.1 5:0.1 9:0.1 13:0.15000001 #
212.16047617562367122445721179247 1:0.54166669 2:0.041666668 3:0.041666668 4:0.125 5:0.041666668 9:0.041666668 13:0.16666667 #
-100.49706766213748210248013492674 1:0.60000002 3:0.050000001 4:0.1 5:0.1 9:0.050000001 13:0.1 #
-156.3287719188805624526139581576 1:0.80808079 2:0.02020202 3:0.02020202 4:0.05050505 5:0.04040404 9:0.02020202 13:0.04040404 #
178.66145362157780596135125961155 1:0.46666667 2:0.06666667 3:0.06666667 5:0.06666667 6:0.06666667 8:0.06666667 9:0.06666667 13:0.06666667 14:0.06666667 #
212.16047617562367122445721179247 1:0.5714286 2:0.095238097 3:0.047619049 4:0.047619049 5:0.095238097 9:0.047619049 13:0.095238097 #
167.49511277022918420698260888457 1:0.37037036 2:0.074074075 3:0.074074075 4:0.074074075 5:0.22222222 9:0.037037037 10:0.037037037 13:0.037037037 14:0.037037037 16:0.037037037 #
-100.49706766213748210248013492674 1:0.55555558 2:0.11111111 3:0.037037037 5:0.14814815 9:0.037037037 13:0.037037037 16:0.074074075 #
-145.16243106753194069824530743062 1:0.45833334 2:0.125 4:0.083333336 5:0.16666667 9:0.083333336 13:0.083333336 #
100.49706766213748210248013492674 1:0.25 2:0.15000001 3:0.050000001 4:0.1 5:0.25 9:0.050000001 10:0.050000001 13:0.1 #
178.66145362157780596135125961155 1:0.4074074 2:0.11111111 4:0.14814815 5:0.11111111 8:0.037037037 13:0.18518518 #
212.16047617562367122445721179247 1:0.78512394 2:0.024793388 3:0.041322313 4:0.049586777 5:0.016528925 9:0.03305785 13:0.049586777 #
178.66145362157780596135125961155 1:0.37037036 2:0.037037037 3:0.037037037 4:0.14814815 5:0.18518518 9:0.037037037 10:0.037037037 13:0.14814815 #
178.66145362157780596135125961155 1:0.4074074 2:0.11111111 4:0.14814815 5:0.11111111 8:0.037037037 13:0.18518518 #
-111.66340851348610385684878565371 1:0.5625 2:0.0625 3:0.020833334 4:0.083333336 5:0.125 6:0.020833334 9:0.041666668 13:0.0625 14:0.020833334 #
178.66145362157780596135125961155 1:0.30000001 2:0.2 3:0.050000001 4:0.1 5:0.050000001 8:0.050000001 9:0.15000001 13:0.1 #
212.16047617562367122445721179247 1:0.58333331 4:0.125 5:0.125 13:0.16666667 #
-178.66145362157780596135125961155 1:0.79797977 2:0.02020202 3:0.02020202 4:0.05050505 5:0.04040404 9:0.02020202 13:0.05050505 #
-167.49511277022918420698260888457 1:0.3888889 2:0.1388889 3:0.027777778 4:0.1388889 5:0.1388889 9:0.027777778 13:0.11111111 14:0.027777778 #
212.16047617562367122445721179247 1:0.52777779 2:0.11111111 3:0.027777778 5:0.16666667 9:0.027777778 10:0.027777778 16:0.11111111 #
100.49706766213748210248013492674 1:0.22222222 2:0.055555556 3:0.16666667 4:0.055555556 5:0.22222222 7:0.055555556 9:0.16666667 13:0.055555556 #
-156.3287719188805624526139581576 1:0.34999999 2:0.15000001 4:0.050000001 5:0.15000001 7:0.050000001 8:0.050000001 9:0.1 10:0.050000001 13:0.050000001 #
100.49706766213748210248013492674 1:0.47499999 2:0.1 3:0.050000001 4:0.075000003 5:0.125 9:0.050000001 10:0.025 13:0.050000001 15:0.025 16:0.025 #
267.99218043236675157459103502333 1:0.29166666 2:0.041666668 3:0.083333336 4:0.083333336 5:0.041666668 6:0.083333336 9:0.16666667 10:0.041666668 12:0.041666668 13:0.083333336 15:0.041666668 #
-156.3287719188805624526139581576 1:0.52380955 2:0.023809524 3:0.095238097 4:0.047619049 5:0.071428575 8:0.023809524 9:0.047619049 10:0.023809524 12:0.023809524 13:0.095238097 14:0.023809524 #
-11.166340851348614648941293125972 2:0.2857143 3:0.2857143 4:0.14285715 5:0.14285715 9:0.14285715 #
133.99609021618331894387665670365 1:0.63636363 2:0.036363635 3:0.090909094 4:0.036363635 5:0.054545455 9:0.090909094 13:0.054545455 #
-312.6575438377611249052279163152 1:0.33333334 2:0.095238097 3:0.047619049 4:0.095238097 5:0.19047619 6:0.047619049 11:0.047619049 13:0.095238097 14:0.047619049 #
312.6575438377611249052279163152 1:0.47727272 2:0.045454547 3:0.090909094 4:0.090909094 5:0.045454547 9:0.15909091 13:0.090909094 #
-312.6575438377611249052279163152 1:0.35714287 2:0.071428575 3:0.071428575 4:0.10714286 5:0.10714286 6:0.071428575 8:0.035714287 10:0.035714287 13:0.10714286 15:0.035714287 #
-178.66145362157780596135125961155 1:0.22222222 2:0.11111111 3:0.055555556 4:0.11111111 5:0.055555556 7:0.055555556 9:0.11111111 10:0.055555556 12:0.055555556 13:0.11111111 15:0.055555556 #
-156.3287719188805624526139581576 1:0.29166666 2:0.125 3:0.083333336 4:0.125 5:0.16666667 9:0.083333336 13:0.125 #
267.99218043236675157459103502333 1:0.20833333 2:0.20833333 3:0.083333336 4:0.125 5:0.083333336 9:0.20833333 13:0.083333336 #
-145.16243106753194069824530743062 1:0.56 2:0.12 3:0.02 4:0.059999999 5:0.12 6:0.02 9:0.039999999 13:0.059999999 #
-89.330726810788874558966199401766 1:0.5 3:0.071428575 4:0.071428575 5:0.071428575 9:0.14285715 11:0.035714287 13:0.10714286 #
312.6575438377611249052279163152 1:0.65714288 2:0.057142857 3:0.028571429 4:0.057142857 5:0.057142857 9:0.028571429 11:0.028571429 13:0.057142857 16:0.028571429 #
66.998045108091659471938328351825 1:0.25 2:0.0625 3:0.1875 4:0.125 5:0.125 9:0.0625 10:0.0625 13:0.125 #
111.66340851348608964599407045171 1:0.53125 2:0.09375 3:0.09375 4:0.0625 5:0.03125 6:0.03125 9:0.0625 10:0.03125 13:0.0625 #
78.164385959440267015452263876796 1:0.26666668 2:0.06666667 3:0.16666667 4:0.06666667 5:0.1 6:0.06666667 9:0.16666667 13:0.033333335 15:0.033333335 16:0.033333335 #
301.49120298641253157256869599223 1:0.3125 2:0.125 3:0.125 4:0.0625 9:0.1875 12:0.0625 13:0.0625 16:0.0625 #
-156.3287719188805624526139581576 1:0.23809524 2:0.14285715 4:0.14285715 5:0.19047619 7:0.047619049 9:0.047619049 11:0.047619049 13:0.14285715 #
-178.66145362157780596135125961155 2:0.40000001 4:0.2 9:0.2 13:0.2 #
78.164385959440267015452263876796 1:0.4074074 2:0.18518518 3:0.037037037 4:0.037037037 5:0.11111111 9:0.074074075 12:0.037037037 13:0.074074075 15:0.037037037 #
100.49706766213749631333485012874 1:0.38095239 2:0.047619049 3:0.14285715 4:0.047619049 5:0.19047619 9:0.14285715 13:0.047619049 #
-200.9941353242750494700885610655 2:0.071428575 3:0.14285715 4:0.071428575 5:0.21428572 8:0.14285715 9:0.071428575 13:0.14285715 14:0.14285715 #
111.66340851348608964599407045171 1:0.52777779 2:0.055555556 3:0.083333336 4:0.083333336 5:0.055555556 8:0.055555556 9:0.027777778 13:0.083333336 14:0.027777778 #
100.49706766213748210248013492674 1:0.41666666 2:0.083333336 3:0.083333336 4:0.083333336 5:0.11111111 7:0.027777778 9:0.11111111 13:0.083333336 #
78.164385959440267015452263876796 1:0.46666667 2:0.1 3:0.06666667 4:0.033333335 5:0.1 9:0.033333335 10:0.033333335 12:0.06666667 13:0.06666667 15:0.033333335 #
-44.665363405394444384910457301885 1:0.77777779 2:0.044444446 3:0.022222223 4:0.044444446 5:0.044444446 9:0.022222223 13:0.044444446 #
-11.166340851348611096227614325471 1:0.15000001 2:0.1 3:0.15000001 4:0.1 5:0.25 9:0.15000001 14:0.050000001 15:0.050000001 #
111.66340851348608964599407045171 1:0.53125 2:0.09375 3:0.09375 4:0.0625 5:0.03125 6:0.03125 9:0.0625 10:0.03125 13:0.0625 #
-89.330726810788874558966199401766 1:0.5714286 2:0.14285715 4:0.071428575 8:0.035714287 9:0.10714286 13:0.071428575 #
-178.66145362157780596135125961155 1:0.14285715 3:0.071428575 4:0.071428575 5:0.21428572 7:0.071428575 8:0.071428575 9:0.071428575 13:0.14285715 14:0.14285715 #
-156.3287719188805624526139581576 1:0.41666666 2:0.083333336 3:0.083333336 4:0.083333336 5:0.11111111 7:0.027777778 9:0.11111111 13:0.083333336 #
33.499022554045836841396521776915 1:0.52777779 2:0.16666667 4:0.055555556 5:0.16666667 13:0.055555556 16:0.027777778 #
55.831704256743051928424392826855 1:0.25 2:0.16666667 3:0.083333336 5:0.083333336 6:0.083333336 8:0.083333336 9:0.083333336 13:0.083333336 14:0.083333336 #
122.82974936483469718950800597668 1:0.16666667 2:0.25 4:0.083333336 5:0.16666667 9:0.083333336 13:0.083333336 14:0.083333336 16:0.083333336 #
-66.998045108091659471938328351825 1:0.3125 2:0.125 3:0.0625 4:0.0625 5:0.3125 13:0.125 #
-111.66340851348610385684878565371 1:0.22222222 2:0.16666667 3:0.11111111 4:0.055555556 5:0.27777779 9:0.055555556 13:0.11111111 #
-223.32681702697229297882586251944 1:0.5 2:0.041666668 4:0.125 5:0.125 6:0.041666668 13:0.16666667 #
178.66145362157780596135125961155 1:0.125 2:0.1875 3:0.0625 4:0.125 5:0.25 9:0.0625 13:0.125 16:0.0625 #
323.82388468910971823788713663816 1:0.47619048 2:0.14285715 4:0.095238097 5:0.19047619 13:0.095238097 #
-223.32681702697229297882586251944 1:0.33333334 2:0.16666667 4:0.125 5:0.125 6:0.041666668 8:0.041666668 9:0.041666668 13:0.125 #
22.332681702697222192455228650942 1:0.1875 2:0.25 4:0.125 5:0.3125 13:0.125 #
-223.32681702697229297882586251944 1:0.2 2:0.25 4:0.1 5:0.2 9:0.050000001 13:0.15000001 16:0.050000001 #
22.332681702697218639741549850442 1:0.22222222 2:0.16666667 3:0.11111111 4:0.055555556 5:0.27777779 9:0.055555556 13:0.11111111 #
44.665363405394444384910457301885 1:0.57999998 2:0.059999999 3:0.039999999 4:0.1 5:0.1 9:0.02 13:0.079999998 16:0.02 #
-44.665363405394444384910457301885 1:0.30000001 2:0.2 4:0.2 6:0.1 13:0.2 #
78.164385959440267015452263876796 2:0.5 4:0.16666667 5:0.16666667 13:0.16666667 #
133.99609021618331894387665670365 1:0.125 2:0.1875 3:0.0625 4:0.125 5:0.25 9:0.0625 13:0.125 16:0.0625 #
-44.665363405394444384910457301885 1:0.44444445 2:0.22222222 4:0.083333336 5:0.16666667 13:0.083333336 #
-44.747383050304676999076036736369 1:0.30000001 2:0.2 4:0.2 6:0.1 13:0.2 #
178.66145362157780596135125961155 1:0.64583331 2:0.020833334 3:0.041666668 4:0.10416666 5:0.020833334 9:0.041666668 13:0.10416666 16:0.020833334 #
312.6575438377611249052279163152 1:0.53333336 2:0.06666667 4:0.2 5:0.06666667 13:0.13333334 #
-111.58138886857584282097377581522 1:0.61666667 2:0.083333336 3:0.016666668 4:0.050000001 5:0.1 6:0.033333335 9:0.016666668 13:0.06666667 16:0.016666668 #
100.49706766213748210248013492674 1:0.2857143 2:0.2857143 3:0.071428575 5:0.21428572 9:0.071428575 13:0.071428575 #
-290.32486213506393823990947566926 1:0.5 2:0.17857143 4:0.071428575 5:0.14285715 13:0.10714286 #
-256.82583958101815824193181470037 1:0.16666667 2:0.16666667 3:0.083333336 4:0.16666667 5:0.16666667 9:0.083333336 13:0.16666667 #
-44.665363405394444384910457301885 1:0.33333334 2:0.16666667 4:0.125 5:0.125 6:0.041666668 8:0.041666668 9:0.041666668 13:0.125 #
178.66145362157780596135125961155 1:0.56410259 2:0.12820514 3:0.051282052 4:0.051282052 5:0.1025641 9:0.07692308 13:0.025641026 #
66.998045108091659471938328351825 1:0.77777779 2:0.055555556 3:0.027777778 4:0.027777778 5:0.055555556 9:0.027777778 13:0.027777778 #
-223.32681702697229297882586251944 1:0.44444445 2:0.16666667 3:0.11111111 4:0.083333336 5:0.083333336 9:0.083333336 13:0.027777778 #
234.49315787832091473319451324642 1:0.16666667 2:0.16666667 3:0.055555556 4:0.11111111 5:0.27777779 9:0.055555556 13:0.11111111 16:0.055555556 #
178.66145362157780596135125961155 1:0.53846157 2:0.07692308 3:0.03846154 4:0.057692308 5:0.11538462 9:0.07692308 13:0.03846154 14:0.01923077 16:0.03846154 #
-223.32681702697229297882586251944 1:0.58461541 2:0.12307692 3:0.030769231 4:0.046153847 5:0.13846155 9:0.015384615 10:0.015384615 13:0.046153847 #
-111.66340851348608964599407045171 1:0.60416669 2:0.14583333 3:0.020833334 4:0.0625 5:0.10416666 9:0.020833334 13:0.041666668 #
200.9941353242750494700885610655 1:0.44444445 2:0.27777779 4:0.055555556 5:0.11111111 9:0.055555556 13:0.055555556 #
-223.32681702697229297882586251944 1:0.41666666 2:0.083333336 4:0.16666667 5:0.16666667 13:0.16666667 #
-78.164385959440267015452263876796 1:0.27272728 2:0.13636364 3:0.045454547 4:0.090909094 5:0.18181819 9:0.22727273 13:0.045454547 #
-89.33072681078888876982091460377 1:0.31818181 2:0.18181819 3:0.090909094 5:0.22727273 9:0.18181819 #
334.99022554045831157054635696113 1:0.41025642 2:0.051282052 3:0.1025641 4:0.025641026 5:0.12820514 6:0.025641026 9:0.17948718 12:0.025641026 13:0.051282052 #
-66.998045108091659471938328351825 1:0.53333336 2:0.13333334 3:0.033333335 4:0.033333335 5:0.13333334 9:0.06666667 13:0.06666667 #
-301.49120298641253157256869599223 1:0.45454547 2:0.18181819 3:0.15151516 5:0.12121212 9:0.030303031 10:0.030303031 13:0.030303031 #
189.82779447292642771571991033852 1:0.55555558 2:0.11111111 3:0.027777778 4:0.083333336 5:0.083333336 9:0.055555556 13:0.083333336 #
-55.831704256743051928424392826855 1:0.66071427 2:0.071428575 3:0.017857144 4:0.053571429 5:0.089285716 9:0.017857144 13:0.053571429 16:0.035714287 #
178.66145362157780596135125961155 1:0.30000001 2:0.050000001 3:0.1 5:0.2 6:0.050000001 9:0.25 10:0.050000001 #
357.32290724315549823586479760706 1:0.27272728 2:0.090909094 3:0.090909094 4:0.045454547 5:0.13636364 6:0.045454547 9:0.18181819 12:0.045454547 13:0.045454547 16:0.045454547 #
-301.49120298641253157256869599223 1:0.46153846 2:0.15384616 3:0.12820514 4:0.025641026 5:0.051282052 6:0.025641026 9:0.07692308 12:0.025641026 13:0.051282052 #
178.66145362157780596135125961155 1:0.4074074 2:0.14814815 3:0.074074075 4:0.037037037 5:0.14814815 9:0.14814815 13:0.037037037 #
178.66145362157780596135125961155 1:0.44999999 2:0.25 5:0.2 9:0.050000001 13:0.050000001 #
-55.831704256743051928424392826855 1:0.63999999 2:0.059999999 3:0.039999999 4:0.1 5:0.039999999 9:0.039999999 13:0.079999998 #
178.66145362157780596135125961155 1:0.36666667 2:0.1 3:0.1 4:0.06666667 5:0.1 6:0.033333335 9:0.13333334 12:0.033333335 13:0.06666667 #
223.32681702697229297882586251944 1:0.79000002 2:0.039999999 3:0.0099999998 4:0.050000001 5:0.050000001 9:0.0099999998 13:0.050000001 #
-78.164385959440267015452263876796 1:0.27272728 2:0.090909094 3:0.090909094 4:0.045454547 5:0.13636364 6:0.045454547 9:0.18181819 11:0.045454547 12:0.045454547 13:0.045454547 #
189.82779447292642771571991033852 1:0.58333331 2:0.083333336 4:0.083333336 5:0.16666667 13:0.083333336 #
-301.49120298641253157256869599223 1:0.33333334 2:0.16666667 3:0.083333336 5:0.16666667 6:0.083333336 9:0.083333336 13:0.083333336 #
189.82779447292642771571991033852 1:0.56410259 2:0.07692308 3:0.1025641 4:0.025641026 5:0.12820514 9:0.07692308 13:0.025641026 #
256.82583958101815824193181470037 1:0.32142857 2:0.071428575 3:0.14285715 4:0.071428575 5:0.10714286 6:0.035714287 9:0.14285715 12:0.035714287 13:0.071428575 #
-66.998045108091659471938328351825 1:0.52499998 2:0.1 3:0.050000001 4:0.050000001 5:0.1 9:0.15000001 13:0.025 #
-66.998045108091659471938328351825 1:0.55000001 2:0.075000003 3:0.050000001 4:0.15000001 5:0.050000001 9:0.025 13:0.1 #
-66.998045108091659471938328351825 1:0.58333331 2:0.083333336 4:0.083333336 5:0.16666667 13:0.083333336 #
-290.32486213506393823990947566926 1:0.6111111 2:0.083333336 3:0.055555556 5:0.1388889 9:0.083333336 13:0.027777778 #
-78.164385959440267015452263876796 1:0.44999999 2:0.25 5:0.2 9:0.050000001 13:0.050000001 #
-301.49120298641253157256869599223 1:0.5 2:0.1388889 3:0.11111111 4:0.083333336 5:0.055555556 6:0.027777778 13:0.083333336 #
-78.164385959440267015452263876796 1:0.3888889 2:0.083333336 3:0.083333336 4:0.083333336 5:0.11111111 9:0.1388889 13:0.11111111 #
145.16243106753194069824530743062 1:0.25 2:0.083333336 3:0.16666667 4:0.083333336 5:0.16666667 9:0.083333336 13:0.16666667 #
-267.99218043236675157459103502333 1:0.6857143 2:0.071428575 3:0.028571429 4:0.057142857 5:0.057142857 7:0.014285714 9:0.014285714 12:0.014285714 13:0.057142857 #
200.9941353242750494700885610655 1:0.46666667 4:0.06666667 5:0.06666667 7:0.06666667 9:0.13333334 13:0.13333334 16:0.06666667 #
189.82779447292642771571991033852 1:0.60714287 2:0.10714286 3:0.035714287 4:0.035714287 5:0.14285715 13:0.071428575 #
-78.164385959440267015452263876796 1:0.46666667 2:0.06666667 3:0.088888891 4:0.088888891 5:0.088888891 6:0.022222223 9:0.06666667 13:0.088888891 14:0.022222223 #
-290.32486213506393823990947566926 1:0.5 2:0.027777778 3:0.027777778 4:0.1388889 5:0.055555556 9:0.055555556 13:0.16666667 14:0.027777778 #
-78.164385959440267015452263876796 1:0.36666667 2:0.1 3:0.1 4:0.06666667 5:0.1 6:0.033333335 9:0.13333334 12:0.033333335 13:0.06666667 #
55.831704256743051928424392826855 1:0.56666666 2:0.1 3:0.033333335 4:0.033333335 5:0.1 8:0.033333335 9:0.033333335 13:0.06666667 14:0.033333335 #
-167.49511277022918420698260888457 1:0.41666666 4:0.16666667 9:0.083333336 13:0.16666667 16:0.16666667 #
100.49706766213748210248013492674 1:0.74603176 2:0.063492067 3:0.015873017 4:0.031746034 5:0.079365082 9:0.015873017 13:0.047619049 #
212.16047617562367122445721179247 1:0.25 2:0.16666667 4:0.083333336 5:0.33333334 8:0.083333336 13:0.083333336 #
323.82388468910971823788713663816 1:0.33333334 6:0.33333334 13:0.33333334 #
-122.82974936483471140036272117868 2:0.5 5:0.5 #
145.16243106753194069824530743062 1:0.25 2:0.33333334 4:0.083333336 5:0.16666667 13:0.16666667 #
200.9941353242750494700885610655 1:0.45833334 2:0.083333336 3:0.083333336 4:0.083333336 5:0.125 8:0.041666668 9:0.041666668 13:0.083333336 #
-234.49315787832091473319451324642 1:0.60000002 2:0.025 4:0.1 5:0.050000001 12:0.025 13:0.125 14:0.025 15:0.025 16:0.025 #
55.831704256743051928424392826855 1:0.56666666 2:0.1 4:0.1 5:0.06666667 6:0.033333335 13:0.13333334 #
323.82388468910971823788713663816 1:0.33333334 6:0.33333334 13:0.33333334 #
145.16243106753194069824530743062 1:0.25 2:0.33333334 4:0.083333336 5:0.16666667 13:0.16666667 #
-78.164385959440267015452263876796 1:0.16666667 2:0.16666667 4:0.33333334 5:0.083333336 13:0.25 #
-267.99218043236675157459103502333 1:0.33333334 2:0.26666668 4:0.06666667 5:0.2 13:0.13333334 #
44.665363405394444384910457301885 1:0.41666666 2:0.083333336 4:0.16666667 5:0.083333336 8:0.083333336 13:0.16666667 #
256.82583958101815824193181470037 1:0.55555558 2:0.037037037 4:0.18518518 5:0.074074075 9:0.037037037 13:0.11111111 #
-122.82974936483469718950800597668 1:0.66666669 2:0.055555556 4:0.11111111 5:0.055555556 13:0.11111111 #
-11.16634085134860754351393552497 1:0.5 8:0.083333336 13:0.25 16:0.16666667 #
-200.9941353242750494700885610655 1:0.60000002 2:0.1 4:0.1 5:0.050000001 6:0.050000001 13:0.1 #
78.164385959440267015452263876796 1:0.60000002 2:0.06666667 4:0.13333334 5:0.06666667 13:0.13333334 #
78.164385959440267015452263876796 1:0.55000001 4:0.2 5:0.1 13:0.15000001 #
-78.164385959440267015452263876796 1:0.22222222 2:0.11111111 4:0.11111111 5:0.22222222 13:0.11111111 14:0.11111111 16:0.11111111 #
-44.665363405394444384910457301885 1:0.55000001 2:0.050000001 3:0.025 4:0.075000003 5:0.1 8:0.025 9:0.025 13:0.125 16:0.025 #
44.665363405394444384910457301885 1:0.375 2:0.125 3:0.083333336 4:0.125 5:0.16666667 9:0.041666668 13:0.041666668 14:0.041666668 #
100.49706766213748210248013492674 1:0.41666666 2:0.083333336 5:0.083333336 6:0.083333336 8:0.083333336 13:0.16666667 14:0.083333336 #
-167.49511277022918420698260888457 1:0.47619048 2:0.2857143 5:0.14285715 6:0.047619049 14:0.047619049 #
-200.9941353242750494700885610655 1:0.5 2:0.083333336 3:0.083333336 9:0.16666667 15:0.083333336 16:0.083333336 #
100.49706766213748210248013492674 1:0.41666666 4:0.25 13:0.25 14:0.083333336 #
100.49706766213748210248013492674 1:0.25 2:0.125 4:0.125 8:0.125 13:0.25 14:0.125 #
-279.1585212837153449072502553463 2:0.2 5:0.2 6:0.2 8:0.2 13:0.2 #
-212.16047617562367122445721179247 1:0.21428572 2:0.35714287 5:0.35714287 14:0.071428575 #
-66.998045108091659471938328351825 1:0.55000001 2:0.050000001 3:0.050000001 4:0.1 5:0.050000001 9:0.050000001 13:0.15000001 #
55.831704256743051928424392826855 1:0.16666667 2:0.16666667 4:0.33333334 5:0.083333336 13:0.25 #
-167.49511277022918420698260888457 1:0.41666666 4:0.16666667 9:0.083333336 13:0.16666667 16:0.16666667 #
279.1585212837153449072502553463 1:0.42857143 2:0.23809524 4:0.095238097 5:0.14285715 13:0.095238097 #
234.49315787832091473319451324642 1:0.36666667 2:0.26666668 3:0.033333335 5:0.33333334 #
44.665363405394444384910457301885 1:0.6875 2:0.125 3:0.020833334 4:0.020833334 5:0.125 13:0.020833334 #
-44.665363405394444384910457301885 1:0.51851851 2:0.14814815 4:0.074074075 5:0.11111111 9:0.037037037 13:0.074074075 15:0.037037037 #
-223.32681702697229297882586251944 1:0.72222221 2:0.055555556 3:0.037037037 4:0.055555556 5:0.055555556 9:0.018518519 13:0.055555556 #
279.1585212837153449072502553463 1:0.42857143 2:0.23809524 4:0.095238097 5:0.14285715 13:0.095238097 #
-111.66340851348610385684878565371 1:0.32142857 2:0.17857143 3:0.035714287 4:0.071428575 5:0.2857143 13:0.071428575 14:0.035714287 #
290.32486213506393823990947566926 1:0.42857143 2:0.14285715 4:0.095238097 5:0.14285715 9:0.047619049 13:0.14285715 #
-44.665363405394444384910457301885 1:0.42857143 2:0.14285715 4:0.14285715 5:0.14285715 9:0.047619049 13:0.095238097 #
11.166340851348614648941293125972 1:0.53333336 2:0.06666667 4:0.13333334 5:0.2 13:0.06666667 #
-245.65949872966953648756316397339 1:0.5625 2:0.0625 3:0.125 4:0.0625 5:0.0625 9:0.09375 13:0.03125 #
-33.499022554045836841396521776915 1:0.8214286 2:0.023809524 3:0.011904762 4:0.047619049 5:0.011904762 6:0.011904762 9:0.023809524 13:0.047619049 #
189.82779447292642771571991033852 1:0.2 2:0.2 5:0.30000001 6:0.1 10:0.1 13:0.1 #
-3.5527136788005009293556213378906e-15 1:0.44444445 2:0.055555556 3:0.11111111 4:0.055555556 5:0.055555556 8:0.055555556 9:0.055555556 10:0.055555556 13:0.055555556 16:0.055555556 #
-245.65949872966953648756316397339 1:0.54285717 2:0.11428571 3:0.057142857 4:0.028571429 5:0.11428571 7:0.028571429 9:0.085714288 13:0.028571429 #
-111.66340851348608964599407045171 1:0.27777779 2:0.16666667 3:0.11111111 5:0.22222222 6:0.055555556 9:0.055555556 10:0.11111111 #
-111.66340851348610385684878565371 1:0.16666667 3:0.16666667 5:0.33333334 6:0.16666667 13:0.16666667 #
301.49120298641253157256869599223 1:0.5625 2:0.09375 3:0.03125 4:0.03125 5:0.03125 6:0.03125 7:0.03125 8:0.03125 9:0.09375 13:0.03125 14:0.03125 #
-223.32681702697229297882586251944 1:0.60000002 2:0.11428571 3:0.057142857 4:0.028571429 5:0.085714288 7:0.028571429 9:0.057142857 13:0.028571429 #
-44.665363405394444384910457301885 1:0.44444445 2:0.11111111 3:0.037037037 4:0.074074075 5:0.22222222 9:0.037037037 10:0.037037037 13:0.037037037 #
301.49120298641253157256869599223 1:0.53571427 2:0.10714286 3:0.071428575 4:0.035714287 5:0.10714286 9:0.10714286 13:0.035714287 #
-200.9941353242750494700885610655 1:0.58333331 2:0.083333336 3:0.041666668 4:0.083333336 5:0.125 9:0.041666668 13:0.041666668 #
245.65949872966953648756316397339 1:0.375 2:0.3125 5:0.25 13:0.0625 #
-89.330726810788874558966199401766 1:0.30769232 2:0.15384616 3:0.03846154 4:0.07692308 5:0.30769232 13:0.11538462 #
-189.82779447292642771571991033852 1:0.6875 2:0.125 3:0.020833334 4:0.020833334 5:0.125 13:0.020833334 #
-44.665363405394444384910457301885 1:0.3888889 2:0.055555556 4:0.16666667 5:0.16666667 9:0.055555556 13:0.16666667 #
290.32486213506393823990947566926 1:0.46875 2:0.125 3:0.0625 4:0.0625 5:0.0625 6:0.03125 8:0.03125 9:0.09375 13:0.0625 #
-334.99022554045831157054635696113 1:0.2 2:0.2 3:0.06666667 4:0.13333334 5:0.26666668 10:0.06666667 13:0.06666667 #
-55.831704256743051928424392826855 1:0.41666666 2:0.16666667 3:0.083333336 4:0.041666668 5:0.16666667 7:0.041666668 9:0.083333336 #
-55.831704256743051928424392826855 1:0.375 2:0.16666667 3:0.041666668 4:0.083333336 5:0.20833333 9:0.041666668 13:0.083333336 #
-323.82388468910971823788713663816 1:0.5 2:0.083333336 3:0.083333336 4:0.083333336 5:0.16666667 13:0.083333336 #
-78.164385959440267015452263876796 1:0.23809524 2:0.23809524 3:0.047619049 5:0.23809524 6:0.047619049 8:0.095238097 9:0.047619049 13:0.047619049 #
-55.831704256743051928424392826855 1:0.38095239 2:0.14285715 3:0.047619049 4:0.047619049 5:0.095238097 6:0.047619049 7:0.047619049 8:0.047619049 9:0.047619049 10:0.047619049 13:0.047619049 #
-323.82388468910971823788713663816 1:0.5 2:0.22222222 5:0.27777779 #
-44.665363405394444384910457301885 1:0.45833334 2:0.16666667 4:0.041666668 5:0.20833333 9:0.041666668 13:0.083333336 #
189.82779447292642771571991033852 1:0.33333334 2:0.25 3:0.083333336 4:0.083333336 5:0.16666667 13:0.083333336 #
189.82779447292642771571991033852 1:0.25 2:0.25 3:0.083333336 5:0.16666667 6:0.16666667 13:0.083333336 #
-55.831704256743051928424392826855 1:0.33333334 2:0.11111111 4:0.055555556 5:0.11111111 6:0.11111111 7:0.055555556 9:0.11111111 13:0.055555556 14:0.055555556 #
189.82779447292642771571991033852 5:0.5 6:0.5 #
256.82583958101815824193181470037 1:0.33333334 2:0.16666667 3:0.055555556 4:0.11111111 5:0.16666667 9:0.055555556 13:0.11111111 #
290.32486213506393823990947566926 1:0.25 2:0.125 3:0.083333336 4:0.083333336 5:0.25 6:0.041666668 9:0.083333336 13:0.083333336 #
334.99022554045831157054635696113 1:0.6875 2:0.14583333 4:0.041666668 5:0.10416666 13:0.020833334 #
145.16243106753194069824530743062 1:0.25925925 2:0.18518518 4:0.037037037 5:0.2962963 6:0.037037037 8:0.037037037 9:0.037037037 11:0.037037037 13:0.074074075 #
-167.49511277022918420698260888457 1:0.64814812 2:0.09259259 4:0.037037037 5:0.14814815 6:0.037037037 13:0.037037037 #
267.99218043236675157459103502333 1:0.48717949 2:0.15384616 3:0.025641026 4:0.051282052 5:0.23076923 13:0.051282052 #
145.16243106753194069824530743062 1:0.45454547 2:0.20454545 4:0.06818182 5:0.11363637 6:0.045454547 8:0.022727273 13:0.06818182 16:0.022727273 #
-66.998045108091659471938328351825 1:0.55555558 2:0.11111111 3:0.027777778 4:0.11111111 5:0.027777778 6:0.055555556 9:0.027777778 13:0.083333336 #
-111.66340851348608964599407045171 1:0.43333334 2:0.13333334 3:0.033333335 4:0.033333335 5:0.26666668 9:0.06666667 13:0.033333335 #
78.164385959440267015452263876796 1:0.16666667 2:0.11111111 4:0.11111111 5:0.33333334 6:0.16666667 13:0.055555556 14:0.055555556 #
66.998045108091659471938328351825 1:0.20833333 2:0.29166666 4:0.041666668 5:0.33333334 8:0.041666668 13:0.041666668 14:0.041666668 #
234.49315787832091473319451324642 1:0.25925925 2:0.11111111 3:0.037037037 4:0.074074075 5:0.25925925 6:0.14814815 13:0.074074075 14:0.037037037 #
-156.3287719188805624526139581576 1:0.16666667 2:0.16666667 4:0.055555556 5:0.16666667 6:0.27777779 9:0.055555556 14:0.055555556 16:0.055555556 #
145.16243106753194069824530743062 1:0.46666667 2:0.13333334 3:0.033333335 4:0.1 5:0.11666667 8:0.016666668 10:0.016666668 13:0.11666667 #
-156.3287719188805624526139581576 1:0.22222222 2:0.22222222 3:0.055555556 4:0.055555556 5:0.27777779 8:0.055555556 10:0.055555556 13:0.055555556 #
-100.49706766213748210248013492674 1:0.5 2:0.175 3:0.025 4:0.050000001 5:0.175 9:0.025 13:0.050000001 #
-167.49511277022918420698260888457 1:0.6111111 2:0.09259259 3:0.018518519 4:0.037037037 5:0.14814815 6:0.018518519 9:0.018518519 13:0.037037037 16:0.018518519 #
111.66340851348608964599407045171 1:0.125 2:0.3125 4:0.0625 5:0.0625 6:0.1875 8:0.0625 9:0.0625 11:0.0625 14:0.0625 #
-133.99609021618331894387665670365 1:0.46666667 2:0.23333333 4:0.033333335 5:0.23333333 13:0.033333335 #
-100.49706766213748210248013492674 1:0.42857143 2:0.14285715 4:0.19047619 6:0.095238097 13:0.14285715 #
334.99022554045831157054635696113 1:0.60606062 2:0.060606062 3:0.030303031 4:0.060606062 5:0.15151516 9:0.030303031 13:0.060606062 #
145.16243106753194069824530743062 1:0.47727272 2:0.15909091 3:0.022727273 4:0.090909094 5:0.06818182 6:0.045454547 9:0.022727273 13:0.11363637 #
66.998045108091659471938328351825 1:0.16666667 2:0.27777779 3:0.055555556 4:0.055555556 5:0.11111111 6:0.16666667 8:0.055555556 13:0.055555556 14:0.055555556 #
-156.3287719188805624526139581576 1:0.20833333 2:0.29166666 4:0.083333336 5:0.20833333 6:0.041666668 7:0.041666668 9:0.041666668 13:0.083333336 #
-100.49706766213748210248013492674 1:0.4848485 2:0.090909094 3:0.030303031 4:0.030303031 5:0.18181819 7:0.030303031 9:0.12121212 13:0.030303031 #
145.16243106753194069824530743062 1:0.30000001 2:0.1 4:0.1 5:0.26666668 6:0.1 13:0.13333334 #
-156.3287719188805624526139581576 1:0.20833333 2:0.29166666 4:0.083333336 5:0.20833333 6:0.041666668 7:0.041666668 9:0.041666668 13:0.083333336 #
178.66145362157780596135125961155 1:0.74285716 2:0.057142857 3:0.057142857 5:0.057142857 9:0.057142857 13:0.028571429 #
-156.3287719188805624526139581576 1:0.22727273 2:0.27272728 3:0.045454547 4:0.045454547 5:0.18181819 6:0.045454547 9:0.090909094 13:0.045454547 16:0.045454547 #
-156.3287719188805624526139581576 1:0.16666667 2:0.27777779 3:0.055555556 4:0.055555556 5:0.11111111 6:0.16666667 8:0.055555556 13:0.055555556 14:0.055555556 #
-156.3287719188805624526139581576 1:0.25 2:0.41666666 4:0.083333336 5:0.25 #
-156.3287719188805624526139581576 1:0.16666667 2:0.16666667 4:0.055555556 5:0.16666667 6:0.27777779 9:0.055555556 14:0.055555556 16:0.055555556 #
-156.3287719188805624526139581576 1:0.25 2:0.29166666 4:0.083333336 5:0.25 6:0.041666668 13:0.083333336 #
-334.99022554045831157054635696113 1:0.40625 2:0.125 4:0.09375 5:0.1875 6:0.0625 13:0.09375 14:0.03125 #
-55.831704256743051928424392826855 1:0.25 2:0.15000001 3:0.1 4:0.1 5:0.1 6:0.050000001 9:0.1 12:0.050000001 13:0.1 #
-55.831704256743051928424392826855 1:0.2857143 2:0.071428575 3:0.071428575 4:0.071428575 5:0.2857143 7:0.071428575 9:0.14285715 #
-55.831704256743051928424392826855 1:0.27777779 2:0.22222222 4:0.11111111 5:0.16666667 8:0.055555556 13:0.16666667 #
334.99022554045831157054635696113 1:0.33333334 2:0.06666667 4:0.06666667 5:0.26666668 6:0.06666667 9:0.06666667 10:0.06666667 14:0.06666667 #
-55.831704256743051928424392826855 2:0.2 4:0.2 5:0.30000001 6:0.1 13:0.2 #
-33.499022554045836841396521776915 1:0.56666666 2:0.13333334 3:0.033333335 4:0.033333335 5:0.2 13:0.033333335 #
-55.831704256743051928424392826855 1:0.27777779 2:0.22222222 3:0.055555556 5:0.27777779 6:0.11111111 9:0.055555556 #
-55.831704256743051928424392826855 1:0.3888889 2:0.16666667 4:0.055555556 5:0.33333334 13:0.055555556 #
-55.831704256743051928424392826855 1:0.22222222 2:0.27777779 4:0.16666667 5:0.11111111 6:0.055555556 13:0.16666667 #
-55.831704256743051928424392826855 1:0.1875 2:0.1875 4:0.25 5:0.0625 6:0.0625 7:0.0625 13:0.1875 #
-44.665363405394444384910457301885 1:0.41666666 2:0.041666668 3:0.041666668 4:0.083333336 5:0.16666667 6:0.041666668 9:0.041666668 10:0.041666668 13:0.083333336 14:0.041666668 #
-44.665363405394444384910457301885 1:0.29166666 2:0.125 4:0.16666667 5:0.083333336 6:0.083333336 9:0.083333336 13:0.16666667 #
-11.166340851348611096227614325471 1:0.71428573 2:0.085714288 3:0.014285714 4:0.042857144 5:0.071428575 9:0.014285714 13:0.042857144 16:0.014285714 #
390.82192979720127823384245857596 1:0.40000001 2:0.16666667 4:0.1 5:0.1 6:0.033333335 7:0.033333335 9:0.033333335 10:0.033333335 13:0.06666667 15:0.033333335 #
-55.831704256743051928424392826855 1:0.375 2:0.1875 3:0.0625 4:0.0625 5:0.1875 9:0.0625 13:0.0625 #
-33.499022554045836841396521776915 1:0.38095239 2:0.047619049 4:0.095238097 5:0.14285715 6:0.047619049 7:0.047619049 8:0.047619049 9:0.047619049 13:0.14285715 #
-55.831704256743051928424392826855 1:0.40000001 2:0.16666667 4:0.1 5:0.1 6:0.033333335 7:0.033333335 9:0.033333335 10:0.033333335 13:0.06666667 15:0.033333335 #
-55.831704256743051928424392826855 1:0.27777779 2:0.22222222 4:0.11111111 5:0.16666667 8:0.055555556 13:0.16666667 #
-44.665363405394444384910457301885 1:0.46666667 2:0.1 4:0.1 5:0.06666667 6:0.033333335 7:0.06666667 9:0.033333335 10:0.033333335 12:0.033333335 13:0.06666667 #
-55.831704256743051928424392826855 1:0.25 2:0.1875 4:0.0625 5:0.125 7:0.0625 8:0.0625 9:0.0625 10:0.0625 13:0.0625 15:0.0625 #
-33.499022554045836841396521776915 1:0.4074074 2:0.074074075 4:0.14814815 5:0.037037037 7:0.037037037 9:0.074074075 13:0.22222222 #
368.48924809450409156852401793003 1:0.42857143 2:0.071428575 3:0.071428575 4:0.035714287 5:0.10714286 6:0.10714286 8:0.035714287 9:0.035714287 13:0.10714286 #
-11.166340851348611096227614325471 1:0.66666669 3:0.083333336 4:0.041666668 5:0.041666668 8:0.041666668 9:0.041666668 13:0.083333336 #
-133.99609021618331894387665670365 1:0.78021979 2:0.054945055 3:0.010989011 4:0.043956045 5:0.054945055 9:0.010989011 13:0.043956045 #
-33.499022554045836841396521776915 1:0.5 2:0.055555556 3:0.027777778 4:0.083333336 5:0.16666667 6:0.027777778 9:0.027777778 13:0.055555556 14:0.027777778 16:0.027777778 #
-55.831704256743051928424392826855 1:0.2 2:0.06666667 3:0.06666667 4:0.13333334 6:0.2 8:0.06666667 9:0.06666667 13:0.13333334 14:0.06666667 #
-33.499022554045836841396521776915 1:0.64285713 2:0.14285715 4:0.023809524 5:0.16666667 13:0.023809524 #
368.48924809450409156852401793003 1:0.5 2:0.055555556 3:0.055555556 5:0.16666667 6:0.16666667 13:0.055555556 #
-55.831704256743051928424392826855 1:0.3888889 2:0.1388889 3:0.055555556 4:0.055555556 5:0.16666667 6:0.027777778 7:0.027777778 9:0.027777778 12:0.027777778 13:0.055555556 14:0.027777778 #
-44.665363405394444384910457301885 1:0.29166666 2:0.125 4:0.16666667 5:0.083333336 6:0.083333336 9:0.083333336 13:0.16666667 #
-33.499022554045836841396521776915 1:0.64285713 2:0.14285715 4:0.023809524 5:0.16666667 13:0.023809524 #
11.166340851348611096227614325471 1:0.25 4:0.25 9:0.125 11:0.25 13:0.125 #
-55.831704256743051928424392826855 1:0.2857143 2:0.14285715 4:0.14285715 5:0.071428575 7:0.071428575 10:0.071428575 13:0.14285715 16:0.071428575 #
-55.831704256743051928424392826855 1:0.33333334 2:0.11111111 4:0.055555556 5:0.22222222 6:0.16666667 13:0.055555556 14:0.055555556 #
-33.499022554045836841396521776915 1:0.52380955 2:0.047619049 4:0.095238097 5:0.19047619 7:0.047619049 9:0.047619049 13:0.047619049 #
-44.665363405394444384910457301885 1:0.44999999 2:0.15000001 3:0.050000001 4:0.050000001 5:0.050000001 6:0.050000001 7:0.050000001 8:0.050000001 9:0.050000001 13:0.050000001 #
-44.665363405394444384910457301885 1:0.42857143 2:0.14285715 4:0.095238097 5:0.14285715 6:0.047619049 7:0.047619049 13:0.095238097 #
-44.665363405394444384910457301885 1:0.41666666 2:0.041666668 4:0.083333336 5:0.25 6:0.083333336 13:0.083333336 14:0.041666668 #
167.49511277022918420698260888457 1:0.22222222 2:0.33333334 3:0.055555556 5:0.22222222 8:0.055555556 13:0.055555556 14:0.055555556 #
-44.665363405394444384910457301885 1:0.3125 2:0.1875 4:0.0625 5:0.125 6:0.125 8:0.0625 13:0.125 #
-89.330726810788874558966199401766 1:0.76296294 2:0.029629629 3:0.037037037 4:0.044444446 5:0.029629629 9:0.037037037 11:0.0074074073 13:0.044444446 16:0.0074074073 #
11.16634085134860754351393552497 1:0.60714287 2:0.14285715 4:0.10714286 5:0.035714287 9:0.035714287 13:0.071428575 #
-22.332681702697225745168907451443 1:0.47619048 2:0.14285715 3:0.047619049 4:0.047619049 5:0.14285715 11:0.047619049 13:0.095238097 #
-44.665363405394444384910457301885 1:0.22727273 2:0.13636364 3:0.18181819 4:0.090909094 5:0.090909094 6:0.045454547 9:0.090909094 11:0.045454547 15:0.045454547 16:0.045454547 #
-44.665363405394444384910457301885 1:0.32142857 2:0.17857143 3:0.035714287 4:0.071428575 5:0.17857143 7:0.035714287 9:0.071428575 13:0.071428575 16:0.035714287 #
-33.499022554045836841396521776915 1:0.37037036 2:0.11111111 3:0.074074075 4:0.037037037 5:0.11111111 9:0.11111111 13:0.11111111 16:0.074074075 #
-357.32290724315549823586479760706 1:0.22222222 2:0.11111111 3:0.11111111 4:0.055555556 5:0.055555556 6:0.055555556 7:0.055555556 9:0.11111111 13:0.055555556 15:0.055555556 16:0.11111111 #
-55.831704256743051928424392826855 1:0.13636364 2:0.13636364 3:0.22727273 4:0.090909094 5:0.090909094 6:0.045454547 9:0.090909094 11:0.045454547 13:0.090909094 16:0.045454547 #
-357.32290724315549823586479760706 1:0.33333334 2:0.16666667 3:0.041666668 4:0.083333336 5:0.16666667 9:0.041666668 13:0.125 16:0.041666668 #
301.49120298641253157256869599223 1:0.32142857 2:0.10714286 3:0.035714287 4:0.10714286 5:0.14285715 9:0.14285715 13:0.14285715 #
-323.82388468910971823788713663816 1:0.125 2:0.0625 4:0.0625 5:0.1875 6:0.1875 9:0.0625 11:0.0625 13:0.125 16:0.125 #
-11.16634085134860754351393552497 1:0.54166669 2:0.125 3:0.020833334 4:0.0625 5:0.14583333 9:0.041666668 13:0.0625 #
-55.831704256743051928424392826855 1:0.18181819 2:0.13636364 3:0.090909094 4:0.13636364 5:0.090909094 9:0.090909094 10:0.090909094 13:0.13636364 15:0.045454547 #
-44.665363405394444384910457301885 1:0.29166666 2:0.16666667 3:0.041666668 4:0.083333336 5:0.125 8:0.041666668 9:0.083333336 13:0.125 15:0.041666668 #
-11.16634085134860754351393552497 1:0.4848485 2:0.060606062 3:0.030303031 4:0.060606062 5:0.15151516 9:0.060606062 13:0.12121212 16:0.030303031 #
-111.66340851348608964599407045171 2:0.125 6:0.25 9:0.25 11:0.125 16:0.25 #
-44.665363405394444384910457301885 1:0.23076923 2:0.15384616 3:0.03846154 4:0.15384616 5:0.1923077 9:0.11538462 13:0.11538462 #
-22.332681702697218639741549850442 1:0.58333331 2:0.11111111 3:0.083333336 4:0.083333336 5:0.083333336 13:0.055555556 #
301.49120298641253157256869599223 1:0.29166666 2:0.20833333 3:0.041666668 4:0.083333336 5:0.083333336 8:0.041666668 9:0.125 13:0.125 #
-89.330726810788874558966199401766 2:0.3125 3:0.1875 4:0.125 5:0.1875 9:0.0625 13:0.125 #
-11.16634085134860754351393552497 1:0.59090906 2:0.090909094 4:0.045454547 5:0.15909091 9:0.022727273 13:0.06818182 14:0.022727273 #
-33.499022554045836841396521776915 1:0.51851851 2:0.22222222 3:0.074074075 4:0.037037037 5:0.074074075 8:0.037037037 9:0.037037037 #
301.49120298641253157256869599223 1:0.33333334 2:0.16666667 3:0.041666668 4:0.083333336 5:0.16666667 9:0.041666668 13:0.125 16:0.041666668 #
-44.665363405394444384910457301885 1:0.40625 2:0.09375 3:0.09375 4:0.09375 5:0.09375 9:0.09375 13:0.125 #
-44.665363405394444384910457301885 1:0.30000001 2:0.2 3:0.050000001 4:0.050000001 5:0.1 7:0.050000001 9:0.15000001 13:0.1 #
-22.332681702697218639741549850442 1:0.48717949 2:0.051282052 3:0.07692308 4:0.051282052 5:0.12820514 9:0.1025641 13:0.1025641 #
301.49120298641253157256869599223 1:0.2857143 2:0.14285715 4:0.071428575 5:0.21428572 7:0.071428575 9:0.071428575 16:0.14285715 #
-44.665363405394444384910457301885 1:0.26923078 2:0.07692308 3:0.11538462 4:0.11538462 5:0.11538462 6:0.03846154 9:0.11538462 13:0.15384616 #
-368.48924809450409156852401793003 2:0.23076923 4:0.15384616 5:0.23076923 9:0.07692308 13:0.30769232 #
-44.665363405394444384910457301885 1:0.2962963 2:0.074074075 4:0.18518518 5:0.11111111 7:0.037037037 9:0.037037037 10:0.037037037 13:0.22222222 #
401.98827064854987156650167889893 1:0.3125 2:0.125 3:0.09375 4:0.15625 5:0.125 9:0.09375 13:0.09375 #
290.32486213506393823990947566926 1:0.25 2:0.1 3:0.1 4:0.1 5:0.15000001 9:0.15000001 10:0.050000001 13:0.1 #
-55.831704256743051928424392826855 1:0.1923077 2:0.1923077 3:0.11538462 4:0.07692308 5:0.1923077 9:0.07692308 13:0.07692308 14:0.03846154 16:0.03846154 #
-44.665363405394444384910457301885 1:0.33333334 2:0.125 3:0.041666668 4:0.083333336 5:0.20833333 9:0.083333336 13:0.125 #
301.49120298641253157256869599223 1:0.34999999 2:0.15000001 3:0.050000001 4:0.1 5:0.15000001 6:0.050000001 10:0.050000001 13:0.1 #
-22.332681702697222192455228650942 1:0.46875 2:0.09375 3:0.0625 4:0.0625 5:0.09375 9:0.09375 13:0.125 #
390.82192979720127823384245857596 1:0.34999999 2:0.050000001 3:0.15000001 4:0.1 5:0.15000001 6:0.050000001 9:0.050000001 12:0.050000001 13:0.050000001 #
301.49120298641253157256869599223 1:0.34999999 2:0.15000001 3:0.050000001 4:0.1 5:0.15000001 6:0.050000001 10:0.050000001 13:0.1 #
-66.998045108091659471938328351825 1:0.80000001 2:0.015384615 3:0.015384615 4:0.061538462 5:0.023076924 9:0.015384615 11:0.0076923077 13:0.061538462 #
-357.32290724315549823586479760706 1:0.36666667 2:0.1 3:0.033333335 4:0.13333334 5:0.1 6:0.033333335 9:0.06666667 13:0.13333334 15:0.033333335 #
-22.332681702697218639741549850442 1:0.46875 2:0.09375 3:0.0625 4:0.0625 5:0.09375 9:0.09375 13:0.125 #
357.32290724315549823586479760706 1:0.25 2:0.16666667 3:0.083333336 4:0.083333336 5:0.125 9:0.083333336 13:0.125 16:0.083333336 #
-267.99218043236675157459103502333 1:0.44444445 2:0.11111111 4:0.14814815 5:0.18518518 13:0.11111111 #
390.82192979720127823384245857596 1:0.5625 2:0.1875 5:0.25 #
122.82974936483469718950800597668 1:0.33333334 2:0.22222222 4:0.055555556 5:0.16666667 13:0.11111111 16:0.11111111 #
-279.1585212837153449072502553463 1:0.33333334 2:0.17948718 3:0.051282052 4:0.051282052 5:0.23076923 9:0.025641026 10:0.025641026 13:0.1025641 #
133.99609021618331894387665670365 1:0.41025642 2:0.07692308 3:0.1025641 4:0.051282052 5:0.12820514 9:0.1025641 13:0.07692308 16:0.051282052 #
-267.99218043236675157459103502333 1:0.51851851 2:0.074074075 4:0.074074075 5:0.18518518 13:0.14814815 #
133.99609021618331894387665670365 1:0.36363637 2:0.18181819 4:0.090909094 5:0.18181819 9:0.045454547 13:0.090909094 16:0.045454547 #
44.665363405394444384910457301885 2:0.2 4:0.2 5:0.2 13:0.40000001 #
111.66340851348608964599407045171 1:0.30000001 2:0.13333334 3:0.033333335 4:0.13333334 5:0.1 6:0.033333335 8:0.033333335 13:0.2 16:0.033333335 #
133.99609021618331894387665670365 1:0.47619048 2:0.14285715 4:0.047619049 5:0.2857143 13:0.047619049 #
-267.99218043236675157459103502333 1:0.42222223 2:0.15555556 4:0.11111111 5:0.13333334 6:0.022222223 9:0.022222223 13:0.13333334 #
368.48924809450409156852401793003 1:0.44444445 2:0.25 4:0.027777778 5:0.19444445 13:0.083333336 #
111.66340851348608964599407045171 1:0.25 2:0.125 3:0.083333336 4:0.16666667 5:0.041666668 9:0.16666667 13:0.125 16:0.041666668 #
145.16243106753194069824530743062 1:0.64285713 2:0.085714288 4:0.071428575 5:0.11428571 13:0.085714288 #
133.99609021618331894387665670365 1:0.52777779 2:0.1388889 4:0.083333336 5:0.1388889 13:0.11111111 #
401.98827064854987156650167889893 1:0.52777779 2:0.083333336 3:0.027777778 4:0.11111111 5:0.083333336 9:0.027777778 13:0.1388889 #
111.66340851348608964599407045171 1:0.40000001 2:0.16666667 4:0.06666667 5:0.2 8:0.033333335 13:0.1 14:0.033333335 #
-256.82583958101815824193181470037 1:0.60000002 2:0.050000001 4:0.1 5:0.125 13:0.125 #
133.99609021618331894387665670365 1:0.5 2:0.13636364 3:0.045454547 4:0.06818182 5:0.090909094 8:0.022727273 9:0.045454547 13:0.090909094 #
-267.99218043236675157459103502333 1:0.46153846 2:0.17948718 3:0.025641026 4:0.07692308 5:0.12820514 9:0.025641026 13:0.1025641 #
133.99609021618331894387665670365 1:0.56666666 2:0.1 3:0.033333335 4:0.06666667 5:0.1 6:0.033333335 8:0.033333335 13:0.06666667 #
-279.1585212837153449072502553463 1:0.18181819 2:0.13636364 3:0.13636364 4:0.090909094 5:0.13636364 9:0.090909094 11:0.045454547 12:0.045454547 13:0.13636364 #
133.99609021618331894387665670365 1:0.5 2:0.033333335 3:0.033333335 4:0.16666667 5:0.1 9:0.033333335 13:0.13333334 #
133.99609021618331894387665670365 1:0.43333334 2:0.16666667 3:0.033333335 4:0.033333335 5:0.16666667 9:0.033333335 13:0.1 16:0.033333335 #
-267.99218043236675157459103502333 1:0.45833334 2:0.20833333 4:0.041666668 5:0.20833333 13:0.041666668 16:0.041666668 #
167.49511277022918420698260888457 1:0.80000001 2:0.011111111 3:0.022222223 4:0.055555556 5:0.022222223 9:0.033333335 13:0.055555556 #
-267.99218043236675157459103502333 1:0.54166669 2:0.16666667 4:0.041666668 5:0.16666667 13:0.083333336 #
-200.9941353242750494700885610655 1:0.5714286 2:0.035714287 3:0.035714287 4:0.071428575 5:0.035714287 8:0.035714287 9:0.071428575 13:0.10714286 16:0.035714287 #
-267.99218043236675157459103502333 1:0.5 2:0.11111111 3:0.083333336 4:0.055555556 5:0.19444445 9:0.027777778 13:0.027777778 #
-279.1585212837153449072502553463 1:0.3611111 2:0.16666667 3:0.027777778 4:0.083333336 5:0.27777779 9:0.027777778 13:0.055555556 #
133.99609021618331894387665670365 1:0.37037036 2:0.037037037 3:0.074074075 4:0.11111111 5:0.11111111 6:0.037037037 8:0.037037037 9:0.074074075 13:0.11111111 16:0.037037037 #
133.99609021618331894387665670365 1:0.48148149 2:0.074074075 4:0.11111111 5:0.14814815 13:0.14814815 16:0.037037037 #
-267.99218043236675157459103502333 1:0.60000002 2:0.125 4:0.050000001 5:0.125 9:0.025 13:0.075000003 #
-267.99218043236675157459103502333 1:0.46666667 2:0.16666667 3:0.016666668 4:0.06666667 5:0.16666667 9:0.016666668 13:0.1 #
-267.99218043236675157459103502333 1:0.36363637 2:0.15151516 3:0.060606062 4:0.090909094 5:0.15151516 9:0.060606062 13:0.12121212 #
89.330726810788874558966199401766 1:0.23076923 2:0.11538462 3:0.03846154 4:0.07692308 5:0.1923077 9:0.23076923 13:0.07692308 15:0.03846154 #
133.99609021618331894387665670365 1:0.48148149 2:0.074074075 4:0.11111111 5:0.14814815 13:0.14814815 16:0.037037037 #
-178.66145362157780596135125961155 1:0.6111111 2:0.055555556 3:0.027777778 4:0.055555556 5:0.055555556 9:0.1388889 13:0.055555556 #
133.99609021618331894387665670365 1:0.5625 2:0.1875 5:0.25 #
122.82974936483469718950800597668 1:0.33333334 2:0.22222222 4:0.055555556 5:0.16666667 13:0.11111111 16:0.11111111 #
-145.16243106753194069824530743062 1:0.66666669 2:0.11111111 4:0.044444446 5:0.15555556 13:0.022222223 #
200.9941353242750494700885610655 1:0.70192307 2:0.057692308 3:0.01923077 4:0.048076924 5:0.057692308 9:0.028846154 12:0.009615385 13:0.048076924 15:0.009615385 16:0.01923077 #
178.66145362157780596135125961155 1:0.46153846 2:0.07692308 3:0.051282052 4:0.15384616 5:0.07692308 9:0.051282052 13:0.1025641 16:0.025641026 #
167.46294827244813063771289307624 1:0.35714287 2:0.071428575 3:0.071428575 4:0.071428575 5:0.21428572 8:0.071428575 9:0.071428575 13:0.071428575 #
33.499022554045829735969164175913 2:0.40000001 6:0.2 9:0.2 13:0.2 #
145.16243106753194069824530743062 1:0.23809524 2:0.14285715 4:0.047619049 5:0.23809524 6:0.095238097 9:0.047619049 11:0.047619049 13:0.047619049 14:0.047619049 16:0.047619049 #
-44.665363405394444384910457301885 1:0.79374999 2:0.0125 3:0.025 4:0.056249999 5:0.025 9:0.03125 13:0.056249999 #
167.49511277022918420698260888457 1:0.44444445 2:0.1388889 3:0.055555556 4:0.083333336 5:0.1388889 9:0.055555556 13:0.055555556 16:0.027777778 #
-200.9941353242750494700885610655 1:0.11111111 2:0.11111111 3:0.055555556 4:0.055555556 5:0.16666667 6:0.16666667 9:0.055555556 11:0.055555556 13:0.055555556 14:0.055555556 16:0.11111111 #
178.66145362157780596135125961155 1:0.41666666 2:0.11111111 3:0.027777778 4:0.055555556 5:0.22222222 13:0.055555556 16:0.11111111 #
413.1546114998984648991608992219 1:0.375 3:0.083333336 4:0.16666667 9:0.083333336 13:0.20833333 16:0.083333336 #
178.66145362157780596135125961155 1:0.41666666 2:0.083333336 3:0.11111111 4:0.083333336 5:0.055555556 8:0.055555556 9:0.055555556 13:0.11111111 16:0.027777778 #
-145.16243106753194069824530743062 1:0.6111111 2:0.055555556 3:0.055555556 4:0.055555556 5:0.055555556 6:0.037037037 9:0.074074075 13:0.055555556 #
413.1546114998984648991608992219 1:0.47727272 3:0.13636364 4:0.090909094 5:0.022727273 9:0.13636364 13:0.090909094 16:0.045454547 #
33.499022554045836841396521776915 1:0.18181819 2:0.18181819 3:0.045454547 4:0.18181819 5:0.18181819 9:0.045454547 11:0.045454547 13:0.090909094 15:0.045454547 #
413.1546114998984648991608992219 1:0.53333336 2:0.06666667 3:0.1 4:0.06666667 9:0.1 13:0.1 16:0.033333335 #
-33.499022554045815525114448973909 1:0.81944442 2:0.0069444445 3:0.027777778 4:0.048611112 5:0.0069444445 9:0.027777778 12:0.0069444445 13:0.055555556 #
-156.3287719188805624526139581576 1:0.5714286 2:0.10714286 4:0.071428575 5:0.14285715 9:0.035714287 13:0.035714287 14:0.035714287 #
189.82779447292642771571991033852 1:0.48148149 2:0.074074075 3:0.037037037 4:0.074074075 5:0.18518518 8:0.037037037 9:0.037037037 13:0.074074075 #
-256.82583958101815824193181470037 1:0.68518519 2:0.018518519 3:0.037037037 4:0.055555556 5:0.055555556 6:0.037037037 9:0.037037037 11:0.018518519 13:0.037037037 16:0.018518519 #
-200.9941353242750494700885610655 1:0.18181819 2:0.13636364 3:0.18181819 4:0.090909094 5:0.090909094 9:0.18181819 13:0.090909094 16:0.045454547 #
-156.3287719188805624526139581576 1:0.53571427 2:0.035714287 3:0.035714287 4:0.10714286 5:0.10714286 9:0.035714287 13:0.14285715 #
-200.9941353242750494700885610655 1:0.42857143 2:0.047619049 3:0.047619049 4:0.19047619 5:0.047619049 12:0.047619049 13:0.14285715 15:0.047619049 #
33.499022554045836841396521776915 2:0.40000001 6:0.2 9:0.2 13:0.2 #
-156.3287719188805624526139581576 1:0.33333334 3:0.055555556 4:0.16666667 9:0.055555556 13:0.27777779 16:0.11111111 #
-200.9941353242750494700885610655 1:0.25 2:0.2 3:0.050000001 4:0.1 5:0.2 9:0.050000001 13:0.1 16:0.050000001 #
178.66145362157780596135125961155 1:0.33333334 2:0.037037037 3:0.11111111 4:0.11111111 5:0.11111111 9:0.11111111 11:0.037037037 13:0.11111111 16:0.037037037 #
-145.16243106753194069824530743062 1:0.52272725 2:0.06818182 3:0.022727273 4:0.090909094 5:0.06818182 9:0.06818182 13:0.090909094 16:0.06818182 #
-145.16243106753194069824530743062 1:0.61818182 2:0.10909091 3:0.036363635 4:0.018181818 5:0.07272727 9:0.054545455 13:0.054545455 16:0.036363635 #
200.99413532427502104837913066149 1:0.375 3:0.083333336 4:0.16666667 5:0.041666668 9:0.083333336 13:0.16666667 16:0.083333336 #
-145.16243106753194069824530743062 1:0.62857145 2:0.11428571 4:0.057142857 5:0.11428571 13:0.085714288 #
-122.79758486705364362023829016834 1:0.72222221 2:0.069444448 3:0.027777778 4:0.069444448 5:0.041666668 9:0.027777778 13:0.027777778 16:0.013888889 #
145.16243106753194069824530743062 1:0.26666668 3:0.13333334 4:0.2 9:0.06666667 13:0.26666668 16:0.06666667 #
-122.82974936483469718950800597668 1:0.67045456 2:0.06818182 3:0.022727273 4:0.03409091 5:0.06818182 9:0.045454547 13:0.022727273 15:0.011363637 16:0.056818184 #
-390.82192979720127823384245857596 1:0.47619048 2:0.095238097 4:0.14285715 5:0.095238097 9:0.047619049 13:0.14285715 #
-156.3287719188805624526139581576 1:0.41666666 2:0.083333336 3:0.1388889 4:0.027777778 5:0.027777778 9:0.1388889 13:0.083333336 16:0.083333336 #
-200.9941353242750494700885610655 1:0.21428572 3:0.14285715 4:0.14285715 5:0.14285715 13:0.21428572 16:0.14285715 #
-200.9941353242750494700885610655 2:0.11111111 3:0.22222222 4:0.22222222 5:0.11111111 9:0.22222222 11:0.11111111 #
89.330726810788874558966199401766 2:0.16666667 3:0.083333336 5:0.25 6:0.25 11:0.083333336 16:0.16666667 #
167.49511277022918420698260888457 1:0.16666667 2:0.16666667 3:0.083333336 4:0.083333336 5:0.083333336 6:0.16666667 11:0.083333336 16:0.16666667 #
