SVM-light Version V6.02
0 # kernel type
3 # kernel parameter -d 
1 # kernel parameter -g 
1 # kernel parameter -s 
1 # kernel parameter -r 
empty# kernel parameter -u 
16 # highest feature index 
828 # number of training documents 
639 # number of support vectors plus 1 
0 # threshold b, each following line is a SV (starting with alpha*y)
139.47772335803875876081292517483 1:0.61666667 2:0.1 3:0.06666667 4:0.033333335 5:0.06666667 9:0.050000001 13:0.033333335 16:0.033333335 #
-139.47772335803875876081292517483 1:0.56666666 2:0.1 3:0.06666667 4:0.050000001 5:0.1 9:0.06666667 13:0.033333335 16:0.016666668 #
139.47772335803875876081292517483 1:0.7361111 2:0.11111111 3:0.013888889 4:0.027777778 5:0.069444448 9:0.013888889 13:0.027777778 #
-139.47772335803875876081292517483 1:0.69444442 2:0.097222224 3:0.013888889 4:0.041666668 5:0.097222224 9:0.013888889 13:0.041666668 #
139.47772335803875876081292517483 1:0.41666666 2:0.1388889 3:0.083333336 5:0.22222222 6:0.027777778 9:0.083333336 13:0.027777778 #
-139.47772335803875876081292517483 1:0.41666666 2:0.1388889 3:0.083333336 5:0.22222222 6:0.027777778 9:0.083333336 13:0.027777778 #
139.47772335803875876081292517483 1:0.625 2:0.041666668 3:0.020833334 4:0.10416666 5:0.0625 9:0.041666668 13:0.10416666 #
-139.47772335803875876081292517483 1:0.60416669 2:0.041666668 3:0.020833334 4:0.10416666 5:0.083333336 9:0.041666668 13:0.10416666 #
139.47772335803875876081292517483 1:0.60000002 2:0.07272727 3:0.054545455 4:0.036363635 5:0.10909091 9:0.036363635 12:0.036363635 13:0.018181818 15:0.018181818 16:0.018181818 #
-139.47772335803875876081292517483 1:0.60000002 2:0.10909091 3:0.054545455 4:0.018181818 5:0.10909091 9:0.018181818 12:0.018181818 13:0.036363635 15:0.018181818 16:0.018181818 #
139.47772335803875876081292517483 1:0.45454547 2:0.12121212 3:0.030303031 4:0.12121212 5:0.15151516 9:0.030303031 13:0.090909094 #
-139.47772335803875876081292517483 1:0.45454547 2:0.15151516 3:0.030303031 4:0.090909094 5:0.12121212 9:0.030303031 13:0.12121212 #
139.47772335803875876081292517483 1:0.72448981 2:0.040816326 3:0.06122449 4:0.030612245 5:0.05102041 9:0.040816326 12:0.010204081 13:0.040816326 #
-139.47772335803875876081292517483 1:0.73469388 2:0.05102041 3:0.05102041 4:0.030612245 5:0.05102041 8:0.010204081 9:0.020408163 12:0.010204081 13:0.040816326 #
139.47772335803875876081292517483 1:0.64285713 2:0.071428575 3:0.023809524 4:0.095238097 5:0.047619049 9:0.023809524 13:0.095238097 #
-139.47772335803875876081292517483 1:0.64285713 2:0.047619049 3:0.023809524 4:0.095238097 5:0.071428575 10:0.023809524 13:0.095238097 #
139.47772335803875876081292517483 1:0.6964286 2:0.017857144 3:0.053571429 4:0.071428575 5:0.017857144 9:0.053571429 13:0.071428575 16:0.017857144 #
-139.47772335803875876081292517483 1:0.71428573 2:0.017857144 3:0.053571429 4:0.053571429 5:0.017857144 9:0.053571429 13:0.071428575 16:0.017857144 #
139.47772335803875876081292517483 1:0.69090909 2:0.07272727 4:0.07272727 5:0.090909094 13:0.07272727 #
-139.47772335803875876081292517483 1:0.67272729 2:0.10909091 4:0.07272727 5:0.07272727 13:0.07272727 #
139.47772335803875876081292517483 1:0.69696969 2:0.030303031 3:0.030303031 4:0.060606062 5:0.090909094 9:0.015151516 12:0.015151516 13:0.060606062 #
-139.47772335803875876081292517483 1:0.69696969 2:0.030303031 3:0.030303031 4:0.060606062 5:0.090909094 9:0.015151516 12:0.015151516 13:0.060606062 #
139.47772335803875876081292517483 1:0.77857143 2:0.028571429 3:0.028571429 4:0.050000001 5:0.028571429 9:0.028571429 13:0.050000001 16:0.0071428572 #
-139.47772335803875876081292517483 1:0.77857143 2:0.028571429 3:0.021428572 4:0.057142857 5:0.028571429 9:0.028571429 13:0.057142857 #
139.47772335803875876081292517483 1:0.74358976 2:0.042735044 3:0.025641026 4:0.051282052 5:0.042735044 9:0.042735044 13:0.051282052 #
-139.47772335803875876081292517483 1:0.73504275 2:0.042735044 3:0.042735044 4:0.034188036 5:0.034188036 8:0.008547009 9:0.034188036 12:0.008547009 13:0.05982906 #
139.47772335803875876081292517483 1:0.52380955 2:0.14285715 3:0.047619049 4:0.095238097 5:0.047619049 9:0.047619049 13:0.095238097 #
-139.47772335803875876081292517483 1:0.42857143 2:0.14285715 3:0.047619049 4:0.095238097 5:0.19047619 13:0.095238097 #
139.47772335803875876081292517483 1:0.75 2:0.035714287 3:0.035714287 4:0.053571429 5:0.035714287 9:0.035714287 13:0.053571429 #
-139.47772335803875876081292517483 1:0.76785713 2:0.035714287 3:0.017857144 4:0.035714287 5:0.053571429 9:0.035714287 13:0.053571429 #
139.47772335803875876081292517483 1:0.64285713 2:0.14285715 4:0.071428575 5:0.10714286 13:0.035714287 #
-139.47772335803875876081292517483 1:0.5714286 2:0.17857143 4:0.071428575 5:0.14285715 13:0.035714287 #
139.47772335803875876081292517483 1:0.77380955 2:0.047619049 3:0.023809524 4:0.035714287 5:0.047619049 9:0.035714287 13:0.035714287 #
-139.47772335803875876081292517483 1:0.73809522 2:0.05952381 3:0.023809524 4:0.035714287 5:0.05952381 9:0.035714287 13:0.047619049 #
139.47772335803875876081292517483 1:0.63333333 2:0.083333336 3:0.06666667 4:0.06666667 5:0.06666667 9:0.050000001 13:0.033333335 #
-139.47772335803875876081292517483 1:0.68333334 2:0.050000001 3:0.083333336 4:0.033333335 5:0.016666668 9:0.083333336 13:0.050000001 #
139.47772335803875876081292517483 2:0.5 3:0.1 5:0.2 9:0.1 13:0.1 #
-139.47772335803875876081292517483 2:0.5 3:0.1 5:0.2 9:0.1 13:0.1 #
139.47772335803875876081292517483 1:0.5 2:0.125 4:0.050000001 5:0.175 6:0.075000003 9:0.025 13:0.050000001 #
-139.47772335803875876081292517483 1:0.52499998 2:0.1 3:0.025 4:0.075000003 5:0.125 6:0.075000003 9:0.025 13:0.050000001 #
139.47772335803875876081292517483 1:0.69999999 2:0.033333335 3:0.016666668 4:0.083333336 5:0.050000001 9:0.033333335 13:0.083333336 #
-139.47772335803875876081292517483 1:0.69999999 2:0.033333335 3:0.016666668 4:0.083333336 5:0.050000001 9:0.033333335 13:0.083333336 #
139.47772335803875876081292517483 1:0.5625 2:0.10416666 3:0.041666668 4:0.0625 5:0.083333336 9:0.083333336 13:0.0625 #
-139.47772335803875876081292517483 1:0.5625 2:0.10416666 3:0.041666668 4:0.0625 5:0.083333336 9:0.083333336 13:0.0625 #
139.47772335803875876081292517483 1:0.5 2:0.11111111 3:0.11111111 4:0.055555556 5:0.11111111 8:0.027777778 9:0.027777778 13:0.055555556 #
-139.47772335803875876081292517483 1:0.5 2:0.11111111 3:0.11111111 4:0.055555556 5:0.11111111 8:0.027777778 9:0.027777778 13:0.055555556 #
139.47772335803875876081292517483 1:0.5714286 2:0.11428571 4:0.085714288 5:0.14285715 13:0.085714288 #
-139.47772335803875876081292517483 1:0.5714286 2:0.11428571 4:0.085714288 5:0.14285715 13:0.085714288 #
139.47772335803875876081292517483 1:0.59615386 2:0.096153848 3:0.03846154 4:0.07692308 5:0.096153848 8:0.01923077 9:0.03846154 13:0.03846154 #
-139.47772335803875876081292517483 1:0.59615386 2:0.11538462 3:0.01923077 4:0.07692308 5:0.11538462 9:0.03846154 13:0.03846154 #
139.47772335803875876081292517483 1:0.71428573 3:0.028571429 4:0.057142857 5:0.028571429 9:0.057142857 13:0.057142857 15:0.057142857 #
-139.47772335803875876081292517483 1:0.60000002 3:0.085714288 4:0.057142857 5:0.028571429 9:0.085714288 13:0.14285715 #
139.47772335803875876081292517483 1:0.30000001 2:0.2 3:0.050000001 4:0.1 5:0.25 13:0.1 #
-139.47772335803875876081292517483 1:0.34999999 2:0.15000001 3:0.050000001 4:0.1 5:0.25 13:0.1 #
139.47772335803875876081292517483 1:0.60416669 2:0.10416666 3:0.0625 4:0.041666668 5:0.083333336 9:0.041666668 13:0.041666668 14:0.020833334 #
-139.47772335803875876081292517483 1:0.58333331 2:0.10416666 3:0.041666668 4:0.0625 5:0.10416666 7:0.020833334 9:0.041666668 13:0.041666668 #
139.47772335803875876081292517483 1:0.62 2:0.059999999 3:0.039999999 4:0.079999998 5:0.1 9:0.039999999 13:0.059999999 #
-139.47772335803875876081292517483 1:0.60000002 2:0.1 3:0.039999999 4:0.059999999 5:0.1 9:0.039999999 13:0.059999999 #
139.47772335803875876081292517483 1:0.66666669 2:0.033333335 3:0.033333335 4:0.13333334 9:0.033333335 13:0.1 #
-139.47772335803875876081292517483 1:0.60000002 2:0.033333335 3:0.033333335 4:0.13333334 5:0.033333335 13:0.16666667 #
139.47772335803875876081292517483 1:0.5714286 2:0.14285715 4:0.085714288 5:0.11428571 13:0.085714288 #
-139.47772335803875876081292517483 1:0.5714286 2:0.14285715 4:0.085714288 5:0.11428571 13:0.057142857 16:0.028571429 #
139.47772335803875876081292517483 1:0.63999999 2:0.059999999 3:0.039999999 4:0.059999999 5:0.039999999 8:0.02 9:0.059999999 13:0.079999998 #
-139.47772335803875876081292517483 1:0.63999999 2:0.039999999 3:0.059999999 4:0.079999998 5:0.059999999 9:0.039999999 13:0.059999999 14:0.02 #
139.47772335803875876081292517483 1:0.5 2:0.10714286 3:0.071428575 4:0.035714287 5:0.17857143 6:0.035714287 9:0.035714287 10:0.035714287 #
-139.47772335803875876081292517483 1:0.5 2:0.14285715 3:0.035714287 4:0.035714287 5:0.21428572 9:0.035714287 13:0.035714287 #
139.47772335803875876081292517483 1:0.68518519 2:0.018518519 3:0.037037037 4:0.09259259 5:0.055555556 9:0.037037037 13:0.055555556 14:0.018518519 #
-139.47772335803875876081292517483 1:0.66666669 2:0.055555556 3:0.037037037 4:0.09259259 5:0.055555556 9:0.037037037 13:0.055555556 #
139.47772335803875876081292517483 1:0.47619048 2:0.047619049 3:0.047619049 5:0.19047619 7:0.047619049 9:0.047619049 10:0.047619049 12:0.047619049 13:0.047619049 #
-139.47772335803875876081292517483 1:0.47619048 2:0.047619049 3:0.047619049 5:0.19047619 7:0.047619049 9:0.047619049 12:0.047619049 13:0.047619049 14:0.047619049 #
139.47772335803875876081292517483 1:0.7638889 2:0.069444448 4:0.041666668 5:0.069444448 13:0.055555556 #
-139.47772335803875876081292517483 1:0.77777779 2:0.055555556 4:0.055555556 5:0.055555556 13:0.055555556 #
139.47772335803875876081292517483 1:0.44444445 2:0.083333336 3:0.055555556 4:0.11111111 5:0.083333336 9:0.083333336 13:0.1388889 #
-139.47772335803875876081292517483 1:0.5 2:0.083333336 3:0.083333336 4:0.1388889 5:0.055555556 9:0.027777778 13:0.11111111 #
139.47772335803875876081292517483 1:0.67532468 2:0.077922076 3:0.051948052 4:0.025974026 5:0.077922076 9:0.051948052 11:0.012987013 13:0.025974026 #
-139.47772335803875876081292517483 1:0.6883117 2:0.077922076 3:0.064935066 4:0.025974026 5:0.090909094 9:0.038961038 13:0.012987013 #
139.47772335803875876081292517483 1:0.60000002 2:0.1 3:0.06666667 4:0.033333335 5:0.1 9:0.033333335 13:0.06666667 #
-139.47772335803875876081292517483 1:0.60000002 2:0.1 3:0.06666667 4:0.033333335 5:0.06666667 9:0.06666667 13:0.06666667 #
29.284262346410514510353095829487 1:0.60000002 2:0.085714288 3:0.057142857 4:0.028571429 5:0.085714288 9:0.085714288 10:0.028571429 13:0.028571429 #
-29.284262346410514510353095829487 1:0.48571429 2:0.085714288 3:0.085714288 4:0.057142857 5:0.11428571 9:0.085714288 10:0.028571429 13:0.028571429 15:0.028571429 #
139.47772335803875876081292517483 1:0.75 2:0.03846154 3:0.048076924 4:0.048076924 5:0.028846154 9:0.03846154 13:0.048076924 #
-139.47772335803875876081292517483 1:0.74038464 2:0.03846154 3:0.03846154 4:0.048076924 5:0.03846154 9:0.03846154 11:0.009615385 13:0.048076924 #
8.8489655169235703624508460052311 1:0.62 2:0.02 3:0.039999999 4:0.12 5:0.039999999 7:0.02 9:0.059999999 13:0.079999998 #
-8.8489655169235703624508460052311 1:0.57999998 2:0.039999999 3:0.039999999 4:0.12 5:0.059999999 9:0.039999999 13:0.1 14:0.02 #
139.47772335803875876081292517483 1:0.6388889 2:0.083333336 3:0.041666668 4:0.055555556 5:0.069444448 9:0.041666668 13:0.055555556 16:0.013888889 #
-139.47772335803875876081292517483 1:0.68055558 2:0.055555556 3:0.041666668 4:0.069444448 5:0.069444448 9:0.027777778 13:0.027777778 14:0.013888889 16:0.013888889 #
139.47772335803875876081292517483 1:0.67500001 2:0.025 3:0.050000001 4:0.125 5:0.025 9:0.025 13:0.075000003 #
-139.47772335803875876081292517483 1:0.55000001 2:0.025 3:0.050000001 4:0.125 5:0.050000001 9:0.050000001 13:0.15000001 #
139.47772335803875876081292517483 1:0.58333331 2:0.041666668 3:0.041666668 4:0.041666668 5:0.20833333 9:0.041666668 13:0.041666668 #
-139.47772335803875876081292517483 1:0.58333331 2:0.041666668 3:0.041666668 4:0.041666668 5:0.20833333 9:0.041666668 13:0.041666668 #
139.47772335803875876081292517483 1:0.52499998 2:0.1 3:0.050000001 4:0.025 5:0.15000001 6:0.050000001 9:0.050000001 13:0.050000001 #
-139.47772335803875876081292517483 1:0.57499999 2:0.1 3:0.025 4:0.050000001 5:0.175 9:0.050000001 13:0.025 #
139.47772335803875876081292517483 1:0.60000002 2:0.075000003 3:0.050000001 4:0.050000001 5:0.075000003 9:0.025 13:0.1 16:0.025 #
-139.47772335803875876081292517483 1:0.64999998 2:0.075000003 3:0.025 4:0.050000001 5:0.075000003 9:0.050000001 13:0.050000001 16:0.025 #
139.47772335803875876081292517483 1:0.6785714 2:0.053571429 3:0.035714287 4:0.071428575 5:0.053571429 9:0.035714287 13:0.071428575 #
-139.47772335803875876081292517483 1:0.73214287 2:0.035714287 3:0.017857144 4:0.071428575 5:0.053571429 9:0.017857144 13:0.071428575 #
139.47772335803875876081292517483 1:0.64444447 2:0.13333334 3:0.022222223 4:0.044444446 5:0.088888891 9:0.022222223 10:0.022222223 13:0.022222223 #
-139.47772335803875876081292517483 1:0.64444447 2:0.11111111 3:0.022222223 4:0.044444446 5:0.088888891 7:0.022222223 9:0.044444446 14:0.022222223 #
139.47772335803875876081292517483 1:0.4848485 2:0.090909094 3:0.060606062 4:0.12121212 5:0.12121212 13:0.12121212 #
-139.47772335803875876081292517483 1:0.4848485 2:0.12121212 4:0.12121212 5:0.090909094 9:0.060606062 13:0.12121212 #
139.47772335803875876081292517483 1:0.5 2:0.083333336 3:0.055555556 4:0.083333336 5:0.11111111 9:0.055555556 13:0.083333336 14:0.027777778 #
-139.47772335803875876081292517483 1:0.47222221 2:0.11111111 3:0.055555556 4:0.083333336 5:0.11111111 9:0.027777778 12:0.027777778 13:0.11111111 #
139.47772335803875876081292517483 1:0.69999999 2:0.033333335 3:0.033333335 4:0.083333336 5:0.033333335 9:0.033333335 13:0.083333336 #
-139.47772335803875876081292517483 1:0.66666669 2:0.033333335 3:0.033333335 4:0.083333336 5:0.033333335 9:0.033333335 13:0.11666667 #
139.47772335803875876081292517483 1:0.57999998 2:0.1 3:0.059999999 4:0.039999999 5:0.079999998 9:0.039999999 11:0.02 12:0.02 13:0.039999999 14:0.02 #
-139.47772335803875876081292517483 1:0.57999998 2:0.12 3:0.059999999 4:0.02 5:0.039999999 8:0.039999999 9:0.059999999 11:0.02 13:0.039999999 15:0.02 #
139.47772335803875876081292517483 1:0.6785714 2:0.047619049 3:0.047619049 4:0.071428575 5:0.05952381 9:0.035714287 13:0.05952381 #
-139.47772335803875876081292517483 1:0.69047618 2:0.047619049 3:0.047619049 4:0.05952381 5:0.05952381 9:0.023809524 11:0.011904762 13:0.05952381 #
139.47772335803875876081292517483 1:0.54545456 2:0.12727273 3:0.018181818 4:0.054545455 5:0.12727273 9:0.018181818 11:0.018181818 13:0.090909094 #
-139.47772335803875876081292517483 1:0.61818182 2:0.07272727 3:0.018181818 4:0.07272727 5:0.10909091 6:0.018181818 9:0.018181818 12:0.018181818 13:0.054545455 #
139.47772335803875876081292517483 1:0.60000002 2:0.088888891 3:0.022222223 4:0.06666667 5:0.13333334 9:0.022222223 13:0.06666667 #
-139.47772335803875876081292517483 1:0.64444447 2:0.088888891 3:0.022222223 4:0.022222223 5:0.13333334 9:0.022222223 13:0.044444446 16:0.022222223 #
139.47772335803875876081292517483 1:0.78125 2:0.03125 3:0.0625 4:0.03125 5:0.03125 8:0.015625 13:0.046875 #
-139.47772335803875876081292517483 1:0.703125 2:0.046875 3:0.0625 4:0.03125 5:0.046875 9:0.0625 13:0.046875 #
139.47772335803875876081292517483 1:0.56818181 2:0.11363637 3:0.045454547 4:0.045454547 5:0.11363637 9:0.045454547 13:0.06818182 #
-139.47772335803875876081292517483 1:0.61363637 2:0.11363637 3:0.022727273 4:0.045454547 5:0.11363637 9:0.045454547 13:0.045454547 #
139.47772335803875876081292517483 1:0.6875 2:0.0625 3:0.041666668 4:0.041666668 5:0.083333336 9:0.020833334 13:0.0625 #
-139.47772335803875876081292517483 1:0.66666669 2:0.083333336 3:0.041666668 4:0.041666668 5:0.083333336 9:0.041666668 13:0.041666668 #
139.47772335803875876081292517483 1:0.75 3:0.035714287 4:0.071428575 5:0.035714287 9:0.035714287 13:0.071428575 #
-139.47772335803875876081292517483 1:0.71428573 2:0.035714287 3:0.035714287 4:0.071428575 5:0.035714287 9:0.035714287 13:0.071428575 #
139.47772335803875876081292517483 1:0.38095239 2:0.19047619 4:0.047619049 5:0.2857143 6:0.047619049 10:0.047619049 #
-139.47772335803875876081292517483 1:0.38095239 2:0.19047619 4:0.047619049 5:0.2857143 6:0.047619049 10:0.047619049 #
139.47772335803875876081292517483 1:0.58181816 2:0.036363635 3:0.036363635 4:0.090909094 5:0.036363635 9:0.07272727 10:0.018181818 11:0.018181818 13:0.090909094 16:0.018181818 #
-139.47772335803875876081292517483 1:0.54545456 2:0.036363635 3:0.10909091 4:0.054545455 5:0.036363635 8:0.018181818 9:0.090909094 13:0.07272727 16:0.036363635 #
139.47772335803875876081292517483 1:0.51999998 3:0.079999998 4:0.16 9:0.079999998 13:0.12 16:0.039999999 #
-139.47772335803875876081292517483 1:0.51999998 3:0.12 4:0.12 9:0.039999999 12:0.039999999 13:0.12 16:0.039999999 #
139.47772335803875876081292517483 1:0.71249998 2:0.087499999 4:0.037500001 5:0.087499999 9:0.0125 13:0.037500001 16:0.025 #
-139.47772335803875876081292517483 1:0.72500002 2:0.0625 4:0.0625 5:0.0625 6:0.0125 9:0.0125 13:0.037500001 15:0.0125 16:0.0125 #
139.47772335803875876081292517483 1:0.60000002 2:0.085714288 3:0.028571429 4:0.057142857 5:0.11428571 9:0.028571429 13:0.085714288 #
-139.47772335803875876081292517483 1:0.60000002 2:0.085714288 3:0.028571429 4:0.057142857 5:0.11428571 9:0.028571429 13:0.057142857 14:0.028571429 #
139.47772335803875876081292517483 1:0.65714288 2:0.085714288 3:0.028571429 4:0.028571429 5:0.11428571 8:0.028571429 9:0.028571429 13:0.028571429 #
-139.47772335803875876081292517483 1:0.60000002 2:0.11428571 3:0.028571429 4:0.028571429 5:0.14285715 9:0.028571429 13:0.057142857 #
139.47772335803875876081292517483 1:0.56818181 2:0.045454547 3:0.06818182 4:0.06818182 5:0.06818182 9:0.06818182 13:0.090909094 14:0.022727273 #
-139.47772335803875876081292517483 1:0.54545456 2:0.06818182 3:0.06818182 4:0.090909094 5:0.090909094 8:0.022727273 9:0.022727273 13:0.090909094 #
139.47772335803875876081292517483 1:0.64999998 2:0.050000001 3:0.025 4:0.075000003 5:0.075000003 9:0.050000001 13:0.075000003 #
-139.47772335803875876081292517483 1:0.67500001 2:0.050000001 3:0.050000001 4:0.050000001 5:0.050000001 9:0.050000001 13:0.075000003 #
139.47772335803875876081292517483 1:0.73076922 2:0.03846154 3:0.089743592 4:0.012820513 5:0.03846154 9:0.064102568 13:0.025641026 #
-139.47772335803875876081292517483 1:0.70512819 2:0.051282052 3:0.064102568 4:0.025641026 5:0.051282052 9:0.07692308 13:0.025641026 #
139.47772335803875876081292517483 1:0.78571427 2:0.042857144 4:0.028571429 5:0.11428571 13:0.028571429 #
-139.47772335803875876081292517483 1:0.78571427 2:0.042857144 4:0.028571429 5:0.11428571 13:0.028571429 #
139.47772335803875876081292517483 1:0.6785714 2:0.083333336 3:0.05952381 4:0.011904762 5:0.071428575 9:0.05952381 13:0.035714287 #
-139.47772335803875876081292517483 1:0.71428573 2:0.083333336 3:0.05952381 4:0.011904762 5:0.035714287 9:0.05952381 13:0.035714287 #
139.47772335803875876081292517483 1:0.61333334 2:0.10666667 3:0.06666667 4:0.039999999 5:0.093333334 9:0.026666667 11:0.013333334 13:0.039999999 #
-139.47772335803875876081292517483 1:0.60000002 2:0.079999998 3:0.06666667 4:0.039999999 5:0.093333334 9:0.053333335 11:0.013333334 13:0.053333335 #
139.47772335803875876081292517483 1:0.68888891 2:0.022222223 3:0.044444446 4:0.11111111 5:0.022222223 13:0.11111111 #
-139.47772335803875876081292517483 1:0.64444447 2:0.022222223 3:0.044444446 4:0.11111111 5:0.022222223 9:0.044444446 13:0.11111111 #
139.47772335803875876081292517483 1:0.33333334 2:0.11111111 4:0.11111111 5:0.16666667 8:0.055555556 13:0.11111111 14:0.055555556 16:0.055555556 #
-139.47772335803875876081292517483 1:0.33333334 2:0.11111111 4:0.11111111 5:0.16666667 8:0.055555556 13:0.11111111 14:0.055555556 16:0.055555556 #
139.47772335803875876081292517483 1:0.64814812 2:0.09259259 3:0.055555556 4:0.018518519 5:0.09259259 8:0.018518519 9:0.037037037 13:0.018518519 14:0.018518519 #
-139.47772335803875876081292517483 1:0.66666669 2:0.037037037 3:0.074074075 4:0.037037037 5:0.09259259 8:0.018518519 9:0.018518519 10:0.018518519 13:0.018518519 14:0.018518519 #
139.47772335803875876081292517483 1:0.63265306 2:0.081632651 3:0.020408163 4:0.06122449 5:0.10204082 9:0.020408163 13:0.06122449 16:0.020408163 #
-139.47772335803875876081292517483 1:0.6122449 2:0.10204082 4:0.06122449 5:0.10204082 9:0.020408163 13:0.081632651 16:0.020408163 #
139.47772335803875876081292517483 1:0.75824177 2:0.065934069 4:0.043956045 5:0.065934069 9:0.021978023 13:0.043956045 #
-139.47772335803875876081292517483 1:0.74725276 2:0.054945055 3:0.021978023 4:0.054945055 5:0.043956045 9:0.021978023 13:0.054945055 #
139.47772335803875876081292517483 1:0.56666666 2:0.1 3:0.033333335 4:0.06666667 5:0.1 9:0.06666667 13:0.06666667 #
-139.47772335803875876081292517483 1:0.61666667 2:0.050000001 3:0.06666667 4:0.06666667 5:0.1 9:0.033333335 13:0.06666667 #
139.47772335803875876081292517483 1:0.625 2:0.175 4:0.025 5:0.125 9:0.025 13:0.025 #
-139.47772335803875876081292517483 1:0.60000002 2:0.175 4:0.025 5:0.125 7:0.025 10:0.025 13:0.025 #
139.47772335803875876081292517483 1:0.40000001 2:0.06666667 3:0.13333334 4:0.1 5:0.06666667 9:0.16666667 13:0.06666667 #
-139.47772335803875876081292517483 1:0.53333336 2:0.1 3:0.13333334 4:0.033333335 5:0.033333335 8:0.033333335 9:0.06666667 13:0.06666667 #
38.923078228493977803736925125122 1:0.78571427 2:0.053571429 4:0.035714287 5:0.071428575 9:0.017857144 13:0.035714287 #
-38.923078228493977803736925125122 1:0.73214287 2:0.071428575 3:0.017857144 4:0.053571429 5:0.053571429 9:0.017857144 13:0.053571429 #
139.47772335803875876081292517483 1:0.36666667 2:0.16666667 3:0.06666667 4:0.06666667 5:0.13333334 9:0.033333335 11:0.033333335 12:0.033333335 13:0.1 #
-139.47772335803875876081292517483 1:0.40000001 2:0.16666667 3:0.06666667 4:0.033333335 5:0.1 8:0.033333335 9:0.033333335 11:0.033333335 12:0.033333335 13:0.1 #
139.47772335803875876081292517483 1:0.60000002 2:0.12 4:0.079999998 5:0.12 13:0.079999998 #
-139.47772335803875876081292517483 1:0.63999999 2:0.12 4:0.079999998 5:0.079999998 13:0.079999998 #
139.47772335803875876081292517483 1:0.54285717 2:0.085714288 3:0.057142857 4:0.085714288 5:0.085714288 9:0.057142857 13:0.028571429 14:0.028571429 15:0.028571429 #
-139.47772335803875876081292517483 1:0.51428574 2:0.085714288 3:0.057142857 4:0.028571429 5:0.085714288 8:0.028571429 9:0.085714288 13:0.085714288 16:0.028571429 #
139.47772335803875876081292517483 1:0.75961536 2:0.048076924 3:0.01923077 4:0.057692308 5:0.048076924 9:0.009615385 13:0.057692308 #
-139.47772335803875876081292517483 1:0.76923078 2:0.03846154 3:0.009615385 4:0.057692308 5:0.048076924 9:0.01923077 13:0.057692308 #
139.47772335803875876081292517483 1:0.73750001 2:0.037500001 3:0.037500001 4:0.037500001 5:0.025 7:0.0125 9:0.037500001 12:0.0125 13:0.0625 #
-139.47772335803875876081292517483 1:0.73750001 2:0.037500001 3:0.037500001 4:0.050000001 5:0.025 7:0.0125 9:0.037500001 11:0.0125 13:0.050000001 #
139.47772335803875876081292517483 1:0.64999998 2:0.050000001 3:0.083333336 4:0.050000001 5:0.033333335 9:0.083333336 13:0.050000001 #
-139.47772335803875876081292517483 1:0.71666664 2:0.06666667 3:0.016666668 4:0.033333335 5:0.06666667 9:0.06666667 13:0.033333335 #
139.47772335803875876081292517483 1:0.62962961 2:0.037037037 3:0.018518519 4:0.074074075 5:0.055555556 8:0.018518519 9:0.037037037 11:0.018518519 13:0.074074075 14:0.018518519 16:0.018518519 #
-139.47772335803875876081292517483 1:0.62962961 2:0.055555556 3:0.055555556 4:0.074074075 5:0.037037037 8:0.018518519 9:0.037037037 13:0.055555556 14:0.018518519 16:0.018518519 #
139.47772335803875876081292517483 1:0.7037037 2:0.037037037 3:0.018518519 4:0.074074075 5:0.055555556 7:0.018518519 9:0.037037037 13:0.055555556 #
-139.47772335803875876081292517483 1:0.62962961 2:0.074074075 3:0.037037037 4:0.074074075 5:0.074074075 9:0.037037037 13:0.074074075 #
139.47772335803875876081292517483 1:0.55555558 2:0.055555556 3:0.018518519 4:0.14814815 5:0.055555556 9:0.018518519 13:0.12962963 16:0.018518519 #
-139.47772335803875876081292517483 1:0.6111111 2:0.037037037 3:0.018518519 4:0.11111111 5:0.055555556 9:0.018518519 13:0.11111111 16:0.037037037 #
78.109072447099691771654761396348 1:0.6111111 2:0.018518519 3:0.074074075 4:0.074074075 5:0.055555556 9:0.074074075 13:0.09259259 #
-78.109072447099691771654761396348 1:0.66666669 2:0.055555556 3:0.037037037 4:0.037037037 5:0.055555556 7:0.018518519 9:0.037037037 12:0.018518519 13:0.055555556 16:0.018518519 #
139.47772335803875876081292517483 1:0.66666669 2:0.016666668 3:0.050000001 4:0.1 5:0.016666668 7:0.016666668 9:0.050000001 13:0.083333336 #
-139.47772335803875876081292517483 1:0.63333333 2:0.033333335 3:0.06666667 4:0.06666667 5:0.033333335 9:0.06666667 13:0.083333336 16:0.016666668 #
139.47772335803875876081292517483 1:0.63333333 2:0.033333335 3:0.06666667 4:0.06666667 5:0.1 9:0.06666667 13:0.033333335 #
-139.47772335803875876081292517483 1:0.63333333 2:0.06666667 3:0.033333335 4:0.033333335 5:0.06666667 8:0.033333335 9:0.06666667 13:0.06666667 #
139.47772335803875876081292517483 1:0.62857145 2:0.085714288 3:0.028571429 4:0.085714288 5:0.057142857 9:0.028571429 13:0.085714288 #
-139.47772335803875876081292517483 1:0.65714288 2:0.085714288 3:0.028571429 4:0.085714288 5:0.028571429 9:0.028571429 13:0.085714288 #
139.47772335803875876081292517483 1:0.54285717 2:0.14285715 4:0.057142857 5:0.14285715 8:0.028571429 13:0.085714288 #
-139.47772335803875876081292517483 1:0.5714286 2:0.11428571 4:0.085714288 5:0.11428571 8:0.028571429 13:0.085714288 #
139.47772335803875876081292517483 1:0.55555558 2:0.22222222 5:0.18518518 9:0.037037037 #
-139.47772335803875876081292517483 1:0.51851851 2:0.18518518 3:0.037037037 5:0.22222222 9:0.037037037 #
139.47772335803875876081292517483 1:0.77884614 2:0.03846154 3:0.009615385 4:0.067307696 5:0.028846154 9:0.01923077 13:0.057692308 #
-139.47772335803875876081292517483 1:0.74038464 2:0.03846154 3:0.009615385 4:0.067307696 5:0.048076924 9:0.01923077 13:0.07692308 #
139.47772335803875876081292517483 1:0.65333331 2:0.026666667 3:0.079999998 4:0.06666667 5:0.026666667 8:0.013333334 9:0.06666667 13:0.06666667 #
-139.47772335803875876081292517483 1:0.63999999 2:0.039999999 3:0.06666667 4:0.079999998 5:0.026666667 9:0.06666667 13:0.079999998 #
139.47772335803875876081292517483 1:0.71428573 2:0.095238097 4:0.023809524 5:0.11904762 13:0.023809524 16:0.023809524 #
-139.47772335803875876081292517483 1:0.64285713 2:0.095238097 4:0.071428575 5:0.11904762 13:0.071428575 #
139.47772335803875876081292517483 1:0.2 2:0.1 3:0.1 4:0.15000001 5:0.1 9:0.15000001 13:0.2 #
-139.47772335803875876081292517483 1:0.34999999 2:0.1 3:0.15000001 4:0.2 5:0.1 9:0.050000001 13:0.050000001 #
139.47772335803875876081292517483 1:0.63999999 2:0.06666667 3:0.026666667 4:0.06666667 5:0.06666667 9:0.039999999 13:0.079999998 16:0.013333334 #
-139.47772335803875876081292517483 1:0.62666667 2:0.053333335 3:0.026666667 4:0.093333334 5:0.06666667 9:0.039999999 13:0.079999998 15:0.013333334 #
139.47772335803875876081292517483 1:0.66666669 2:0.022222223 3:0.022222223 4:0.06666667 5:0.06666667 7:0.022222223 9:0.044444446 13:0.088888891 #
-139.47772335803875876081292517483 1:0.71111113 2:0.022222223 3:0.022222223 4:0.06666667 5:0.044444446 7:0.022222223 9:0.044444446 13:0.06666667 #
139.47772335803875876081292517483 1:0.65909094 2:0.13636364 3:0.022727273 4:0.045454547 5:0.090909094 6:0.022727273 13:0.022727273 #
-139.47772335803875876081292517483 1:0.5 2:0.18181819 3:0.022727273 4:0.022727273 5:0.20454545 9:0.022727273 13:0.045454547 #
139.47772335803875876081292517483 1:0.52499998 2:0.075000003 3:0.1 4:0.025 5:0.050000001 9:0.1 11:0.075000003 13:0.050000001 #
-139.47772335803875876081292517483 1:0.55000001 2:0.075000003 3:0.125 4:0.025 5:0.050000001 6:0.025 9:0.050000001 11:0.050000001 13:0.050000001 #
139.47772335803875876081292517483 1:0.34999999 2:0.1 4:0.15000001 5:0.1 6:0.050000001 7:0.050000001 9:0.050000001 13:0.15000001 #
-139.47772335803875876081292517483 1:0.30000001 2:0.2 3:0.050000001 4:0.050000001 5:0.15000001 8:0.050000001 9:0.050000001 13:0.1 16:0.050000001 #
139.47772335803875876081292517483 1:0.64615387 2:0.030769231 3:0.061538462 4:0.061538462 5:0.061538462 9:0.07692308 13:0.061538462 #
-139.47772335803875876081292517483 1:0.63076925 2:0.061538462 3:0.061538462 4:0.046153847 5:0.061538462 9:0.07692308 13:0.061538462 #
139.47772335803875876081292517483 1:0.72727275 2:0.051948052 3:0.012987013 4:0.064935066 5:0.064935066 9:0.025974026 13:0.051948052 #
-139.47772335803875876081292517483 1:0.77922076 2:0.025974026 3:0.012987013 4:0.038961038 5:0.051948052 6:0.012987013 9:0.025974026 13:0.051948052 #
139.47772335803875876081292517483 1:0.59090906 2:0.090909094 3:0.022727273 4:0.06818182 5:0.13636364 6:0.022727273 9:0.022727273 13:0.045454547 #
-139.47772335803875876081292517483 1:0.56818181 2:0.11363637 3:0.045454547 4:0.045454547 5:0.13636364 6:0.022727273 9:0.022727273 13:0.045454547 #
139.47772335803875876081292517483 1:0.55555558 2:0.1388889 3:0.027777778 4:0.055555556 5:0.1388889 9:0.027777778 13:0.055555556 #
-139.47772335803875876081292517483 1:0.6111111 2:0.083333336 4:0.083333336 5:0.1388889 9:0.027777778 13:0.055555556 #
139.47772335803875876081292517483 1:0.64444447 2:0.11111111 4:0.044444446 5:0.088888891 7:0.022222223 12:0.022222223 13:0.044444446 15:0.022222223 #
-139.47772335803875876081292517483 1:0.60000002 2:0.088888891 4:0.06666667 5:0.11111111 7:0.022222223 9:0.044444446 13:0.044444446 14:0.022222223 #
139.47772335803875876081292517483 1:0.52380955 2:0.19047619 4:0.095238097 5:0.14285715 13:0.047619049 #
-139.47772335803875876081292517483 1:0.42857143 2:0.19047619 4:0.095238097 5:0.19047619 13:0.095238097 #
139.47772335803875876081292517483 1:0.58333331 2:0.083333336 4:0.083333336 5:0.083333336 9:0.083333336 13:0.083333336 #
-139.47772335803875876081292517483 1:0.66666669 2:0.083333336 4:0.083333336 5:0.083333336 9:0.083333336 #
139.47772335803875876081292517483 1:0.62857145 2:0.057142857 3:0.028571429 4:0.085714288 5:0.085714288 9:0.028571429 13:0.085714288 #
-139.47772335803875876081292517483 1:0.65714288 2:0.085714288 4:0.057142857 5:0.085714288 9:0.028571429 13:0.085714288 #
139.47772335803875876081292517483 1:0.60000002 2:0.1 3:0.025 4:0.075000003 5:0.1 9:0.025 13:0.075000003 #
-139.47772335803875876081292517483 1:0.69999999 2:0.025 3:0.025 4:0.050000001 5:0.1 9:0.025 13:0.075000003 #
139.47772335803875876081292517483 1:0.64814812 2:0.037037037 3:0.055555556 4:0.055555556 5:0.037037037 8:0.018518519 9:0.055555556 10:0.018518519 13:0.074074075 #
-139.47772335803875876081292517483 1:0.62962961 2:0.055555556 3:0.055555556 4:0.074074075 5:0.055555556 9:0.037037037 12:0.018518519 13:0.055555556 15:0.018518519 #
139.47772335803875876081292517483 1:0.65384614 2:0.07692308 4:0.03846154 5:0.15384616 13:0.07692308 #
-139.47772335803875876081292517483 1:0.65384614 2:0.07692308 4:0.03846154 5:0.15384616 13:0.07692308 #
139.47772335803875876081292517483 1:0.5 2:0.083333336 4:0.16666667 5:0.16666667 13:0.083333336 #
-139.47772335803875876081292517483 1:0.5 2:0.16666667 4:0.083333336 5:0.16666667 13:0.083333336 #
139.47772335803875876081292517483 1:0.75 2:0.037500001 3:0.025 4:0.050000001 5:0.025 7:0.0125 9:0.050000001 13:0.050000001 #
-139.47772335803875876081292517483 1:0.77499998 2:0.025 3:0.025 4:0.050000001 5:0.025 9:0.050000001 13:0.050000001 #
139.47772335803875876081292517483 1:0.61538464 2:0.096153848 3:0.11538462 4:0.01923077 5:0.07692308 9:0.057692308 13:0.01923077 #
-139.47772335803875876081292517483 1:0.53846157 2:0.07692308 3:0.11538462 4:0.01923077 5:0.11538462 9:0.11538462 13:0.01923077 #
139.47772335803875876081292517483 1:0.42222223 2:0.088888891 3:0.044444446 4:0.088888891 5:0.088888891 8:0.022222223 9:0.06666667 13:0.088888891 16:0.088888891 #
-139.47772335803875876081292517483 1:0.40000001 2:0.088888891 3:0.06666667 4:0.11111111 5:0.06666667 8:0.022222223 9:0.044444446 13:0.13333334 16:0.06666667 #
139.47772335803875876081292517483 1:0.44444445 2:0.055555556 3:0.11111111 4:0.11111111 5:0.11111111 9:0.055555556 13:0.055555556 14:0.055555556 #
-139.47772335803875876081292517483 1:0.44444445 2:0.11111111 3:0.11111111 4:0.055555556 5:0.055555556 8:0.055555556 9:0.055555556 13:0.11111111 #
139.47772335803875876081292517483 1:0.6883117 2:0.051948052 3:0.025974026 4:0.064935066 5:0.051948052 9:0.012987013 10:0.025974026 13:0.064935066 15:0.012987013 #
-139.47772335803875876081292517483 1:0.67532468 2:0.051948052 3:0.038961038 4:0.051948052 5:0.077922076 9:0.012987013 10:0.012987013 12:0.012987013 13:0.064935066 #
139.47772335803875876081292517483 1:0.38095239 2:0.23809524 5:0.23809524 6:0.047619049 8:0.047619049 13:0.047619049 #
-139.47772335803875876081292517483 1:0.42857143 2:0.23809524 5:0.19047619 6:0.095238097 13:0.047619049 #
139.47772335803875876081292517483 1:0.55000001 2:0.1 3:0.050000001 5:0.050000001 9:0.1 11:0.1 13:0.050000001 #
-139.47772335803875876081292517483 1:0.60000002 2:0.050000001 3:0.050000001 4:0.050000001 5:0.1 11:0.15000001 #
139.47772335803875876081292517483 1:0.60416669 2:0.083333336 3:0.041666668 4:0.041666668 5:0.083333336 9:0.020833334 11:0.020833334 13:0.041666668 16:0.0625 #
-139.47772335803875876081292517483 1:0.58333331 2:0.083333336 3:0.0625 4:0.0625 5:0.0625 9:0.041666668 13:0.0625 16:0.041666668 #
139.47772335803875876081292517483 1:0.72500002 2:0.025 3:0.1 4:0.025 5:0.025 9:0.075000003 13:0.025 #
-139.47772335803875876081292517483 1:0.60000002 2:0.025 3:0.125 4:0.050000001 5:0.025 9:0.125 13:0.050000001 #
139.47772335803875876081292517483 1:0.60000002 2:0.14285715 3:0.057142857 4:0.028571429 5:0.11428571 9:0.028571429 13:0.028571429 #
-139.47772335803875876081292517483 1:0.62857145 2:0.11428571 3:0.028571429 4:0.028571429 5:0.11428571 9:0.057142857 13:0.028571429 #
139.47772335803875876081292517483 1:0.66666669 2:0.055555556 3:0.027777778 4:0.069444448 5:0.055555556 9:0.027777778 10:0.013888889 11:0.013888889 13:0.055555556 15:0.013888889 #
-139.47772335803875876081292517483 1:0.68055558 2:0.069444448 3:0.027777778 4:0.041666668 5:0.055555556 8:0.013888889 9:0.041666668 13:0.069444448 #
139.47772335803875876081292517483 1:0.55555558 2:0.083333336 3:0.055555556 4:0.055555556 5:0.083333336 8:0.027777778 9:0.027777778 13:0.083333336 16:0.027777778 #
-139.47772335803875876081292517483 1:0.58333331 2:0.055555556 3:0.055555556 4:0.083333336 5:0.055555556 9:0.027777778 13:0.083333336 14:0.027777778 16:0.027777778 #
139.47772335803875876081292517483 1:0.69999999 2:0.1 5:0.1 13:0.1 #
-139.47772335803875876081292517483 1:0.69999999 2:0.1 5:0.1 13:0.1 #
139.47772335803875876081292517483 1:0.6388889 2:0.027777778 3:0.083333336 4:0.055555556 5:0.027777778 9:0.083333336 13:0.055555556 16:0.027777778 #
-139.47772335803875876081292517483 1:0.6388889 2:0.027777778 3:0.083333336 4:0.083333336 9:0.11111111 13:0.027777778 15:0.027777778 #
139.47772335803875876081292517483 1:0.64285713 2:0.071428575 3:0.047619049 4:0.047619049 5:0.071428575 9:0.095238097 13:0.023809524 #
-139.47772335803875876081292517483 1:0.66666669 2:0.047619049 3:0.047619049 5:0.071428575 8:0.023809524 9:0.071428575 10:0.023809524 13:0.023809524 15:0.023809524 #
139.47772335803875876081292517483 1:0.76623374 2:0.038961038 3:0.025974026 4:0.025974026 5:0.077922076 9:0.025974026 13:0.038961038 #
-139.47772335803875876081292517483 1:0.74025977 2:0.064935066 3:0.012987013 4:0.038961038 5:0.077922076 9:0.025974026 13:0.038961038 #
139.47772335803875876081292517483 1:0.57692307 2:0.057692308 3:0.096153848 4:0.01923077 5:0.13461539 9:0.07692308 13:0.01923077 16:0.01923077 #
-139.47772335803875876081292517483 1:0.61538464 2:0.057692308 3:0.07692308 4:0.03846154 5:0.11538462 9:0.057692308 13:0.01923077 15:0.01923077 #
139.47772335803875876081292517483 1:0.64285713 2:0.047619049 4:0.11904762 5:0.047619049 9:0.023809524 13:0.11904762 #
-139.47772335803875876081292517483 1:0.64285713 2:0.047619049 3:0.023809524 4:0.095238097 5:0.047619049 9:0.023809524 13:0.095238097 16:0.023809524 #
139.47772335803875876081292517483 1:0.73333335 2:0.06666667 3:0.06666667 4:0.033333335 5:0.033333335 9:0.033333335 13:0.033333335 #
-139.47772335803875876081292517483 1:0.69999999 2:0.06666667 3:0.06666667 4:0.033333335 5:0.06666667 9:0.06666667 #
139.47772335803875876081292517483 1:0.68333334 2:0.050000001 3:0.033333335 4:0.083333336 5:0.033333335 9:0.033333335 13:0.083333336 #
-139.47772335803875876081292517483 1:0.71666664 2:0.050000001 3:0.033333335 4:0.083333336 5:0.033333335 9:0.016666668 13:0.06666667 #
139.47772335803875876081292517483 1:0.60000002 2:0.125 3:0.025 4:0.1 5:0.075000003 13:0.075000003 #
-139.47772335803875876081292517483 1:0.52499998 2:0.1 3:0.025 4:0.1 5:0.125 9:0.025 13:0.1 #
139.47772335803875876081292517483 1:0.625 2:0.075000003 3:0.1 4:0.025 5:0.050000001 9:0.1 13:0.025 #
-139.47772335803875876081292517483 1:0.625 2:0.075000003 3:0.1 4:0.025 5:0.1 9:0.075000003 #
139.47772335803875876081292517483 1:0.38095239 2:0.19047619 3:0.095238097 4:0.095238097 5:0.14285715 9:0.047619049 13:0.047619049 #
-139.47772335803875876081292517483 1:0.47619048 2:0.14285715 3:0.047619049 4:0.095238097 5:0.095238097 6:0.047619049 9:0.047619049 13:0.047619049 #
139.47772335803875876081292517483 1:0.79365081 2:0.031746034 3:0.015873017 4:0.063492067 5:0.031746034 9:0.031746034 13:0.031746034 #
-139.47772335803875876081292517483 1:0.77777779 2:0.047619049 3:0.015873017 4:0.063492067 5:0.031746034 9:0.031746034 13:0.031746034 #
139.47772335803875876081292517483 1:0.66666669 2:0.06666667 3:0.016666668 4:0.050000001 5:0.13333334 9:0.016666668 13:0.050000001 #
-139.47772335803875876081292517483 1:0.69999999 2:0.11666667 4:0.033333335 5:0.1 9:0.016666668 13:0.033333335 #
86.217404625720405419997405260801 1:0.6388889 3:0.027777778 4:0.11111111 5:0.055555556 9:0.027777778 10:0.027777778 11:0.027777778 13:0.055555556 15:0.027777778 #
-86.217404625720405419997405260801 1:0.66666669 2:0.055555556 3:0.027777778 4:0.027777778 5:0.027777778 7:0.027777778 9:0.027777778 12:0.027777778 13:0.055555556 15:0.027777778 16:0.027777778 #
139.47772335803875876081292517483 1:0.53333336 2:0.13333334 4:0.06666667 5:0.13333334 13:0.13333334 #
-139.47772335803875876081292517483 1:0.46666667 2:0.06666667 4:0.06666667 5:0.2 6:0.06666667 13:0.13333334 #
139.47772335803875876081292517483 1:0.33333334 4:0.33333334 13:0.27777779 16:0.055555556 #
-139.47772335803875876081292517483 1:0.3888889 4:0.27777779 13:0.33333334 #
118.67856995726938862389943096787 1:0.66666669 2:0.023809524 3:0.023809524 4:0.095238097 5:0.047619049 9:0.023809524 13:0.095238097 14:0.023809524 #
-118.67856995726938862389943096787 1:0.61904764 2:0.071428575 3:0.023809524 4:0.11904762 5:0.071428575 13:0.095238097 #
139.47772335803875876081292517483 1:0.7361111 2:0.041666668 3:0.013888889 4:0.055555556 5:0.055555556 9:0.027777778 13:0.069444448 #
-139.47772335803875876081292517483 1:0.72222221 2:0.041666668 3:0.013888889 4:0.069444448 5:0.041666668 6:0.013888889 9:0.027777778 13:0.069444448 #
139.47772335803875876081292517483 1:0.44444445 2:0.14814815 4:0.11111111 5:0.18518518 13:0.11111111 #
-139.47772335803875876081292517483 1:0.48148149 2:0.11111111 4:0.11111111 5:0.14814815 6:0.037037037 13:0.11111111 #
139.47772335803875876081292517483 1:0.80555558 2:0.083333336 5:0.055555556 9:0.027777778 13:0.027777778 #
-139.47772335803875876081292517483 1:0.72222221 2:0.055555556 3:0.027777778 4:0.027777778 5:0.11111111 9:0.027777778 13:0.027777778 #
139.47772335803875876081292517483 1:0.60416669 2:0.10416666 3:0.020833334 4:0.020833334 5:0.14583333 9:0.041666668 13:0.0625 #
-139.47772335803875876081292517483 1:0.625 2:0.10416666 3:0.020833334 4:0.020833334 5:0.14583333 9:0.020833334 13:0.0625 #
139.47772335803875876081292517483 1:0.7410714 2:0.026785715 3:0.035714287 4:0.053571429 5:0.053571429 9:0.026785715 13:0.0625 #
-139.47772335803875876081292517483 1:0.73214287 2:0.053571429 3:0.026785715 4:0.044642858 5:0.053571429 9:0.026785715 13:0.0625 #
139.47772335803875876081292517483 1:0.5714286 2:0.14285715 3:0.028571429 4:0.028571429 5:0.11428571 10:0.028571429 13:0.057142857 16:0.028571429 #
-139.47772335803875876081292517483 1:0.48571429 2:0.17142858 3:0.028571429 4:0.057142857 5:0.17142858 10:0.028571429 13:0.057142857 #
139.47772335803875876081292517483 1:0.76190478 3:0.063492067 4:0.079365082 9:0.031746034 13:0.063492067 #
-139.47772335803875876081292517483 1:0.76190478 3:0.063492067 4:0.063492067 9:0.047619049 13:0.063492067 #
139.47772335803875876081292517483 1:0.5777778 2:0.088888891 3:0.088888891 4:0.044444446 5:0.11111111 9:0.06666667 13:0.022222223 #
-139.47772335803875876081292517483 1:0.68888891 2:0.044444446 3:0.06666667 4:0.022222223 5:0.044444446 6:0.022222223 9:0.06666667 13:0.044444446 #
139.47772335803875876081292517483 1:0.58333331 2:0.125 5:0.125 8:0.041666668 9:0.041666668 10:0.041666668 15:0.041666668 #
-139.47772335803875876081292517483 1:0.54166669 2:0.16666667 3:0.041666668 5:0.125 8:0.041666668 9:0.041666668 15:0.041666668 #
139.47772335803875876081292517483 1:0.59722221 2:0.041666668 3:0.097222224 4:0.041666668 5:0.083333336 9:0.097222224 13:0.041666668 #
-139.47772335803875876081292517483 1:0.6111111 2:0.041666668 3:0.097222224 4:0.027777778 5:0.069444448 8:0.013888889 9:0.097222224 13:0.041666668 #
139.47772335803875876081292517483 1:0.60000002 2:0.02 3:0.079999998 4:0.079999998 5:0.039999999 9:0.079999998 11:0.02 13:0.059999999 15:0.02 #
-139.47772335803875876081292517483 1:0.60000002 2:0.039999999 3:0.079999998 4:0.059999999 5:0.02 9:0.12 13:0.059999999 16:0.02 #
139.47772335803875876081292517483 1:0.66666669 2:0.088888891 4:0.044444446 5:0.11111111 13:0.044444446 16:0.044444446 #
-139.47772335803875876081292517483 1:0.62222224 2:0.088888891 4:0.06666667 5:0.13333334 13:0.06666667 16:0.022222223 #
139.47772335803875876081292517483 1:0.53571427 2:0.071428575 3:0.071428575 4:0.10714286 5:0.035714287 9:0.071428575 13:0.10714286 #
-139.47772335803875876081292517483 1:0.5714286 2:0.035714287 3:0.071428575 4:0.10714286 5:0.071428575 13:0.14285715 #
139.47772335803875876081292517483 1:0.60000002 2:0.15555556 4:0.044444446 5:0.13333334 7:0.022222223 13:0.044444446 #
-139.47772335803875876081292517483 1:0.5777778 2:0.15555556 4:0.044444446 5:0.15555556 9:0.022222223 13:0.044444446 #
139.47772335803875876081292517483 1:0.73076922 2:0.03846154 3:0.028846154 4:0.07692308 5:0.03846154 9:0.01923077 13:0.067307696 #
-139.47772335803875876081292517483 1:0.75 2:0.028846154 3:0.028846154 4:0.067307696 5:0.028846154 6:0.009615385 9:0.009615385 12:0.009615385 13:0.067307696 #
139.47772335803875876081292517483 1:0.59523809 2:0.023809524 3:0.095238097 4:0.071428575 5:0.095238097 9:0.071428575 13:0.023809524 14:0.023809524 #
-139.47772335803875876081292517483 1:0.45238096 2:0.047619049 3:0.095238097 4:0.071428575 5:0.095238097 9:0.14285715 13:0.095238097 #
139.47772335803875876081292517483 1:0.48148149 2:0.11111111 3:0.14814815 4:0.037037037 5:0.14814815 13:0.074074075 #
-139.47772335803875876081292517483 1:0.48148149 2:0.14814815 4:0.074074075 5:0.11111111 9:0.14814815 13:0.037037037 #
139.47772335803875876081292517483 1:0.16666667 4:0.33333334 13:0.33333334 16:0.16666667 #
-139.47772335803875876081292517483 1:0.16666667 4:0.33333334 13:0.33333334 16:0.16666667 #
139.47772335803875876081292517483 1:0.72916669 2:0.020833334 3:0.020833334 4:0.0625 5:0.0625 6:0.020833334 13:0.083333336 #
-139.47772335803875876081292517483 1:0.66666669 2:0.0625 3:0.020833334 4:0.083333336 5:0.083333336 9:0.020833334 13:0.0625 #
139.47772335803875876081292517483 1:0.52272725 2:0.06818182 3:0.06818182 4:0.06818182 5:0.090909094 9:0.090909094 11:0.022727273 13:0.045454547 15:0.022727273 #
-139.47772335803875876081292517483 1:0.52272725 2:0.06818182 3:0.090909094 4:0.045454547 5:0.090909094 9:0.090909094 12:0.022727273 13:0.045454547 15:0.022727273 #
139.47772335803875876081292517483 1:0.53125 2:0.125 4:0.0625 5:0.09375 6:0.03125 8:0.03125 9:0.03125 13:0.09375 #
-139.47772335803875876081292517483 1:0.46875 2:0.09375 3:0.03125 4:0.09375 5:0.15625 10:0.03125 13:0.09375 14:0.03125 #
139.47772335803875876081292517483 1:0.67948717 2:0.051282052 3:0.064102568 4:0.051282052 5:0.064102568 9:0.051282052 13:0.03846154 #
-139.47772335803875876081292517483 1:0.71794873 2:0.051282052 3:0.025641026 4:0.03846154 5:0.051282052 9:0.064102568 13:0.03846154 16:0.012820513 #
139.47772335803875876081292517483 1:0.62857145 2:0.057142857 3:0.042857144 4:0.057142857 5:0.057142857 9:0.085714288 13:0.071428575 #
-139.47772335803875876081292517483 1:0.62857145 2:0.057142857 3:0.042857144 4:0.057142857 5:0.057142857 9:0.085714288 13:0.071428575 #
139.47772335803875876081292517483 1:0.76249999 2:0.037500001 3:0.025 4:0.050000001 5:0.050000001 9:0.025 13:0.050000001 #
-139.47772335803875876081292517483 1:0.73750001 2:0.050000001 3:0.025 4:0.050000001 5:0.050000001 9:0.025 13:0.0625 #
139.47772335803875876081292517483 1:0.73333335 2:0.044444446 3:0.044444446 4:0.044444446 5:0.033333335 6:0.011111111 9:0.044444446 13:0.044444446 #
-139.47772335803875876081292517483 1:0.67777777 2:0.06666667 3:0.055555556 4:0.055555556 5:0.055555556 9:0.044444446 13:0.044444446 #
139.47772335803875876081292517483 1:0.69047618 2:0.023809524 3:0.023809524 4:0.095238097 8:0.023809524 13:0.14285715 #
-139.47772335803875876081292517483 1:0.69047618 2:0.023809524 3:0.023809524 4:0.095238097 5:0.023809524 9:0.023809524 13:0.11904762 #
139.47772335803875876081292517483 1:0.63999999 2:0.1 3:0.039999999 4:0.059999999 5:0.079999998 9:0.039999999 13:0.039999999 #
-139.47772335803875876081292517483 1:0.60000002 2:0.1 3:0.039999999 4:0.059999999 5:0.079999998 9:0.059999999 13:0.059999999 #
139.47772335803875876081292517483 1:0.35714287 2:0.071428575 3:0.071428575 4:0.14285715 5:0.071428575 13:0.14285715 16:0.14285715 #
-139.47772335803875876081292517483 1:0.2857143 2:0.071428575 4:0.14285715 5:0.14285715 9:0.071428575 13:0.14285715 16:0.14285715 #
139.47772335803875876081292517483 1:0.6111111 2:0.09259259 4:0.055555556 5:0.09259259 8:0.037037037 9:0.018518519 13:0.09259259 #
-139.47772335803875876081292517483 1:0.64814812 2:0.074074075 3:0.018518519 4:0.074074075 5:0.074074075 6:0.018518519 13:0.09259259 #
139.47772335803875876081292517483 1:0.64285713 2:0.057142857 3:0.042857144 4:0.057142857 5:0.085714288 9:0.042857144 13:0.071428575 #
-139.47772335803875876081292517483 1:0.65714288 2:0.057142857 3:0.028571429 4:0.057142857 5:0.085714288 9:0.042857144 13:0.071428575 #
139.47772335803875876081292517483 1:0.65714288 2:0.085714288 3:0.042857144 4:0.057142857 5:0.028571429 8:0.014285714 9:0.042857144 13:0.071428575 #
-139.47772335803875876081292517483 1:0.65714288 2:0.11428571 3:0.014285714 4:0.057142857 5:0.042857144 9:0.028571429 11:0.014285714 13:0.057142857 16:0.014285714 #
139.47772335803875876081292517483 1:0.46875 2:0.09375 3:0.125 4:0.03125 5:0.0625 8:0.03125 9:0.09375 13:0.09375 #
-139.47772335803875876081292517483 1:0.46875 2:0.09375 3:0.09375 4:0.09375 5:0.125 9:0.0625 13:0.0625 #
139.47772335803875876081292517483 1:0.375 2:0.125 3:0.0625 4:0.125 5:0.1875 9:0.0625 13:0.0625 #
-139.47772335803875876081292517483 1:0.3125 2:0.1875 3:0.0625 4:0.0625 5:0.1875 13:0.1875 #
139.47772335803875876081292517483 1:0.60000002 2:0.07272727 3:0.036363635 4:0.07272727 5:0.10909091 6:0.036363635 9:0.018181818 13:0.054545455 #
-139.47772335803875876081292517483 1:0.61818182 2:0.12727273 3:0.018181818 4:0.054545455 5:0.090909094 6:0.018181818 9:0.018181818 13:0.054545455 #
139.47772335803875876081292517483 1:0.83333331 2:0.022727273 3:0.015151516 4:0.045454547 5:0.022727273 9:0.015151516 13:0.045454547 #
-139.47772335803875876081292517483 1:0.82575756 2:0.015151516 3:0.015151516 4:0.053030305 5:0.022727273 9:0.015151516 13:0.053030305 #
139.47772335803875876081292517483 1:0.3888889 2:0.16666667 3:0.083333336 4:0.055555556 5:0.1388889 9:0.083333336 13:0.083333336 #
-139.47772335803875876081292517483 1:0.41666666 2:0.11111111 3:0.083333336 4:0.083333336 5:0.1388889 6:0.027777778 9:0.083333336 13:0.055555556 #
139.47772335803875876081292517483 1:0.51923078 2:0.11538462 3:0.057692308 4:0.057692308 5:0.11538462 9:0.057692308 13:0.07692308 #
-139.47772335803875876081292517483 1:0.61538464 2:0.03846154 3:0.03846154 4:0.057692308 5:0.11538462 9:0.03846154 10:0.01923077 13:0.057692308 15:0.01923077 #
139.47772335803875876081292517483 1:0.77777779 2:0.05050505 3:0.01010101 4:0.05050505 5:0.05050505 9:0.01010101 13:0.05050505 #
-139.47772335803875876081292517483 1:0.78787881 2:0.05050505 3:0.01010101 4:0.04040404 5:0.05050505 9:0.01010101 13:0.05050505 #
139.47772335803875876081292517483 1:0.5 2:0.1 3:0.025 4:0.125 5:0.125 9:0.025 13:0.1 #
-139.47772335803875876081292517483 1:0.47499999 2:0.125 3:0.025 4:0.1 5:0.125 9:0.025 13:0.125 #
139.47772335803875876081292517483 1:0.5 2:0.125 3:0.125 4:0.041666668 5:0.125 9:0.083333336 #
-139.47772335803875876081292517483 1:0.5 2:0.125 3:0.125 4:0.041666668 5:0.125 9:0.083333336 #
139.47772335803875876081292517483 1:0.5 2:0.1 3:0.033333335 4:0.06666667 5:0.16666667 9:0.06666667 16:0.06666667 #
-139.47772335803875876081292517483 1:0.5 2:0.16666667 3:0.06666667 5:0.1 9:0.033333335 13:0.06666667 16:0.06666667 #
139.47772335803875876081292517483 1:0.74747473 2:0.01010101 3:0.01010101 4:0.080808081 5:0.02020202 9:0.02020202 13:0.090909094 16:0.02020202 #
-139.47772335803875876081292517483 1:0.74747473 2:0.01010101 3:0.01010101 4:0.090909094 5:0.030303031 9:0.02020202 13:0.080808081 16:0.01010101 #
139.47772335803875876081292517483 1:0.66666669 3:0.071428575 4:0.071428575 5:0.047619049 9:0.071428575 13:0.047619049 14:0.023809524 #
-139.47772335803875876081292517483 1:0.69047618 2:0.023809524 3:0.047619049 4:0.047619049 5:0.023809524 8:0.023809524 9:0.071428575 13:0.047619049 14:0.023809524 #
139.47772335803875876081292517483 1:0.41666666 2:0.16666667 3:0.041666668 5:0.25 9:0.083333336 13:0.041666668 #
-139.47772335803875876081292517483 1:0.58333331 2:0.125 3:0.041666668 4:0.041666668 5:0.125 6:0.041666668 9:0.041666668 #
139.47772335803875876081292517483 1:0.67272729 2:0.090909094 4:0.054545455 5:0.10909091 13:0.07272727 #
-139.47772335803875876081292517483 1:0.69090909 2:0.090909094 4:0.054545455 5:0.10909091 13:0.054545455 #
139.47772335803875876081292517483 1:0.63333333 2:0.1 4:0.06666667 5:0.13333334 13:0.06666667 #
-139.47772335803875876081292517483 1:0.69999999 2:0.1 4:0.06666667 5:0.06666667 13:0.06666667 #
139.47772335803875876081292517483 1:0.54166669 2:0.125 5:0.33333334 #
-139.47772335803875876081292517483 1:0.625 2:0.125 5:0.25 #
139.47772335803875876081292517483 1:0.68888891 2:0.06666667 3:0.033333335 4:0.055555556 5:0.06666667 9:0.022222223 13:0.06666667 #
-139.47772335803875876081292517483 1:0.71111113 2:0.044444446 3:0.022222223 4:0.055555556 5:0.077777781 9:0.033333335 13:0.055555556 #
139.47772335803875876081292517483 1:0.69047618 2:0.023809524 3:0.047619049 4:0.047619049 5:0.047619049 9:0.071428575 13:0.047619049 14:0.023809524 #
-139.47772335803875876081292517483 1:0.69047618 2:0.023809524 3:0.071428575 4:0.071428575 5:0.023809524 9:0.071428575 13:0.023809524 14:0.023809524 #
139.47772335803875876081292517483 1:0.74000001 2:0.039999999 3:0.02 4:0.039999999 5:0.059999999 9:0.039999999 13:0.059999999 #
-139.47772335803875876081292517483 1:0.63999999 2:0.059999999 3:0.059999999 4:0.039999999 5:0.079999998 9:0.059999999 13:0.059999999 #
139.47772335803875876081292517483 1:0.71428573 2:0.031746034 3:0.015873017 4:0.079365082 5:0.063492067 9:0.015873017 13:0.079365082 #
-139.47772335803875876081292517483 1:0.69841272 2:0.047619049 3:0.015873017 4:0.079365082 5:0.063492067 9:0.015873017 13:0.079365082 #
139.47772335803875876081292517483 1:0.67777777 2:0.077777781 3:0.033333335 4:0.033333335 5:0.06666667 8:0.011111111 9:0.044444446 13:0.055555556 #
-139.47772335803875876081292517483 1:0.72222221 2:0.077777781 3:0.044444446 4:0.044444446 5:0.055555556 6:0.011111111 9:0.011111111 13:0.033333335 #
139.47772335803875876081292517483 1:0.5 2:0.125 3:0.0625 4:0.041666668 5:0.14583333 9:0.041666668 13:0.0625 16:0.020833334 #
-139.47772335803875876081292517483 1:0.52083331 2:0.10416666 3:0.0625 4:0.020833334 5:0.125 8:0.020833334 9:0.0625 13:0.041666668 14:0.020833334 16:0.020833334 #
139.47772335803875876081292517483 1:0.62857145 2:0.028571429 3:0.028571429 4:0.057142857 5:0.085714288 9:0.057142857 11:0.028571429 13:0.085714288 #
-139.47772335803875876081292517483 1:0.65714288 2:0.028571429 3:0.057142857 4:0.028571429 5:0.057142857 9:0.085714288 13:0.057142857 16:0.028571429 #
139.47772335803875876081292517483 1:0.56410259 2:0.20512821 3:0.025641026 4:0.1025641 5:0.051282052 13:0.051282052 #
-139.47772335803875876081292517483 1:0.38461539 2:0.17948718 3:0.025641026 4:0.07692308 5:0.17948718 6:0.025641026 9:0.025641026 13:0.1025641 #
139.47772335803875876081292517483 1:0.67901236 2:0.037037037 3:0.049382716 4:0.061728396 5:0.037037037 9:0.049382716 13:0.061728396 16:0.024691358 #
-139.47772335803875876081292517483 1:0.67901236 2:0.037037037 3:0.037037037 4:0.061728396 5:0.024691358 7:0.012345679 9:0.061728396 13:0.074074075 16:0.012345679 #
139.47772335803875876081292517483 1:0.75510204 2:0.040816326 3:0.020408163 4:0.06122449 5:0.040816326 9:0.040816326 13:0.040816326 #
-139.47772335803875876081292517483 1:0.73469388 2:0.040816326 3:0.020408163 4:0.06122449 5:0.040816326 9:0.040816326 13:0.06122449 #
139.47772335803875876081292517483 1:0.63333333 2:0.06666667 4:0.1 5:0.1 9:0.033333335 13:0.06666667 #
-139.47772335803875876081292517483 1:0.56666666 2:0.1 3:0.033333335 4:0.06666667 5:0.1 9:0.033333335 13:0.1 #
139.47772335803875876081292517483 1:0.5 3:0.14285715 4:0.071428575 5:0.035714287 8:0.035714287 9:0.14285715 13:0.035714287 14:0.035714287 #
-139.47772335803875876081292517483 1:0.53571427 2:0.035714287 3:0.035714287 4:0.071428575 5:0.035714287 9:0.14285715 13:0.035714287 14:0.035714287 16:0.071428575 #
139.47772335803875876081292517483 1:0.4848485 2:0.090909094 3:0.090909094 4:0.090909094 5:0.090909094 9:0.090909094 13:0.060606062 #
-139.47772335803875876081292517483 1:0.4848485 2:0.060606062 3:0.090909094 4:0.060606062 5:0.12121212 6:0.030303031 9:0.090909094 13:0.060606062 #
139.47772335803875876081292517483 1:0.36363637 2:0.13636364 3:0.045454547 4:0.045454547 5:0.22727273 9:0.13636364 13:0.045454547 #
-139.47772335803875876081292517483 1:0.36363637 2:0.13636364 3:0.045454547 4:0.045454547 5:0.22727273 9:0.13636364 13:0.045454547 #
139.47772335803875876081292517483 1:0.61666667 2:0.083333336 3:0.033333335 4:0.033333335 5:0.1 7:0.016666668 9:0.06666667 13:0.050000001 #
-139.47772335803875876081292517483 1:0.60000002 2:0.1 3:0.06666667 4:0.050000001 5:0.083333336 9:0.06666667 13:0.033333335 #
139.47772335803875876081292517483 1:0.58928573 2:0.16071428 4:0.071428575 5:0.14285715 13:0.035714287 #
-139.47772335803875876081292517483 1:0.625 2:0.14285715 4:0.053571429 5:0.14285715 13:0.035714287 #
4.9021777996255480047693708911538 1:0.68518519 2:0.037037037 3:0.055555556 4:0.055555556 5:0.055555556 9:0.037037037 13:0.055555556 16:0.018518519 #
-4.9021777996255480047693708911538 1:0.64814812 2:0.037037037 3:0.055555556 4:0.09259259 5:0.018518519 6:0.018518519 9:0.055555556 13:0.074074075 #
139.47772335803875876081292517483 1:0.5 2:0.0625 3:0.0625 4:0.09375 5:0.09375 9:0.03125 13:0.125 16:0.03125 #
-139.47772335803875876081292517483 1:0.5 2:0.0625 3:0.0625 4:0.125 5:0.0625 9:0.0625 13:0.125 #
139.47772335803875876081292517483 1:0.52272725 2:0.13636364 3:0.06818182 4:0.045454547 5:0.13636364 13:0.06818182 16:0.022727273 #
-139.47772335803875876081292517483 1:0.59090906 2:0.045454547 3:0.06818182 4:0.06818182 5:0.090909094 9:0.06818182 13:0.022727273 14:0.022727273 16:0.022727273 #
139.47772335803875876081292517483 1:0.63999999 2:0.02 3:0.039999999 4:0.079999998 9:0.059999999 11:0.02 12:0.02 13:0.12 #
-139.47772335803875876081292517483 1:0.57999998 2:0.02 3:0.059999999 4:0.12 5:0.02 9:0.059999999 11:0.02 13:0.12 #
139.47772335803875876081292517483 1:0.60416669 2:0.10416666 4:0.083333336 5:0.10416666 13:0.083333336 14:0.020833334 #
-139.47772335803875876081292517483 1:0.625 2:0.083333336 4:0.083333336 5:0.10416666 13:0.10416666 #
82.461589819129699208133388310671 1:0.55000001 2:0.25 5:0.15000001 13:0.050000001 #
-82.461589819129699208133388310671 1:0.5 2:0.2 4:0.050000001 5:0.2 14:0.050000001 #
139.47772335803875876081292517483 1:0.45238096 2:0.16666667 3:0.047619049 4:0.047619049 5:0.19047619 6:0.023809524 9:0.023809524 13:0.023809524 14:0.023809524 #
-139.47772335803875876081292517483 1:0.45238096 2:0.16666667 3:0.047619049 4:0.047619049 5:0.19047619 6:0.023809524 9:0.023809524 13:0.023809524 14:0.023809524 #
139.47772335803875876081292517483 1:0.55000001 2:0.075000003 3:0.075000003 4:0.050000001 5:0.1 6:0.025 9:0.050000001 13:0.050000001 16:0.025 #
-139.47772335803875876081292517483 1:0.47499999 2:0.1 3:0.075000003 4:0.1 5:0.1 9:0.050000001 11:0.025 13:0.075000003 #
139.47772335803875876081292517483 1:0.59375 2:0.125 4:0.09375 5:0.09375 6:0.03125 13:0.0625 #
-139.47772335803875876081292517483 1:0.59375 2:0.0625 4:0.125 5:0.09375 6:0.03125 13:0.09375 #
139.47772335803875876081292517483 1:0.45833334 2:0.20833333 5:0.16666667 8:0.041666668 10:0.041666668 13:0.041666668 14:0.041666668 #
-139.47772335803875876081292517483 1:0.41666666 2:0.20833333 4:0.041666668 5:0.16666667 7:0.041666668 10:0.041666668 13:0.041666668 14:0.041666668 #
139.47772335803875876081292517483 1:0.65151513 2:0.090909094 3:0.030303031 4:0.045454547 5:0.090909094 9:0.030303031 13:0.060606062 #
-139.47772335803875876081292517483 1:0.68181819 2:0.090909094 3:0.015151516 4:0.060606062 5:0.060606062 9:0.030303031 13:0.045454547 14:0.015151516 #
139.47772335803875876081292517483 1:0.63636363 2:0.090909094 3:0.015151516 4:0.075757578 5:0.075757578 7:0.015151516 9:0.030303031 13:0.060606062 #
-139.47772335803875876081292517483 1:0.68181819 2:0.060606062 3:0.030303031 4:0.060606062 5:0.060606062 6:0.015151516 9:0.015151516 10:0.015151516 13:0.045454547 16:0.015151516 #
139.47772335803875876081292517483 1:0.64583331 2:0.041666668 3:0.041666668 4:0.020833334 5:0.083333336 9:0.020833334 12:0.041666668 13:0.083333336 14:0.020833334 #
-139.47772335803875876081292517483 1:0.625 2:0.0625 3:0.041666668 4:0.0625 5:0.0625 9:0.041666668 13:0.10416666 #
139.47772335803875876081292517483 1:0.65625 2:0.0625 3:0.03125 4:0.03125 5:0.09375 13:0.09375 16:0.03125 #
-139.47772335803875876081292517483 1:0.59375 2:0.0625 3:0.03125 4:0.0625 5:0.09375 9:0.03125 13:0.125 #
139.47772335803875876081292517483 1:0.80952382 2:0.023809524 3:0.0079365084 4:0.055555556 5:0.039682541 9:0.0079365084 13:0.055555556 #
-139.47772335803875876081292517483 1:0.79365081 2:0.039682541 3:0.0079365084 4:0.055555556 5:0.039682541 9:0.0079365084 13:0.055555556 #
139.47772335803875876081292517483 1:0.45454547 2:0.21212122 3:0.030303031 4:0.030303031 5:0.18181819 9:0.030303031 13:0.060606062 #
-139.47772335803875876081292517483 1:0.4848485 2:0.12121212 3:0.060606062 4:0.090909094 5:0.090909094 9:0.030303031 10:0.030303031 13:0.090909094 #
139.47772335803875876081292517483 1:0.6785714 2:0.071428575 3:0.035714287 4:0.035714287 5:0.035714287 9:0.071428575 13:0.071428575 #
-139.47772335803875876081292517483 1:0.5714286 2:0.035714287 3:0.071428575 4:0.071428575 5:0.071428575 9:0.10714286 13:0.071428575 #
139.47772335803875876081292517483 1:0.69999999 2:0.06666667 4:0.06666667 5:0.1 13:0.06666667 #
-139.47772335803875876081292517483 1:0.69999999 2:0.06666667 4:0.06666667 5:0.1 13:0.06666667 #
139.47772335803875876081292517483 1:0.55000001 2:0.1 3:0.050000001 4:0.050000001 5:0.125 6:0.025 9:0.050000001 13:0.050000001 #
-139.47772335803875876081292517483 1:0.55000001 2:0.1 3:0.050000001 4:0.050000001 5:0.1 6:0.025 9:0.050000001 13:0.075000003 #
139.47772335803875876081292517483 1:0.5625 2:0.09375 4:0.09375 5:0.03125 6:0.03125 9:0.03125 13:0.125 16:0.03125 #
-139.47772335803875876081292517483 1:0.5 2:0.09375 3:0.03125 4:0.09375 5:0.0625 8:0.03125 9:0.03125 13:0.125 16:0.03125 #
139.47772335803875876081292517483 1:0.625 2:0.075000003 3:0.050000001 4:0.050000001 5:0.1 9:0.075000003 13:0.025 #
-139.47772335803875876081292517483 1:0.625 2:0.075000003 3:0.075000003 4:0.050000001 5:0.075000003 9:0.050000001 13:0.050000001 #
33.318193478059335177476896205917 1:0.55000001 2:0.1 4:0.1 9:0.050000001 13:0.15000001 15:0.050000001 #
-33.318193478059335177476896205917 1:0.44999999 2:0.1 3:0.050000001 4:0.1 5:0.1 13:0.15000001 16:0.050000001 #
139.47772335803875876081292517483 1:0.64999998 2:0.083333336 3:0.016666668 4:0.050000001 5:0.083333336 9:0.016666668 13:0.06666667 16:0.033333335 #
-139.47772335803875876081292517483 1:0.55000001 2:0.083333336 3:0.033333335 4:0.1 5:0.1 9:0.033333335 13:0.1 #
139.47772335803875876081292517483 1:0.52777779 2:0.027777778 3:0.19444445 4:0.027777778 5:0.055555556 9:0.1388889 13:0.027777778 #
-139.47772335803875876081292517483 1:0.6111111 3:0.1388889 5:0.055555556 9:0.1388889 10:0.027777778 13:0.027777778 #
139.47772335803875876081292517483 1:0.72527474 2:0.043956045 3:0.043956045 4:0.032967035 5:0.054945055 9:0.043956045 12:0.010989011 13:0.032967035 15:0.010989011 #
-139.47772335803875876081292517483 1:0.71428573 2:0.043956045 3:0.032967035 4:0.032967035 5:0.065934069 9:0.054945055 12:0.010989011 13:0.021978023 15:0.021978023 #
139.47772335803875876081292517483 1:0.72000003 2:0.039999999 3:0.039999999 4:0.039999999 5:0.039999999 9:0.079999998 13:0.039999999 #
-139.47772335803875876081292517483 1:0.63999999 3:0.079999998 4:0.079999998 5:0.039999999 9:0.079999998 13:0.079999998 #
139.47772335803875876081292517483 1:0.65625 2:0.0625 4:0.03125 5:0.15625 9:0.03125 13:0.0625 #
-139.47772335803875876081292517483 1:0.71875 2:0.0625 4:0.03125 5:0.125 9:0.03125 13:0.03125 #
139.47772335803875876081292517483 1:0.62121212 2:0.060606062 3:0.075757578 4:0.060606062 5:0.060606062 9:0.075757578 13:0.045454547 #
-139.47772335803875876081292517483 1:0.62121212 2:0.060606062 3:0.075757578 4:0.060606062 5:0.060606062 9:0.060606062 13:0.060606062 #
139.47772335803875876081292517483 1:0.59090906 2:0.11363637 4:0.06818182 5:0.13636364 9:0.022727273 13:0.06818182 #
-139.47772335803875876081292517483 1:0.56818181 2:0.11363637 3:0.022727273 4:0.06818182 5:0.13636364 9:0.022727273 13:0.06818182 #
139.47772335803875876081292517483 1:0.52083331 2:0.16666667 4:0.0625 5:0.1875 9:0.020833334 13:0.041666668 #
-139.47772335803875876081292517483 1:0.54166669 2:0.16666667 4:0.0625 5:0.16666667 9:0.020833334 13:0.041666668 #
139.47772335803875876081292517483 1:0.5 2:0.083333336 3:0.083333336 4:0.027777778 5:0.11111111 6:0.027777778 9:0.11111111 13:0.055555556 #
-139.47772335803875876081292517483 1:0.6111111 2:0.055555556 3:0.055555556 4:0.055555556 5:0.083333336 7:0.027777778 9:0.083333336 13:0.027777778 #
139.47772335803875876081292517483 1:0.66666669 2:0.037037037 3:0.018518519 4:0.11111111 5:0.037037037 9:0.018518519 13:0.11111111 #
-139.47772335803875876081292517483 1:0.66666669 2:0.037037037 3:0.018518519 4:0.074074075 5:0.037037037 8:0.018518519 9:0.018518519 13:0.11111111 16:0.018518519 #
139.47772335803875876081292517483 1:0.65454543 2:0.054545455 3:0.036363635 4:0.036363635 5:0.090909094 8:0.018181818 9:0.036363635 13:0.07272727 #
-139.47772335803875876081292517483 1:0.70909089 2:0.07272727 3:0.018181818 4:0.054545455 5:0.054545455 9:0.036363635 13:0.054545455 #
139.47772335803875876081292517483 1:0.56666666 2:0.06666667 3:0.06666667 4:0.06666667 5:0.06666667 9:0.06666667 13:0.1 #
-139.47772335803875876081292517483 1:0.63333333 2:0.06666667 3:0.06666667 4:0.033333335 5:0.033333335 9:0.1 15:0.033333335 16:0.033333335 #
139.47772335803875876081292517483 1:0.60000002 2:0.14285715 4:0.028571429 5:0.17142858 13:0.057142857 #
-139.47772335803875876081292517483 1:0.6857143 2:0.11428571 4:0.028571429 5:0.11428571 6:0.028571429 13:0.028571429 #
139.47772335803875876081292517483 1:0.66666669 2:0.09259259 3:0.037037037 4:0.037037037 5:0.09259259 9:0.018518519 13:0.037037037 16:0.018518519 #
-139.47772335803875876081292517483 1:0.6111111 2:0.11111111 3:0.037037037 4:0.055555556 5:0.11111111 9:0.037037037 13:0.037037037 #
139.47772335803875876081292517483 1:0.6964286 2:0.017857144 3:0.035714287 4:0.089285716 5:0.035714287 9:0.035714287 13:0.089285716 #
-139.47772335803875876081292517483 1:0.6964286 2:0.035714287 3:0.035714287 4:0.071428575 5:0.035714287 9:0.035714287 13:0.089285716 #
139.47772335803875876081292517483 1:0.60000002 2:0.044444446 3:0.088888891 4:0.06666667 5:0.06666667 9:0.044444446 13:0.088888891 #
-139.47772335803875876081292517483 1:0.5777778 2:0.06666667 3:0.044444446 4:0.088888891 5:0.06666667 9:0.088888891 13:0.06666667 #
139.47772335803875876081292517483 1:0.39393941 2:0.15151516 3:0.15151516 5:0.15151516 9:0.12121212 15:0.030303031 #
-139.47772335803875876081292517483 1:0.39393941 2:0.15151516 3:0.12121212 5:0.15151516 9:0.12121212 12:0.030303031 13:0.030303031 #
139.47772335803875876081292517483 1:0.69230771 2:0.03846154 3:0.051282052 4:0.051282052 5:0.051282052 9:0.03846154 13:0.051282052 16:0.025641026 #
-139.47772335803875876081292517483 1:0.65384614 2:0.051282052 3:0.03846154 4:0.064102568 5:0.051282052 9:0.051282052 13:0.064102568 16:0.025641026 #
139.47772335803875876081292517483 1:0.72727275 2:0.012987013 3:0.038961038 4:0.064935066 5:0.012987013 9:0.077922076 13:0.064935066 #
-139.47772335803875876081292517483 1:0.71428573 2:0.012987013 3:0.051948052 4:0.064935066 5:0.012987013 9:0.077922076 13:0.064935066 #
139.47772335803875876081292517483 1:0.44444445 2:0.11111111 3:0.11111111 5:0.074074075 8:0.037037037 9:0.14814815 13:0.074074075 #
-139.47772335803875876081292517483 1:0.44444445 2:0.11111111 3:0.11111111 4:0.037037037 5:0.11111111 9:0.14814815 13:0.037037037 #
139.47772335803875876081292517483 1:0.38095239 2:0.14285715 4:0.19047619 5:0.14285715 13:0.14285715 #
-139.47772335803875876081292517483 1:0.42857143 2:0.14285715 4:0.19047619 5:0.14285715 13:0.095238097 #
139.47772335803875876081292517483 1:0.63636363 2:0.07272727 4:0.12727273 5:0.090909094 13:0.07272727 #
-139.47772335803875876081292517483 1:0.67272729 2:0.090909094 4:0.10909091 5:0.036363635 13:0.090909094 #
139.47772335803875876081292517483 1:0.6111111 2:0.027777778 3:0.027777778 4:0.11111111 5:0.083333336 9:0.027777778 13:0.11111111 #
-139.47772335803875876081292517483 1:0.58333331 2:0.055555556 4:0.11111111 5:0.083333336 9:0.027777778 13:0.1388889 #
139.47772335803875876081292517483 1:0.57999998 2:0.079999998 3:0.02 4:0.039999999 5:0.14 6:0.039999999 9:0.059999999 13:0.039999999 #
-139.47772335803875876081292517483 1:0.60000002 2:0.16 3:0.039999999 4:0.02 5:0.12 9:0.02 13:0.02 15:0.02 #
139.47772335803875876081292517483 1:0.63333333 2:0.06666667 3:0.06666667 4:0.06666667 5:0.06666667 9:0.033333335 13:0.06666667 #
-139.47772335803875876081292517483 1:0.66666669 2:0.033333335 3:0.06666667 4:0.06666667 5:0.06666667 9:0.033333335 13:0.06666667 #
139.47772335803875876081292517483 1:0.69841272 2:0.063492067 3:0.015873017 4:0.047619049 5:0.063492067 8:0.015873017 9:0.015873017 13:0.079365082 #
-139.47772335803875876081292517483 1:0.71428573 2:0.079365082 4:0.063492067 5:0.063492067 9:0.015873017 13:0.063492067 #
139.47772335803875876081292517483 1:0.64615387 2:0.13846155 4:0.015384615 5:0.13846155 9:0.015384615 13:0.046153847 #
-139.47772335803875876081292517483 1:0.63076925 2:0.13846155 3:0.015384615 4:0.046153847 5:0.10769231 9:0.015384615 13:0.046153847 #
139.47772335803875876081292517483 1:0.60000002 2:0.039999999 3:0.039999999 4:0.039999999 5:0.12 9:0.079999998 15:0.039999999 16:0.039999999 #
-139.47772335803875876081292517483 1:0.60000002 2:0.039999999 3:0.039999999 4:0.079999998 5:0.079999998 9:0.039999999 13:0.079999998 15:0.039999999 #
139.47772335803875876081292517483 1:0.60000002 2:0.050000001 3:0.050000001 4:0.125 5:0.050000001 9:0.025 13:0.1 #
-139.47772335803875876081292517483 1:0.64999998 2:0.050000001 3:0.025 4:0.1 5:0.025 9:0.050000001 13:0.1 #
139.47772335803875876081292517483 1:0.56363636 2:0.090909094 3:0.054545455 4:0.07272727 5:0.07272727 8:0.018181818 12:0.018181818 13:0.10909091 #
-139.47772335803875876081292517483 1:0.58181816 2:0.054545455 3:0.036363635 4:0.07272727 5:0.07272727 9:0.036363635 12:0.018181818 13:0.090909094 14:0.018181818 15:0.018181818 #
139.47772335803875876081292517483 1:0.5 2:0.09375 3:0.03125 4:0.03125 5:0.09375 9:0.0625 13:0.09375 16:0.09375 #
-139.47772335803875876081292517483 1:0.5625 2:0.0625 3:0.03125 4:0.0625 5:0.0625 9:0.0625 13:0.09375 16:0.0625 #
139.47772335803875876081292517483 1:0.55384618 2:0.046153847 3:0.12307692 4:0.030769231 5:0.07692308 9:0.10769231 10:0.015384615 13:0.046153847 #
-139.47772335803875876081292517483 1:0.56923079 2:0.07692308 3:0.092307694 4:0.046153847 5:0.07692308 9:0.092307694 11:0.015384615 13:0.015384615 15:0.015384615 #
139.47772335803875876081292517483 1:0.74747473 2:0.01010101 3:0.02020202 4:0.080808081 5:0.02020202 9:0.02020202 13:0.090909094 16:0.01010101 #
-139.47772335803875876081292517483 1:0.75757575 2:0.02020202 3:0.02020202 4:0.080808081 5:0.01010101 9:0.02020202 13:0.080808081 16:0.01010101 #
139.47772335803875876081292517483 1:0.75213677 2:0.042735044 3:0.025641026 4:0.051282052 5:0.051282052 9:0.017094018 13:0.051282052 16:0.008547009 #
-139.47772335803875876081292517483 1:0.76923078 2:0.051282052 3:0.017094018 4:0.034188036 5:0.051282052 9:0.017094018 13:0.034188036 16:0.025641026 #
139.47772335803875876081292517483 1:0.71428573 2:0.064935066 3:0.025974026 4:0.038961038 5:0.064935066 8:0.012987013 9:0.025974026 13:0.038961038 16:0.012987013 #
-139.47772335803875876081292517483 1:0.71428573 2:0.064935066 3:0.025974026 4:0.064935066 5:0.051948052 9:0.025974026 13:0.051948052 #
139.47772335803875876081292517483 1:0.56818181 2:0.13636364 4:0.045454547 5:0.15909091 13:0.090909094 #
-139.47772335803875876081292517483 1:0.56818181 2:0.13636364 4:0.045454547 5:0.15909091 13:0.090909094 #
139.47772335803875876081292517483 1:0.77777779 4:0.055555556 5:0.055555556 13:0.11111111 #
-139.47772335803875876081292517483 1:0.8888889 4:0.055555556 13:0.055555556 #
139.47772335803875876081292517483 1:0.75 2:0.06666667 4:0.033333335 5:0.083333336 9:0.033333335 13:0.033333335 #
-139.47772335803875876081292517483 1:0.75 2:0.06666667 4:0.033333335 5:0.083333336 9:0.033333335 13:0.033333335 #
139.47772335803875876081292517483 1:0.51851851 2:0.14814815 4:0.074074075 5:0.14814815 13:0.11111111 #
-139.47772335803875876081292517483 1:0.48148149 2:0.14814815 4:0.074074075 5:0.14814815 13:0.14814815 #
139.47772335803875876081292517483 1:0.68333334 2:0.050000001 3:0.050000001 4:0.050000001 5:0.050000001 9:0.050000001 13:0.06666667 #
-139.47772335803875876081292517483 1:0.71666664 2:0.050000001 3:0.033333335 4:0.050000001 5:0.033333335 9:0.050000001 13:0.06666667 #
139.47772335803875876081292517483 1:0.64999998 2:0.1 4:0.050000001 5:0.1 13:0.1 #
-139.47772335803875876081292517483 1:0.69999999 2:0.050000001 4:0.1 5:0.050000001 13:0.1 #
139.47772335803875876081292517483 1:0.6857143 2:0.11428571 4:0.028571429 5:0.14285715 13:0.028571429 #
-139.47772335803875876081292517483 1:0.71428573 2:0.11428571 4:0.028571429 5:0.085714288 13:0.057142857 #
139.47772335803875876081292517483 1:0.65909094 2:0.13636364 3:0.022727273 4:0.022727273 5:0.13636364 13:0.022727273 #
-139.47772335803875876081292517483 1:0.63636363 2:0.15909091 3:0.022727273 5:0.13636364 9:0.022727273 13:0.022727273 #
139.47772335803875876081292517483 1:0.60000002 2:0.125 4:0.050000001 5:0.1 9:0.050000001 13:0.075000003 #
-139.47772335803875876081292517483 1:0.55000001 2:0.1 3:0.050000001 4:0.075000003 5:0.1 9:0.050000001 13:0.075000003 #
139.47772335803875876081292517483 1:0.44444445 2:0.16666667 3:0.055555556 4:0.055555556 5:0.22222222 9:0.055555556 #
-139.47772335803875876081292517483 1:0.44444445 2:0.16666667 3:0.055555556 4:0.055555556 5:0.22222222 9:0.055555556 #
139.47772335803875876081292517483 1:0.63999999 2:0.039999999 3:0.1 4:0.02 5:0.039999999 9:0.12 13:0.039999999 #
-139.47772335803875876081292517483 1:0.68000001 2:0.02 3:0.12 4:0.02 5:0.02 9:0.1 13:0.039999999 #
139.47772335803875876081292517483 1:0.35714287 2:0.21428572 5:0.21428572 13:0.071428575 14:0.071428575 16:0.071428575 #
-139.47772335803875876081292517483 1:0.21428572 2:0.21428572 4:0.071428575 5:0.2857143 8:0.071428575 13:0.071428575 16:0.071428575 #
139.47772335803875876081292517483 1:0.55000001 2:0.15000001 3:0.075000003 4:0.025 5:0.1 8:0.025 13:0.075000003 #
-139.47772335803875876081292517483 1:0.44999999 2:0.125 3:0.075000003 4:0.025 5:0.175 8:0.025 9:0.075000003 13:0.025 14:0.025 #
139.47772335803875876081292517483 1:0.65079367 2:0.047619049 3:0.031746034 4:0.095238097 5:0.031746034 8:0.015873017 9:0.031746034 13:0.095238097 #
-139.47772335803875876081292517483 1:0.66666669 2:0.031746034 3:0.031746034 4:0.095238097 5:0.047619049 9:0.031746034 13:0.079365082 14:0.015873017 #
139.47772335803875876081292517483 1:0.55555558 2:0.055555556 3:0.11111111 5:0.16666667 9:0.055555556 13:0.055555556 #
-139.47772335803875876081292517483 1:0.55555558 2:0.055555556 3:0.11111111 5:0.16666667 9:0.055555556 13:0.055555556 #
139.47772335803875876081292517483 1:0.625 2:0.1 3:0.025 4:0.075000003 5:0.075000003 9:0.025 13:0.075000003 #
-139.47772335803875876081292517483 1:0.625 2:0.075000003 3:0.025 4:0.075000003 5:0.075000003 9:0.050000001 13:0.075000003 #
139.47772335803875876081292517483 1:0.2857143 2:0.071428575 3:0.071428575 4:0.14285715 5:0.14285715 9:0.14285715 13:0.071428575 15:0.071428575 #
-139.47772335803875876081292517483 1:0.35714287 2:0.071428575 3:0.14285715 4:0.071428575 5:0.21428572 9:0.071428575 12:0.071428575 #
139.47772335803875876081292517483 1:0.52380955 2:0.16666667 3:0.047619049 4:0.023809524 5:0.071428575 9:0.11904762 13:0.047619049 #
-139.47772335803875876081292517483 1:0.54761904 2:0.071428575 3:0.095238097 4:0.047619049 5:0.16666667 9:0.023809524 11:0.023809524 13:0.023809524 #
139.47772335803875876081292517483 1:0.66666669 2:0.013888889 3:0.083333336 4:0.055555556 5:0.027777778 9:0.069444448 13:0.083333336 #
-139.47772335803875876081292517483 1:0.66666669 2:0.013888889 3:0.083333336 4:0.055555556 5:0.013888889 8:0.013888889 9:0.069444448 13:0.069444448 14:0.013888889 #
139.47772335803875876081292517483 1:0.53333336 2:0.083333336 3:0.050000001 4:0.06666667 5:0.083333336 7:0.016666668 9:0.06666667 13:0.06666667 16:0.033333335 #
-139.47772335803875876081292517483 1:0.53333336 2:0.083333336 3:0.050000001 4:0.06666667 5:0.13333334 9:0.033333335 13:0.050000001 14:0.016666668 16:0.033333335 #
139.47772335803875876081292517483 1:0.625 2:0.041666668 3:0.020833334 4:0.10416666 5:0.0625 9:0.041666668 13:0.10416666 #
-139.47772335803875876081292517483 1:0.64583331 2:0.083333336 3:0.020833334 4:0.083333336 5:0.041666668 9:0.020833334 13:0.10416666 #
139.47772335803875876081292517483 1:0.65333331 2:0.026666667 3:0.079999998 4:0.06666667 5:0.026666667 8:0.013333334 9:0.06666667 13:0.06666667 #
-139.47772335803875876081292517483 1:0.66666669 2:0.039999999 3:0.039999999 4:0.079999998 5:0.039999999 9:0.06666667 13:0.06666667 #
139.47772335803875876081292517483 1:0.53125 2:0.125 4:0.0625 5:0.09375 6:0.03125 8:0.03125 9:0.03125 13:0.09375 #
-139.47772335803875876081292517483 1:0.5 2:0.15625 4:0.09375 5:0.125 7:0.03125 13:0.0625 14:0.03125 #
139.47772335803875876081292517483 1:0.53571427 2:0.10714286 5:0.10714286 6:0.10714286 7:0.035714287 12:0.035714287 13:0.071428575 #
-139.47772335803875876081292517483 1:0.4642857 2:0.14285715 3:0.035714287 5:0.17857143 6:0.071428575 8:0.035714287 13:0.071428575 #
139.47772335803875876081292517483 1:0.60000002 2:0.1 3:0.025 4:0.075000003 5:0.1 9:0.025 13:0.075000003 #
-139.47772335803875876081292517483 1:0.67500001 2:0.075000003 4:0.050000001 5:0.1 9:0.025 13:0.075000003 #
139.47772335803875876081292517483 1:0.7361111 2:0.041666668 3:0.013888889 4:0.055555556 5:0.055555556 9:0.027777778 13:0.069444448 #
-139.47772335803875876081292517483 1:0.72222221 2:0.041666668 3:0.027777778 4:0.055555556 5:0.055555556 9:0.027777778 13:0.069444448 #
139.47772335803875876081292517483 1:0.52499998 2:0.075000003 3:0.1 4:0.025 5:0.050000001 9:0.1 11:0.075000003 13:0.050000001 #
-139.47772335803875876081292517483 1:0.60000002 2:0.025 3:0.1 4:0.050000001 5:0.050000001 6:0.025 9:0.025 11:0.075000003 13:0.050000001 #
139.47772335803875876081292517483 1:0.75 3:0.035714287 4:0.071428575 5:0.035714287 9:0.035714287 13:0.071428575 #
-139.47772335803875876081292517483 1:0.75 2:0.035714287 3:0.035714287 4:0.071428575 9:0.035714287 13:0.071428575 #
139.47772335803875876081292517483 1:0.5625 2:0.083333336 3:0.041666668 4:0.0625 5:0.125 6:0.020833334 9:0.041666668 13:0.0625 #
-139.47772335803875876081292517483 1:0.58333331 2:0.14583333 3:0.020833334 4:0.041666668 5:0.10416666 7:0.020833334 13:0.083333336 #
139.47772335803875876081292517483 1:0.69696969 2:0.030303031 3:0.030303031 4:0.060606062 5:0.090909094 9:0.015151516 12:0.015151516 13:0.060606062 #
-139.47772335803875876081292517483 1:0.69696969 2:0.015151516 3:0.030303031 4:0.075757578 5:0.090909094 9:0.015151516 13:0.060606062 14:0.015151516 #
139.47772335803875876081292517483 1:0.3888889 2:0.16666667 3:0.083333336 4:0.055555556 5:0.1388889 9:0.083333336 13:0.083333336 #
-139.47772335803875876081292517483 1:0.52777779 2:0.11111111 4:0.055555556 5:0.1388889 6:0.027777778 9:0.083333336 13:0.055555556 #
139.47772335803875876081292517483 1:0.60000002 2:0.044444446 3:0.088888891 4:0.06666667 5:0.06666667 9:0.044444446 13:0.088888891 #
-139.47772335803875876081292517483 1:0.64444447 2:0.06666667 3:0.044444446 4:0.06666667 5:0.044444446 9:0.06666667 13:0.022222223 15:0.022222223 16:0.022222223 #
139.47772335803875876081292517483 1:0.6388889 3:0.027777778 4:0.11111111 5:0.055555556 9:0.027777778 10:0.027777778 11:0.027777778 13:0.055555556 15:0.027777778 #
-139.47772335803875876081292517483 1:0.6111111 2:0.027777778 3:0.055555556 4:0.083333336 5:0.027777778 8:0.027777778 9:0.027777778 10:0.027777778 11:0.027777778 13:0.083333336 #
116.74390109526351011481892783195 1:0.33333334 2:0.11111111 4:0.11111111 5:0.16666667 8:0.055555556 13:0.11111111 14:0.055555556 16:0.055555556 #
-116.74390109526351011481892783195 1:0.44444445 2:0.16666667 4:0.11111111 5:0.055555556 13:0.055555556 14:0.055555556 16:0.11111111 #
139.47772335803875876081292517483 1:0.66666669 2:0.09259259 3:0.037037037 4:0.037037037 5:0.09259259 9:0.018518519 13:0.037037037 16:0.018518519 #
-139.47772335803875876081292517483 1:0.62962961 2:0.11111111 3:0.037037037 4:0.037037037 5:0.11111111 9:0.037037037 13:0.037037037 #
139.47772335803875876081292517483 1:0.69047618 2:0.023809524 3:0.047619049 4:0.047619049 5:0.047619049 9:0.071428575 13:0.047619049 14:0.023809524 #
-139.47772335803875876081292517483 1:0.71428573 2:0.023809524 3:0.047619049 4:0.071428575 5:0.047619049 9:0.047619049 13:0.023809524 14:0.023809524 #
139.47772335803875876081292517483 1:0.64615387 2:0.061538462 3:0.030769231 4:0.046153847 5:0.12307692 9:0.030769231 13:0.046153847 16:0.015384615 #
-139.47772335803875876081292517483 1:0.66153848 2:0.061538462 3:0.030769231 4:0.030769231 5:0.12307692 9:0.030769231 13:0.030769231 16:0.030769231 #
139.47772335803875876081292517483 1:0.67532468 2:0.077922076 3:0.051948052 4:0.025974026 5:0.077922076 9:0.051948052 11:0.012987013 13:0.025974026 #
-139.47772335803875876081292517483 1:0.71428573 2:0.077922076 3:0.038961038 4:0.025974026 5:0.077922076 6:0.012987013 9:0.038961038 13:0.012987013 #
139.47772335803875876081292517483 1:0.6875 2:0.125 4:0.03125 5:0.15625 #
-139.47772335803875876081292517483 1:0.625 2:0.125 4:0.03125 5:0.1875 13:0.03125 #
139.47772335803875876081292517483 1:0.38095239 2:0.19047619 3:0.095238097 4:0.095238097 5:0.14285715 9:0.047619049 13:0.047619049 #
-139.47772335803875876081292517483 1:0.38095239 2:0.19047619 3:0.095238097 5:0.14285715 8:0.047619049 9:0.047619049 13:0.095238097 #
139.47772335803875876081292517483 1:0.64999998 2:0.050000001 3:0.025 4:0.075000003 5:0.075000003 9:0.050000001 13:0.075000003 #
-139.47772335803875876081292517483 1:0.625 2:0.075000003 3:0.050000001 4:0.075000003 5:0.075000003 9:0.050000001 13:0.050000001 #
139.47772335803875876081292517483 1:0.59090906 2:0.11363637 4:0.06818182 5:0.13636364 9:0.022727273 13:0.06818182 #
-139.47772335803875876081292517483 1:0.56818181 2:0.11363637 3:0.022727273 4:0.06818182 5:0.13636364 9:0.022727273 13:0.06818182 #
139.47772335803875876081292517483 1:0.60416669 2:0.10416666 3:0.0625 4:0.041666668 5:0.083333336 9:0.041666668 13:0.041666668 14:0.020833334 #
-139.47772335803875876081292517483 1:0.625 2:0.125 3:0.041666668 4:0.020833334 5:0.083333336 9:0.020833334 12:0.020833334 13:0.0625 #
139.47772335803875876081292517483 1:0.6857143 2:0.11428571 4:0.028571429 5:0.14285715 13:0.028571429 #
-139.47772335803875876081292517483 1:0.6857143 2:0.11428571 4:0.028571429 5:0.14285715 13:0.028571429 #
139.47772335803875876081292517483 1:0.62857145 2:0.057142857 3:0.028571429 4:0.085714288 5:0.085714288 9:0.028571429 13:0.085714288 #
-139.47772335803875876081292517483 1:0.65714288 2:0.057142857 3:0.028571429 4:0.085714288 5:0.057142857 9:0.028571429 13:0.085714288 #
139.47772335803875876081292517483 1:0.60000002 2:0.15555556 4:0.044444446 5:0.13333334 7:0.022222223 13:0.044444446 #
-139.47772335803875876081292517483 1:0.5777778 2:0.13333334 3:0.022222223 4:0.044444446 5:0.13333334 9:0.022222223 13:0.044444446 14:0.022222223 #
139.47772335803875876081292517483 1:0.58333331 2:0.083333336 3:0.0625 4:0.041666668 5:0.0625 7:0.020833334 9:0.083333336 13:0.0625 #
-139.47772335803875876081292517483 1:0.52083331 2:0.083333336 3:0.10416666 4:0.0625 5:0.125 9:0.0625 13:0.041666668 #
139.47772335803875876081292517483 1:0.30000001 2:0.2 3:0.050000001 4:0.1 5:0.25 13:0.1 #
-139.47772335803875876081292517483 1:0.34999999 2:0.15000001 3:0.050000001 4:0.1 5:0.25 13:0.1 #
139.47772335803875876081292517483 1:0.67500001 2:0.025 3:0.050000001 4:0.125 5:0.025 9:0.025 13:0.075000003 #
-139.47772335803875876081292517483 1:0.55000001 2:0.050000001 3:0.025 4:0.125 5:0.050000001 9:0.050000001 13:0.15000001 #
139.47772335803875876081292517483 1:0.64999998 2:0.025 3:0.025 4:0.050000001 5:0.075000003 8:0.025 9:0.050000001 13:0.050000001 16:0.050000001 #
-139.47772335803875876081292517483 1:0.64999998 3:0.025 4:0.075000003 5:0.075000003 8:0.025 9:0.050000001 13:0.050000001 14:0.025 16:0.025 #
139.47772335803875876081292517483 1:0.64615387 2:0.061538462 3:0.030769231 4:0.046153847 5:0.12307692 9:0.030769231 13:0.046153847 16:0.015384615 #
-139.47772335803875876081292517483 1:0.66153848 2:0.092307694 3:0.015384615 4:0.030769231 5:0.12307692 9:0.015384615 13:0.030769231 16:0.030769231 #
139.47772335803875876081292517483 1:0.64615387 2:0.061538462 3:0.030769231 4:0.046153847 5:0.12307692 9:0.030769231 13:0.046153847 16:0.015384615 #
-139.47772335803875876081292517483 1:0.6769231 2:0.061538462 3:0.030769231 4:0.030769231 5:0.092307694 9:0.030769231 13:0.046153847 16:0.030769231 #
139.47772335803875876081292517483 1:0.39393941 2:0.15151516 3:0.15151516 5:0.15151516 9:0.12121212 15:0.030303031 #
-139.47772335803875876081292517483 1:0.39393941 2:0.15151516 3:0.15151516 5:0.15151516 9:0.090909094 11:0.030303031 13:0.030303031 #
