SVM-light Version V6.02
0 # kernel type
3 # kernel parameter -d 
1 # kernel parameter -g 
1 # kernel parameter -s 
1 # kernel parameter -r 
empty# kernel parameter -u 
16 # highest feature index 
2562 # number of training documents 
2498 # number of support vectors plus 1 
0 # threshold b, each following line is a SV (starting with alpha*y)
-15.230825862842372941940993769094 2:0.16666667 5:0.16666667 6:0.33333334 14:0.16666667 16:0.16666667 #
-15.230825862842372941940993769094 2:0.33333334 5:0.33333334 13:0.16666667 16:0.16666667 #
-15.230825862842372941940993769094 2:0.16666667 5:0.16666667 6:0.5 14:0.16666667 #
73.61565833707140882324893027544 1:0.11111111 2:0.11111111 3:0.11111111 5:0.22222222 6:0.11111111 8:0.11111111 10:0.11111111 14:0.11111111 #
-15.230825862842372941940993769094 1:0.16666667 5:0.33333334 6:0.16666667 8:0.16666667 14:0.16666667 #
-15.230825862842372941940993769094 2:0.33333334 5:0.22222222 6:0.11111111 16:0.33333334 #
-15.230825862842372941940993769094 1:0.11111111 2:0.11111111 4:0.11111111 5:0.22222222 6:0.22222222 7:0.11111111 9:0.11111111 #
-15.230825862842372941940993769094 2:0.125 5:0.375 6:0.25 14:0.125 16:0.125 #
73.61565833707140882324893027544 1:0.083333336 3:0.083333336 4:0.16666667 5:0.16666667 6:0.25 9:0.083333336 14:0.16666667 #
66.000245405650233010419469792396 2:0.25 4:0.25 6:0.25 15:0.25 #
-7.6154129314211864709704968845472 1:0.375 2:0.125 4:0.125 5:0.125 13:0.125 16:0.125 #
-15.230825862842372941940993769094 3:0.16666667 5:0.33333334 6:0.33333334 9:0.16666667 #
2.5384709771403954903234989615157 1:0.5 2:0.125 4:0.125 5:0.125 13:0.125 #
-15.230825862842372941940993769094 1:0.16666667 2:0.16666667 5:0.16666667 6:0.16666667 8:0.16666667 13:0.16666667 #
-15.230825862842372941940993769094 5:0.25 8:0.25 10:0.25 14:0.25 #
66.000245405650233010419469792396 2:0.16666667 5:0.33333334 6:0.16666667 8:0.16666667 14:0.16666667 #
-15.230825862842372941940993769094 2:0.33333334 5:0.33333334 6:0.33333334 #
-88.846484199913760448907851241529 5:0.2 6:0.2 11:0.40000001 16:0.2 #
73.61565833707140882324893027544 1:0.11111111 3:0.11111111 5:0.22222222 6:0.33333334 9:0.11111111 14:0.11111111 #
-15.230825862842372941940993769094 1:0.16666667 2:0.33333334 5:0.16666667 6:0.33333334 #
-15.230825862842372941940993769094 2:0.125 3:0.25 5:0.125 6:0.25 10:0.125 11:0.125 #
-20.307767817123163922587991692126 7:0.5 8:0.5 #
-15.230825862842372941940993769094 13:0.5 16:0.5 #
-15.230825862842372941940993769094 3:0.1 4:0.1 5:0.1 6:0.2 7:0.1 9:0.2 10:0.1 13:0.1 #
66.000245405650233010419469792396 2:0.16666667 3:0.16666667 6:0.33333334 10:0.16666667 14:0.16666667 #
-5.0769419542807909806469979230314 1:0.35714287 2:0.071428575 3:0.071428575 4:0.14285715 5:0.14285715 10:0.071428575 13:0.14285715 #
-15.230825862842372941940993769094 2:0.33333334 5:0.33333334 6:0.33333334 #
-15.230825862842372941940993769094 2:0.25 4:0.25 5:0.25 9:0.25 #
-15.230825862842372941940993769094 1:0.16666667 2:0.16666667 5:0.16666667 6:0.16666667 8:0.16666667 13:0.16666667 #
-7.6154129314211864709704968845472 1:0.375 2:0.125 4:0.125 5:0.125 13:0.125 16:0.125 #
-15.230825862842372941940993769094 1:0.25 2:0.125 4:0.125 5:0.25 9:0.125 14:0.125 #
-15.230825862842372941940993769094 1:0.33333334 5:0.33333334 6:0.16666667 14:0.16666667 #
-15.230825862842372941940993769094 2:0.5 6:0.33333334 13:0.16666667 #
76.154129314211800760858750436455 1:0.22222222 2:0.22222222 4:0.11111111 5:0.22222222 6:0.11111111 13:0.11111111 #
-88.846484199913760448907851241529 5:0.2 6:0.2 11:0.40000001 16:0.2 #
-15.230825862842372941940993769094 2:0.25 5:0.5 14:0.25 #
-15.230825862842372941940993769094 5:0.33333334 6:0.33333334 14:0.33333334 #
71.077187359931016885639110114425 2:0.25 6:0.25 12:0.25 16:0.25 #
50.769419542807881384760548826307 6:0.5 10:0.5 #
-22.846238794263559412911490653642 1:0.22222222 2:0.11111111 5:0.22222222 6:0.22222222 7:0.11111111 14:0.11111111 #
-12.692354885701977451617494807579 1:0.25 2:0.25 4:0.25 13:0.25 #
-20.307767817123163922587991692126 1:0.16666667 2:0.16666667 8:0.16666667 13:0.16666667 16:0.33333334 #
33.000122702825137821491807699203 5:0.33333334 6:0.33333334 7:0.16666667 14:0.16666667 #
55.846361497088665259980189148337 4:0.33333334 5:0.33333334 13:0.33333334 #
-22.846238794263559412911490653642 4:0.5 14:0.5 #
50.769419542807881384760548826307 6:0.5 10:0.5 #
-25.384709771403954903234989615157 5:0.33333334 6:0.33333334 7:0.16666667 14:0.16666667 #
-22.846238794263559412911490653642 2:0.44444445 5:0.11111111 8:0.22222222 13:0.11111111 14:0.11111111 #
55.846361497088665259980189148337 1:0.16666667 2:0.16666667 5:0.33333334 14:0.16666667 16:0.16666667 #
-22.846238794263559412911490653642 6:0.25 7:0.25 12:0.25 13:0.25 #
-17.76929683998276843226449273061 1:0.16666667 2:0.083333336 4:0.25 5:0.083333336 13:0.33333334 16:0.083333336 #
-7.6154129314211864709704968845472 1:0.33333334 4:0.33333334 5:0.33333334 #
45.692477588527097509540908504277 6:0.33333334 7:0.33333334 9:0.33333334 #
48.230948565667489447150728665292 2:0.16666667 5:0.33333334 7:0.16666667 12:0.16666667 13:0.16666667 #
-22.846238794263559412911490653642 6:1 #
-15.230825862842372941940993769094 1:0.25 2:0.125 4:0.125 5:0.125 8:0.125 13:0.25 #
-7.6154129314211864709704968845472 1:0.40000001 2:0.1 4:0.1 5:0.2 13:0.2 #
-22.846238794263559412911490653642 1:0.125 2:0.125 4:0.125 5:0.125 8:0.125 13:0.25 14:0.125 #
58.384832474229057197590009309351 1:0.33333334 2:0.083333336 4:0.083333336 5:0.33333334 14:0.16666667 #
43.154006611386705571931088343263 8:0.33333334 13:0.33333334 14:0.33333334 #
-22.846238794263559412911490653642 1:0.125 2:0.375 5:0.125 8:0.125 13:0.125 16:0.125 #
-86.308013222773368511298031080514 2:0.33333334 5:0.33333334 13:0.33333334 #
88.846484199913760448907851241529 1:0.5 2:0.125 5:0.125 8:0.125 14:0.125 #
-22.846238794263559412911490653642 4:0.33333334 5:0.33333334 13:0.33333334 #
-81.231071268492584636078390758485 1:0.33333334 2:0.33333334 7:0.33333334 #
-22.846238794263559412911490653642 6:0.5 10:0.5 #
-22.846238794263559412911490653642 2:0.25 5:0.25 6:0.5 #
-22.846238794263559412911490653642 1:0.16666667 2:0.16666667 5:0.33333334 14:0.16666667 16:0.16666667 #
-20.307767817123163922587991692126 3:0.33333334 5:0.33333334 10:0.33333334 #
-22.846238794263559412911490653642 4:0.33333334 5:0.33333334 6:0.33333334 #
55.846361497088665259980189148337 16:1 #
-20.307767817123163922587991692126 1:0.2 2:0.30000001 5:0.40000001 6:0.1 #
2.5384709771403954903234989615157 1:0.70454544 2:0.022727273 4:0.090909094 5:0.045454547 9:0.022727273 13:0.090909094 15:0.022727273 #
-68.538716382790624948029289953411 4:0.25 5:0.125 8:0.125 13:0.25 14:0.25 #
41.621383820937623454483400564641 8:0.33333334 13:0.33333334 14:0.33333334 #
-25.384709771403954903234989615157 1:0.11111111 3:0.11111111 4:0.11111111 5:0.11111111 6:0.11111111 9:0.22222222 13:0.22222222 #
59.028113799258846938755596056581 5:0.5 6:0.5 #
27.923180748544350393558488576673 3:0.16666667 4:0.16666667 5:0.16666667 9:0.16666667 13:0.16666667 16:0.16666667 #
-22.846238794263559412911490653642 1:0.125 3:0.125 4:0.125 12:0.125 13:0.375 16:0.125 #
-15.230825862842372941940993769094 1:0.5 5:0.125 6:0.125 8:0.125 13:0.125 #
32.356841377795362291180936153978 1:0.25 2:0.16666667 4:0.083333336 5:0.16666667 6:0.083333336 10:0.083333336 13:0.083333336 16:0.083333336 #
27.923180748544350393558488576673 3:0.16666667 4:0.16666667 5:0.16666667 9:0.16666667 13:0.16666667 16:0.16666667 #
-25.384709771403954903234989615157 2:0.33333334 5:0.16666667 8:0.16666667 9:0.16666667 13:0.16666667 #
25.384709771403954903234989615157 4:0.16666667 5:0.33333334 10:0.16666667 14:0.16666667 15:0.16666667 #
33.000122702825137821491807699203 1:0.375 2:0.125 5:0.375 14:0.125 #
27.923180748544350393558488576673 1:0.22222222 2:0.11111111 5:0.22222222 6:0.11111111 7:0.11111111 9:0.11111111 14:0.11111111 #
-25.384709771403954903234989615157 1:0.083333336 2:0.083333336 3:0.083333336 4:0.16666667 5:0.25 6:0.083333336 10:0.083333336 13:0.16666667 #
-68.538716382790624948029289953411 4:0.25 5:0.125 8:0.125 13:0.25 14:0.25 #
66.000245405650233010419469792396 2:0.25 3:0.25 7:0.25 9:0.25 #
-25.384709771403954903234989615157 5:0.5 10:0.5 #
55.846361497088665259980189148337 2:0.33333334 13:0.33333334 16:0.33333334 #
-25.384709771403954903234989615157 2:0.5 6:0.5 #
-25.384709771403954903234989615157 2:0.16666667 6:0.5 8:0.16666667 16:0.16666667 #
-68.538716382790624948029289953411 1:0.16666667 6:0.16666667 7:0.16666667 9:0.16666667 13:0.16666667 16:0.16666667 #
-22.846238794263559412911490653642 1:0.16666667 2:0.16666667 3:0.16666667 5:0.16666667 6:0.16666667 12:0.16666667 #
27.923180748544350393558488576673 4:0.33333334 13:0.33333334 16:0.33333334 #
63.461774428509841072809649631381 1:0.5 2:0.25 13:0.25 #
-23.852086980954865680359944235533 1:0.25 2:0.083333336 4:0.16666667 6:0.083333336 7:0.083333336 9:0.083333336 13:0.083333336 15:0.083333336 16:0.083333336 #
-25.384709771403954903234989615157 5:0.5 6:0.5 #
5.0769419542807909806469979230314 1:0.72727275 4:0.090909094 5:0.090909094 13:0.090909094 #
25.384709771403954903234989615157 2:0.5 6:0.25 7:0.25 #
-25.384709771403954903234989615157 2:0.33333334 5:0.16666667 6:0.33333334 8:0.16666667 #
-25.384709771403954903234989615157 2:0.22222222 4:0.11111111 5:0.11111111 6:0.11111111 8:0.11111111 12:0.11111111 13:0.11111111 15:0.11111111 #
20.307767817123163922587991692126 1:0.25 4:0.25 13:0.5 #
-40.615535634246313634321268182248 3:0.25 8:0.25 13:0.25 14:0.25 #
-15.230825862842372941940993769094 1:0.60000002 2:0.2 5:0.2 #
15.230825862842372941940993769094 4:0.33333334 5:0.33333334 14:0.33333334 #
53.307890519948273322370368987322 4:0.25 7:0.25 11:0.25 14:0.25 #
-38.077064657105921696711448021233 3:0.5 5:0.5 #
-40.615535634246313634321268182248 2:0.33333334 5:0.33333334 13:0.33333334 #
-38.077064657105921696711448021233 3:0.5 5:0.5 #
58.384832474229057197590009309351 1:0.16666667 2:0.16666667 4:0.16666667 5:0.16666667 7:0.16666667 14:0.16666667 #
15.230825862842372941940993769094 4:0.33333334 5:0.33333334 14:0.33333334 #
45.692477588527097509540908504277 4:0.5 14:0.5 #
5.0769419542807909806469979230314 5:0.5 14:0.5 #
-40.615535634246313634321268182248 5:0.33333334 8:0.33333334 14:0.33333334 #
25.384709771403954903234989615157 1:0.40000001 2:0.2 5:0.2 6:0.2 #
20.307767817123163922587991692126 1:0.25 2:0.16666667 3:0.083333336 4:0.083333336 5:0.083333336 6:0.083333336 11:0.083333336 13:0.083333336 14:0.083333336 #
-38.077064657105921696711448021233 1:0.11111111 2:0.22222222 4:0.33333334 5:0.22222222 13:0.11111111 #
15.230825862842372941940993769094 3:0.25 5:0.25 8:0.25 14:0.25 #
15.230825862842372941940993769094 2:0.16666667 4:0.16666667 5:0.5 13:0.16666667 #
25.384709771403954903234989615157 1:0.33333334 3:0.33333334 5:0.33333334 #
-40.615535634246313634321268182248 3:0.25 8:0.25 13:0.25 14:0.25 #
-38.077064657105921696711448021233 1:0.2 2:0.30000001 5:0.30000001 8:0.1 13:0.1 #
20.307767817123163922587991692126 1:0.16666667 2:0.33333334 4:0.16666667 9:0.16666667 13:0.16666667 #
-40.615535634246313634321268182248 5:0.33333334 8:0.33333334 14:0.33333334 #
20.307767817123163922587991692126 1:0.25 2:0.25 8:0.25 13:0.25 #
-15.230825862842372941940993769094 1:0.60000002 2:0.15000001 3:0.050000001 5:0.15000001 9:0.050000001 #
15.230825862842372941940993769094 2:0.16666667 4:0.16666667 5:0.5 13:0.16666667 #
15.230825862842372941940993769094 4:0.5 13:0.5 #
-7.6154129314211864709704968845472 2:0.33333334 5:0.66666669 #
12.692354885701977451617494807579 7:0.5 9:0.5 #
-22.846238794263559412911490653642 1:0.33333334 2:0.06666667 3:0.13333334 4:0.13333334 5:0.13333334 9:0.13333334 13:0.06666667 #
-12.692354885701977451617494807579 1:0.40000001 2:0.2 5:0.40000001 #
7.6154129314211864709704968845472 5:0.5 6:0.5 #
-10.153883908561581961293995846063 2:0.16666667 5:0.16666667 7:0.33333334 9:0.16666667 10:0.16666667 #
10.153883908561581961293995846063 1:0.69999999 2:0.1 5:0.2 #
-20.307767817123163922587991692126 1:0.58333331 2:0.16666667 5:0.083333336 6:0.083333336 13:0.083333336 #
7.6154129314211864709704968845472 1:0.33333334 13:0.33333334 16:0.33333334 #
-7.6154129314211864709704968845472 1:0.46666667 2:0.06666667 3:0.06666667 5:0.2 10:0.06666667 13:0.06666667 16:0.06666667 #
7.6154129314211864709704968845472 1:0.26666668 2:0.13333334 3:0.06666667 4:0.06666667 5:0.06666667 7:0.06666667 9:0.13333334 13:0.13333334 16:0.06666667 #
17.76929683998276843226449273061 4:0.66666669 13:0.33333334 #
-2.5384709771403954903234989615157 2:0.25 4:0.25 5:0.25 13:0.25 #
-10.153883908561581961293995846063 1:0.41666666 2:0.083333336 3:0.16666667 5:0.16666667 12:0.083333336 13:0.083333336 #
30.461651725684745883881987538189 1:0.5 13:0.25 16:0.25 #
7.6154129314211864709704968845472 12:0.25 14:0.25 15:0.25 16:0.25 #
7.6154129314211864709704968845472 4:0.25 6:0.25 8:0.25 14:0.25 #
7.6154129314211864709704968845472 1:0.1875 2:0.125 3:0.0625 4:0.125 5:0.0625 7:0.125 10:0.125 13:0.1875 #
-7.6154129314211864709704968845472 1:0.69999999 2:0.050000001 3:0.050000001 4:0.050000001 5:0.050000001 12:0.050000001 13:0.050000001 #
7.6154129314211864709704968845472 1:0.22222222 5:0.22222222 6:0.11111111 8:0.22222222 14:0.22222222 #
7.6154129314211864709704968845472 4:0.33333334 14:0.33333334 16:0.33333334 #
7.6154129314211864709704968845472 4:0.33333334 13:0.33333334 16:0.33333334 #
7.6154129314211864709704968845472 1:0.1875 2:0.125 3:0.0625 4:0.125 5:0.0625 7:0.125 10:0.125 13:0.1875 #
12.692354885701977451617494807579 1:0.45833334 2:0.041666668 3:0.041666668 4:0.041666668 6:0.041666668 7:0.041666668 8:0.083333336 10:0.041666668 12:0.041666668 13:0.083333336 14:0.083333336 #
7.6154129314211864709704968845472 1:0.25 2:0.33333334 4:0.083333336 5:0.083333336 8:0.083333336 13:0.083333336 15:0.083333336 #
7.6154129314211864709704968845472 1:0.16666667 2:0.16666667 4:0.16666667 5:0.25 13:0.16666667 16:0.083333336 #
2.5384709771403954903234989615157 7:0.33333334 12:0.33333334 14:0.33333334 #
7.6154129314211864709704968845472 1:0.25 2:0.0625 4:0.125 5:0.25 6:0.0625 8:0.0625 9:0.0625 13:0.0625 15:0.0625 #
-79.098739760629456441165530122817 10:1 #
7.6154129314211864709704968845472 3:0.33333334 6:0.33333334 10:0.33333334 #
7.6154129314211864709704968845472 2:0.5 8:0.25 13:0.25 #
7.6154129314211864709704968845472 11:0.33333334 12:0.33333334 16:0.33333334 #
7.6154129314211864709704968845472 2:0.375 5:0.25 8:0.125 13:0.125 16:0.125 #
7.6154129314211864709704968845472 1:0.16666667 3:0.083333336 4:0.083333336 5:0.16666667 6:0.083333336 8:0.083333336 12:0.083333336 13:0.083333336 14:0.16666667 #
-78.69260029135219269846857059747 3:0.33333334 12:0.33333334 13:0.33333334 #
7.6154129314211864709704968845472 4:0.33333334 5:0.33333334 16:0.33333334 #
7.6154129314211864709704968845472 4:0.33333334 13:0.33333334 16:0.33333334 #
7.6154129314211864709704968845472 2:0.25 5:0.25 11:0.25 15:0.25 #
7.6154129314211864709704968845472 5:0.25 6:0.25 10:0.25 15:0.25 #
10.153883908561581961293995846063 1:0.2857143 2:0.071428575 4:0.14285715 6:0.071428575 8:0.071428575 9:0.071428575 13:0.071428575 14:0.071428575 15:0.071428575 16:0.071428575 #
7.6154129314211864709704968845472 6:0.25 8:0.25 13:0.25 14:0.25 #
7.6154129314211864709704968845472 1:0.16666667 2:0.083333336 4:0.083333336 5:0.083333336 6:0.083333336 7:0.083333336 8:0.083333336 9:0.083333336 13:0.25 #
7.6154129314211864709704968845472 2:0.16666667 3:0.16666667 9:0.16666667 12:0.16666667 15:0.16666667 16:0.16666667 #
7.6154129314211864709704968845472 12:0.5 13:0.5 #
7.6154129314211864709704968845472 16:1 #
12.692354885701977451617494807579 1:0.25 2:0.083333336 4:0.083333336 5:0.083333336 6:0.083333336 9:0.16666667 11:0.083333336 13:0.083333336 16:0.083333336 #
7.6154129314211864709704968845472 2:0.25 5:0.25 11:0.25 15:0.25 #
7.6154129314211864709704968845472 11:0.33333334 12:0.33333334 16:0.33333334 #
2.9446104464176494630578417854849 8:0.5 14:0.5 #
12.692354885701977451617494807579 1:0.33333334 2:0.13333334 4:0.13333334 5:0.2 13:0.06666667 16:0.13333334 #
-83.769542245632976573688210919499 2:0.33333334 5:0.33333334 13:0.083333336 16:0.25 #
7.6154129314211864709704968845472 1:0.22222222 2:0.11111111 5:0.22222222 6:0.11111111 8:0.11111111 10:0.11111111 15:0.11111111 #
-10.153883908561581961293995846063 1:0.54545456 3:0.090909094 4:0.18181819 9:0.090909094 13:0.090909094 #
2.5384709771403954903234989615157 1:0.33333334 13:0.33333334 16:0.33333334 #
58.384832474229057197590009309351 1:0.375 2:0.125 5:0.25 13:0.125 16:0.125 #
-2.5384709771403954903234989615157 2:0.25 4:0.25 6:0.25 16:0.25 #
-2.5384709771403954903234989615157 4:0.33333334 13:0.33333334 16:0.33333334 #
-53.307890519948273322370368987322 4:0.5 16:0.5 #
2.5384709771403954903234989615157 1:0.33333334 13:0.33333334 16:0.33333334 #
50.769419542807881384760548826307 1:0.16666667 2:0.16666667 5:0.33333334 6:0.33333334 #
12.692354885701977451617494807579 1:0.625 4:0.25 13:0.125 #
2.5384709771403954903234989615157 1:0.33333334 4:0.33333334 16:0.33333334 #
-2.5384709771403954903234989615157 2:0.33333334 8:0.33333334 13:0.33333334 #
2.5384709771403954903234989615157 1:0.33333334 4:0.33333334 16:0.33333334 #
-55.846361497088665259980189148337 1:0.16666667 2:0.16666667 5:0.5 6:0.16666667 #
-2.5384709771403954903234989615157 4:0.33333334 13:0.66666669 #
2.5384709771403954903234989615157 1:0.33333334 2:0.33333334 6:0.33333334 #
-22.846238794263559412911490653642 1:0.60000002 2:0.1 4:0.1 5:0.1 13:0.1 #
2.5384709771403954903234989615157 1:0.25 2:0.125 4:0.125 5:0.125 6:0.125 13:0.125 16:0.125 #
53.307890519948273322370368987322 1:0.16666667 2:0.33333334 5:0.33333334 13:0.16666667 #
50.769419542807881384760548826307 1:0.16666667 2:0.16666667 5:0.33333334 6:0.33333334 #
-40.615535634246313634321268182248 1:0.5 2:0.125 4:0.125 6:0.125 16:0.125 #
-55.846361497088665259980189148337 5:0.25 10:0.25 13:0.25 16:0.25 #
-53.307890519948273322370368987322 4:0.66666669 13:0.33333334 #
-2.5384709771403954903234989615157 2:0.16666667 5:0.16666667 6:0.33333334 7:0.16666667 10:0.16666667 #
2.5384709771403954903234989615157 1:0.25 2:0.25 5:0.5 #
53.307890519948273322370368987322 1:0.16666667 2:0.5 5:0.33333334 #
-2.5384709771403954903234989615157 2:0.33333334 5:0.66666669 #
30.461651725684745883881987538189 6:0.5 15:0.25 16:0.25 #
-10.153883908561581961293995846063 1:0.5 4:0.25 13:0.25 #
-25.384709771403954903234989615157 7:0.33333334 8:0.16666667 9:0.16666667 10:0.16666667 13:0.16666667 #
-25.384709771403954903234989615157 5:0.5 6:0.5 #
30.461651725684745883881987538189 6:0.5 15:0.25 16:0.25 #
-22.846238794263559412911490653642 3:0.125 5:0.125 6:0.125 9:0.125 13:0.125 16:0.375 #
-22.846238794263559412911490653642 1:0.06666667 2:0.2 3:0.06666667 4:0.06666667 5:0.13333334 6:0.13333334 9:0.06666667 12:0.06666667 13:0.13333334 16:0.06666667 #
-30.461651725684742331168308737688 2:0.25 5:0.25 7:0.25 14:0.25 #
-30.461651725684745883881987538189 6:0.25 7:0.25 9:0.25 14:0.25 #
-55.846361497088665259980189148337 2:0.25 3:0.25 8:0.25 9:0.25 #
35.538593679965529759101627860218 5:0.16666667 6:0.33333334 7:0.16666667 9:0.16666667 14:0.16666667 #
-66.000245405650233010419469792396 2:0.16666667 3:0.16666667 4:0.16666667 6:0.16666667 10:0.16666667 16:0.16666667 #
40.615535634246313634321268182248 3:0.25 5:0.25 6:0.25 10:0.25 #
-25.384709771403951350521310814656 7:0.33333334 8:0.16666667 9:0.16666667 10:0.16666667 13:0.16666667 #
-5.0769419542807909806469979230314 1:0.33333334 2:0.083333336 4:0.083333336 5:0.25 6:0.083333336 13:0.16666667 #
-5.0769419542807909806469979230314 1:0.33333334 4:0.33333334 14:0.33333334 #
40.615535634246313634321268182248 2:0.33333334 6:0.33333334 8:0.33333334 #
-66.000245405650233010419469792396 3:0.25 4:0.25 9:0.25 14:0.25 #
40.615535634246313634321268182248 4:0.33333334 13:0.66666669 #
-22.846238794263559412911490653642 4:0.5 13:0.5 #
40.615535634246313634321268182248 4:0.33333334 13:0.33333334 16:0.33333334 #
-53.307890519948273322370368987322 2:0.25 3:0.25 6:0.25 11:0.25 #
48.230948565667489447150728665292 1:0.16666667 3:0.16666667 4:0.16666667 5:0.16666667 9:0.16666667 14:0.16666667 #
48.230948565667489447150728665292 1:0.11111111 2:0.22222222 3:0.11111111 4:0.22222222 5:0.11111111 9:0.11111111 13:0.11111111 #
33.000122702825137821491807699203 2:0.16666667 5:0.16666667 6:0.16666667 8:0.16666667 14:0.16666667 15:0.16666667 #
12.692354885701977451617494807579 6:0.5 7:0.5 #
40.615535634246313634321268182248 6:0.5 11:0.5 #
40.615535634246313634321268182248 2:0.25 3:0.25 5:0.25 13:0.25 #
-10.153883908561581961293995846063 1:0.33333334 9:0.33333334 11:0.33333334 #
68.538716382790624948029289953411 5:0.25 6:0.25 8:0.25 14:0.25 #
-25.384709771403954903234989615157 4:0.16666667 6:0.33333334 12:0.16666667 15:0.16666667 16:0.16666667 #
40.615535634246313634321268182248 12:0.5 16:0.5 #
-66.000245405650233010419469792396 1:0.06666667 2:0.2 3:0.06666667 4:0.06666667 5:0.13333334 6:0.13333334 9:0.06666667 12:0.06666667 13:0.13333334 16:0.06666667 #
-22.846238794263559412911490653642 1:0.16666667 2:0.16666667 6:0.16666667 8:0.16666667 14:0.16666667 16:0.16666667 #
-30.461651725684745883881987538189 1:0.25 2:0.125 4:0.125 5:0.125 9:0.125 13:0.125 16:0.125 #
-50.769419542807881384760548826307 1:0.33333334 3:0.16666667 12:0.16666667 13:0.16666667 16:0.16666667 #
-43.154006611386705571931088343263 1:0.44444445 4:0.22222222 9:0.055555556 13:0.22222222 16:0.055555556 #
15.230825862842372941940993769094 1:0.33333334 4:0.33333334 13:0.33333334 #
-7.6154129314211864709704968845472 5:0.25 10:0.25 15:0.25 16:0.25 #
50.769419542807881384760548826307 1:0.22222222 2:0.11111111 4:0.22222222 9:0.11111111 13:0.22222222 16:0.11111111 #
-5.0769419542807909806469979230314 1:0.22222222 3:0.22222222 4:0.11111111 5:0.11111111 12:0.11111111 13:0.11111111 16:0.11111111 #
-7.6154129314211864709704968845472 1:0.16666667 4:0.5 13:0.16666667 14:0.16666667 #
-12.692354885701977451617494807579 2:0.2 4:0.2 8:0.2 13:0.40000001 #
35.538593679965529759101627860218 1:0.375 3:0.125 4:0.125 5:0.125 13:0.25 #
-38.077064657105921696711448021233 2:0.25 4:0.25 5:0.25 13:0.25 #
40.615535634246313634321268182248 4:0.5 13:0.5 #
35.538593679965529759101627860218 1:0.16666667 2:0.083333336 4:0.25 5:0.16666667 13:0.25 14:0.083333336 #
-30.461651725684745883881987538189 1:0.25 2:0.125 4:0.125 5:0.125 9:0.125 13:0.125 16:0.125 #
-30.461651725684745883881987538189 1:0.33333334 2:0.16666667 4:0.16666667 5:0.16666667 13:0.16666667 #
-25.384709771403954903234989615157 5:0.5 14:0.5 #
38.077064657105921696711448021233 1:0.5 3:0.083333336 4:0.16666667 9:0.083333336 13:0.16666667 #
35.538593679965529759101627860218 1:0.33333334 2:0.16666667 4:0.16666667 9:0.16666667 13:0.16666667 #
-22.846238794263559412911490653642 1:0.5 3:0.25 5:0.25 #
7.6154129314211864709704968845472 4:0.2 13:0.40000001 16:0.40000001 #
17.76929683998276843226449273061 1:0.5 3:0.055555556 4:0.11111111 9:0.11111111 13:0.16666667 16:0.055555556 #
-30.461651725684742331168308737688 1:0.375 4:0.25 7:0.125 9:0.125 13:0.125 #
58.384832474229057197590009309351 1:0.33333334 2:0.33333334 5:0.33333334 #
-68.538716382790624948029289953411 1:0.16666667 2:0.16666667 3:0.16666667 5:0.33333334 10:0.16666667 #
-68.538716382790624948029289953411 1:0.16666667 2:0.083333336 4:0.25 5:0.083333336 6:0.083333336 13:0.25 16:0.083333336 #
40.615535634246313634321268182248 1:0.16666667 2:0.16666667 5:0.16666667 6:0.16666667 7:0.16666667 10:0.16666667 #
-15.230825862842372941940993769094 6:0.66666669 10:0.33333334 #
-15.230825862842372941940993769094 2:0.16666667 4:0.33333334 5:0.16666667 9:0.16666667 13:0.16666667 #
-15.230825862842372941940993769094 1:0.33333334 2:0.16666667 9:0.16666667 12:0.16666667 13:0.16666667 #
43.154006611386705571931088343263 1:0.25 3:0.083333336 5:0.083333336 6:0.083333336 9:0.16666667 13:0.083333336 16:0.25 #
43.154006611386705571931088343263 1:0.16666667 3:0.16666667 4:0.33333334 10:0.16666667 13:0.16666667 #
-15.230825862842372941940993769094 2:0.5 5:0.5 #
43.154006611386705571931088343263 1:0.33333334 5:0.33333334 6:0.33333334 #
-15.230825862842372941940993769094 3:0.5 13:0.5 #
45.692477588527097509540908504277 1:0.33333334 2:0.16666667 3:0.16666667 9:0.16666667 10:0.16666667 #
-15.230825862842372941940993769094 2:0.16666667 3:0.16666667 4:0.16666667 5:0.33333334 10:0.16666667 #
-68.538716382790624948029289953411 1:0.16666667 2:0.16666667 4:0.16666667 5:0.25 10:0.083333336 13:0.083333336 16:0.083333336 #
-15.230825862842372941940993769094 2:0.5 6:0.5 #
66.000245405650233010419469792396 1:0.2 2:0.2 3:0.2 5:0.2 10:0.2 #
-15.230825862842372941940993769094 3:0.5 13:0.5 #
66.000245405650233010419469792396 1:0.35714287 2:0.071428575 3:0.071428575 4:0.14285715 7:0.071428575 9:0.14285715 13:0.14285715 #
-15.230825862842372941940993769094 2:0.16666667 4:0.16666667 5:0.16666667 9:0.16666667 13:0.16666667 16:0.16666667 #
-15.230825862842372941940993769094 1:0.16666667 2:0.083333336 3:0.083333336 4:0.16666667 5:0.083333336 9:0.083333336 13:0.083333336 16:0.25 #
-10.153883908561581961293995846063 1:0.5 2:0.083333336 4:0.083333336 6:0.083333336 7:0.083333336 9:0.083333336 16:0.083333336 #
-15.230825862842372941940993769094 1:0.25 3:0.083333336 5:0.083333336 6:0.083333336 9:0.16666667 13:0.083333336 16:0.25 #
-15.230825862842372941940993769094 4:0.33333334 16:0.66666669 #
66.000245405650233010419469792396 1:0.33333334 8:0.33333334 13:0.33333334 #
-15.230825862842372941940993769094 1:0.33333334 4:0.33333334 16:0.33333334 #
-15.230825862842372941940993769094 2:0.16666667 4:0.16666667 5:0.16666667 9:0.16666667 13:0.16666667 16:0.16666667 #
-15.230825862842372941940993769094 1:0.16666667 2:0.16666667 3:0.16666667 5:0.16666667 13:0.16666667 16:0.16666667 #
60.923303451369449135199829470366 2:0.16666667 4:0.16666667 5:0.16666667 6:0.16666667 9:0.16666667 13:0.16666667 #
-15.230825862842372941940993769094 1:0.2 2:0.2 3:0.2 5:0.2 9:0.2 #
-15.230825862842372941940993769094 2:0.16666667 4:0.33333334 7:0.16666667 9:0.16666667 13:0.16666667 #
-45.692477588527097509540908504277 1:0.33333334 2:0.33333334 8:0.33333334 #
43.154006611386705571931088343263 2:0.2 5:0.2 8:0.2 14:0.2 16:0.2 #
-35.538593679965529759101627860218 1:0.40000001 4:0.40000001 13:0.2 #
17.76929683998276843226449273061 2:0.11111111 3:0.11111111 4:0.11111111 5:0.22222222 9:0.11111111 10:0.11111111 13:0.22222222 #
15.230825862842372941940993769094 1:0.1 2:0.1 3:0.1 5:0.1 8:0.2 9:0.1 13:0.1 14:0.2 #
-30.461651725684745883881987538189 1:0.16666667 4:0.16666667 5:0.16666667 9:0.16666667 14:0.16666667 16:0.16666667 #
-10.153883908561581961293995846063 1:0.63636363 4:0.18181819 13:0.18181819 #
-30.461651725684745883881987538189 1:0.25 13:0.25 16:0.5 #
22.846238794263559412911490653642 1:0.375 2:0.125 4:0.125 5:0.25 13:0.125 #
-50.769419542807881384760548826307 1:0.33333334 2:0.33333334 6:0.33333334 #
22.846238794263559412911490653642 1:0.25 3:0.25 5:0.25 10:0.25 #
15.230825862842372941940993769094 2:0.5 13:0.5 #
5.0769419542807909806469979230314 6:0.33333334 8:0.33333334 14:0.33333334 #
17.76929683998276843226449273061 1:0.11111111 2:0.11111111 3:0.11111111 5:0.33333334 10:0.11111111 14:0.11111111 16:0.11111111 #
-35.538593679965529759101627860218 13:0.33333334 16:0.66666669 #
15.230825862842372941940993769094 5:0.5 10:0.5 #
20.307767817123163922587991692126 1:0.33333334 8:0.33333334 13:0.33333334 #
22.846238794263559412911490653642 1:0.70454544 2:0.045454547 3:0.045454547 4:0.090909094 5:0.022727273 9:0.022727273 13:0.06818182 #
22.846238794263559412911490653642 1:0.22222222 3:0.11111111 4:0.11111111 5:0.22222222 9:0.11111111 10:0.11111111 13:0.11111111 #
20.307767817123163922587991692126 1:0.33333334 8:0.33333334 13:0.33333334 #
-38.077064657105921696711448021233 4:0.25 5:0.25 6:0.25 14:0.25 #
15.230825862842372941940993769094 2:0.5 8:0.5 #
-35.538593679965529759101627860218 4:0.33333334 5:0.33333334 14:0.33333334 #
20.307767817123163922587991692126 1:0.25 5:0.125 10:0.125 16:0.5 #
15.230825862842372941940993769094 3:0.25 5:0.25 7:0.25 9:0.25 #
-38.077064657105921696711448021233 2:0.25 7:0.25 8:0.25 10:0.25 #
20.307767817123163922587991692126 1:0.3125 2:0.0625 3:0.0625 4:0.0625 5:0.1875 9:0.0625 10:0.0625 13:0.0625 15:0.0625 16:0.0625 #
63.461774428509841072809649631381 1:0.11111111 4:0.11111111 6:0.22222222 9:0.11111111 10:0.11111111 12:0.11111111 13:0.11111111 15:0.11111111 #
-33.000122702825137821491807699203 1:0.33333334 3:0.11111111 4:0.055555556 5:0.11111111 8:0.055555556 10:0.055555556 12:0.055555556 13:0.16666667 14:0.055555556 #
20.307767817123163922587991692126 1:0.2 3:0.2 4:0.2 9:0.2 13:0.2 #
-71.077187359931016885639110114425 2:0.11111111 3:0.11111111 4:0.11111111 5:0.33333334 6:0.11111111 11:0.11111111 14:0.11111111 #
63.461774428509841072809649631381 1:0.33333334 2:0.083333336 3:0.083333336 4:0.083333336 5:0.083333336 9:0.25 13:0.083333336 #
-68.538716382790624948029289953411 1:0.1875 2:0.125 3:0.0625 4:0.0625 5:0.1875 6:0.125 8:0.0625 10:0.0625 13:0.0625 15:0.0625 #
-38.077064657105921696711448021233 4:0.16666667 5:0.16666667 7:0.16666667 10:0.16666667 12:0.16666667 15:0.16666667 #
-38.077064657105921696711448021233 1:0.16666667 2:0.16666667 4:0.16666667 5:0.33333334 13:0.16666667 #
63.461774428509841072809649631381 2:0.25 4:0.25 9:0.5 #
-38.077064657105921696711448021233 2:0.40000001 5:0.40000001 6:0.2 #
-35.538593679965529759101627860218 1:0.125 3:0.125 4:0.125 5:0.125 9:0.125 11:0.125 13:0.25 #
63.461774428509841072809649631381 1:0.5 2:0.071428575 3:0.071428575 5:0.071428575 9:0.071428575 11:0.071428575 13:0.071428575 16:0.071428575 #
20.307767817123163922587991692126 2:0.16666667 3:0.16666667 4:0.16666667 5:0.16666667 10:0.16666667 13:0.16666667 #
20.307767817123163922587991692126 1:0.25 3:0.16666667 4:0.083333336 5:0.083333336 6:0.083333336 9:0.083333336 10:0.083333336 13:0.16666667 #
20.307767817123163922587991692126 3:0.11111111 4:0.11111111 5:0.11111111 6:0.22222222 9:0.22222222 15:0.11111111 16:0.11111111 #
63.461774428509841072809649631381 2:0.25 9:0.25 12:0.25 16:0.25 #
-38.077064657105921696711448021233 2:0.11111111 4:0.11111111 5:0.22222222 7:0.11111111 9:0.11111111 11:0.11111111 13:0.22222222 #
15.230825862842372941940993769094 9:0.33333334 12:0.33333334 15:0.33333334 #
20.307767817123163922587991692126 2:0.16666667 3:0.16666667 5:0.33333334 9:0.16666667 13:0.16666667 #
-38.077064657105921696711448021233 2:0.1 3:0.1 5:0.30000001 8:0.2 13:0.1 14:0.2 #
20.307767817123163922587991692126 1:0.3888889 2:0.055555556 3:0.11111111 4:0.11111111 5:0.055555556 8:0.11111111 13:0.11111111 14:0.055555556 #
12.692354885701977451617494807579 2:0.33333334 7:0.33333334 13:0.33333334 #
20.307767817123163922587991692126 1:0.16666667 5:0.16666667 10:0.16666667 12:0.33333334 15:0.16666667 #
17.76929683998276843226449273061 3:0.16666667 4:0.16666667 5:0.16666667 9:0.16666667 14:0.16666667 15:0.16666667 #
20.307767817123163922587991692126 1:0.25 3:0.16666667 4:0.083333336 5:0.083333336 6:0.083333336 9:0.083333336 10:0.083333336 13:0.16666667 #
-30.461651725684745883881987538189 1:0.33333334 2:0.16666667 4:0.083333336 8:0.083333336 9:0.16666667 13:0.16666667 #
-40.615535634246313634321268182248 5:0.16666667 7:0.16666667 8:0.16666667 13:0.16666667 14:0.33333334 #
-38.077064657105921696711448021233 2:0.33333334 7:0.33333334 13:0.33333334 #
-5.0769419542807909806469979230314 4:0.33333334 13:0.33333334 16:0.33333334 #
10.153883908561581961293995846063 5:0.25 6:0.25 8:0.25 14:0.25 #
35.538593679965529759101627860218 2:0.25 9:0.25 14:0.25 16:0.25 #
-50.769419542807881384760548826307 1:0.25 4:0.25 5:0.125 6:0.125 13:0.25 #
53.307890519948273322370368987322 4:0.5 16:0.5 #
-33.000122702825137821491807699203 2:0.33333334 4:0.16666667 5:0.16666667 6:0.16666667 8:0.16666667 #
22.846238794263559412911490653642 4:0.5 13:0.5 #
-33.000122702825137821491807699203 2:0.25 4:0.25 13:0.25 16:0.25 #
2.5384709771403954903234989615157 1:0.40000001 2:0.06666667 4:0.2 5:0.13333334 13:0.13333334 16:0.06666667 #
-10.153883908561581961293995846063 2:0.5 6:0.5 #
45.692477588527097509540908504277 4:0.5 16:0.5 #
-5.0769419542807909806469979230314 4:0.33333334 13:0.66666669 #
-10.153883908561581961293995846063 2:0.5 6:0.5 #
22.846238794263559412911490653642 1:0.33333334 4:0.16666667 13:0.33333334 16:0.16666667 #
-30.461651725684745883881987538189 1:0.33333334 2:0.083333336 4:0.083333336 5:0.083333336 6:0.16666667 13:0.16666667 16:0.083333336 #
-40.615535634246313634321268182248 1:0.375 2:0.25 4:0.125 5:0.125 13:0.125 #
-33.000122702825137821491807699203 2:0.25 4:0.25 5:0.25 13:0.25 #
-5.0769419542807909806469979230314 2:0.33333334 4:0.16666667 5:0.16666667 6:0.16666667 8:0.16666667 #
22.846238794263559412911490653642 1:0.33333334 2:0.33333334 13:0.33333334 #
-33.000122702825137821491807699203 2:0.33333334 4:0.33333334 13:0.33333334 #
48.230948565667489447150728665292 13:0.5 16:0.5 #
22.846238794263555860197811853141 1:0.3125 2:0.125 4:0.0625 5:0.1875 13:0.125 14:0.0625 16:0.125 #
-40.615535634246313634321268182248 1:0.30000001 3:0.2 4:0.1 5:0.1 9:0.1 10:0.1 13:0.1 #
43.154006611386705571931088343263 1:0.33333334 2:0.33333334 9:0.33333334 #
-5.0769419542807909806469979230314 2:0.25 4:0.25 9:0.5 #
-5.0769419542807909806469979230314 2:0.5 5:0.25 9:0.25 #
55.846361497088665259980189148337 1:0.22222222 2:0.11111111 5:0.33333334 6:0.11111111 12:0.11111111 13:0.11111111 #
-48.230948565667489447150728665292 3:0.33333334 5:0.16666667 9:0.16666667 10:0.16666667 13:0.16666667 #
40.615535634246313634321268182248 1:0.5 4:0.25 13:0.25 #
-5.0769419542807909806469979230314 1:0.14285715 4:0.2857143 13:0.2857143 16:0.2857143 #
25.384709771403954903234989615157 5:0.5 6:0.25 10:0.25 #
53.307890519948273322370368987322 2:0.16666667 5:0.16666667 6:0.16666667 9:0.16666667 12:0.16666667 16:0.16666667 #
-35.538593679965529759101627860218 1:0.33333334 2:0.16666667 3:0.16666667 6:0.16666667 12:0.16666667 #
35.538593679965529759101627860218 2:0.16666667 3:0.16666667 5:0.16666667 9:0.33333334 13:0.16666667 #
5.0769419542807909806469979230314 1:0.40000001 2:0.2 4:0.2 13:0.2 #
25.384709771403954903234989615157 5:0.25 6:0.25 12:0.25 13:0.25 #
43.154006611386705571931088343263 1:0.69999999 4:0.15000001 13:0.15000001 #
-5.0769419542807909806469979230314 5:0.16666667 6:0.16666667 9:0.16666667 11:0.16666667 12:0.16666667 13:0.16666667 #
-48.230948565667489447150728665292 5:0.5 6:0.5 #
38.077064657105921696711448021233 2:0.16666667 5:0.33333334 6:0.16666667 12:0.16666667 13:0.16666667 #
-5.0769419542807909806469979230314 1:0.125 2:0.25 3:0.125 4:0.125 5:0.25 9:0.125 #
-5.0769419542807909806469979230314 1:0.25 2:0.25 4:0.25 5:0.25 #
-35.538593679965529759101627860218 1:0.25 2:0.25 3:0.25 9:0.25 #
-45.692477588527097509540908504277 1:0.33333334 2:0.33333334 6:0.33333334 #
-5.0769419542807909806469979230314 4:0.33333334 13:0.66666669 #
-33.000122702825137821491807699203 1:0.42857143 2:0.071428575 3:0.071428575 4:0.071428575 7:0.071428575 9:0.071428575 12:0.071428575 13:0.14285715 #
35.538593679965529759101627860218 1:0.33333334 7:0.16666667 9:0.16666667 13:0.16666667 16:0.16666667 #
-15.230825862842372941940993769094 4:0.33333334 6:0.33333334 14:0.33333334 #
-48.230948565667489447150728665292 1:0.125 4:0.375 5:0.125 13:0.25 14:0.125 #
-12.692354885701977451617494807579 5:0.25 6:0.25 12:0.25 13:0.25 #
15.230825862842372941940993769094 1:0.40000001 8:0.2 13:0.2 14:0.2 #
-53.307890519948273322370368987322 1:0.16666667 4:0.16666667 9:0.16666667 13:0.16666667 16:0.33333334 #
22.846238794263559412911490653642 1:0.44444445 2:0.22222222 5:0.33333334 #
58.384832474229057197590009309351 2:0.5 8:0.5 #
38.077064657105921696711448021233 6:1 #
2.5384709771403954903234989615157 2:0.5 5:0.5 #
43.154006611386705571931088343263 4:0.33333334 8:0.33333334 13:0.33333334 #
-66.000245405650233010419469792396 4:0.2 12:0.2 14:0.2 15:0.2 16:0.2 #
20.307767817123163922587991692126 1:0.40000001 2:0.2 6:0.2 13:0.2 #
38.077064657105921696711448021233 6:1 #
2.5384709771403954903234989615157 2:0.5 13:0.5 #
-25.384709771403954903234989615157 1:0.33333334 2:0.33333334 13:0.33333334 #
-10.153883908561581961293995846063 1:0.5 4:0.16666667 13:0.33333334 #
-30.461651725684745883881987538189 8:0.25 13:0.25 16:0.5 #
-25.384709771403954903234989615157 1:0.60000002 2:0.2 6:0.2 #
30.461651725684745883881987538189 1:0.60000002 4:0.2 13:0.2 #
17.76929683998276843226449273061 1:0.2 4:0.40000001 5:0.2 13:0.2 #
-5.0769419542807909806469979230314 5:0.33333334 14:0.33333334 16:0.33333334 #
-17.76929683998276843226449273061 1:0.25 8:0.25 13:0.25 16:0.25 #
22.846238794263559412911490653642 4:0.33333334 5:0.33333334 14:0.33333334 #
7.6154129314211864709704968845472 6:0.33333334 8:0.33333334 14:0.33333334 #
-17.76929683998276843226449273061 1:0.33333334 2:0.16666667 5:0.16666667 6:0.16666667 14:0.16666667 #
-45.692477588527097509540908504277 1:0.25 9:0.25 15:0.25 16:0.25 #
35.538593679965529759101627860218 1:0.25 4:0.25 13:0.25 14:0.25 #
40.615535634246313634321268182248 2:0.25 8:0.25 13:0.25 14:0.25 #
-48.230948565667489447150728665292 2:0.2 5:0.2 6:0.2 8:0.2 13:0.2 #
-40.615535634246313634321268182248 5:0.5 14:0.5 #
43.154006611386705571931088343263 2:0.5 13:0.5 #
-53.307890519948273322370368987322 1:0.16666667 4:0.16666667 9:0.16666667 13:0.16666667 16:0.33333334 #
40.615535634246313634321268182248 2:0.33333334 4:0.33333334 5:0.33333334 #
40.615535634246313634321268182248 2:0.33333334 3:0.33333334 5:0.33333334 #
15.230825862842372941940993769094 1:0.66666669 3:0.16666667 5:0.16666667 #
-15.230825862842372941940993769094 1:0.33333334 4:0.33333334 15:0.33333334 #
-25.384709771403954903234989615157 1:0.66666669 2:0.074074075 3:0.037037037 4:0.074074075 5:0.074074075 13:0.074074075 #
40.615535634246313634321268182248 2:0.33333334 4:0.33333334 5:0.33333334 #
-25.384709771403954903234989615157 4:0.5 14:0.5 #
35.538593679965529759101627860218 2:0.33333334 5:0.33333334 13:0.33333334 #
-17.76929683998276843226449273061 2:0.33333334 4:0.33333334 5:0.33333334 #
-35.538593679965529759101627860218 1:0.25 2:0.25 3:0.25 9:0.25 #
-10.153883908561581961293995846063 1:0.70833331 2:0.041666668 4:0.083333336 5:0.041666668 6:0.041666668 13:0.083333336 #
35.538593679965529759101627860218 6:0.5 10:0.5 #
-5.0769419542807909806469979230314 1:0.33333334 4:0.11111111 5:0.11111111 8:0.11111111 10:0.11111111 13:0.11111111 16:0.11111111 #
-48.230948565667489447150728665292 1:0.30000001 2:0.2 3:0.1 5:0.1 7:0.1 9:0.2 #
-15.230825862842372941940993769094 1:0.16666667 3:0.16666667 5:0.16666667 6:0.16666667 10:0.33333334 #
-20.307767817123163922587991692126 3:0.25 5:0.25 6:0.25 13:0.25 #
35.538593679965529759101627860218 1:0.125 2:0.125 5:0.125 6:0.125 7:0.125 8:0.125 9:0.125 14:0.125 #
-38.077064657105921696711448021233 1:0.40000001 2:0.2 3:0.1 5:0.1 7:0.1 9:0.1 #
-5.0769419542807909806469979230314 1:0.33333334 5:0.33333334 10:0.33333334 #
50.769419542807881384760548826307 1:0.25 2:0.25 3:0.25 9:0.25 #
-10.153883908561581961293995846063 1:0.66666669 3:0.16666667 5:0.16666667 #
40.615535634246313634321268182248 1:0.16666667 2:0.16666667 3:0.083333336 5:0.16666667 6:0.083333336 8:0.083333336 9:0.16666667 13:0.083333336 #
-60.923303451369449135199829470366 3:0.16666667 4:0.33333334 5:0.16666667 10:0.16666667 13:0.16666667 #
-17.76929683998276843226449273061 1:0.16666667 2:0.16666667 3:0.16666667 5:0.16666667 7:0.16666667 9:0.16666667 #
-22.846238794263559412911490653642 2:0.33333334 5:0.22222222 6:0.11111111 8:0.22222222 13:0.11111111 #
-17.76929683998276843226449273061 1:0.22222222 2:0.11111111 5:0.11111111 6:0.11111111 7:0.11111111 8:0.11111111 10:0.11111111 13:0.11111111 #
-5.0769419542807909806469979230314 1:0.33333334 2:0.33333334 13:0.33333334 #
40.615535634246313634321268182248 3:0.5 5:0.5 #
25.384709771403954903234989615157 2:0.25 5:0.25 6:0.5 #
-25.384709771403954903234989615157 5:0.16666667 6:0.33333334 7:0.16666667 9:0.16666667 14:0.16666667 #
20.307767817123163922587991692126 6:1 #
60.923303451369449135199829470366 2:0.5 6:0.5 #
71.077187359931016885639110114425 1:0.5 2:0.16666667 4:0.16666667 5:0.16666667 #
33.000122702825137821491807699203 1:0.06666667 2:0.2 5:0.33333334 6:0.06666667 8:0.06666667 9:0.06666667 11:0.06666667 13:0.13333334 #
-25.384709771403954903234989615157 1:0.5 2:0.16666667 5:0.22222222 6:0.11111111 #
55.846361497088665259980189148337 2:0.33333334 5:0.66666669 #
33.000122702825137821491807699203 1:0.33333334 2:0.25 4:0.083333336 5:0.083333336 6:0.083333336 8:0.041666668 13:0.083333336 16:0.041666668 #
-30.461651725684742331168308737688 2:0.25 5:0.25 6:0.5 #
-25.384709771403954903234989615157 2:0.16666667 3:0.16666667 5:0.33333334 9:0.33333334 #
25.384709771403954903234989615157 2:0.125 5:0.375 6:0.375 14:0.125 #
25.384709771403954903234989615157 2:0.16666667 5:0.33333334 8:0.16666667 13:0.16666667 14:0.16666667 #
55.846361497088665259980189148337 1:0.083333336 2:0.083333336 3:0.083333336 5:0.33333334 6:0.33333334 14:0.083333336 #
-30.461651725684745883881987538189 4:0.1 5:0.2 6:0.5 14:0.1 16:0.1 #
33.000122702825137821491807699203 1:0.25 2:0.125 3:0.0625 4:0.125 5:0.125 8:0.0625 10:0.0625 13:0.1875 #
-27.923180748544350393558488576673 2:0.16666667 3:0.16666667 5:0.16666667 8:0.16666667 10:0.16666667 13:0.16666667 #
-20.307767817123163922587991692126 1:0.45833334 2:0.125 3:0.041666668 4:0.041666668 5:0.16666667 6:0.041666668 9:0.041666668 13:0.041666668 16:0.041666668 #
27.923180748544350393558488576673 2:0.2 4:0.1 6:0.30000001 8:0.1 9:0.1 11:0.1 14:0.1 #
-15.230825862842372941940993769094 1:0.33333334 2:0.22222222 4:0.11111111 5:0.22222222 13:0.11111111 #
-30.461651725684742331168308737688 2:0.33333334 6:0.66666669 #
35.538593679965529759101627860218 1:0.375 2:0.25 4:0.0625 5:0.0625 6:0.125 13:0.125 #
25.384709771403954903234989615157 2:0.25 4:0.125 6:0.375 8:0.125 14:0.125 #
-30.461651725684745883881987538189 2:0.25 5:0.25 6:0.125 7:0.125 9:0.125 13:0.125 #
-25.384709771403954903234989615157 1:0.33333334 7:0.33333334 9:0.33333334 #
27.923180748544350393558488576673 2:0.16666667 4:0.083333336 5:0.41666666 6:0.25 13:0.083333336 #
-30.461651725684745883881987538189 2:0.25 5:0.25 6:0.125 7:0.125 9:0.125 13:0.125 #
-27.923180748544350393558488576673 2:0.25 4:0.25 6:0.25 16:0.25 #
-30.461651725684745883881987538189 2:0.25 4:0.125 6:0.375 8:0.125 14:0.125 #
-30.461651725684742331168308737688 2:0.5 5:0.5 #
-30.461651725684742331168308737688 4:0.1 5:0.2 6:0.5 14:0.1 16:0.1 #
-30.461651725684745883881987538189 2:0.16666667 4:0.16666667 5:0.33333334 6:0.16666667 13:0.16666667 #
-68.538716382790624948029289953411 1:0.25 2:0.16666667 5:0.33333334 6:0.16666667 14:0.083333336 #
-12.692354885701977451617494807579 2:0.25 6:0.25 12:0.25 13:0.25 #
-12.692354885701977451617494807579 7:0.5 9:0.5 #
-12.692354885701977451617494807579 2:0.33333334 8:0.33333334 13:0.33333334 #
73.61565833707140882324893027544 4:0.16666667 5:0.33333334 6:0.16666667 10:0.16666667 14:0.16666667 #
-12.692354885701977451617494807579 6:1 #
-12.692354885701977451617494807579 2:0.33333334 5:0.33333334 6:0.33333334 #
-12.692354885701977451617494807579 2:0.33333334 5:0.66666669 #
-12.692354885701977451617494807579 2:0.5 6:0.5 #
-12.692354885701977451617494807579 6:0.5 7:0.5 #
-12.692354885701977451617494807579 1:0.16666667 5:0.33333334 6:0.16666667 10:0.16666667 14:0.16666667 #
-12.692354885701977451617494807579 6:1 #
2.5384709771403954903234989615157 1:0.5 2:0.14285715 4:0.071428575 5:0.14285715 13:0.071428575 16:0.071428575 #
86.308013222773368511298031080514 1:0.16666667 6:0.16666667 7:0.16666667 9:0.16666667 10:0.16666667 15:0.16666667 #
-12.692354885701977451617494807579 4:0.5 5:0.5 #
-12.692354885701977451617494807579 1:0.22222222 2:0.11111111 5:0.11111111 6:0.11111111 7:0.11111111 8:0.11111111 9:0.11111111 13:0.11111111 #
-12.692354885701977451617494807579 1:0.16666667 6:0.16666667 7:0.16666667 9:0.16666667 10:0.16666667 15:0.16666667 #
-12.692354885701977451617494807579 2:0.33333334 8:0.33333334 13:0.33333334 #
-12.692354885701977451617494807579 6:0.16666667 7:0.33333334 10:0.16666667 12:0.16666667 13:0.16666667 #
-12.692354885701977451617494807579 7:0.25 8:0.25 10:0.25 15:0.25 #
-12.692354885701977451617494807579 2:0.33333334 7:0.33333334 9:0.33333334 #
78.69260029135219269846857059747 1:0.083333336 2:0.083333336 3:0.083333336 4:0.083333336 5:0.16666667 6:0.25 8:0.083333336 13:0.16666667 #
-12.692354885701977451617494807579 1:0.69230771 2:0.051282052 3:0.025641026 4:0.07692308 5:0.051282052 9:0.025641026 13:0.07692308 #
-12.692354885701977451617494807579 4:0.25 5:0.125 6:0.125 13:0.25 14:0.125 16:0.125 #
-12.692354885701977451617494807579 2:0.11111111 4:0.22222222 6:0.33333334 8:0.11111111 13:0.11111111 14:0.11111111 #
-5.0769419542807909806469979230314 1:0.33333334 2:0.33333334 5:0.33333334 #
63.461774428509841072809649631381 6:1 #
-12.692354885701977451617494807579 2:0.22222222 3:0.11111111 5:0.11111111 6:0.11111111 7:0.11111111 9:0.11111111 12:0.11111111 14:0.11111111 #
-12.692354885701977451617494807579 6:1 #
-5.0769419542807909806469979230314 1:0.33333334 2:0.33333334 5:0.33333334 #
-12.692354885701977451617494807579 7:0.25 10:0.25 13:0.25 16:0.25 #
-12.692354885701977451617494807579 2:0.11111111 4:0.11111111 5:0.33333334 6:0.33333334 14:0.11111111 #
-10.153883908561581961293995846063 1:0.33333334 7:0.33333334 9:0.33333334 #
-7.6154129314211864709704968845472 1:0.375 2:0.25 6:0.125 7:0.125 8:0.125 #
-12.692354885701977451617494807579 2:0.33333334 6:0.33333334 7:0.33333334 #
-12.692354885701977451617494807579 4:0.16666667 5:0.33333334 6:0.33333334 14:0.16666667 #
66.000245405650233010419469792396 2:0.25 8:0.25 13:0.25 14:0.25 #
-12.692354885701977451617494807579 2:0.25 6:0.5 8:0.25 #
-10.153883908561581961293995846063 1:0.55555558 3:0.055555556 4:0.11111111 9:0.055555556 11:0.055555556 13:0.11111111 16:0.055555556 #
-2.5384709771403954903234989615157 1:0.25 2:0.25 4:0.25 13:0.25 #
15.230825862842372941940993769094 1:0.33333334 3:0.33333334 11:0.33333334 #
-5.0769419542807909806469979230314 2:0.125 3:0.125 4:0.125 6:0.125 9:0.125 11:0.125 15:0.125 16:0.125 #
-5.0769419542807909806469979230314 2:0.25 4:0.25 7:0.25 16:0.25 #
-5.0769419542807909806469979230314 13:0.33333334 16:0.66666669 #
-66.000245405650233010419469792396 2:0.125 6:0.125 7:0.125 9:0.125 13:0.125 15:0.125 16:0.25 #
-5.0769419542807909806469979230314 2:0.125 3:0.25 4:0.125 6:0.125 11:0.125 13:0.125 16:0.125 #
-66.000245405650233010419469792396 13:0.5 16:0.5 #
-66.000245405650233010419469792396 5:0.25 6:0.25 9:0.083333336 11:0.083333336 13:0.16666667 16:0.16666667 #
-5.0769419542807909806469979230314 3:0.25 10:0.5 15:0.25 #
-5.0769419542807909806469979230314 4:0.33333334 8:0.16666667 13:0.33333334 15:0.16666667 #
-5.0769419542807909806469979230314 4:0.33333334 13:0.33333334 16:0.33333334 #
-66.000245405650233010419469792396 6:0.40000001 11:0.2 16:0.40000001 #
-5.0769419542807909806469979230314 2:0.5 9:0.5 #
55.846361497088665259980189148337 2:0.5 8:0.5 #
-5.0769419542807909806469979230314 1:0.25 4:0.25 5:0.25 14:0.25 #
-2.5384709771403954903234989615157 1:0.33333334 2:0.33333334 8:0.33333334 #
55.846361497088665259980189148337 13:0.5 16:0.5 #
-5.0769419542807909806469979230314 1:0.125 4:0.375 13:0.5 #
-5.0769419542807909806469979230314 7:0.5 9:0.5 #
55.846361497088665259980189148337 2:0.33333334 5:0.16666667 7:0.16666667 16:0.33333334 #
-5.0769419542807909806469979230314 5:0.5 6:0.5 #
-5.0769419542807909806469979230314 4:0.22222222 5:0.11111111 7:0.11111111 9:0.11111111 10:0.11111111 13:0.33333334 #
58.384832474229057197590009309351 2:0.25 3:0.25 9:0.25 10:0.25 #
-5.0769419542807909806469979230314 2:0.25 13:0.25 14:0.25 16:0.25 #
55.846361497088665259980189148337 2:0.25 5:0.25 6:0.25 10:0.25 #
-2.5384709771403954903234989615157 1:0.25 4:0.25 13:0.5 #
73.61565833707140882324893027544 2:0.25 3:0.25 6:0.25 12:0.25 #
55.846361497088665259980189148337 2:0.25 5:0.25 6:0.25 10:0.25 #
-5.0769419542807909806469979230314 1:0.69999999 3:0.050000001 4:0.1 9:0.050000001 11:0.050000001 13:0.050000001 #
-66.000245405650233010419469792396 2:0.083333336 4:0.25 5:0.083333336 6:0.083333336 9:0.16666667 13:0.25 15:0.083333336 #
-2.5384709771403954903234989615157 1:0.25 4:0.25 13:0.5 #
60.923303451369449135199829470366 16:1 #
20.307767817123163922587991692126 16:1 #
-45.692477588527097509540908504277 2:0.16666667 3:0.16666667 5:0.5 10:0.16666667 #
20.307767817123163922587991692126 1:0.33333334 4:0.16666667 13:0.16666667 16:0.33333334 #
20.307767817123163922587991692126 4:0.5 16:0.5 #
15.230825862842372941940993769094 2:0.22222222 4:0.11111111 5:0.11111111 6:0.11111111 8:0.11111111 13:0.22222222 16:0.11111111 #
-40.615535634246313634321268182248 1:0.33333334 2:0.33333334 5:0.11111111 6:0.11111111 13:0.11111111 #
66.000245405650233010419469792396 1:0.33333334 2:0.33333334 13:0.33333334 #
20.307767817123163922587991692126 4:0.5 16:0.5 #
22.846238794263559412911490653642 1:0.40000001 4:0.40000001 13:0.2 #
2.5384709771403954903234989615157 8:0.33333334 13:0.33333334 14:0.33333334 #
-40.615535634246313634321268182248 1:0.25 2:0.125 4:0.125 5:0.375 13:0.125 #
20.307767817123163922587991692126 1:0.25 2:0.25 4:0.083333336 5:0.16666667 8:0.083333336 13:0.16666667 #
20.307767817123163922587991692126 1:0.33333334 5:0.16666667 6:0.16666667 8:0.16666667 13:0.16666667 #
-40.615535634246313634321268182248 11:0.5 12:0.5 #
20.307767817123163922587991692126 1:0.33333334 13:0.33333334 16:0.33333334 #
-38.077064657105921696711448021233 1:0.33333334 4:0.33333334 16:0.33333334 #
22.846238794263559412911490653642 1:0.60000002 4:0.2 13:0.2 #
-40.615535634246313634321268182248 1:0.25 2:0.25 8:0.25 16:0.25 #
-40.615535634246313634321268182248 1:0.33333334 4:0.33333334 5:0.33333334 #
-45.692477588527097509540908504277 2:0.33333334 5:0.66666669 #
20.307767817123163922587991692126 1:0.16666667 5:0.16666667 6:0.16666667 8:0.16666667 13:0.16666667 16:0.16666667 #
20.307767817123163922587991692126 1:0.33333334 13:0.33333334 16:0.33333334 #
-38.077064657105921696711448021233 1:0.40000001 2:0.26666668 4:0.06666667 5:0.2 9:0.06666667 #
-45.692477588527097509540908504277 2:0.375 4:0.125 5:0.375 13:0.125 #
2.5384709771403954903234989615157 9:0.5 15:0.5 #
20.307767817123163922587991692126 1:0.33333334 13:0.33333334 16:0.33333334 #
20.307767817123163922587991692126 16:1 #
38.077064657105921696711448021233 1:0.4375 3:0.0625 4:0.0625 9:0.125 12:0.0625 13:0.0625 15:0.0625 16:0.125 #
38.077064657105921696711448021233 1:0.16666667 3:0.16666667 4:0.16666667 9:0.33333334 16:0.16666667 #
20.307767817123163922587991692126 8:0.5 13:0.5 #
12.692354885701977451617494807579 6:1 #
27.923180748544350393558488576673 1:0.16666667 4:0.083333336 5:0.16666667 6:0.16666667 9:0.083333336 11:0.083333336 13:0.083333336 14:0.083333336 16:0.083333336 #
-20.307767817123163922587991692126 1:0.55000001 3:0.050000001 4:0.15000001 9:0.1 13:0.15000001 #
38.077064657105921696711448021233 1:0.33333334 3:0.16666667 4:0.16666667 9:0.16666667 16:0.16666667 #
-48.230948565667489447150728665292 3:0.083333336 4:0.083333336 5:0.083333336 6:0.25 9:0.083333336 11:0.083333336 13:0.083333336 14:0.083333336 16:0.16666667 #
27.923180748544350393558488576673 1:0.1875 2:0.1875 5:0.375 16:0.25 #
78.69260029135219269846857059747 3:0.16666667 4:0.16666667 9:0.33333334 16:0.33333334 #
38.077064657105921696711448021233 1:0.25 2:0.083333336 3:0.16666667 8:0.16666667 9:0.083333336 13:0.16666667 16:0.083333336 #
-25.384709771403954903234989615157 1:0.5 2:0.083333336 3:0.041666668 4:0.041666668 5:0.083333336 6:0.083333336 9:0.083333336 13:0.083333336 #
86.308013222773368511298031080514 1:0.1875 3:0.1875 4:0.1875 9:0.1875 13:0.125 16:0.125 #
20.307767817123163922587991692126 3:0.25 5:0.25 11:0.25 15:0.25 #
73.61565833707140882324893027544 4:0.33333334 13:0.33333334 16:0.33333334 #
-10.153883908561581961293995846063 1:0.69444442 3:0.027777778 4:0.11111111 12:0.027777778 13:0.1388889 #
-33.000122702825137821491807699203 1:0.5 4:0.125 5:0.125 13:0.125 14:0.125 #
35.538593679965529759101627860218 1:0.33333334 8:0.33333334 13:0.33333334 #
-40.615535634246313634321268182248 1:0.625 3:0.041666668 4:0.041666668 5:0.083333336 6:0.083333336 11:0.041666668 13:0.041666668 16:0.041666668 #
-48.230948565667489447150728665292 2:0.25 9:0.25 13:0.25 16:0.25 #
-40.615535634246313634321268182248 1:0.25 4:0.25 13:0.5 #
-48.230948565667489447150728665292 3:0.33333334 12:0.33333334 15:0.33333334 #
12.692354885701977451617494807579 6:1 #
-48.230948565667489447150728665292 13:0.33333334 16:0.66666669 #
-48.230948565667489447150728665292 13:0.5 16:0.5 #
35.538593679965529759101627860218 1:0.11111111 3:0.11111111 4:0.22222222 9:0.11111111 11:0.11111111 13:0.22222222 16:0.11111111 #
-48.230948565667489447150728665292 13:0.25 16:0.75 #
-40.615535634246313634321268182248 1:0.2 2:0.1 3:0.1 4:0.1 5:0.1 9:0.1 13:0.1 16:0.2 #
30.461651725684745883881987538189 3:0.16666667 4:0.16666667 9:0.33333334 16:0.33333334 #
-15.230825862842372941940993769094 1:0.58333331 3:0.16666667 4:0.083333336 9:0.083333336 16:0.083333336 #
25.384709771403954903234989615157 4:0.33333334 13:0.5 16:0.16666667 #
-40.615535634246313634321268182248 1:0.25 2:0.0625 3:0.0625 5:0.0625 9:0.1875 15:0.0625 16:0.3125 #
-48.230948565667489447150728665292 1:0.16666667 13:0.33333334 16:0.5 #
-48.230948565667489447150728665292 3:0.16666667 4:0.16666667 5:0.16666667 13:0.16666667 16:0.33333334 #
-33.000122702825137821491807699203 11:1 #
20.307767817123163922587991692126 3:0.125 5:0.125 6:0.375 11:0.125 16:0.25 #
25.384709771403954903234989615157 3:0.125 4:0.125 5:0.125 6:0.25 11:0.125 16:0.25 #
-10.153883908561581961293995846063 8:0.33333334 10:0.33333334 13:0.33333334 #
-10.153883908561581961293995846063 2:0.33333334 5:0.33333334 8:0.16666667 13:0.16666667 #
25.384709771403954903234989615157 8:0.33333334 10:0.33333334 15:0.33333334 #
-7.6154129314211864709704968845472 1:0.42857143 6:0.14285715 8:0.14285715 13:0.14285715 16:0.14285715 #
-7.6154129314211864709704968845472 3:0.5 11:0.5 #
-2.5384709771403954903234989615157 1:0.70833331 4:0.125 9:0.041666668 13:0.083333336 15:0.041666668 #
-60.923303451369449135199829470366 1:0.25 4:0.25 13:0.5 #
-10.153883908561581961293995846063 2:0.16666667 3:0.16666667 4:0.16666667 6:0.16666667 11:0.16666667 16:0.16666667 #
-10.153883908561581961293995846063 2:0.33333334 5:0.33333334 9:0.33333334 #
43.154006611386705571931088343263 2:0.25 4:0.25 5:0.25 13:0.25 #
-10.153883908561581961293995846063 2:0.16666667 5:0.16666667 8:0.16666667 13:0.16666667 14:0.16666667 16:0.16666667 #
43.154006611386705571931088343263 2:0.25 4:0.25 5:0.25 13:0.25 #
-2.5384709771403954903234989615157 1:0.5 2:0.125 4:0.125 5:0.125 13:0.125 #
-10.153883908561581961293995846063 2:0.33333334 8:0.33333334 13:0.33333334 #
50.769419542807881384760548826307 1:0.40000001 4:0.2 7:0.2 9:0.2 #
-10.153883908561581961293995846063 3:0.25 4:0.25 5:0.25 12:0.25 #
-10.153883908561581961293995846063 4:0.25 5:0.5 14:0.25 #
-7.6154129314211864709704968845472 1:0.40000001 7:0.2 12:0.2 13:0.2 #
63.461774428509841072809649631381 1:0.33333334 2:0.16666667 8:0.16666667 13:0.16666667 16:0.16666667 #
-10.153883908561581961293995846063 2:0.33333334 8:0.33333334 13:0.33333334 #
-2.5384709771403954903234989615157 1:0.25 3:0.5 9:0.25 #
-10.153883908561581961293995846063 1:0.16666667 4:0.16666667 7:0.16666667 8:0.16666667 9:0.16666667 14:0.16666667 #
-7.6154129314211864709704968845472 3:0.25 11:0.25 12:0.25 13:0.25 #
-10.153883908561581961293995846063 1:0.16666667 2:0.16666667 3:0.16666667 5:0.16666667 7:0.16666667 9:0.16666667 #
-7.6154129314211864709704968845472 1:0.40000001 3:0.1 4:0.1 5:0.1 10:0.1 13:0.1 16:0.1 #
-7.6154129314211864709704968845472 1:0.33333334 8:0.33333334 13:0.33333334 #
38.077064657105921696711448021233 1:0.25 2:0.25 3:0.25 5:0.25 #
-25.384709771403954903234989615157 5:0.33333334 7:0.33333334 10:0.33333334 #
38.077064657105921696711448021233 1:0.16666667 2:0.16666667 3:0.16666667 5:0.5 #
-10.153883908561581961293995846063 1:0.33333334 7:0.33333334 9:0.33333334 #
22.846238794263559412911490653642 2:0.33333334 5:0.66666669 #
-40.615535634246313634321268182248 1:0.33333334 2:0.13333334 3:0.2 5:0.13333334 9:0.2 #
63.461774428509841072809649631381 1:0.60000002 2:0.1 5:0.1 6:0.1 10:0.1 #
-40.615535634246313634321268182248 1:0.33333334 5:0.16666667 9:0.16666667 10:0.16666667 11:0.16666667 #
-10.153883908561581961293995846063 1:0.25 2:0.25 5:0.5 #
38.077064657105921696711448021233 1:0.25 2:0.25 5:0.25 6:0.25 #
71.077187359931016885639110114425 1:0.2 4:0.40000001 13:0.40000001 #
63.461774428509841072809649631381 1:0.60000002 8:0.2 13:0.2 #
38.077064657105921696711448021233 1:0.33333334 5:0.33333334 6:0.33333334 #
35.538593679965529759101627860218 1:0.25 5:0.25 7:0.25 10:0.25 #
-58.384832474229057197590009309351 1:0.40000001 3:0.2 5:0.2 9:0.2 #
-40.615535634246313634321268182248 1:0.5 2:0.1 7:0.2 9:0.2 #
-22.846238794263559412911490653642 2:0.33333334 5:0.16666667 6:0.33333334 9:0.16666667 #
-12.692354885701977451617494807579 1:0.16666667 2:0.16666667 3:0.16666667 5:0.33333334 6:0.16666667 #
22.846238794263559412911490653642 2:0.33333334 5:0.66666669 #
-53.307890519948273322370368987322 3:0.25 4:0.25 9:0.25 14:0.25 #
-5.0769419542807909806469979230314 1:0.5 7:0.25 9:0.25 #
-12.692354885701977451617494807579 1:0.16666667 2:0.16666667 3:0.16666667 5:0.33333334 6:0.16666667 #
-25.384709771403954903234989615157 1:0.60000002 2:0.15000001 4:0.050000001 5:0.15000001 13:0.050000001 #
-12.692354885701977451617494807579 3:0.33333334 5:0.33333334 9:0.33333334 #
-22.846238794263559412911490653642 2:0.33333334 5:0.16666667 6:0.33333334 9:0.16666667 #
-12.692354885701977451617494807579 1:0.125 2:0.125 4:0.125 5:0.125 6:0.125 9:0.125 10:0.125 13:0.125 #
-12.692354885701977451617494807579 1:0.125 2:0.125 4:0.125 5:0.125 6:0.125 9:0.125 10:0.125 13:0.125 #
38.077064657105921696711448021233 1:0.16666667 2:0.33333334 3:0.16666667 5:0.16666667 10:0.16666667 #
-50.769419542807881384760548826307 1:0.30000001 2:0.1 3:0.1 4:0.1 5:0.2 9:0.1 13:0.1 #
-40.615535634246313634321268182248 1:0.25 2:0.125 3:0.125 7:0.125 9:0.25 13:0.125 #
10.153883908561581961293995846063 1:0.33333334 7:0.33333334 9:0.33333334 #
10.153883908561581961293995846063 1:0.33333334 5:0.16666667 6:0.16666667 8:0.16666667 13:0.16666667 #
-14.016763413993606590679519285914 1:0.40000001 4:0.2 13:0.40000001 #
-17.76929683998276843226449273061 1:0.25 4:0.5 13:0.25 #
43.154006611386705571931088343263 1:0.16666667 2:0.16666667 5:0.16666667 9:0.16666667 13:0.16666667 16:0.16666667 #
6.4013504825724201197090224013664 1:0.11111111 2:0.22222222 4:0.11111111 7:0.22222222 9:0.22222222 15:0.11111111 #
7.6154129314211864709704968845472 1:0.16666667 2:0.16666667 7:0.16666667 9:0.16666667 13:0.16666667 16:0.16666667 #
7.6154129314211864709704968845472 1:0.11111111 2:0.22222222 4:0.11111111 7:0.22222222 9:0.22222222 15:0.11111111 #
5.0769419542807909806469979230314 2:0.33333334 5:0.66666669 #
-27.923180748544350393558488576673 1:0.16666667 3:0.16666667 7:0.16666667 9:0.16666667 12:0.16666667 13:0.16666667 #
35.538593679965529759101627860218 2:0.25 5:0.25 8:0.25 13:0.25 #
10.153883908561581961293995846063 1:0.33333334 5:0.33333334 6:0.33333334 #
2.5384709771403954903234989615157 8:0.5 13:0.5 #
10.153883908561581961293995846063 3:0.5 9:0.5 #
-25.384709771403954903234989615157 1:0.5 3:0.25 5:0.25 #
10.153883908561581961293995846063 1:0.25 2:0.25 7:0.25 9:0.25 #
-27.923180748544350393558488576673 1:0.16666667 3:0.16666667 7:0.16666667 9:0.16666667 12:0.16666667 13:0.16666667 #
-5.0769419542807909806469979230314 1:0.78571427 4:0.071428575 9:0.071428575 15:0.071428575 #
-17.76929683998276843226449273061 1:0.16666667 2:0.16666667 4:0.16666667 5:0.16666667 6:0.16666667 13:0.16666667 #
-17.76929683998276843226449273061 2:0.25 4:0.25 5:0.25 13:0.25 #
-2.5384709771403954903234989615157 1:0.33333334 4:0.33333334 16:0.33333334 #
38.077064657105921696711448021233 1:0.60000002 3:0.2 12:0.2 #
-30.461651725684745883881987538189 1:0.375 2:0.125 4:0.125 5:0.125 9:0.125 13:0.125 #
35.538593679965529759101627860218 5:0.33333334 6:0.66666669 #
-17.76929683998276843226449273061 4:0.5 16:0.5 #
20.307767817123163922587991692126 2:0.5 5:0.5 #
35.538593679965529759101627860218 5:0.5 6:0.5 #
-22.846238794263559412911490653642 5:0.5 6:0.5 #
45.692477588527097509540908504277 4:0.5 13:0.5 #
35.538593679965529759101627860218 1:0.5 13:0.25 16:0.25 #
-20.307767817123163922587991692126 2:0.5 5:0.5 #
-17.76929683998276843226449273061 1:0.16666667 2:0.16666667 4:0.16666667 5:0.16666667 6:0.16666667 13:0.16666667 #
2.5384709771403954903234989615157 1:0.5625 3:0.0625 4:0.125 5:0.0625 9:0.0625 13:0.125 #
-12.692354885701977451617494807579 1:0.54166669 3:0.125 4:0.125 9:0.083333336 13:0.125 #
-43.154006611386705571931088343263 1:0.16666667 9:0.16666667 11:0.16666667 13:0.16666667 16:0.33333334 #
25.384709771403954903234989615157 4:0.5 13:0.5 #
20.307767817123163922587991692126 4:0.5 14:0.5 #
-17.76929683998276843226449273061 9:0.16666667 11:0.33333334 13:0.16666667 16:0.33333334 #
-22.846238794263559412911490653642 5:0.33333334 6:0.66666669 #
-20.307767817123163922587991692126 2:0.5 5:0.5 #
20.307767817123163922587991692126 13:0.5 16:0.5 #
-15.230825862842372941940993769094 1:0.25 2:0.25 5:0.5 #
22.846238794263559412911490653642 1:0.16666667 3:0.33333334 4:0.16666667 9:0.16666667 14:0.16666667 #
5.0769419542807909806469979230314 2:0.5 7:0.5 #
-18.01746652837045559181206044741 2:0.16666667 3:0.16666667 4:0.16666667 5:0.16666667 6:0.16666667 9:0.16666667 #
-33.000122702825137821491807699203 1:0.33333334 2:0.16666667 4:0.16666667 5:0.16666667 13:0.16666667 #
-25.384709771403954903234989615157 1:0.25 3:0.25 9:0.25 11:0.25 #
50.769419542807881384760548826307 3:0.5 10:0.5 #
50.769419542807881384760548826307 1:0.2 2:0.30000001 3:0.1 5:0.2 7:0.1 9:0.1 #
-60.923303451369449135199829470366 6:0.5 8:0.5 #
15.230825862842372941940993769094 1:0.1 2:0.2 4:0.1 5:0.1 8:0.1 9:0.1 13:0.2 15:0.1 #
60.923303451369449135199829470366 1:0.16666667 2:0.33333334 5:0.25 12:0.083333336 13:0.16666667 #
45.692477588527097509540908504277 2:0.5 5:0.5 #
-17.76929683998276843226449273061 1:0.16666667 2:0.16666667 4:0.16666667 5:0.33333334 14:0.16666667 #
-27.923180748544350393558488576673 4:0.5 14:0.5 #
-40.615535634246313634321268182248 1:0.25 2:0.25 5:0.25 9:0.25 #
20.307767817123163922587991692126 2:0.16666667 3:0.33333334 5:0.16666667 13:0.33333334 #
7.6154129314211864709704968845472 1:0.63636363 2:0.090909094 3:0.090909094 5:0.090909094 9:0.090909094 #
7.6154129314211855827920771844219 2:0.33333334 5:0.16666667 6:0.16666667 9:0.16666667 15:0.16666667 #
-10.153883908561581961293995846063 1:0.33333334 2:0.06666667 4:0.2 5:0.13333334 13:0.2 16:0.06666667 #
-25.384709771403954903234989615157 5:0.5 10:0.5 #
-38.077064657105921696711448021233 1:0.25 3:0.25 9:0.25 11:0.25 #
22.846238794263559412911490653642 1:0.125 3:0.25 4:0.125 8:0.125 9:0.125 12:0.125 13:0.125 #
0.24816968838768893590440711705014 8:0.5 14:0.5 #
7.6154129314211864709704968845472 2:0.33333334 5:0.16666667 6:0.16666667 9:0.16666667 15:0.16666667 #
-10.153883908561581961293995846063 1:0.33333334 2:0.33333334 5:0.16666667 8:0.16666667 #
20.307767817123163922587991692126 1:0.16666667 2:0.16666667 5:0.5 10:0.16666667 #
-30.461651725684745883881987538189 7:0.25 9:0.25 14:0.25 15:0.25 #
43.154006611386705571931088343263 4:0.5 14:0.5 #
40.615535634246313634321268182248 2:0.25 5:0.25 6:0.25 14:0.25 #
-2.5384709771403954903234989615157 1:0.69999999 3:0.050000001 4:0.050000001 5:0.050000001 12:0.050000001 13:0.1 #
45.692477588527097509540908504277 2:0.33333334 5:0.33333334 6:0.33333334 #
-33.000122702825137821491807699203 5:0.16666667 6:0.5 15:0.16666667 16:0.16666667 #
30.101738613533896682383783627301 8:0.25 14:0.25 15:0.25 16:0.25 #
-7.6154129314211864709704968845472 1:0.55555558 2:0.055555556 4:0.11111111 8:0.055555556 9:0.055555556 13:0.16666667 #
-30.461651725684745883881987538189 2:0.25 5:0.25 6:0.25 14:0.25 #
-30.461651725684745883881987538189 5:0.5 10:0.5 #
-30.461651725684745883881987538189 2:0.33333334 5:0.33333334 6:0.33333334 #
-30.461651725684745883881987538189 1:0.16666667 2:0.083333336 5:0.083333336 6:0.083333336 7:0.083333336 8:0.083333336 9:0.083333336 10:0.083333336 11:0.083333336 15:0.16666667 #
-30.461651725684745883881987538189 2:0.16666667 3:0.16666667 7:0.16666667 10:0.33333334 13:0.16666667 #
-15.230825862842372941940993769094 1:0.25 4:0.25 13:0.375 16:0.125 #
48.230948565667489447150728665292 1:0.22222222 4:0.22222222 5:0.11111111 6:0.11111111 9:0.11111111 13:0.11111111 15:0.11111111 #
-30.461651725684745883881987538189 2:0.16666667 5:0.16666667 6:0.33333334 8:0.16666667 14:0.16666667 #
40.615535634246313634321268182248 2:0.16666667 5:0.33333334 6:0.16666667 8:0.16666667 14:0.16666667 #
38.077064657105921696711448021233 5:0.5 6:0.25 14:0.25 #
-30.461651725684742331168308737688 2:0.25 13:0.5 16:0.25 #
50.769419542807881384760548826307 1:0.5 3:0.25 10:0.25 #
35.538593679965529759101627860218 6:0.33333334 7:0.33333334 8:0.16666667 13:0.16666667 #
45.692477588527097509540908504277 1:0.125 2:0.125 4:0.25 5:0.125 6:0.125 13:0.25 #
-27.923180748544350393558488576673 1:0.125 2:0.25 5:0.25 8:0.125 13:0.125 16:0.125 #
-30.101738613533896682383783627301 1:0.16666667 2:0.16666667 5:0.33333334 6:0.16666667 13:0.16666667 #
-30.461651725684742331168308737688 5:0.16666667 6:0.5 8:0.16666667 13:0.16666667 #
-68.538716382790624948029289953411 3:0.16666667 4:0.16666667 9:0.5 13:0.16666667 #
-25.384709771403954903234989615157 3:0.33333334 5:0.33333334 12:0.33333334 #
-27.923180748544350393558488576673 1:0.25 5:0.25 6:0.5 #
-30.461651725684742331168308737688 4:0.5 14:0.5 #
-12.692354885701977451617494807579 1:0.40000001 2:0.1 5:0.1 6:0.2 8:0.1 13:0.1 #
38.077064657105921696711448021233 5:0.25 6:0.5 14:0.25 #
50.769419542807881384760548826307 1:0.5 2:0.25 7:0.25 #
48.230948565667489447150728665292 1:0.33333334 5:0.33333334 6:0.33333334 #
-30.461651725684745883881987538189 1:0.16666667 2:0.083333336 5:0.083333336 6:0.083333336 7:0.083333336 8:0.083333336 9:0.083333336 10:0.083333336 11:0.083333336 15:0.16666667 #
-22.846238794263559412911490653642 4:0.33333334 13:0.33333334 16:0.33333334 #
-25.384709771403954903234989615157 2:0.25 5:0.25 6:0.5 #
-10.153883908561581961293995846063 1:0.66666669 3:0.055555556 4:0.11111111 5:0.055555556 9:0.055555556 14:0.055555556 #
-25.384709771403954903234989615157 2:0.5 6:0.5 #
33.000122702825137821491807699203 5:0.5 6:0.5 #
-25.384709771403954903234989615157 8:0.5 13:0.5 #
-22.846238794263559412911490653642 1:0.25 2:0.25 5:0.5 #
-10.153883908561581961293995846063 1:0.2 4:0.40000001 13:0.40000001 #
35.538593679965529759101627860218 8:0.5 13:0.5 #
35.538593679965529759101627860218 2:0.33333334 5:0.5 6:0.16666667 #
-22.846238794263559412911490653642 1:0.22222222 2:0.22222222 5:0.33333334 6:0.22222222 #
-25.384709771403954903234989615157 5:0.5 6:0.5 #
33.000122702825137821491807699203 5:0.5 6:0.5 #
-25.384709771403954903234989615157 5:0.5 6:0.5 #
-22.846238794263559412911490653642 1:0.2 2:0.2 4:0.06666667 5:0.2 6:0.26666668 14:0.06666667 #
38.077064657105921696711448021233 13:0.5 16:0.5 #
43.154006611386705571931088343263 4:0.25 12:0.25 13:0.5 #
-22.846238794263559412911490653642 1:0.33333334 5:0.33333334 6:0.33333334 #
7.6154129314211864709704968845472 1:0.5 3:0.25 12:0.25 #
-22.846238794263559412911490653642 3:0.33333334 5:0.33333334 10:0.33333334 #
-22.846238794263559412911490653642 1:0.16666667 2:0.16666667 3:0.083333336 4:0.083333336 5:0.25 6:0.083333336 10:0.083333336 13:0.083333336 #
-10.153883908561581961293995846063 1:0.60000002 3:0.1 4:0.1 9:0.1 13:0.1 #
-38.077064657105921696711448021233 1:0.40000001 2:0.2 4:0.2 13:0.2 #
38.077064657105921696711448021233 2:0.5 8:0.5 #
45.692477588527097509540908504277 1:0.16666667 2:0.16666667 3:0.083333336 4:0.083333336 5:0.25 6:0.083333336 10:0.083333336 13:0.083333336 #
35.538593679965529759101627860218 2:0.16666667 5:0.16666667 6:0.33333334 8:0.16666667 13:0.16666667 #
43.154006611386705571931088343263 1:0.16666667 2:0.16666667 5:0.25 6:0.083333336 9:0.083333336 12:0.083333336 13:0.083333336 15:0.083333336 #
-68.538716382790624948029289953411 3:0.16666667 5:0.33333334 6:0.33333334 13:0.16666667 #
-2.5384709771403954903234989615157 1:0.5 2:0.25 7:0.25 #
2.5384709771403954903234989615157 1:0.5 2:0.125 5:0.125 6:0.25 #
-10.153883908561581961293995846063 1:0.60000002 3:0.1 4:0.1 9:0.1 13:0.1 #
45.692477588527097509540908504277 1:0.25 2:0.25 5:0.5 #
63.461774428509841072809649631381 4:0.33333334 13:0.33333334 16:0.33333334 #
43.154006611386705571931088343263 1:0.11111111 2:0.22222222 4:0.11111111 5:0.33333334 13:0.11111111 16:0.11111111 #
-22.846238794263559412911490653642 1:0.30000001 2:0.1 3:0.050000001 4:0.15000001 5:0.050000001 8:0.050000001 9:0.050000001 10:0.050000001 13:0.15000001 16:0.050000001 #
-22.846238794263559412911490653642 1:0.25 4:0.25 13:0.5 #
-22.846238794263559412911490653642 1:0.5 5:0.25 14:0.25 #
-25.384709771403954903234989615157 13:0.5 16:0.5 #
63.461774428509841072809649631381 4:0.33333334 13:0.33333334 16:0.33333334 #
66.000245405650233010419469792396 1:0.11111111 2:0.22222222 4:0.11111111 5:0.33333334 13:0.11111111 16:0.11111111 #
-25.384709771403954903234989615157 5:0.16666667 6:0.16666667 9:0.16666667 11:0.16666667 13:0.16666667 16:0.16666667 #
-25.384709771403954903234989615157 1:0.083333336 2:0.16666667 4:0.083333336 5:0.25 8:0.083333336 13:0.25 16:0.083333336 #
-22.846238794263559412911490653642 1:0.125 2:0.125 4:0.125 5:0.25 13:0.25 16:0.125 #
-22.846238794263559412911490653642 1:0.25 4:0.16666667 5:0.083333336 6:0.083333336 7:0.083333336 9:0.083333336 13:0.16666667 16:0.083333336 #
43.154006611386705571931088343263 3:0.25 8:0.25 11:0.25 16:0.25 #
-22.846238794263559412911490653642 1:0.25 4:0.16666667 5:0.083333336 6:0.083333336 7:0.083333336 9:0.083333336 13:0.16666667 16:0.083333336 #
33.000122702825137821491807699203 10:0.5 15:0.5 #
81.231071268492584636078390758485 1:0.2857143 2:0.14285715 4:0.21428572 5:0.14285715 13:0.21428572 #
-15.230825862842372941940993769094 1:0.40000001 4:0.40000001 13:0.2 #
-25.384709771403954903234989615157 13:0.33333334 16:0.66666669 #
-22.846238794263559412911490653642 1:0.33333334 2:0.055555556 4:0.22222222 5:0.055555556 9:0.11111111 13:0.11111111 15:0.055555556 16:0.055555556 #
38.077064657105921696711448021233 4:0.25 13:0.25 16:0.5 #
-22.846238794263559412911490653642 1:0.16666667 2:0.16666667 4:0.16666667 5:0.16666667 6:0.16666667 16:0.16666667 #
-25.384709771403954903234989615157 13:0.25 16:0.75 #
-22.846238794263559412911490653642 1:0.375 4:0.125 5:0.125 6:0.125 13:0.125 16:0.125 #
43.154006611386705571931088343263 1:0.11111111 2:0.22222222 4:0.11111111 5:0.11111111 8:0.11111111 13:0.22222222 16:0.11111111 #
-25.384709771403954903234989615157 7:0.16666667 12:0.16666667 13:0.16666667 16:0.5 #
-83.769542245632976573688210919499 13:0.5 16:0.5 #
38.077064657105921696711448021233 4:0.25 13:0.25 16:0.5 #
-25.384709771403954903234989615157 5:0.5 6:0.5 #
60.923303451369449135199829470366 2:0.25 4:0.25 6:0.25 13:0.25 #
-22.846238794263559412911490653642 1:0.16666667 2:0.16666667 5:0.16666667 16:0.5 #
-22.846238794263559412911490653642 1:0.11111111 3:0.11111111 5:0.11111111 6:0.11111111 9:0.11111111 11:0.11111111 16:0.33333334 #
-22.846238794263559412911490653642 1:0.2857143 2:0.071428575 3:0.071428575 4:0.14285715 5:0.071428575 9:0.071428575 11:0.071428575 13:0.071428575 16:0.14285715 #
-22.846238794263559412911490653642 1:0.25 3:0.125 4:0.25 9:0.125 13:0.25 #
-45.692477588527097509540908504277 1:0.16666667 2:0.16666667 4:0.16666667 7:0.16666667 13:0.16666667 16:0.16666667 #
-33.000122702825137821491807699203 1:0.5 5:0.25 6:0.25 #
27.923180748544350393558488576673 2:0.33333334 5:0.33333334 6:0.33333334 #
-45.692477588527097509540908504277 2:0.33333334 5:0.33333334 6:0.33333334 #
33.000122702825137821491807699203 1:0.33333334 3:0.33333334 5:0.33333334 #
-35.538593679965529759101627860218 1:0.33333334 2:0.33333334 5:0.33333334 #
22.846238794263559412911490653642 5:0.33333334 7:0.33333334 10:0.33333334 #
-45.692477588527097509540908504277 1:0.16666667 2:0.16666667 4:0.16666667 7:0.16666667 13:0.16666667 16:0.16666667 #
-25.384709771403954903234989615157 1:0.46666667 2:0.13333334 4:0.06666667 5:0.13333334 7:0.06666667 9:0.06666667 16:0.06666667 #
30.461651725684745883881987538189 3:0.33333334 5:0.33333334 6:0.33333334 #
-45.692477588527097509540908504277 2:0.25 5:0.25 16:0.5 #
33.000122702825137821491807699203 2:0.25 3:0.25 5:0.5 #
33.000122702825137821491807699203 1:0.33333334 2:0.13333334 3:0.06666667 4:0.13333334 5:0.13333334 9:0.06666667 13:0.13333334 #
33.000122702825137821491807699203 1:0.16666667 2:0.33333334 3:0.16666667 5:0.33333334 #
30.461651725684745883881987538189 2:0.5 5:0.5 #
33.000122702825137821491807699203 2:0.33333334 5:0.33333334 9:0.33333334 #
-45.692477588527097509540908504277 2:0.25 5:0.25 13:0.25 16:0.25 #
33.000122702825137821491807699203 3:0.5 5:0.5 #
-45.692477588527097509540908504277 3:0.25 5:0.25 8:0.25 10:0.25 #
33.000122702825137821491807699203 2:0.33333334 5:0.33333334 9:0.33333334 #
33.000122702825137821491807699203 1:0.33333334 2:0.33333334 5:0.33333334 #
-45.692477588527097509540908504277 1:0.25 5:0.25 6:0.5 #
20.307767817123163922587991692126 6:0.33333334 7:0.33333334 10:0.33333334 #
-45.692477588527097509540908504277 2:0.25 5:0.25 6:0.25 9:0.25 #
33.000122702825137821491807699203 3:0.33333334 10:0.33333334 13:0.33333334 #
20.307767817123163922587991692126 6:1 #
-40.615535634246313634321268182248 1:0.25 2:0.25 5:0.25 6:0.25 #
30.461651725684745883881987538189 3:0.33333334 5:0.33333334 6:0.33333334 #
22.846238794263559412911490653642 2:0.25 6:0.25 7:0.25 8:0.25 #
-35.538593679965529759101627860218 1:0.22222222 6:0.11111111 8:0.11111111 9:0.11111111 11:0.11111111 13:0.22222222 16:0.11111111 #
33.000122702825137821491807699203 1:0.5 2:0.25 6:0.25 #
-17.816580126303072972859808942303 1:0.25 2:0.25 3:0.25 5:0.25 #
30.461651725684745883881987538189 2:0.33333334 7:0.33333334 9:0.33333334 #
7.6154129314211864709704968845472 2:0.5 5:0.5 #
15.230825862842372941940993769094 1:0.33333334 2:0.16666667 4:0.16666667 6:0.16666667 16:0.16666667 #
30.461651725684745883881987538189 2:0.5 7:0.25 8:0.25 #
-25.384709771403954903234989615157 1:0.25 2:0.083333336 3:0.083333336 4:0.083333336 5:0.16666667 6:0.083333336 12:0.083333336 13:0.083333336 14:0.083333336 #
10.153883908561581961293995846063 1:0.33333334 2:0.33333334 6:0.33333334 #
-30.461651725684745883881987538189 2:0.5 13:0.5 #
10.153883908561581961293995846063 1:0.33333334 2:0.33333334 6:0.33333334 #
-2.5384709771403954903234989615157 5:0.25 6:0.25 12:0.25 15:0.25 #
-33.000122702825137821491807699203 5:0.5 6:0.5 #
7.6154129314211864709704968845472 2:0.33333334 5:0.5 13:0.16666667 #
2.5857542634606982545619757729582 2:0.33333334 5:0.33333334 6:0.33333334 #
10.153883908561581961293995846063 1:0.25 4:0.25 5:0.25 14:0.25 #
-22.846238794263559412911490653642 1:0.5 4:0.16666667 13:0.16666667 16:0.16666667 #
10.153883908561581961293995846063 1:0.33333334 2:0.083333336 4:0.083333336 5:0.25 6:0.083333336 13:0.083333336 14:0.083333336 #
40.615535634246313634321268182248 3:0.25 5:0.25 6:0.25 12:0.25 #
-25.384709771403954903234989615157 1:0.25 2:0.25 4:0.083333336 5:0.16666667 13:0.16666667 16:0.083333336 #
15.230825862842372941940993769094 1:0.40000001 4:0.2 5:0.2 14:0.2 #
-33.000122702825137821491807699203 1:0.25 2:0.125 3:0.125 5:0.25 9:0.25 #
25.384709771403954903234989615157 1:0.5 5:0.25 6:0.25 #
22.846238794263559412911490653642 1:0.33333334 9:0.33333334 15:0.33333334 #
-25.384709771403954903234989615157 10:1 #
-25.384709771403954903234989615157 1:0.5 9:0.25 15:0.25 #
22.846238794263559412911490653642 1:0.11111111 2:0.33333334 4:0.11111111 5:0.22222222 9:0.11111111 13:0.11111111 #
22.846238794263559412911490653642 1:0.33333334 2:0.33333334 8:0.33333334 #
-25.384709771403954903234989615157 3:0.33333334 12:0.33333334 13:0.33333334 #
15.230825862842372941940993769094 2:0.5 5:0.5 #
-15.230825862842372941940993769094 1:0.5 4:0.25 16:0.25 #
15.230825862842372941940993769094 13:0.5 16:0.5 #
-25.384709771403954903234989615157 8:1 #
25.384709771403954903234989615157 1:0.5 4:0.25 16:0.25 #
-15.230825862842372941940993769094 1:0.33333334 3:0.33333334 13:0.33333334 #
15.230825862842372941940993769094 12:0.5 13:0.5 #
-15.230825862842372941940993769094 1:0.33333334 3:0.33333334 13:0.33333334 #
35.538593679965529759101627860218 2:0.33333334 5:0.66666669 #
-25.384709771403954903234989615157 1:0.33333334 12:0.33333334 13:0.33333334 #
-25.384709771403954903234989615157 8:1 #
22.846238794263559412911490653642 3:0.5 12:0.5 #
-25.384709771403954903234989615157 4:0.5 16:0.5 #
2.5384709771403954903234989615157 13:0.25 16:0.75 #
-2.5384709771403954903234989615157 1:0.40000001 3:0.2 5:0.2 10:0.2 #
-45.692477588527097509540908504277 1:0.375 2:0.125 4:0.125 5:0.25 6:0.125 #
50.769419542807881384760548826307 4:0.5 14:0.25 16:0.25 #
-53.307890519948273322370368987322 2:0.25 4:0.25 8:0.25 13:0.25 #
-15.230825862842372941940993769094 1:0.375 4:0.125 12:0.125 13:0.125 15:0.125 16:0.125 #
60.923303451369449135199829470366 1:0.40000001 2:0.2 7:0.2 9:0.2 #
27.923180748544350393558488576673 2:0.33333334 5:0.16666667 6:0.16666667 8:0.16666667 14:0.16666667 #
12.692354885701977451617494807579 1:0.125 4:0.375 13:0.5 #
33.000122702825137821491807699203 1:0.125 2:0.25 5:0.25 6:0.125 13:0.25 #
12.692354885701977451617494807579 1:0.25 2:0.25 8:0.25 13:0.25 #
-5.0769419542807909806469979230314 1:0.375 4:0.25 13:0.25 16:0.125 #
-45.692477588527097509540908504277 1:0.5 5:0.25 14:0.25 #
2.5384709771403954903234989615157 1:0.58333331 4:0.16666667 8:0.083333336 13:0.16666667 #
2.5384709771403954903234989615157 13:0.25 16:0.75 #
-25.384709771403954903234989615157 2:0.33333334 7:0.33333334 9:0.33333334 #
53.307890519948273322370368987322 1:0.63636363 2:0.090909094 4:0.090909094 5:0.090909094 13:0.090909094 #
-27.923180748544350393558488576673 1:0.5 4:0.125 8:0.125 13:0.125 16:0.125 #
25.384709771403954903234989615157 2:0.16666667 5:0.16666667 6:0.16666667 13:0.16666667 16:0.33333334 #
53.307890519948273322370368987322 10:0.33333334 16:0.66666669 #
15.230825862842372941940993769094 2:0.16666667 5:0.16666667 6:0.16666667 13:0.16666667 16:0.33333334 #
-53.307890519948273322370368987322 1:0.2 4:0.2 5:0.2 13:0.2 16:0.2 #
-10.153883908561581961293995846063 1:0.375 2:0.125 5:0.125 6:0.125 9:0.125 11:0.125 #
27.923180748544346840844809776172 1:0.33333334 4:0.33333334 14:0.33333334 #
-53.307890519948273322370368987322 4:0.33333334 5:0.33333334 13:0.33333334 #
-25.384709771403954903234989615157 2:0.16666667 5:0.33333334 6:0.16666667 14:0.16666667 16:0.16666667 #
-17.76929683998276843226449273061 1:0.33333334 8:0.33333334 13:0.33333334 #
-17.76929683998276843226449273061 2:0.33333334 8:0.33333334 13:0.33333334 #
-17.76929683998276843226449273061 2:0.33333334 5:0.66666669 #
58.384832474229057197590009309351 4:0.5 13:0.5 #
-15.230825862842372941940993769094 1:0.16666667 2:0.16666667 5:0.16666667 6:0.16666667 8:0.16666667 13:0.16666667 #
-15.230825862842372941940993769094 2:0.25 8:0.25 9:0.25 16:0.25 #
-17.76929683998276843226449273061 13:0.5 16:0.5 #
-15.230825862842372941940993769094 1:0.1 2:0.1 3:0.1 4:0.2 5:0.1 9:0.1 13:0.30000001 #
-17.76929683998276843226449273061 8:0.5 14:0.5 #
58.384832474229057197590009309351 1:0.22222222 2:0.22222222 5:0.22222222 6:0.11111111 8:0.11111111 14:0.11111111 #
-15.230825862842372941940993769094 1:0.16666667 2:0.16666667 3:0.16666667 5:0.16666667 6:0.16666667 13:0.16666667 #
-12.692354885701977451617494807579 1:0.25 4:0.25 9:0.25 13:0.25 #
60.923303451369449135199829470366 1:0.375 2:0.25 5:0.125 8:0.125 13:0.125 #
53.307890519948273322370368987322 16:1 #
-12.692354885701977451617494807579 1:0.33333334 2:0.33333334 13:0.33333334 #
-15.230825862842372941940993769094 1:0.25 5:0.25 14:0.25 16:0.25 #
-15.230825862842372941940993769094 2:0.33333334 4:0.16666667 5:0.16666667 13:0.16666667 16:0.16666667 #
-15.230825862842372941940993769094 1:0.16666667 4:0.16666667 5:0.33333334 6:0.16666667 13:0.16666667 #
-15.230825862842372941940993769094 1:0.25 2:0.125 4:0.125 5:0.25 6:0.125 13:0.125 #
-15.230825862842372941940993769094 1:0.33333334 5:0.33333334 6:0.33333334 #
-15.230825862842372941940993769094 1:0.16666667 4:0.16666667 5:0.33333334 6:0.16666667 13:0.16666667 #
-5.0769419542807909806469979230314 1:0.60000002 5:0.2 6:0.2 #
-15.230825862842372941940993769094 1:0.1 2:0.1 3:0.1 4:0.2 5:0.1 9:0.1 13:0.30000001 #
-5.0769419542807909806469979230314 1:0.60000002 5:0.2 14:0.2 #
48.230948565667489447150728665292 4:0.25 5:0.5 6:0.25 #
-58.384832474229057197590009309351 1:0.5 5:0.25 6:0.25 #
-15.230825862842372941940993769094 4:0.33333334 5:0.33333334 13:0.33333334 #
-7.6154129314211864709704968845472 1:0.5 5:0.25 6:0.25 #
40.615535634246313634321268182248 4:0.33333334 5:0.33333334 14:0.33333334 #
48.230948565667489447150728665292 2:0.33333334 5:0.66666669 #
-12.692354885701977451617494807579 1:0.33333334 5:0.33333334 10:0.33333334 #
-38.077064657105921696711448021233 1:0.5 4:0.16666667 9:0.16666667 15:0.16666667 #
-7.6154129314211864709704968845472 7:0.33333334 12:0.33333334 16:0.33333334 #
-60.923303451369449135199829470366 1:0.25 2:0.25 5:0.16666667 6:0.083333336 7:0.083333336 9:0.083333336 13:0.083333336 #
20.307767817123163922587991692126 7:0.5 9:0.5 #
63.461774428509841072809649631381 3:0.33333334 9:0.33333334 13:0.33333334 #
-5.0769419542807909806469979230314 4:0.25 9:0.25 13:0.25 15:0.25 #
10.153883908561581961293995846063 1:0.41666666 2:0.083333336 4:0.083333336 7:0.083333336 8:0.083333336 9:0.083333336 13:0.083333336 14:0.083333336 #
66.000245405650233010419469792396 1:0.33333334 4:0.33333334 5:0.33333334 #
12.692354885701977451617494807579 1:0.5 4:0.2857143 13:0.21428572 #
20.307767817123163922587991692126 4:0.33333334 5:0.33333334 15:0.33333334 #
-5.0769419542807909806469979230314 7:0.5 11:0.5 #
30.461651725684745883881987538189 5:0.5 10:0.5 #
12.692354885701977451617494807579 1:0.33333334 3:0.33333334 9:0.33333334 #
45.692477588527097509540908504277 3:0.33333334 9:0.33333334 13:0.33333334 #
-58.814639993073967616510344669223 1:0.16666667 4:0.33333334 5:0.16666667 13:0.33333334 #
12.692354885701977451617494807579 1:0.33333334 9:0.33333334 11:0.33333334 #
12.692354885701977451617494807579 1:0.33333334 2:0.33333334 9:0.33333334 #
-60.923303451369449135199829470366 1:0.25 2:0.25 5:0.16666667 6:0.083333336 7:0.083333336 9:0.083333336 13:0.083333336 #
-43.154006611386705571931088343263 8:1 #
-30.461651725684745883881987538189 1:0.25 4:0.25 5:0.25 13:0.25 #
10.153883908561581961293995846063 9:0.5 11:0.5 #
-10.153883908561581961293995846063 1:0.66666669 2:0.16666667 13:0.16666667 #
10.153883908561581961293995846063 1:0.2 2:0.1 3:0.1 4:0.1 5:0.2 9:0.1 13:0.1 16:0.1 #
-20.307767817123163922587991692126 1:0.5 2:0.1 3:0.1 5:0.1 8:0.1 13:0.1 #
18.199104358827675298471149289981 12:0.66666669 15:0.33333334 #
-5.0769419542807909806469979230314 5:0.5 10:0.5 #
-33.000122702825137821491807699203 2:0.33333334 5:0.33333334 8:0.33333334 #
38.077064657105921696711448021233 1:0.16666667 2:0.083333336 3:0.16666667 5:0.16666667 6:0.083333336 9:0.16666667 13:0.083333336 16:0.083333336 #
38.077064657105921696711448021233 2:0.25 4:0.25 9:0.25 13:0.25 #
27.923180748544350393558488576673 5:0.25 6:0.25 8:0.25 14:0.25 #
-33.000122702825137821491807699203 2:0.16666667 4:0.16666667 6:0.5 16:0.16666667 #
38.077064657105921696711448021233 1:0.5 2:0.25 5:0.25 #
38.077064657105921696711448021233 3:0.5 10:0.5 #
38.077064657105921696711448021233 1:0.16666667 2:0.16666667 4:0.16666667 5:0.16666667 6:0.16666667 15:0.16666667 #
-27.923180748544350393558488576673 1:0.25 2:0.5 5:0.25 #
-73.61565833707140882324893027544 4:0.25 5:0.25 13:0.25 16:0.25 #
-35.538593679965529759101627860218 5:0.5 6:0.5 #
33.000122702825137821491807699203 2:0.33333334 5:0.33333334 6:0.33333334 #
-33.000122702825137821491807699203 1:0.083333336 3:0.083333336 4:0.16666667 5:0.16666667 6:0.25 9:0.083333336 11:0.083333336 13:0.083333336 #
-33.000122702825137821491807699203 2:0.16666667 4:0.16666667 6:0.5 16:0.16666667 #
35.538593679965529759101627860218 5:0.125 6:0.25 7:0.125 9:0.125 11:0.125 16:0.25 #
-20.307767817123163922587991692126 1:0.25 4:0.5 13:0.25 #
38.077064657105921696711448021233 1:0.2 2:0.30000001 4:0.1 5:0.2 6:0.1 13:0.1 #
-60.923303451369449135199829470366 1:0.25 2:0.16666667 3:0.083333336 4:0.083333336 5:0.083333336 9:0.083333336 11:0.083333336 13:0.083333336 16:0.083333336 #
-27.923180748544350393558488576673 1:0.13333334 3:0.13333334 4:0.13333334 5:0.13333334 6:0.06666667 9:0.2 11:0.06666667 13:0.06666667 14:0.06666667 #
-33.000122702825137821491807699203 1:0.16666667 2:0.33333334 6:0.5 #
38.077064657105921696711448021233 1:0.25 2:0.25 5:0.25 6:0.25 #
-35.538593679965529759101627860218 5:0.5 6:0.5 #
-73.61565833707140882324893027544 2:0.25 4:0.25 9:0.25 13:0.25 #
33.000122702825137821491807699203 2:0.5 6:0.5 #
-35.538593679965529759101627860218 5:0.5 6:0.5 #
-35.538593679965529759101627860218 2:0.5 6:0.5 #
78.69260029135219269846857059747 1:0.16666667 2:0.083333336 3:0.16666667 5:0.16666667 6:0.083333336 9:0.16666667 13:0.083333336 16:0.083333336 #
27.923180748544350393558488576673 6:1 #
38.077064657105921696711448021233 4:0.33333334 13:0.33333334 16:0.33333334 #
-33.000122702825137821491807699203 1:0.125 2:0.0625 3:0.0625 4:0.1875 5:0.1875 6:0.0625 9:0.1875 14:0.0625 15:0.0625 #
-33.000122702825137821491807699203 3:0.16666667 4:0.16666667 8:0.16666667 9:0.16666667 10:0.16666667 16:0.16666667 #
38.077064657105921696711448021233 1:0.25 2:0.25 5:0.25 6:0.25 #
78.69260029135219269846857059747 1:0.40000001 4:0.2 5:0.2 14:0.2 #
66.000245405650233010419469792396 1:0.33333334 7:0.33333334 9:0.33333334 #
66.000245405650233010419469792396 1:0.5714286 3:0.14285715 4:0.071428575 5:0.071428575 9:0.071428575 13:0.071428575 #
-53.307890519948273322370368987322 1:0.27777779 4:0.16666667 5:0.11111111 11:0.055555556 12:0.055555556 13:0.11111111 14:0.055555556 15:0.055555556 16:0.11111111 #
-15.230825862842372941940993769094 5:0.25 6:0.25 13:0.25 16:0.25 #
-40.615535634246313634321268182248 2:0.5 5:0.5 #
-12.692354885701977451617494807579 5:0.25 6:0.25 16:0.5 #
-22.846238794263559412911490653642 5:0.25 6:0.25 15:0.25 16:0.25 #
-12.692354885701977451617494807579 2:0.5 13:0.5 #
20.307767817123163922587991692126 2:0.25 4:0.25 5:0.25 13:0.25 #
43.154006611386705571931088343263 11:0.5 16:0.5 #
-58.384832474229057197590009309351 3:0.16666667 8:0.16666667 9:0.33333334 14:0.16666667 16:0.16666667 #
-12.692354885701977451617494807579 2:0.5 13:0.5 #
-50.769419542807881384760548826307 1:0.22222222 2:0.055555556 3:0.11111111 4:0.16666667 5:0.055555556 8:0.055555556 9:0.16666667 13:0.16666667 #
43.154006611386705571931088343263 3:0.33333334 5:0.16666667 9:0.16666667 10:0.16666667 15:0.16666667 #
-12.692354885701977451617494807579 2:0.25 4:0.25 5:0.25 13:0.25 #
17.76929683998276843226449273061 9:0.25 11:0.25 15:0.25 16:0.25 #
43.154006611386705571931088343263 3:0.33333334 5:0.16666667 9:0.16666667 10:0.16666667 15:0.16666667 #
66.000245405650233010419469792396 1:0.55555558 2:0.11111111 3:0.11111111 5:0.11111111 9:0.11111111 #
40.615535634246313634321268182248 2:0.25 3:0.125 4:0.125 6:0.125 7:0.125 13:0.125 16:0.125 #
-40.615535634246313634321268182248 5:0.25 6:0.25 16:0.5 #
66.000245405650233010419469792396 11:0.5 16:0.5 #
-2.5384709771403954903234989615157 1:0.5 8:0.25 13:0.25 #
27.923180748544350393558488576673 9:0.5 15:0.5 #
22.846238794263559412911490653642 11:0.5 16:0.5 #
-73.61565833707140882324893027544 4:0.25 13:0.25 16:0.5 #
-12.692354885701977451617494807579 2:0.125 3:0.125 5:0.25 6:0.125 11:0.125 16:0.25 #
17.76929683998276843226449273061 1:0.16666667 3:0.16666667 5:0.16666667 12:0.16666667 14:0.16666667 15:0.16666667 #
-53.307890519948273322370368987322 1:0.125 2:0.125 3:0.125 4:0.125 5:0.125 9:0.125 13:0.125 16:0.125 #
-53.307890519948273322370368987322 1:0.13333334 3:0.2 4:0.06666667 6:0.06666667 8:0.06666667 9:0.06666667 10:0.13333334 11:0.06666667 12:0.06666667 13:0.13333334 #
-12.692354885701977451617494807579 3:0.25 9:0.25 14:0.25 16:0.25 #
73.61565833707140882324893027544 1:0.25 4:0.25 5:0.25 14:0.25 #
2.5384709771403954903234989615157 1:0.083333336 2:0.083333336 5:0.25 6:0.25 7:0.083333336 8:0.083333336 9:0.083333336 14:0.083333336 #
-68.538716382790624948029289953411 2:0.33333334 8:0.33333334 13:0.33333334 #
10.153883908561581961293995846063 1:0.54166669 2:0.083333336 4:0.16666667 5:0.083333336 13:0.125 #
2.5384709771403954903234989615157 1:0.22222222 5:0.11111111 6:0.22222222 7:0.22222222 9:0.11111111 12:0.11111111 #
10.153883908561581961293995846063 1:0.5 4:0.125 8:0.125 13:0.125 16:0.125 #
2.5384709771403954903234989615157 1:0.083333336 2:0.083333336 3:0.083333336 4:0.083333336 5:0.083333336 6:0.33333334 8:0.083333336 10:0.083333336 14:0.083333336 #
76.154129314211800760858750436455 1:0.3125 2:0.1875 5:0.1875 6:0.125 8:0.0625 13:0.0625 14:0.0625 #
-68.538716382790624948029289953411 2:0.33333334 6:0.33333334 13:0.33333334 #
10.153883908561581961293995846063 1:0.33333334 2:0.13333334 3:0.06666667 5:0.2 6:0.06666667 8:0.06666667 9:0.06666667 13:0.06666667 #
-22.846238794263559412911490653642 1:0.60000002 4:0.2 13:0.2 #
-25.384709771403954903234989615157 1:0.5 5:0.083333336 6:0.083333336 9:0.083333336 11:0.083333336 13:0.083333336 16:0.083333336 #
10.153883908561581961293995846063 3:0.33333334 9:0.66666669 #
10.153883908561581961293995846063 1:0.5 5:0.25 6:0.25 #
-50.769419542807881384760548826307 1:0.33333334 2:0.33333334 5:0.33333334 #
2.5384709771403954903234989615157 2:0.375 4:0.125 6:0.25 8:0.125 14:0.125 #
2.5384709771403954903234989615157 1:0.11111111 2:0.11111111 4:0.11111111 5:0.33333334 6:0.11111111 13:0.11111111 16:0.11111111 #
2.5384709771403954903234989615157 1:0.16666667 2:0.16666667 5:0.16666667 8:0.16666667 10:0.16666667 14:0.16666667 #
10.153883908561581961293995846063 1:0.34999999 2:0.15000001 4:0.25 5:0.050000001 13:0.2 #
10.153883908561581961293995846063 1:0.375 2:0.125 4:0.0625 5:0.1875 6:0.0625 12:0.0625 13:0.0625 16:0.0625 #
48.230948565667489447150728665292 5:0.5 14:0.5 #
10.153883908561581961293995846063 1:0.46666667 2:0.06666667 4:0.06666667 5:0.06666667 8:0.06666667 13:0.13333334 14:0.06666667 16:0.06666667 #
2.5384709771403954903234989615157 2:0.16666667 4:0.16666667 5:0.16666667 6:0.33333334 13:0.16666667 #
-68.538716382790624948029289953411 5:0.33333334 6:0.33333334 14:0.33333334 #
2.5384709771403954903234989615157 2:0.25 4:0.125 5:0.375 6:0.125 13:0.125 #
2.5384709771403954903234989615157 1:0.16666667 2:0.16666667 5:0.25 6:0.083333336 7:0.083333336 10:0.083333336 11:0.083333336 15:0.083333336 #
2.5384709771403954903234989615157 1:0.0625 2:0.1875 3:0.0625 5:0.25 6:0.1875 8:0.0625 10:0.0625 13:0.0625 14:0.0625 #
-58.384832474229057197590009309351 1:0.25 2:0.15000001 3:0.15000001 4:0.050000001 5:0.1 9:0.2 13:0.1 #
-58.384832474229057197590009309351 1:0.25 2:0.15000001 3:0.15000001 4:0.050000001 5:0.1 9:0.2 13:0.1 #
25.384709771403954903234989615157 1:0.11111111 4:0.11111111 6:0.22222222 8:0.11111111 10:0.11111111 13:0.33333334 #
27.923180748544350393558488576673 1:0.25 2:0.25 5:0.25 6:0.125 13:0.125 #
25.384709771403954903234989615157 2:0.11111111 5:0.33333334 10:0.11111111 11:0.11111111 13:0.11111111 16:0.22222222 #
27.923180748544350393558488576673 1:0.25 2:0.083333336 4:0.16666667 5:0.16666667 6:0.083333336 13:0.16666667 14:0.083333336 #
-10.153883908561581961293995846063 1:0.30000001 3:0.2 4:0.2 9:0.1 10:0.1 13:0.1 #
-20.307767817123163922587991692126 12:0.5 13:0.5 #
55.846361497088665259980189148337 1:0.22222222 3:0.11111111 4:0.22222222 5:0.11111111 10:0.11111111 13:0.11111111 15:0.11111111 #
-83.769542245632976573688210919499 1:0.125 2:0.25 5:0.375 6:0.25 #
-20.307767817123163922587991692126 2:0.25 4:0.25 6:0.25 13:0.25 #
27.923180748544346840844809776172 1:0.25 2:0.0625 3:0.0625 4:0.0625 6:0.0625 7:0.0625 9:0.125 10:0.0625 13:0.0625 16:0.1875 #
-60.923303451369449135199829470366 1:0.25 2:0.2 3:0.050000001 4:0.050000001 5:0.2 6:0.050000001 12:0.050000001 13:0.15000001 #
-20.307767817123163922587991692126 3:0.33333334 5:0.33333334 7:0.16666667 9:0.16666667 #
-60.923303451369449135199829470366 1:0.125 2:0.125 3:0.0625 4:0.125 5:0.0625 6:0.0625 7:0.0625 9:0.0625 11:0.0625 12:0.0625 13:0.1875 #
71.077187359931016885639110114425 9:0.25 11:0.25 16:0.5 #
83.769542245632976573688210919499 1:0.3125 2:0.0625 3:0.0625 4:0.125 5:0.125 6:0.0625 10:0.125 13:0.0625 14:0.0625 #
-20.307767817123163922587991692126 4:0.16666667 5:0.16666667 9:0.16666667 15:0.16666667 16:0.33333334 #
-20.307767817123163922587991692126 3:0.33333334 5:0.33333334 7:0.16666667 9:0.16666667 #
-33.000122702825137821491807699203 1:0.44444445 2:0.14814815 3:0.037037037 4:0.11111111 5:0.11111111 9:0.037037037 13:0.11111111 #
71.077187359931016885639110114425 2:0.25 3:0.25 9:0.25 10:0.25 #
71.077187359931016885639110114425 1:0.25 2:0.125 5:0.125 6:0.125 8:0.125 13:0.125 16:0.125 #
22.846238794263559412911490653642 2:0.25 4:0.25 6:0.25 13:0.25 #
27.923180748544350393558488576673 10:0.25 11:0.25 16:0.5 #
-60.923303451369449135199829470366 2:0.16666667 4:0.083333336 5:0.25 7:0.083333336 12:0.083333336 13:0.083333336 14:0.083333336 15:0.083333336 16:0.083333336 #
-17.76929683998276843226449273061 1:0.25 2:0.083333336 4:0.16666667 5:0.083333336 9:0.083333336 13:0.083333336 14:0.083333336 16:0.16666667 #
-25.384709771403954903234989615157 2:0.33333334 7:0.33333334 9:0.33333334 #
27.923180748544350393558488576673 1:0.083333336 2:0.083333336 3:0.083333336 5:0.33333334 6:0.083333336 11:0.083333336 12:0.083333336 14:0.083333336 16:0.083333336 #
66.000245405650233010419469792396 4:0.16666667 6:0.16666667 7:0.16666667 10:0.16666667 11:0.16666667 16:0.16666667 #
-17.76929683998276843226449273061 1:0.22222222 2:0.11111111 4:0.11111111 6:0.22222222 7:0.11111111 11:0.11111111 16:0.11111111 #
55.846361497088665259980189148337 3:0.25 10:0.25 16:0.5 #
-60.923303451369449135199829470366 2:0.11111111 3:0.11111111 5:0.22222222 9:0.22222222 16:0.33333334 #
-60.923303451369449135199829470366 1:0.11111111 6:0.11111111 7:0.11111111 9:0.22222222 11:0.11111111 12:0.11111111 13:0.11111111 15:0.11111111 #
22.846238794263559412911490653642 5:0.25 10:0.25 16:0.5 #
22.846238794263559412911490653642 1:0.25 2:0.25 3:0.083333336 5:0.25 6:0.083333336 10:0.083333336 #
22.846238794263559412911490653642 2:0.25 3:0.25 9:0.5 #
17.76929683998276843226449273061 5:0.5 10:0.5 #
10.153883908561581961293995846063 2:0.16666667 5:0.16666667 8:0.33333334 14:0.16666667 15:0.16666667 #
17.76929683998276843226449273061 5:0.5 10:0.5 #
15.230825862842372941940993769094 5:0.25 10:0.25 13:0.25 16:0.25 #
22.846238794263559412911490653642 1:0.25 3:0.25 5:0.25 9:0.25 #
-25.384709771403954903234989615157 1:0.33333334 2:0.33333334 9:0.33333334 #
20.307767817123163922587991692126 3:0.5 5:0.5 #
10.153883908561581961293995846063 2:0.5 7:0.5 #
-43.154006611386705571931088343263 1:0.16666667 2:0.16666667 3:0.16666667 6:0.16666667 9:0.16666667 11:0.16666667 #
-40.615535634246313634321268182248 1:0.25 2:0.125 3:0.25 5:0.25 9:0.125 #
20.307767817123163922587991692126 4:0.33333334 5:0.33333334 13:0.33333334 #
-48.230948565667489447150728665292 5:0.5 10:0.5 #
22.846238794263559412911490653642 1:0.33333334 3:0.083333336 4:0.083333336 5:0.083333336 6:0.083333336 12:0.083333336 13:0.16666667 15:0.083333336 #
-35.538593679965529759101627860218 1:0.25 3:0.125 4:0.25 9:0.25 13:0.125 #
17.76929683998276843226449273061 2:0.5 13:0.5 #
17.76929683998276843226449273061 2:0.5 13:0.5 #
-48.230948565667489447150728665292 7:0.33333334 12:0.33333334 14:0.33333334 #
-17.76929683998276843226449273061 1:0.45454547 3:0.18181819 9:0.090909094 11:0.090909094 12:0.090909094 13:0.090909094 #
22.846238794263559412911490653642 1:0.33333334 7:0.33333334 9:0.33333334 #
22.846238794263559412911490653642 2:0.25 3:0.25 9:0.5 #
-48.230948565667489447150728665292 3:0.25 8:0.25 9:0.25 13:0.25 #
-48.230948565667489447150728665292 2:0.33333334 6:0.66666669 #
22.846238794263559412911490653642 1:0.16666667 3:0.16666667 4:0.16666667 9:0.16666667 13:0.16666667 16:0.16666667 #
12.692354885701977451617494807579 4:0.33333334 5:0.33333334 14:0.33333334 #
20.307767817123163922587991692126 1:0.25 7:0.25 12:0.25 13:0.25 #
15.230825862842372941940993769094 4:0.33333334 9:0.33333334 15:0.33333334 #
-33.000122702825137821491807699203 1:0.16666667 2:0.16666667 5:0.16666667 6:0.16666667 7:0.083333336 9:0.083333336 10:0.083333336 13:0.083333336 #
40.615535634246313634321268182248 4:0.16666667 5:0.16666667 6:0.16666667 7:0.16666667 13:0.16666667 14:0.16666667 #
17.76929683998276843226449273061 12:0.5 14:0.5 #
-33.000122702825137821491807699203 3:0.25 6:0.5 9:0.25 #
-22.122201039498499142155196750537 3:0.33333334 9:0.66666669 #
33.000122702825137821491807699203 1:0.11111111 2:0.11111111 5:0.22222222 8:0.11111111 9:0.11111111 11:0.11111111 13:0.11111111 14:0.11111111 #
38.077064657105921696711448021233 2:0.25 5:0.25 11:0.5 #
-22.846238794263559412911490653642 1:0.16666667 2:0.16666667 5:0.33333334 9:0.16666667 11:0.16666667 #
-33.000122702825137821491807699203 7:0.33333334 10:0.66666669 #
33.000122702825137821491807699203 3:0.25 5:0.25 9:0.25 10:0.25 #
38.077064657105921696711448021233 2:0.25 5:0.25 11:0.5 #
-33.000122702825137821491807699203 1:0.11111111 2:0.22222222 5:0.11111111 6:0.11111111 7:0.11111111 8:0.11111111 9:0.11111111 13:0.11111111 #
-22.846238794263559412911490653642 3:0.33333334 9:0.66666669 #
-19.929185610941871686918602790684 3:0.25 5:0.25 11:0.5 #
27.199142993779290122802194673568 5:0.16666667 6:0.33333334 7:0.16666667 9:0.16666667 10:0.16666667 #
60.923303451369449135199829470366 1:0.22222222 2:0.22222222 6:0.11111111 7:0.11111111 8:0.11111111 9:0.11111111 13:0.11111111 #
-33.000122702825137821491807699203 1:0.125 2:0.125 4:0.25 5:0.125 6:0.125 13:0.125 14:0.125 #
-33.000122702825137821491807699203 2:0.25 3:0.25 5:0.25 9:0.25 #
33.000122702825137821491807699203 2:0.16666667 4:0.16666667 5:0.16666667 6:0.16666667 11:0.33333334 #
-33.000122702825137821491807699203 8:0.25 9:0.25 11:0.25 15:0.25 #
-20.307767817123163922587991692126 1:0.5 3:0.16666667 4:0.16666667 13:0.16666667 #
-33.000122702825137821491807699203 1:0.11111111 3:0.11111111 4:0.11111111 5:0.22222222 6:0.11111111 9:0.22222222 14:0.11111111 #
-33.000122702825137821491807699203 1:0.083333336 2:0.083333336 4:0.16666667 5:0.16666667 6:0.083333336 8:0.083333336 10:0.083333336 11:0.083333336 13:0.16666667 #
68.160134176609332712359901051968 2:0.25 8:0.25 14:0.25 16:0.25 #
-33.000122702825137821491807699203 3:0.25 5:0.25 9:0.25 10:0.25 #
-17.76929683998276843226449273061 3:0.33333334 9:0.33333334 11:0.33333334 #
33.000122702825137821491807699203 2:0.11111111 3:0.11111111 4:0.11111111 5:0.22222222 6:0.11111111 10:0.22222222 13:0.11111111 #
-33.000122702825137821491807699203 5:0.25 6:0.25 9:0.25 15:0.25 #
71.077187359931016885639110114425 1:0.16666667 3:0.16666667 4:0.16666667 7:0.16666667 9:0.16666667 14:0.16666667 #
17.76929683998276843226449273061 12:0.5 14:0.5 #
-22.846238794263559412911490653642 1:0.33333334 2:0.16666667 6:0.16666667 8:0.16666667 13:0.16666667 #
-45.692477588527097509540908504277 5:0.5 6:0.5 #
-38.077064657105921696711448021233 1:0.25 3:0.083333336 4:0.16666667 9:0.16666667 13:0.083333336 15:0.083333336 16:0.16666667 #
-5.0769419542807909806469979230314 1:0.33333334 2:0.33333334 8:0.33333334 #
33.000122702825137821491807699203 1:0.33333334 2:0.33333334 5:0.33333334 #
25.384709771403954903234989615157 8:0.5 16:0.5 #
63.461774428509841072809649631381 1:0.16666667 4:0.16666667 5:0.16666667 6:0.16666667 10:0.16666667 15:0.16666667 #
-35.538593679965529759101627860218 1:0.40000001 2:0.1 3:0.1 4:0.1 5:0.1 6:0.1 9:0.1 #
-20.307767817123163922587991692126 2:0.25 5:0.25 9:0.25 15:0.25 #
-45.692477588527097509540908504277 8:0.5 16:0.5 #
33.000122702825137821491807699203 3:0.25 12:0.25 13:0.25 16:0.25 #
33.000122702825137821491807699203 1:0.125 2:0.125 4:0.125 6:0.375 13:0.125 16:0.125 #
33.000122702825137821491807699203 3:0.16666667 4:0.16666667 9:0.16666667 11:0.16666667 13:0.16666667 16:0.16666667 #
63.461774428509841072809649631381 1:0.33333334 2:0.33333334 5:0.33333334 #
33.000122702825137821491807699203 2:0.11111111 3:0.11111111 4:0.11111111 5:0.22222222 9:0.22222222 13:0.22222222 #
-38.077064657105921696711448021233 1:0.16666667 4:0.16666667 9:0.16666667 11:0.16666667 13:0.16666667 16:0.16666667 #
-43.154006611386705571931088343263 1:0.25 4:0.25 5:0.25 13:0.25 #
12.692354885701977451617494807579 5:0.33333334 14:0.33333334 16:0.33333334 #
