SVM-light Version V6.02
0 # kernel type
3 # kernel parameter -d 
1 # kernel parameter -g 
1 # kernel parameter -s 
1 # kernel parameter -r 
empty# kernel parameter -u 
16 # highest feature index 
1526 # number of training documents 
1307 # number of support vectors plus 1 
0 # threshold b, each following line is a SV (starting with alpha*y)
113.03871453972809035803948063403 1:0.68888891 3:0.06666667 4:0.088888891 9:0.044444446 13:0.11111111 #
-113.03871453972809035803948063403 1:0.68888891 3:0.044444446 4:0.06666667 9:0.044444446 12:0.022222223 13:0.11111111 16:0.022222223 #
113.03871453972809035803948063403 1:0.76666665 4:0.1 9:0.033333335 13:0.1 #
-113.03871453972809035803948063403 1:0.69999999 3:0.033333335 4:0.13333334 9:0.033333335 13:0.1 #
113.03871453972809035803948063403 1:0.6111111 3:0.037037037 4:0.12962963 9:0.09259259 13:0.09259259 15:0.018518519 16:0.018518519 #
-113.03871453972809035803948063403 1:0.62962961 3:0.055555556 4:0.074074075 9:0.037037037 12:0.055555556 13:0.12962963 15:0.018518519 #
113.03871453972809035803948063403 1:0.60000002 3:0.088888891 4:0.11111111 9:0.06666667 13:0.13333334 #
-113.03871453972809035803948063403 1:0.64444447 3:0.06666667 4:0.11111111 9:0.06666667 13:0.11111111 #
113.03871453972809035803948063403 1:0.5 3:0.11111111 4:0.16666667 9:0.055555556 13:0.11111111 16:0.055555556 #
-113.03871453972809035803948063403 1:0.27777779 3:0.11111111 4:0.22222222 9:0.11111111 13:0.27777779 #
113.03871453972809035803948063403 1:0.69230771 3:0.064102568 4:0.07692308 9:0.064102568 12:0.012820513 13:0.07692308 15:0.012820513 #
-113.03871453972809035803948063403 1:0.67948717 3:0.07692308 4:0.07692308 9:0.064102568 12:0.012820513 13:0.07692308 16:0.012820513 #
113.03871453972809035803948063403 1:0.6785714 3:0.035714287 4:0.071428575 9:0.071428575 13:0.14285715 #
-113.03871453972809035803948063403 1:0.6785714 3:0.035714287 4:0.071428575 9:0.10714286 13:0.10714286 #
113.03871453972809035803948063403 1:0.65714288 3:0.085714288 4:0.11428571 9:0.057142857 13:0.085714288 #
-113.03871453972809035803948063403 1:0.71428573 3:0.057142857 4:0.085714288 9:0.057142857 13:0.085714288 #
113.03871453972809035803948063403 1:0.70833331 3:0.083333336 4:0.0625 9:0.083333336 13:0.0625 #
-113.03871453972809035803948063403 1:0.70833331 3:0.083333336 4:0.0625 9:0.083333336 13:0.0625 #
113.03871453972809035803948063403 1:0.45238096 2:0.023809524 3:0.071428575 4:0.095238097 5:0.047619049 9:0.095238097 12:0.023809524 13:0.14285715 16:0.047619049 #
-113.03871453972809035803948063403 1:0.54761904 2:0.023809524 3:0.047619049 4:0.11904762 5:0.023809524 9:0.071428575 13:0.11904762 16:0.047619049 #
113.03871453972809035803948063403 1:0.76190478 4:0.14285715 13:0.095238097 #
-113.03871453972809035803948063403 1:0.71428573 4:0.14285715 13:0.14285715 #
113.03871453972809035803948063403 1:0.70833331 3:0.041666668 4:0.125 9:0.041666668 13:0.083333336 #
-113.03871453972809035803948063403 1:0.75 3:0.041666668 4:0.083333336 9:0.041666668 13:0.083333336 #
113.03871453972809035803948063403 1:0.58333331 3:0.041666668 4:0.16666667 9:0.083333336 13:0.125 #
-113.03871453972809035803948063403 1:0.58333331 3:0.041666668 4:0.16666667 9:0.041666668 13:0.125 15:0.041666668 #
113.03871453972809035803948063403 1:0.62 2:0.02 3:0.079999998 4:0.039999999 5:0.02 9:0.079999998 12:0.02 13:0.079999998 16:0.039999999 #
-113.03871453972809035803948063403 1:0.63999999 3:0.079999998 4:0.039999999 5:0.02 9:0.1 13:0.1 16:0.02 #
113.03871453972809035803948063403 1:0.56 3:0.12 4:0.079999998 9:0.079999998 12:0.039999999 13:0.12 #
-113.03871453972809035803948063403 1:0.60000002 3:0.079999998 4:0.079999998 9:0.079999998 12:0.039999999 13:0.079999998 16:0.039999999 #
113.03871453972809035803948063403 1:0.703125 3:0.0625 4:0.046875 9:0.109375 13:0.0625 15:0.015625 #
-113.03871453972809035803948063403 1:0.6875 3:0.078125 4:0.046875 9:0.0625 11:0.015625 12:0.015625 13:0.078125 16:0.015625 #
113.03871453972809035803948063403 1:0.69999999 3:0.050000001 4:0.06666667 5:0.016666668 9:0.06666667 13:0.1 #
-113.03871453972809035803948063403 1:0.69999999 3:0.050000001 4:0.050000001 5:0.016666668 9:0.083333336 13:0.083333336 16:0.016666668 #
113.03871453972809035803948063403 1:0.72000003 2:0.013333334 3:0.06666667 4:0.079999998 9:0.053333335 11:0.013333334 13:0.053333335 #
-113.03871453972809035803948063403 1:0.61333334 2:0.013333334 3:0.06666667 4:0.10666667 5:0.013333334 9:0.06666667 11:0.013333334 13:0.10666667 #
113.03871453972809035803948063403 1:0.6785714 3:0.035714287 4:0.071428575 9:0.071428575 13:0.14285715 #
-113.03871453972809035803948063403 1:0.64285713 3:0.035714287 4:0.071428575 9:0.10714286 13:0.14285715 #
113.03871453972809035803948063403 1:0.60000002 3:0.050000001 4:0.125 9:0.075000003 11:0.025 13:0.125 #
-113.03871453972809035803948063403 1:0.57499999 3:0.1 4:0.125 9:0.075000003 13:0.125 #
113.03871453972809035803948063403 1:0.8125 3:0.025 4:0.0625 9:0.025 13:0.075000003 #
-113.03871453972809035803948063403 1:0.80000001 3:0.025 4:0.075000003 9:0.025 13:0.075000003 #
113.03871453972809035803948063403 1:0.52777779 3:0.083333336 4:0.1388889 9:0.055555556 11:0.027777778 12:0.027777778 13:0.11111111 15:0.027777778 #
-113.03871453972809035803948063403 1:0.5 3:0.055555556 4:0.1388889 9:0.11111111 12:0.027777778 13:0.1388889 15:0.027777778 #
113.03871453972809035803948063403 1:0.42857143 3:0.035714287 4:0.17857143 9:0.071428575 11:0.10714286 13:0.10714286 15:0.035714287 16:0.035714287 #
-113.03871453972809035803948063403 1:0.42857143 3:0.071428575 4:0.14285715 9:0.035714287 11:0.071428575 12:0.035714287 13:0.14285715 15:0.035714287 16:0.035714287 #
113.03871453972809035803948063403 1:0.77777779 3:0.031746034 4:0.079365082 9:0.031746034 13:0.063492067 16:0.015873017 #
-113.03871453972809035803948063403 1:0.76190478 3:0.031746034 4:0.079365082 9:0.031746034 13:0.079365082 16:0.015873017 #
113.03871453972809035803948063403 1:0.4909091 3:0.10909091 4:0.07272727 9:0.12727273 12:0.036363635 13:0.090909094 15:0.036363635 16:0.036363635 #
-113.03871453972809035803948063403 1:0.5090909 3:0.090909094 4:0.07272727 9:0.12727273 12:0.036363635 13:0.07272727 15:0.054545455 16:0.036363635 #
113.03871453972809035803948063403 1:0.3888889 3:0.11111111 4:0.16666667 9:0.11111111 13:0.22222222 #
-113.03871453972809035803948063403 1:0.55555558 3:0.11111111 4:0.16666667 9:0.055555556 13:0.11111111 #
113.03871453972809035803948063403 1:0.71428573 3:0.047619049 4:0.071428575 9:0.071428575 13:0.095238097 #
-113.03871453972809035803948063403 1:0.76190478 3:0.047619049 4:0.071428575 9:0.047619049 13:0.071428575 #
113.03871453972809035803948063403 1:0.5 3:0.12 4:0.1 9:0.12 12:0.02 13:0.14 #
-113.03871453972809035803948063403 1:0.5 3:0.079999998 4:0.14 9:0.12 11:0.02 13:0.14 #
8.4015621969954707992656040005386 1:0.80000001 4:0.2 #
-8.4015621969954707992656040005386 1:0.60000002 4:0.2 13:0.2 #
113.03871453972809035803948063403 1:0.625 4:0.125 9:0.125 13:0.125 #
-113.03871453972809035803948063403 1:0.625 4:0.125 9:0.125 13:0.125 #
113.03871453972809035803948063403 1:0.5 3:0.1 4:0.15000001 9:0.1 13:0.15000001 #
-113.03871453972809035803948063403 1:0.60000002 3:0.050000001 4:0.15000001 9:0.1 13:0.1 #
113.03871453972809035803948063403 1:0.62121212 3:0.060606062 4:0.10606061 9:0.030303031 11:0.015151516 12:0.030303031 13:0.10606061 15:0.015151516 16:0.015151516 #
-113.03871453972809035803948063403 1:0.62121212 3:0.045454547 4:0.10606061 9:0.045454547 12:0.030303031 13:0.12121212 15:0.030303031 #
113.03871453972809035803948063403 1:0.69999999 4:0.13333334 9:0.033333335 13:0.13333334 #
-113.03871453972809035803948063403 1:0.63333333 3:0.033333335 4:0.16666667 9:0.033333335 13:0.13333334 #
113.03871453972809035803948063403 1:0.77142859 3:0.057142857 4:0.03809524 5:0.0095238099 9:0.06666667 13:0.057142857 #
-113.03871453972809035803948063403 1:0.71428573 2:0.0095238099 3:0.06666667 4:0.06666667 5:0.0095238099 9:0.06666667 13:0.057142857 15:0.0095238099 #
113.03871453972809035803948063403 1:0.58333331 3:0.083333336 4:0.16666667 9:0.041666668 13:0.125 #
-113.03871453972809035803948063403 1:0.58333331 3:0.083333336 4:0.16666667 9:0.041666668 13:0.125 #
113.03871453972809035803948063403 1:0.54166669 3:0.125 4:0.041666668 9:0.083333336 11:0.041666668 12:0.041666668 13:0.041666668 16:0.083333336 #
-113.03871453972809035803948063403 1:0.45833334 3:0.125 4:0.083333336 9:0.125 12:0.041666668 13:0.041666668 15:0.041666668 16:0.083333336 #
113.03871453972809035803948063403 1:0.75510204 3:0.06122449 4:0.06122449 9:0.06122449 13:0.06122449 #
-113.03871453972809035803948063403 1:0.67346936 3:0.081632651 4:0.081632651 9:0.081632651 13:0.081632651 #
113.03871453972809035803948063403 1:0.60000002 3:0.07692308 4:0.10769231 9:0.10769231 13:0.092307694 15:0.015384615 #
-113.03871453972809035803948063403 1:0.61538464 3:0.092307694 4:0.092307694 9:0.061538462 11:0.015384615 12:0.015384615 13:0.10769231 #
113.03871453972809035803948063403 13:1 #
-113.03871453972809035803948063403 13:1 #
113.03871453972809035803948063403 1:0.73333335 4:0.1 9:0.033333335 13:0.13333334 #
-113.03871453972809035803948063403 1:0.69999999 3:0.033333335 4:0.13333334 9:0.033333335 13:0.1 #
113.03871453972809035803948063403 1:0.6875 3:0.041666668 4:0.10416666 9:0.0625 13:0.10416666 #
-113.03871453972809035803948063403 1:0.72916669 3:0.041666668 4:0.10416666 9:0.041666668 13:0.083333336 #
113.03871453972809035803948063403 1:0.5 3:0.1 4:0.039999999 5:0.02 9:0.14 13:0.12 16:0.079999998 #
-113.03871453972809035803948063403 1:0.56 2:0.02 3:0.1 4:0.1 9:0.079999998 11:0.02 13:0.02 16:0.1 #
113.03871453972809035803948063403 1:0.65454543 3:0.036363635 4:0.090909094 9:0.07272727 12:0.018181818 13:0.10909091 15:0.018181818 #
-113.03871453972809035803948063403 1:0.63636363 3:0.07272727 4:0.10909091 9:0.07272727 13:0.090909094 16:0.018181818 #
113.03871453972809035803948063403 1:0.40000001 3:0.050000001 4:0.15000001 9:0.15000001 11:0.050000001 13:0.1 15:0.050000001 16:0.050000001 #
-113.03871453972809035803948063403 1:0.30000001 3:0.15000001 4:0.15000001 9:0.1 12:0.050000001 13:0.2 16:0.050000001 #
113.03871453972809035803948063403 1:0.66666669 3:0.06666667 4:0.079999998 9:0.079999998 11:0.013333334 13:0.093333334 #
-113.03871453972809035803948063403 1:0.66666669 3:0.079999998 4:0.093333334 9:0.079999998 13:0.079999998 #
75.871164055433723660826217383146 1:0.5 3:0.1 4:0.1 9:0.1 13:0.1 16:0.1 #
-75.871164055433723660826217383146 1:0.5 3:0.1 4:0.1 12:0.1 13:0.1 16:0.1 #
113.03871453972809035803948063403 1:0.375 3:0.0625 4:0.1875 9:0.0625 12:0.0625 13:0.25 #
-113.03871453972809035803948063403 1:0.375 3:0.0625 4:0.1875 9:0.125 13:0.125 15:0.0625 16:0.0625 #
113.03871453972809035803948063403 1:0.68518519 3:0.055555556 4:0.11111111 9:0.055555556 13:0.074074075 16:0.018518519 #
-113.03871453972809035803948063403 1:0.62962961 3:0.037037037 4:0.11111111 9:0.055555556 11:0.018518519 13:0.14814815 #
113.03871453972809035803948063403 1:0.63076925 2:0.015384615 3:0.07692308 4:0.092307694 5:0.015384615 9:0.061538462 13:0.10769231 #
-113.03871453972809035803948063403 1:0.75384617 2:0.015384615 3:0.046153847 4:0.07692308 9:0.046153847 13:0.061538462 #
113.03871453972809035803948063403 1:0.58181816 3:0.090909094 4:0.090909094 9:0.10909091 13:0.12727273 #
-113.03871453972809035803948063403 1:0.60000002 3:0.090909094 4:0.090909094 9:0.10909091 13:0.10909091 #
113.03871453972809035803948063403 1:0.64999998 4:0.15000001 9:0.050000001 13:0.15000001 #
-113.03871453972809035803948063403 1:0.60000002 3:0.050000001 4:0.15000001 9:0.050000001 13:0.15000001 #
113.03871453972809035803948063403 1:0.5625 3:0.125 4:0.083333336 9:0.083333336 11:0.020833334 12:0.020833334 13:0.083333336 15:0.020833334 #
-113.03871453972809035803948063403 1:0.5 3:0.14583333 4:0.083333336 9:0.10416666 11:0.020833334 12:0.041666668 13:0.083333336 15:0.020833334 #
113.03871453972809035803948063403 1:0.41666666 3:0.125 4:0.125 9:0.125 12:0.041666668 13:0.16666667 #
-113.03871453972809035803948063403 1:0.45833334 3:0.16666667 4:0.125 9:0.083333336 13:0.083333336 16:0.083333336 #
113.03871453972809035803948063403 1:0.56818181 3:0.090909094 4:0.090909094 9:0.11363637 13:0.11363637 15:0.022727273 #
-113.03871453972809035803948063403 1:0.61363637 3:0.090909094 4:0.090909094 9:0.090909094 12:0.022727273 13:0.090909094 #
113.03871453972809035803948063403 1:0.46666667 3:0.06666667 4:0.2 9:0.06666667 13:0.2 #
-113.03871453972809035803948063403 1:0.46666667 3:0.06666667 4:0.2 9:0.06666667 13:0.2 #
113.03871453972809035803948063403 1:0.6857143 3:0.085714288 4:0.085714288 9:0.057142857 13:0.085714288 #
-113.03871453972809035803948063403 1:0.6857143 3:0.057142857 4:0.085714288 9:0.085714288 13:0.085714288 #
113.03871453972809035803948063403 1:0.72222221 3:0.055555556 4:0.097222224 9:0.027777778 13:0.083333336 16:0.013888889 #
-113.03871453972809035803948063403 1:0.68055558 3:0.041666668 4:0.11111111 9:0.055555556 13:0.11111111 #
113.03871453972809035803948063403 1:0.60000002 3:0.125 4:0.050000001 9:0.1 12:0.025 13:0.1 #
-113.03871453972809035803948063403 1:0.64999998 3:0.075000003 4:0.075000003 9:0.125 13:0.050000001 15:0.025 #
113.03871453972809035803948063403 1:0.125 3:0.125 4:0.25 9:0.125 13:0.375 #
-113.03871453972809035803948063403 1:0.5 4:0.125 9:0.125 13:0.25 #
113.03871453972809035803948063403 1:0.72222221 3:0.055555556 4:0.11111111 9:0.055555556 13:0.055555556 #
-113.03871453972809035803948063403 1:0.72222221 3:0.055555556 4:0.11111111 9:0.055555556 13:0.055555556 #
113.03871453972809035803948063403 1:0.66666669 3:0.055555556 4:0.11111111 9:0.055555556 13:0.11111111 #
-113.03871453972809035803948063403 1:0.66666669 3:0.027777778 4:0.1388889 9:0.027777778 13:0.11111111 15:0.027777778 #
113.03871453972809035803948063403 1:0.72222221 3:0.055555556 4:0.055555556 9:0.055555556 13:0.11111111 #
-113.03871453972809035803948063403 1:0.83333331 4:0.055555556 9:0.055555556 13:0.055555556 #
113.03871453972809035803948063403 1:0.71111113 3:0.044444446 4:0.088888891 9:0.06666667 13:0.088888891 #
-113.03871453972809035803948063403 1:0.68888891 3:0.044444446 4:0.088888891 9:0.088888891 13:0.088888891 #
113.03871453972809035803948063403 1:0.5 4:0.16666667 9:0.11111111 13:0.22222222 #
-113.03871453972809035803948063403 1:0.5 4:0.16666667 9:0.11111111 13:0.22222222 #
113.03871453972809035803948063403 1:0.75 3:0.041666668 4:0.0625 9:0.0625 13:0.083333336 #
-113.03871453972809035803948063403 1:0.77083331 3:0.041666668 4:0.0625 9:0.041666668 13:0.083333336 #
113.03871453972809035803948063403 1:0.60000002 3:0.039999999 4:0.16 9:0.039999999 13:0.16 #
-113.03871453972809035803948063403 1:0.60000002 3:0.039999999 4:0.16 9:0.039999999 13:0.12 16:0.039999999 #
113.03871453972809035803948063403 1:0.47619048 3:0.047619049 4:0.047619049 9:0.14285715 13:0.23809524 16:0.047619049 #
-113.03871453972809035803948063403 1:0.52380955 3:0.047619049 4:0.095238097 9:0.095238097 13:0.23809524 #
113.03871453972809035803948063403 1:0.63999999 3:0.039999999 4:0.12 9:0.039999999 13:0.16 #
-113.03871453972809035803948063403 1:0.72000003 3:0.039999999 4:0.12 13:0.12 #
113.03871453972809035803948063403 1:0.5625 3:0.0625 4:0.125 9:0.125 13:0.125 #
-113.03871453972809035803948063403 1:0.5 3:0.125 4:0.125 9:0.125 13:0.125 #
113.03871453972809035803948063403 1:0.6875 3:0.03125 4:0.09375 9:0.0625 13:0.125 #
-113.03871453972809035803948063403 1:0.65625 3:0.03125 4:0.125 9:0.0625 13:0.125 #
113.03871453972809035803948063403 1:0.68888891 3:0.13333334 4:0.044444446 9:0.088888891 13:0.044444446 #
-113.03871453972809035803948063403 1:0.68888891 3:0.088888891 4:0.044444446 9:0.13333334 13:0.044444446 #
113.03871453972809035803948063403 1:0.55000001 3:0.050000001 4:0.15000001 9:0.050000001 13:0.2 #
-113.03871453972809035803948063403 1:0.60000002 3:0.050000001 4:0.15000001 9:0.050000001 13:0.15000001 #
113.03871453972809035803948063403 1:0.6875 3:0.0625 4:0.125 9:0.0625 13:0.0625 #
-113.03871453972809035803948063403 1:0.625 3:0.0625 4:0.125 9:0.125 13:0.0625 #
113.03871453972809035803948063403 1:0.71428573 3:0.095238097 4:0.047619049 9:0.095238097 13:0.047619049 #
-113.03871453972809035803948063403 1:0.76190478 3:0.071428575 4:0.047619049 9:0.071428575 13:0.047619049 #
113.03871453972809035803948063403 1:0.79166669 3:0.013888889 4:0.083333336 9:0.027777778 13:0.083333336 #
-113.03871453972809035803948063403 1:0.77777779 3:0.027777778 4:0.083333336 9:0.027777778 13:0.083333336 #
113.03871453972809035803948063403 1:0.33333334 4:0.33333334 13:0.33333334 #
-113.03871453972809035803948063403 1:0.33333334 4:0.33333334 13:0.33333334 #
113.03871453972809035803948063403 1:0.33333334 3:0.083333336 4:0.16666667 12:0.083333336 13:0.25 16:0.083333336 #
-113.03871453972809035803948063403 1:0.33333334 4:0.25 9:0.083333336 13:0.16666667 15:0.083333336 16:0.083333336 #
113.03871453972809035803948063403 1:0.61818182 3:0.07272727 4:0.10909091 9:0.090909094 13:0.090909094 15:0.018181818 #
-113.03871453972809035803948063403 1:0.56363636 3:0.07272727 4:0.12727273 9:0.090909094 12:0.018181818 13:0.10909091 15:0.018181818 #
113.03871453972809035803948063403 1:0.61250001 3:0.075000003 4:0.1 9:0.075000003 12:0.0125 13:0.125 #
-113.03871453972809035803948063403 1:0.66250002 3:0.0625 4:0.087499999 9:0.050000001 11:0.0125 12:0.0125 13:0.1125 #
113.03871453972809035803948063403 1:0.66000003 3:0.079999998 4:0.079999998 9:0.079999998 13:0.1 #
-113.03871453972809035803948063403 1:0.66000003 3:0.079999998 4:0.1 9:0.079999998 13:0.079999998 #
113.03871453972809035803948063403 1:0.63636363 3:0.022727273 4:0.090909094 5:0.022727273 9:0.090909094 11:0.022727273 13:0.11363637 #
-113.03871453972809035803948063403 1:0.61363637 3:0.045454547 4:0.090909094 5:0.022727273 9:0.11363637 13:0.11363637 #
113.03871453972809035803948063403 1:0.67500001 3:0.050000001 4:0.050000001 9:0.075000003 13:0.125 16:0.025 #
-113.03871453972809035803948063403 1:0.72500002 3:0.050000001 4:0.050000001 9:0.075000003 13:0.075000003 16:0.025 #
113.03871453972809035803948063403 1:0.6875 3:0.03125 4:0.09375 9:0.0625 13:0.125 #
-113.03871453972809035803948063403 1:0.6875 3:0.03125 4:0.09375 9:0.09375 13:0.09375 #
113.03871453972809035803948063403 1:0.64999998 3:0.083333336 4:0.1 9:0.050000001 12:0.016666668 13:0.1 #
-113.03871453972809035803948063403 1:0.61666667 3:0.083333336 4:0.1 9:0.06666667 12:0.016666668 13:0.11666667 #
113.03871453972809035803948063403 1:0.66666669 4:0.19047619 13:0.095238097 15:0.047619049 #
-113.03871453972809035803948063403 1:0.66666669 4:0.14285715 9:0.047619049 13:0.095238097 15:0.047619049 #
113.03871453972809035803948063403 1:0.6785714 3:0.035714287 4:0.14285715 9:0.035714287 13:0.10714286 #
-113.03871453972809035803948063403 1:0.60714287 3:0.071428575 4:0.14285715 9:0.035714287 13:0.14285715 #
113.03871453972809035803948063403 1:0.60000002 3:0.1 4:0.1 9:0.1 13:0.1 #
-113.03871453972809035803948063403 1:0.55000001 3:0.1 4:0.15000001 9:0.050000001 13:0.15000001 #
113.03871453972809035803948063403 1:0.61666667 3:0.06666667 4:0.1 9:0.1 13:0.1 15:0.016666668 #
-113.03871453972809035803948063403 1:0.61666667 3:0.1 4:0.1 9:0.083333336 13:0.1 #
113.03871453972809035803948063403 1:0.77777779 3:0.063492067 4:0.047619049 9:0.063492067 13:0.047619049 #
-113.03871453972809035803948063403 1:0.79365081 3:0.047619049 4:0.047619049 9:0.063492067 13:0.047619049 #
113.03871453972809035803948063403 1:0.5625 4:0.1875 9:0.0625 13:0.125 15:0.0625 #
-113.03871453972809035803948063403 1:0.5 3:0.0625 4:0.1875 9:0.0625 13:0.1875 #
113.03871453972809035803948063403 1:0.60000002 3:0.06666667 4:0.13333334 9:0.06666667 13:0.13333334 #
-113.03871453972809035803948063403 1:0.66666669 3:0.06666667 4:0.06666667 9:0.06666667 13:0.13333334 #
113.03871453972809035803948063403 1:0.44444445 12:0.11111111 13:0.22222222 16:0.22222222 #
-113.03871453972809035803948063403 1:0.44444445 12:0.11111111 13:0.22222222 16:0.22222222 #
113.03871453972809035803948063403 1:0.64999998 3:0.025 4:0.1 9:0.050000001 12:0.025 13:0.15000001 #
-113.03871453972809035803948063403 1:0.64999998 3:0.075000003 4:0.125 9:0.025 13:0.1 16:0.025 #
113.03871453972809035803948063403 1:0.16666667 2:0.055555556 3:0.16666667 4:0.11111111 8:0.055555556 9:0.11111111 12:0.055555556 13:0.16666667 15:0.055555556 16:0.055555556 #
-113.03871453972809035803948063403 1:0.27777779 3:0.11111111 4:0.11111111 5:0.055555556 9:0.11111111 12:0.055555556 13:0.16666667 15:0.055555556 16:0.055555556 #
113.03871453972809035803948063403 1:0.75 2:0.0089285718 3:0.026785715 4:0.071428575 5:0.0089285718 9:0.053571429 13:0.080357142 #
-113.03871453972809035803948063403 1:0.72321427 3:0.053571429 4:0.080357142 5:0.0089285718 9:0.044642858 10:0.0089285718 13:0.071428575 16:0.0089285718 #
113.03871453972809035803948063403 1:0.14285715 2:0.071428575 3:0.14285715 4:0.21428572 5:0.071428575 9:0.14285715 13:0.14285715 16:0.071428575 #
-113.03871453972809035803948063403 1:0.35714287 2:0.071428575 3:0.14285715 4:0.21428572 9:0.14285715 13:0.071428575 #
113.03871453972809035803948063403 1:0.80555558 3:0.027777778 4:0.083333336 9:0.027777778 13:0.055555556 #
-113.03871453972809035803948063403 1:0.77777779 3:0.027777778 4:0.083333336 9:0.027777778 13:0.083333336 #
113.03871453972809035803948063403 1:0.2857143 3:0.047619049 4:0.23809524 9:0.047619049 11:0.095238097 13:0.19047619 15:0.047619049 16:0.047619049 #
-113.03871453972809035803948063403 1:0.47619048 4:0.14285715 9:0.047619049 11:0.047619049 12:0.047619049 13:0.19047619 15:0.047619049 #
113.03871453972809035803948063403 1:0.68000001 3:0.059999999 4:0.1 9:0.059999999 11:0.02 13:0.079999998 #
-113.03871453972809035803948063403 1:0.60000002 3:0.1 4:0.12 9:0.079999998 13:0.1 #
113.03871453972809035803948063403 1:0.45833334 3:0.083333336 4:0.16666667 9:0.125 13:0.16666667 #
-113.03871453972809035803948063403 1:0.58333331 3:0.041666668 4:0.125 9:0.083333336 13:0.16666667 #
113.03871453972809035803948063403 1:0.69999999 3:0.050000001 4:0.125 9:0.025 13:0.1 #
-113.03871453972809035803948063403 1:0.67500001 3:0.025 4:0.125 9:0.050000001 13:0.125 #
113.03871453972809035803948063403 1:0.55555558 3:0.074074075 4:0.14814815 9:0.037037037 11:0.037037037 13:0.11111111 16:0.037037037 #
-113.03871453972809035803948063403 1:0.48148149 3:0.074074075 4:0.14814815 9:0.074074075 11:0.037037037 13:0.14814815 16:0.037037037 #
113.03871453972809035803948063403 1:0.40000001 3:0.2 4:0.2 13:0.2 #
-113.03871453972809035803948063403 1:0.2 3:0.2 4:0.2 9:0.2 13:0.2 #
113.03871453972809035803948063403 1:0.6857143 3:0.028571429 4:0.11428571 9:0.028571429 13:0.14285715 #
-113.03871453972809035803948063403 1:0.71428573 3:0.028571429 4:0.11428571 13:0.14285715 #
113.03871453972809035803948063403 1:0.63095236 3:0.071428575 4:0.095238097 9:0.10714286 13:0.071428575 15:0.023809524 #
-113.03871453972809035803948063403 1:0.65476191 3:0.071428575 4:0.071428575 9:0.071428575 12:0.023809524 13:0.083333336 15:0.023809524 #
113.03871453972809035803948063403 1:0.56 3:0.079999998 4:0.12 9:0.079999998 13:0.16 #
-113.03871453972809035803948063403 1:0.60000002 3:0.079999998 4:0.12 9:0.079999998 13:0.079999998 16:0.039999999 #
113.03871453972809035803948063403 1:0.63333333 3:0.033333335 4:0.13333334 9:0.06666667 13:0.13333334 #
-113.03871453972809035803948063403 1:0.63333333 3:0.06666667 4:0.13333334 9:0.033333335 13:0.13333334 #
113.03871453972809035803948063403 1:0.79166669 3:0.041666668 4:0.083333336 9:0.020833334 13:0.0625 #
-113.03871453972809035803948063403 1:0.8125 3:0.041666668 4:0.0625 9:0.020833334 13:0.0625 #
113.03871453972809035803948063403 1:0.44444445 2:0.022222223 3:0.11111111 4:0.13333334 5:0.022222223 9:0.11111111 13:0.15555556 #
-113.03871453972809035803948063403 1:0.48888889 2:0.022222223 3:0.11111111 4:0.13333334 5:0.022222223 9:0.088888891 13:0.13333334 #
113.03871453972809035803948063403 1:0.53125 3:0.09375 4:0.09375 9:0.0625 12:0.03125 13:0.15625 16:0.03125 #
-113.03871453972809035803948063403 1:0.46875 3:0.09375 4:0.125 9:0.125 13:0.15625 16:0.03125 #
113.03871453972809035803948063403 1:0.70833331 3:0.0625 4:0.0625 9:0.083333336 13:0.083333336 #
-113.03871453972809035803948063403 1:0.75 3:0.0625 4:0.0625 9:0.0625 13:0.0625 #
113.03871453972809035803948063403 1:0.69047618 3:0.023809524 4:0.11904762 9:0.023809524 13:0.14285715 #
-113.03871453972809035803948063403 1:0.73809522 4:0.095238097 9:0.023809524 13:0.14285715 #
113.03871453972809035803948063403 1:0.75 3:0.027777778 4:0.11111111 13:0.11111111 #
-113.03871453972809035803948063403 1:0.69444442 3:0.027777778 4:0.1388889 9:0.027777778 13:0.11111111 #
113.03871453972809035803948063403 1:0.68181819 3:0.090909094 4:0.045454547 9:0.10606061 13:0.075757578 #
-113.03871453972809035803948063403 1:0.63636363 3:0.12121212 4:0.060606062 9:0.10606061 13:0.060606062 16:0.015151516 #
113.03871453972809035803948063403 1:0.4375 3:0.0625 4:0.1875 9:0.0625 13:0.25 #
-113.03871453972809035803948063403 1:0.4375 3:0.0625 4:0.25 9:0.0625 13:0.1875 #
113.03871453972809035803948063403 1:0.5 3:0.083333336 4:0.11111111 9:0.11111111 12:0.027777778 13:0.1388889 15:0.027777778 #
-113.03871453972809035803948063403 1:0.6111111 3:0.083333336 4:0.11111111 9:0.083333336 13:0.083333336 15:0.027777778 #
113.03871453972809035803948063403 1:0.5 3:0.0625 4:0.1875 9:0.0625 13:0.1875 #
-113.03871453972809035803948063403 1:0.5625 3:0.0625 4:0.1875 9:0.0625 13:0.125 #
56.970266045009154254330496769398 1:0.5 3:0.050000001 4:0.15000001 5:0.050000001 9:0.050000001 13:0.2 #
-56.970266045009154254330496769398 1:0.44999999 3:0.050000001 4:0.15000001 5:0.050000001 9:0.050000001 13:0.15000001 14:0.050000001 16:0.050000001 #
113.03871453972809035803948063403 1:0.78571427 4:0.071428575 9:0.035714287 13:0.10714286 #
-113.03871453972809035803948063403 1:0.75 3:0.035714287 4:0.10714286 9:0.035714287 13:0.071428575 #
113.03871453972809035803948063403 1:0.71428573 3:0.035714287 4:0.071428575 9:0.035714287 13:0.14285715 #
-113.03871453972809035803948063403 1:0.64285713 3:0.035714287 4:0.071428575 9:0.071428575 13:0.17857143 #
113.03871453972809035803948063403 1:0.73015875 3:0.047619049 4:0.095238097 9:0.047619049 13:0.063492067 16:0.015873017 #
-113.03871453972809035803948063403 1:0.71428573 3:0.047619049 4:0.079365082 9:0.063492067 13:0.095238097 #
113.03871453972809035803948063403 1:0.6111111 2:0.055555556 3:0.11111111 4:0.16666667 16:0.055555556 #
-113.03871453972809035803948063403 1:0.55555558 4:0.055555556 5:0.055555556 9:0.11111111 13:0.22222222 #
113.03871453972809035803948063403 1:0.73015875 3:0.031746034 4:0.095238097 9:0.047619049 11:0.015873017 13:0.079365082 #
-113.03871453972809035803948063403 1:0.74603176 3:0.047619049 4:0.095238097 9:0.047619049 13:0.063492067 #
113.03871453972809035803948063403 1:0.61904764 3:0.071428575 4:0.095238097 9:0.047619049 12:0.023809524 13:0.11904762 16:0.023809524 #
-113.03871453972809035803948063403 1:0.61904764 3:0.071428575 4:0.095238097 9:0.047619049 12:0.023809524 13:0.071428575 15:0.023809524 16:0.047619049 #
113.03871453972809035803948063403 1:0.56666666 3:0.1 4:0.13333334 9:0.1 13:0.1 #
-113.03871453972809035803948063403 1:0.53333336 3:0.1 4:0.13333334 9:0.1 13:0.13333334 #
113.03871453972809035803948063403 1:0.58333331 3:0.083333336 4:0.16666667 9:0.083333336 13:0.083333336 #
-113.03871453972809035803948063403 1:0.75 3:0.083333336 4:0.083333336 13:0.083333336 #
113.03871453972809035803948063403 1:0.69999999 3:0.050000001 4:0.11666667 9:0.033333335 13:0.1 #
-113.03871453972809035803948063403 1:0.71666664 3:0.050000001 4:0.1 9:0.033333335 13:0.083333336 16:0.016666668 #
113.03871453972809035803948063403 1:0.46666667 4:0.13333334 12:0.06666667 13:0.06666667 15:0.06666667 16:0.2 #
-113.03871453972809035803948063403 1:0.53333336 4:0.06666667 12:0.06666667 13:0.06666667 16:0.26666668 #
113.03871453972809035803948063403 1:0.71428573 3:0.031746034 4:0.095238097 9:0.063492067 13:0.095238097 #
-113.03871453972809035803948063403 1:0.69841272 3:0.063492067 4:0.079365082 9:0.063492067 13:0.079365082 16:0.015873017 #
113.03871453972809035803948063403 1:0.60000002 3:0.1 4:0.1 9:0.1 13:0.1 #
-113.03871453972809035803948063403 1:0.69999999 3:0.050000001 4:0.050000001 9:0.1 13:0.1 #
113.03871453972809035803948063403 1:0.69791669 3:0.0625 4:0.072916664 9:0.0625 12:0.010416667 13:0.09375 #
-113.03871453972809035803948063403 1:0.64583331 3:0.083333336 4:0.10416666 9:0.072916664 13:0.083333336 16:0.010416667 #
113.03871453972809035803948063403 1:0.80000001 4:0.1 13:0.1 #
-113.03871453972809035803948063403 1:0.80000001 4:0.1 13:0.1 #
113.03871453972809035803948063403 1:0.5 3:0.055555556 4:0.16666667 9:0.055555556 11:0.055555556 13:0.16666667 #
-113.03871453972809035803948063403 1:0.5 3:0.11111111 4:0.22222222 9:0.055555556 13:0.11111111 #
113.03871453972809035803948063403 1:0.75 3:0.027777778 4:0.11111111 13:0.11111111 #
-113.03871453972809035803948063403 1:0.75 3:0.027777778 4:0.11111111 13:0.11111111 #
113.03871453972809035803948063403 1:0.76190478 3:0.023809524 4:0.095238097 9:0.023809524 13:0.071428575 16:0.023809524 #
-113.03871453972809035803948063403 1:0.66666669 3:0.023809524 4:0.11904762 9:0.047619049 13:0.14285715 #
113.03871453972809035803948063403 1:0.30000001 3:0.2 4:0.2 9:0.1 12:0.1 15:0.1 #
-113.03871453972809035803948063403 1:0.30000001 3:0.2 4:0.2 9:0.1 12:0.1 15:0.1 #
113.03871453972809035803948063403 1:0.46666667 3:0.2 4:0.06666667 9:0.13333334 13:0.13333334 #
-113.03871453972809035803948063403 1:0.60000002 3:0.13333334 4:0.13333334 9:0.06666667 13:0.06666667 #
113.03871453972809035803948063403 1:0.59090906 3:0.090909094 4:0.13636364 9:0.06818182 13:0.11363637 #
-113.03871453972809035803948063403 1:0.54545456 3:0.090909094 4:0.15909091 9:0.06818182 13:0.13636364 #
113.03871453972809035803948063403 1:0.66666669 3:0.027777778 4:0.1388889 9:0.027777778 13:0.1388889 #
-113.03871453972809035803948063403 1:0.6388889 3:0.027777778 4:0.1388889 9:0.027777778 13:0.16666667 #
113.03871453972809035803948063403 1:0.44999999 3:0.1 4:0.15000001 9:0.050000001 12:0.050000001 13:0.2 #
-113.03871453972809035803948063403 1:0.40000001 3:0.1 4:0.15000001 9:0.1 12:0.050000001 13:0.2 #
113.03871453972809035803948063403 1:0.62666667 2:0.013333334 3:0.053333335 4:0.10666667 5:0.013333334 9:0.079999998 13:0.093333334 15:0.013333334 #
-113.03871453972809035803948063403 1:0.63999999 2:0.013333334 3:0.06666667 4:0.10666667 9:0.079999998 13:0.093333334 #
113.03871453972809035803948063403 1:0.5272727 3:0.090909094 4:0.090909094 9:0.090909094 11:0.036363635 13:0.090909094 16:0.07272727 #
-113.03871453972809035803948063403 1:0.5090909 3:0.090909094 4:0.12727273 9:0.090909094 12:0.018181818 13:0.10909091 15:0.036363635 16:0.018181818 #
113.03871453972809035803948063403 1:0.72222221 3:0.055555556 4:0.055555556 9:0.055555556 13:0.11111111 #
-113.03871453972809035803948063403 1:0.77777779 4:0.11111111 9:0.055555556 13:0.055555556 #
113.03871453972809035803948063403 1:0.33333334 3:0.055555556 4:0.11111111 9:0.22222222 13:0.27777779 #
-113.03871453972809035803948063403 1:0.33333334 3:0.055555556 4:0.11111111 9:0.22222222 13:0.27777779 #
113.03871453972809035803948063403 1:0.5714286 3:0.071428575 4:0.10714286 9:0.10714286 13:0.14285715 #
-113.03871453972809035803948063403 1:0.5714286 3:0.071428575 4:0.10714286 9:0.10714286 13:0.14285715 #
113.03871453972809035803948063403 1:0.60000002 3:0.039999999 4:0.1 9:0.079999998 12:0.02 13:0.14 15:0.02 #
-113.03871453972809035803948063403 1:0.62 3:0.079999998 4:0.12 9:0.059999999 13:0.079999998 15:0.02 16:0.02 #
113.03871453972809035803948063403 1:0.33333334 3:0.19047619 4:0.095238097 9:0.19047619 11:0.047619049 13:0.14285715 #
-113.03871453972809035803948063403 1:0.2857143 3:0.23809524 4:0.095238097 9:0.19047619 12:0.047619049 13:0.14285715 #
113.03871453972809035803948063403 1:0.44444445 3:0.11111111 4:0.22222222 9:0.11111111 13:0.11111111 #
-113.03871453972809035803948063403 1:0.33333334 3:0.11111111 4:0.22222222 9:0.11111111 13:0.22222222 #
113.03871453972809035803948063403 1:0.5714286 3:0.028571429 4:0.11428571 9:0.057142857 12:0.028571429 13:0.14285715 15:0.028571429 16:0.028571429 #
-113.03871453972809035803948063403 1:0.60000002 3:0.057142857 4:0.11428571 9:0.028571429 12:0.028571429 13:0.14285715 16:0.028571429 #
113.03871453972809035803948063403 1:0.5 3:0.09375 4:0.125 9:0.125 13:0.125 16:0.03125 #
-113.03871453972809035803948063403 1:0.53125 3:0.09375 4:0.09375 9:0.125 13:0.09375 16:0.0625 #
113.03871453972809035803948063403 1:0.56818181 3:0.06818182 4:0.090909094 9:0.11363637 11:0.022727273 13:0.13636364 #
-113.03871453972809035803948063403 1:0.54545456 3:0.090909094 4:0.11363637 9:0.11363637 11:0.022727273 13:0.11363637 #
113.03871453972809035803948063403 1:0.55000001 3:0.075000003 4:0.075000003 9:0.125 11:0.025 12:0.025 13:0.050000001 15:0.050000001 16:0.025 #
-113.03871453972809035803948063403 1:0.52499998 3:0.075000003 4:0.1 9:0.125 11:0.025 12:0.025 13:0.075000003 15:0.050000001 #
113.03871453972809035803948063403 1:0.68000001 3:0.079999998 4:0.12 9:0.039999999 13:0.079999998 #
-113.03871453972809035803948063403 1:0.68000001 3:0.039999999 4:0.079999998 9:0.079999998 13:0.12 #
113.03871453972809035803948063403 1:0.68000001 2:0.013333334 3:0.079999998 4:0.079999998 9:0.039999999 11:0.013333334 12:0.013333334 13:0.06666667 16:0.013333334 #
-113.03871453972809035803948063403 1:0.60000002 2:0.013333334 3:0.079999998 4:0.093333334 5:0.013333334 9:0.079999998 11:0.013333334 12:0.013333334 13:0.093333334 #
113.03871453972809035803948063403 1:0.66666669 3:0.06666667 4:0.083333336 9:0.06666667 11:0.016666668 13:0.083333336 16:0.016666668 #
-113.03871453972809035803948063403 1:0.64999998 3:0.050000001 4:0.1 9:0.06666667 12:0.016666668 13:0.1 15:0.016666668 #
113.03871453972809035803948063403 1:0.6785714 3:0.083333336 4:0.071428575 9:0.071428575 12:0.011904762 13:0.083333336 #
-113.03871453972809035803948063403 1:0.70238096 3:0.05952381 4:0.071428575 9:0.05952381 11:0.011904762 12:0.011904762 13:0.071428575 15:0.011904762 #
113.03871453972809035803948063403 1:0.71428573 3:0.031746034 4:0.095238097 9:0.063492067 13:0.095238097 #
-113.03871453972809035803948063403 1:0.71428573 3:0.031746034 4:0.095238097 9:0.063492067 13:0.095238097 #
113.03871453972809035803948063403 1:0.5714286 3:0.028571429 4:0.11428571 9:0.057142857 12:0.028571429 13:0.14285715 15:0.028571429 16:0.028571429 #
-113.03871453972809035803948063403 1:0.5714286 3:0.028571429 4:0.17142858 9:0.028571429 12:0.028571429 13:0.11428571 15:0.057142857 #
113.03871453972809035803948063403 1:0.68000001 3:0.12 4:0.079999998 9:0.079999998 13:0.039999999 #
-113.03871453972809035803948063403 1:0.75999999 3:0.079999998 4:0.039999999 9:0.079999998 13:0.039999999 #
113.03871453972809035803948063403 1:0.47619048 3:0.047619049 4:0.047619049 9:0.14285715 13:0.23809524 16:0.047619049 #
-113.03871453972809035803948063403 1:0.47619048 3:0.047619049 4:0.095238097 9:0.14285715 13:0.23809524 #
113.03871453972809035803948063403 1:0.54166669 3:0.0625 4:0.125 9:0.083333336 13:0.16666667 16:0.020833334 #
-113.03871453972809035803948063403 1:0.625 3:0.0625 4:0.10416666 9:0.0625 13:0.125 16:0.020833334 #
113.03871453972809035803948063403 1:0.66666669 3:0.06666667 4:0.13333334 9:0.033333335 13:0.1 #
-113.03871453972809035803948063403 1:0.69999999 3:0.06666667 4:0.1 9:0.033333335 13:0.06666667 16:0.033333335 #
113.03871453972809035803948063403 1:0.375 3:0.125 4:0.16666667 9:0.16666667 13:0.16666667 #
-113.03871453972809035803948063403 1:0.58333331 3:0.083333336 4:0.041666668 9:0.125 13:0.16666667 #
113.03871453972809035803948063403 1:0.60000002 3:0.075000003 4:0.1 5:0.025 9:0.1 13:0.1 #
-113.03871453972809035803948063403 1:0.52499998 3:0.125 4:0.125 8:0.025 9:0.075000003 10:0.025 13:0.1 #
113.03871453972809035803948063403 1:0.63333333 3:0.033333335 4:0.1 9:0.06666667 13:0.13333334 16:0.033333335 #
-113.03871453972809035803948063403 1:0.60000002 3:0.06666667 4:0.1 9:0.06666667 13:0.13333334 16:0.033333335 #
113.03871453972809035803948063403 1:0.625 3:0.041666668 4:0.125 9:0.083333336 13:0.125 #
-113.03871453972809035803948063403 1:0.625 3:0.083333336 4:0.125 9:0.041666668 13:0.125 #
113.03871453972809035803948063403 1:0.66666669 3:0.083333336 4:0.0625 9:0.10416666 13:0.083333336 #
-113.03871453972809035803948063403 1:0.6875 3:0.083333336 4:0.083333336 9:0.083333336 13:0.041666668 15:0.020833334 #
113.03871453972809035803948063403 1:0.55000001 3:0.075000003 4:0.1 9:0.075000003 12:0.050000001 13:0.125 15:0.025 #
-113.03871453972809035803948063403 1:0.5 3:0.075000003 4:0.15000001 9:0.1 13:0.15000001 15:0.025 #
113.03871453972809035803948063403 1:0.625 3:0.083333336 4:0.125 9:0.041666668 13:0.125 #
-113.03871453972809035803948063403 1:0.625 3:0.041666668 4:0.083333336 9:0.083333336 13:0.16666667 #
113.03871453972809035803948063403 1:0.5 3:0.083333336 4:0.16666667 9:0.083333336 13:0.083333336 15:0.083333336 #
-113.03871453972809035803948063403 1:0.41666666 3:0.083333336 4:0.16666667 9:0.16666667 13:0.16666667 #
113.03871453972809035803948063403 1:0.44444445 3:0.11111111 4:0.16666667 9:0.11111111 13:0.16666667 #
-113.03871453972809035803948063403 1:0.3888889 3:0.16666667 4:0.16666667 9:0.11111111 13:0.16666667 #
113.03871453972809035803948063403 1:0.69047618 3:0.071428575 4:0.095238097 9:0.071428575 13:0.071428575 #
-113.03871453972809035803948063403 1:0.61904764 3:0.095238097 4:0.11904762 9:0.071428575 13:0.095238097 #
113.03871453972809035803948063403 1:0.67532468 3:0.090909094 4:0.077922076 9:0.077922076 12:0.012987013 13:0.064935066 #
-113.03871453972809035803948063403 1:0.63636363 3:0.090909094 4:0.090909094 9:0.090909094 13:0.090909094 #
113.03871453972809035803948063403 1:0.55555558 3:0.06666667 4:0.11111111 9:0.06666667 11:0.022222223 12:0.022222223 13:0.13333334 16:0.022222223 #
-113.03871453972809035803948063403 1:0.53333336 3:0.06666667 4:0.11111111 9:0.06666667 11:0.044444446 12:0.022222223 13:0.15555556 #
113.03871453972809035803948063403 1:0.66666669 3:0.020833334 4:0.14583333 9:0.020833334 13:0.14583333 #
-113.03871453972809035803948063403 1:0.72916669 3:0.020833334 4:0.125 13:0.10416666 16:0.020833334 #
113.03871453972809035803948063403 1:0.64999998 3:0.1 4:0.1 9:0.075000003 13:0.075000003 #
-113.03871453972809035803948063403 1:0.64999998 3:0.1 4:0.1 9:0.050000001 13:0.075000003 16:0.025 #
113.03871453972809035803948063403 1:0.63333333 3:0.033333335 4:0.13333334 9:0.033333335 13:0.16666667 #
-113.03871453972809035803948063403 1:0.63333333 3:0.033333335 4:0.13333334 9:0.033333335 13:0.13333334 16:0.033333335 #
113.03871453972809035803948063403 1:0.70833331 3:0.125 4:0.0625 9:0.083333336 13:0.020833334 #
-113.03871453972809035803948063403 1:0.64583331 3:0.10416666 4:0.0625 9:0.125 13:0.0625 #
113.03871453972809035803948063403 1:0.61538464 3:0.057692308 4:0.11538462 9:0.07692308 13:0.13461539 #
-113.03871453972809035803948063403 1:0.57692307 3:0.096153848 4:0.13461539 9:0.07692308 13:0.11538462 #
113.03871453972809035803948063403 1:0.44444445 3:0.11111111 4:0.16666667 9:0.11111111 13:0.11111111 15:0.055555556 #
-113.03871453972809035803948063403 1:0.44444445 3:0.11111111 4:0.16666667 9:0.11111111 13:0.16666667 #
113.03871453972809035803948063403 1:0.5625 3:0.09375 4:0.125 9:0.125 13:0.09375 #
-113.03871453972809035803948063403 1:0.59375 3:0.125 4:0.125 9:0.0625 13:0.09375 #
113.03871453972809035803948063403 1:0.66666669 3:0.055555556 4:0.11111111 9:0.055555556 13:0.11111111 #
-113.03871453972809035803948063403 1:0.72222221 3:0.055555556 4:0.11111111 9:0.055555556 13:0.055555556 #
113.03871453972809035803948063403 1:0.64999998 3:0.050000001 4:0.15000001 9:0.050000001 13:0.1 #
-113.03871453972809035803948063403 1:0.75 3:0.050000001 4:0.15000001 13:0.050000001 #
113.03871453972809035803948063403 1:0.66666669 2:0.012820513 3:0.051282052 4:0.1025641 5:0.012820513 9:0.051282052 13:0.089743592 15:0.012820513 #
-113.03871453972809035803948063403 1:0.66666669 2:0.012820513 3:0.051282052 4:0.1025641 5:0.012820513 9:0.051282052 13:0.1025641 #
113.03871453972809035803948063403 1:0.33333334 3:0.055555556 4:0.16666667 9:0.16666667 13:0.16666667 16:0.11111111 #
-113.03871453972809035803948063403 1:0.44444445 3:0.11111111 4:0.11111111 9:0.055555556 13:0.16666667 16:0.11111111 #
113.03871453972809035803948063403 1:0.69999999 3:0.1 4:0.1 9:0.1 #
-113.03871453972809035803948063403 1:0.69999999 3:0.1 4:0.1 9:0.1 #
113.03871453972809035803948063403 1:0.59523809 3:0.095238097 4:0.095238097 9:0.095238097 13:0.095238097 16:0.023809524 #
-113.03871453972809035803948063403 1:0.59523809 3:0.095238097 4:0.095238097 9:0.095238097 13:0.095238097 16:0.023809524 #
113.03871453972809035803948063403 1:0.6857143 3:0.071428575 4:0.085714288 9:0.085714288 13:0.071428575 #
-113.03871453972809035803948063403 1:0.72857141 3:0.071428575 4:0.071428575 9:0.071428575 13:0.057142857 #
113.03871453972809035803948063403 1:0.58333331 3:0.041666668 4:0.125 9:0.125 13:0.083333336 15:0.041666668 #
-113.03871453972809035803948063403 1:0.54166669 3:0.083333336 4:0.125 9:0.125 13:0.125 #
113.03871453972809035803948063403 1:0.58333331 3:0.16666667 4:0.083333336 9:0.083333336 13:0.083333336 #
-113.03871453972809035803948063403 1:0.58333331 3:0.083333336 4:0.083333336 9:0.083333336 13:0.16666667 #
113.03871453972809035803948063403 1:0.60000002 3:0.057142857 4:0.11428571 9:0.057142857 13:0.14285715 16:0.028571429 #
-113.03871453972809035803948063403 1:0.62857145 3:0.028571429 4:0.14285715 9:0.028571429 11:0.028571429 13:0.085714288 16:0.057142857 #
113.03871453972809035803948063403 1:0.5625 3:0.125 4:0.125 9:0.0625 13:0.125 #
-113.03871453972809035803948063403 1:0.5 3:0.0625 4:0.1875 9:0.125 13:0.0625 15:0.0625 #
113.03871453972809035803948063403 1:0.60000002 3:0.050000001 4:0.075000003 5:0.025 9:0.1 13:0.125 16:0.025 #
-113.03871453972809035803948063403 1:0.625 3:0.025 4:0.1 5:0.025 9:0.050000001 11:0.025 13:0.15000001 #
113.03871453972809035803948063403 1:0.33333334 3:0.06666667 4:0.2 9:0.13333334 13:0.26666668 #
-113.03871453972809035803948063403 1:0.40000001 3:0.13333334 4:0.2 9:0.06666667 13:0.2 #
113.03871453972809035803948063403 1:0.42857143 3:0.14285715 4:0.14285715 9:0.14285715 13:0.14285715 #
-113.03871453972809035803948063403 1:0.42857143 3:0.14285715 4:0.14285715 9:0.14285715 13:0.095238097 16:0.047619049 #
113.03871453972809035803948063403 1:0.59375 3:0.09375 4:0.09375 9:0.09375 13:0.09375 16:0.03125 #
-113.03871453972809035803948063403 1:0.53125 3:0.0625 4:0.125 9:0.09375 12:0.03125 13:0.125 15:0.03125 #
113.03871453972809035803948063403 1:0.60000002 3:0.06666667 4:0.13333334 9:0.06666667 13:0.13333334 #
-113.03871453972809035803948063403 1:0.60000002 3:0.06666667 4:0.13333334 9:0.06666667 13:0.13333334 #
113.03871453972809035803948063403 1:0.58333331 3:0.083333336 4:0.10416666 9:0.10416666 13:0.10416666 16:0.020833334 #
-113.03871453972809035803948063403 1:0.60416669 3:0.083333336 4:0.10416666 9:0.0625 12:0.020833334 13:0.10416666 15:0.020833334 #
113.03871453972809035803948063403 1:0.55555558 3:0.11111111 4:0.22222222 13:0.11111111 #
-113.03871453972809035803948063403 1:0.44444445 3:0.11111111 4:0.11111111 9:0.11111111 13:0.22222222 #
113.03871453972809035803948063403 1:0.80000001 3:0.025 4:0.041666668 5:0.0083333338 9:0.058333334 13:0.06666667 #
-113.03871453972809035803948063403 1:0.75833333 2:0.0083333338 3:0.050000001 4:0.06666667 5:0.0083333338 9:0.050000001 13:0.058333334 #
113.03871453972809035803948063403 1:0.66666669 3:0.071428575 4:0.047619049 9:0.095238097 12:0.023809524 13:0.071428575 15:0.023809524 #
-113.03871453972809035803948063403 1:0.64285713 3:0.071428575 4:0.095238097 9:0.047619049 11:0.023809524 12:0.023809524 13:0.071428575 15:0.023809524 #
113.03871453972809035803948063403 1:0.68888891 3:0.044444446 4:0.06666667 9:0.088888891 13:0.11111111 #
-113.03871453972809035803948063403 1:0.71111113 3:0.022222223 4:0.044444446 9:0.088888891 11:0.022222223 13:0.088888891 16:0.022222223 #
113.03871453972809035803948063403 1:0.65151513 2:0.015151516 3:0.060606062 4:0.090909094 5:0.015151516 9:0.075757578 13:0.090909094 #
-113.03871453972809035803948063403 1:0.66666669 2:0.015151516 3:0.060606062 4:0.090909094 5:0.015151516 9:0.060606062 13:0.090909094 #
113.03871453972809035803948063403 1:0.64615387 2:0.015384615 3:0.046153847 4:0.07692308 5:0.015384615 9:0.092307694 11:0.015384615 13:0.092307694 #
-113.03871453972809035803948063403 1:0.66153848 3:0.061538462 4:0.061538462 5:0.015384615 9:0.092307694 11:0.015384615 13:0.092307694 #
113.03871453972809035803948063403 1:0.69090909 3:0.054545455 4:0.07272727 9:0.07272727 13:0.10909091 #
-113.03871453972809035803948063403 1:0.67272729 3:0.090909094 4:0.10909091 9:0.054545455 13:0.07272727 #
113.03871453972809035803948063403 1:0.69999999 4:0.2 13:0.1 #
-113.03871453972809035803948063403 1:0.69999999 4:0.1 13:0.2 #
113.03871453972809035803948063403 1:0.27777779 3:0.055555556 4:0.11111111 9:0.11111111 11:0.055555556 12:0.055555556 13:0.16666667 15:0.055555556 16:0.11111111 #
-113.03871453972809035803948063403 1:0.27777779 3:0.055555556 4:0.11111111 9:0.11111111 11:0.055555556 12:0.055555556 13:0.16666667 15:0.055555556 16:0.11111111 #
113.03871453972809035803948063403 1:0.69999999 3:0.033333335 4:0.13333334 9:0.033333335 13:0.1 #
-113.03871453972809035803948063403 1:0.63333333 3:0.06666667 4:0.13333334 9:0.033333335 13:0.13333334 #
113.03871453972809035803948063403 1:0.6875 4:0.125 9:0.0625 13:0.0625 15:0.0625 #
-113.03871453972809035803948063403 1:0.6875 4:0.125 9:0.0625 13:0.125 #
113.03871453972809035803948063403 1:0.77083331 3:0.020833334 4:0.10416666 9:0.020833334 13:0.083333336 #
-113.03871453972809035803948063403 1:0.6875 3:0.041666668 4:0.10416666 9:0.041666668 13:0.125 #
113.03871453972809035803948063403 1:0.83333331 3:0.022222223 4:0.06666667 9:0.011111111 13:0.06666667 #
-113.03871453972809035803948063403 1:0.84444445 3:0.022222223 4:0.06666667 9:0.011111111 13:0.055555556 #
113.03871453972809035803948063403 1:0.53333336 9:0.13333334 12:0.06666667 13:0.13333334 15:0.06666667 16:0.06666667 #
-113.03871453972809035803948063403 1:0.53333336 9:0.13333334 13:0.13333334 15:0.06666667 16:0.13333334 #
113.03871453972809035803948063403 1:0.69387758 3:0.06122449 4:0.071428575 9:0.091836736 13:0.071428575 15:0.010204081 #
-113.03871453972809035803948063403 1:0.69387758 3:0.081632651 4:0.081632651 9:0.071428575 13:0.06122449 15:0.010204081 #
113.03871453972809035803948063403 1:0.375 3:0.083333336 4:0.16666667 9:0.16666667 13:0.20833333 #
-113.03871453972809035803948063403 1:0.375 3:0.083333336 4:0.16666667 9:0.16666667 13:0.20833333 #
113.03871453972809035803948063403 1:0.65714288 2:0.014285714 3:0.057142857 4:0.11428571 5:0.014285714 9:0.042857144 13:0.1 #
-113.03871453972809035803948063403 1:0.64285713 2:0.014285714 3:0.042857144 4:0.1 5:0.014285714 9:0.057142857 13:0.12857144 #
51.494823484582198602765856776386 1:0.66666669 4:0.16666667 13:0.16666667 #
-51.494823484582198602765856776386 1:0.58333331 4:0.16666667 13:0.16666667 16:0.083333336 #
113.03871453972809035803948063403 1:0.5 3:0.055555556 4:0.22222222 9:0.055555556 13:0.16666667 #
-113.03871453972809035803948063403 1:0.5 3:0.055555556 4:0.22222222 9:0.055555556 13:0.16666667 #
113.03871453972809035803948063403 1:0.55555558 3:0.083333336 4:0.1388889 9:0.083333336 13:0.1388889 #
-113.03871453972809035803948063403 1:0.6111111 3:0.083333336 4:0.1388889 9:0.055555556 13:0.11111111 #
113.03871453972809035803948063403 1:0.63333333 3:0.06666667 4:0.13333334 9:0.06666667 13:0.1 #
-113.03871453972809035803948063403 1:0.76666665 4:0.06666667 9:0.06666667 13:0.1 #
113.03871453972809035803948063403 1:0.625 2:0.013888889 3:0.055555556 4:0.11111111 5:0.013888889 9:0.069444448 13:0.11111111 #
-113.03871453972809035803948063403 1:0.625 2:0.013888889 3:0.055555556 4:0.11111111 5:0.013888889 9:0.069444448 13:0.11111111 #
113.03871453972809035803948063403 1:0.60000002 2:0.016666668 3:0.06666667 4:0.1 5:0.016666668 9:0.06666667 13:0.11666667 16:0.016666668 #
-113.03871453972809035803948063403 1:0.64999998 2:0.016666668 3:0.050000001 4:0.083333336 5:0.016666668 9:0.050000001 12:0.016666668 13:0.1 16:0.016666668 #
113.03871453972809035803948063403 1:0.78125 3:0.052083332 4:0.0625 9:0.041666668 13:0.0625 #
-113.03871453972809035803948063403 1:0.77083331 3:0.052083332 4:0.072916664 9:0.041666668 13:0.0625 #
113.03871453972809035803948063403 1:0.5 3:0.083333336 4:0.16666667 9:0.083333336 13:0.16666667 #
-113.03871453972809035803948063403 1:0.58333331 3:0.083333336 4:0.083333336 9:0.083333336 13:0.16666667 #
113.03871453972809035803948063403 1:0.63999999 3:0.039999999 4:0.16 9:0.039999999 13:0.12 #
-113.03871453972809035803948063403 1:0.56 3:0.039999999 4:0.12 9:0.039999999 12:0.039999999 13:0.16 15:0.039999999 #
113.03871453972809035803948063403 1:0.64999998 3:0.050000001 4:0.125 9:0.075000003 13:0.1 #
-113.03871453972809035803948063403 1:0.625 3:0.025 4:0.125 9:0.075000003 13:0.125 15:0.025 #
113.03871453972809035803948063403 1:0.55000001 3:0.050000001 4:0.2 9:0.050000001 13:0.15000001 #
-113.03871453972809035803948063403 1:0.69999999 3:0.050000001 4:0.15000001 13:0.1 #
113.03871453972809035803948063403 1:0.60000002 3:0.06666667 4:0.11111111 9:0.088888891 13:0.11111111 16:0.022222223 #
-113.03871453972809035803948063403 1:0.64444447 3:0.06666667 4:0.088888891 9:0.06666667 13:0.11111111 16:0.022222223 #
113.03871453972809035803948063403 1:0.53333336 3:0.2 4:0.06666667 9:0.13333334 13:0.06666667 #
-113.03871453972809035803948063403 1:0.60000002 3:0.13333334 4:0.06666667 9:0.2 #
113.03871453972809035803948063403 1:0.45833334 3:0.083333336 4:0.125 9:0.125 12:0.041666668 13:0.125 15:0.041666668 #
-113.03871453972809035803948063403 1:0.45833334 3:0.083333336 4:0.125 9:0.16666667 13:0.083333336 15:0.041666668 16:0.041666668 #
113.03871453972809035803948063403 1:0.40000001 4:0.26666668 13:0.33333334 #
-113.03871453972809035803948063403 1:0.53333336 4:0.2 13:0.2 16:0.06666667 #
113.03871453972809035803948063403 1:0.66666669 3:0.06666667 4:0.1 9:0.033333335 12:0.033333335 13:0.06666667 15:0.033333335 #
-113.03871453972809035803948063403 1:0.53333336 3:0.1 4:0.13333334 9:0.06666667 11:0.033333335 13:0.13333334 #
113.03871453972809035803948063403 1:0.69999999 3:0.1 4:0.1 9:0.050000001 13:0.050000001 #
-113.03871453972809035803948063403 1:0.64999998 3:0.1 4:0.1 9:0.1 13:0.050000001 #
113.03871453972809035803948063403 1:0.33333334 3:0.095238097 4:0.14285715 9:0.14285715 11:0.047619049 13:0.23809524 #
-113.03871453972809035803948063403 1:0.33333334 3:0.095238097 4:0.14285715 9:0.14285715 11:0.047619049 13:0.19047619 16:0.047619049 #
113.03871453972809035803948063403 1:0.8035714 3:0.035714287 4:0.071428575 9:0.017857144 13:0.071428575 #
-113.03871453972809035803948063403 1:0.76785713 3:0.035714287 4:0.071428575 9:0.035714287 13:0.089285716 #
113.03871453972809035803948063403 1:0.72222221 3:0.055555556 4:0.11111111 9:0.027777778 13:0.083333336 #
-113.03871453972809035803948063403 1:0.6388889 3:0.055555556 4:0.1388889 9:0.055555556 13:0.11111111 #
113.03871453972809035803948063403 1:0.62962961 3:0.074074075 4:0.12962963 9:0.074074075 13:0.09259259 #
-113.03871453972809035803948063403 1:0.64814812 3:0.074074075 4:0.074074075 9:0.09259259 13:0.09259259 16:0.018518519 #
113.03871453972809035803948063403 1:0.60000002 3:0.050000001 4:0.125 9:0.075000003 11:0.025 13:0.125 #
-113.03871453972809035803948063403 1:0.625 3:0.075000003 4:0.075000003 9:0.1 13:0.125 #
113.03871453972809035803948063403 1:0.76190478 3:0.095238097 4:0.047619049 9:0.047619049 13:0.047619049 #
-113.03871453972809035803948063403 1:0.73809522 3:0.071428575 4:0.071428575 9:0.071428575 13:0.047619049 #
113.03871453972809035803948063403 1:0.1 3:0.2 4:0.2 9:0.2 13:0.30000001 #
-113.03871453972809035803948063403 1:0.1 3:0.2 4:0.2 9:0.2 13:0.30000001 #
113.03871453972809035803948063403 1:0.5714286 3:0.028571429 4:0.11428571 9:0.057142857 12:0.028571429 13:0.14285715 15:0.028571429 16:0.028571429 #
-113.03871453972809035803948063403 1:0.5714286 3:0.028571429 4:0.17142858 9:0.028571429 12:0.028571429 13:0.11428571 15:0.057142857 #
113.03871453972809035803948063403 1:0.625 3:0.097222224 4:0.069444448 9:0.083333336 12:0.013888889 13:0.097222224 16:0.013888889 #
-113.03871453972809035803948063403 1:0.6388889 3:0.083333336 4:0.083333336 9:0.083333336 12:0.013888889 13:0.097222224 #
113.03871453972809035803948063403 1:0.4375 3:0.0625 4:0.125 9:0.125 13:0.1875 16:0.0625 #
-113.03871453972809035803948063403 1:0.5 3:0.0625 4:0.125 9:0.125 13:0.0625 15:0.0625 16:0.0625 #
113.03871453972809035803948063403 1:0.71428573 3:0.047619049 4:0.095238097 9:0.047619049 13:0.095238097 #
-113.03871453972809035803948063403 1:0.71428573 3:0.047619049 4:0.095238097 9:0.047619049 13:0.095238097 #
113.03871453972809035803948063403 1:0.5714286 3:0.028571429 4:0.11428571 9:0.057142857 12:0.028571429 13:0.14285715 15:0.028571429 16:0.028571429 #
-113.03871453972809035803948063403 1:0.48571429 3:0.085714288 4:0.14285715 9:0.057142857 12:0.028571429 13:0.17142858 16:0.028571429 #
113.03871453972809035803948063403 1:0.44999999 3:0.1 4:0.1 9:0.1 11:0.050000001 13:0.15000001 16:0.050000001 #
-113.03871453972809035803948063403 1:0.44999999 3:0.1 4:0.1 9:0.1 11:0.050000001 13:0.15000001 16:0.050000001 #
113.03871453972809035803948063403 1:0.60000002 3:0.06666667 4:0.13333334 9:0.06666667 13:0.13333334 #
-113.03871453972809035803948063403 1:0.73333335 4:0.06666667 9:0.06666667 13:0.13333334 #
113.03871453972809035803948063403 1:0.70238096 3:0.047619049 4:0.083333336 9:0.071428575 13:0.071428575 15:0.023809524 #
-113.03871453972809035803948063403 1:0.69047618 3:0.047619049 4:0.083333336 9:0.071428575 13:0.083333336 15:0.023809524 #
113.03871453972809035803948063403 1:0.75 4:0.25 #
-113.03871453972809035803948063403 1:0.75 4:0.25 #
113.03871453972809035803948063403 1:0.64999998 3:0.050000001 4:0.1 9:0.075000003 13:0.125 #
-113.03871453972809035803948063403 1:0.64999998 3:0.075000003 4:0.1 9:0.050000001 13:0.125 #
113.03871453972809035803948063403 1:0.58333331 3:0.06666667 4:0.13333334 9:0.1 13:0.1 15:0.016666668 #
-113.03871453972809035803948063403 1:0.63333333 3:0.06666667 4:0.083333336 9:0.083333336 12:0.016666668 13:0.1 16:0.016666668 #
113.03871453972809035803948063403 1:0.64999998 3:0.050000001 4:0.1 9:0.050000001 13:0.15000001 #
-113.03871453972809035803948063403 1:0.60000002 3:0.050000001 4:0.15000001 9:0.050000001 13:0.15000001 #
113.03871453972809035803948063403 1:0.65714288 3:0.057142857 4:0.14285715 9:0.028571429 13:0.11428571 #
-113.03871453972809035803948063403 1:0.62857145 3:0.028571429 4:0.14285715 9:0.057142857 13:0.14285715 #
113.03871453972809035803948063403 1:0.6875 3:0.0625 4:0.09375 9:0.0625 13:0.0625 15:0.03125 #
-113.03871453972809035803948063403 1:0.65625 3:0.0625 4:0.09375 9:0.09375 13:0.09375 #
113.03871453972809035803948063403 1:0.5 3:0.0625 4:0.1875 9:0.0625 13:0.1875 #
-113.03871453972809035803948063403 1:0.625 4:0.125 9:0.0625 13:0.1875 #
113.03871453972809035803948063403 1:0.44999999 3:0.050000001 4:0.15000001 9:0.1 12:0.025 13:0.125 15:0.050000001 16:0.050000001 #
-113.03871453972809035803948063403 1:0.47499999 3:0.075000003 4:0.125 9:0.075000003 12:0.025 13:0.175 15:0.025 16:0.025 #
113.03871453972809035803948063403 1:0.46666667 3:0.033333335 4:0.16666667 9:0.1 11:0.033333335 13:0.13333334 15:0.033333335 16:0.033333335 #
-113.03871453972809035803948063403 1:0.5 3:0.06666667 4:0.16666667 9:0.033333335 11:0.06666667 13:0.13333334 16:0.033333335 #
113.03871453972809035803948063403 1:0.515625 2:0.015625 3:0.078125 4:0.0625 5:0.03125 8:0.015625 9:0.109375 12:0.015625 13:0.125 14:0.015625 16:0.015625 #
-113.03871453972809035803948063403 1:0.5 2:0.03125 3:0.078125 4:0.078125 5:0.046875 9:0.125 13:0.109375 16:0.03125 #
113.03871453972809035803948063403 1:0.625 3:0.0625 4:0.125 9:0.0625 13:0.125 #
-113.03871453972809035803948063403 1:0.5625 3:0.0625 4:0.0625 9:0.125 13:0.125 16:0.0625 #
113.03871453972809035803948063403 1:0.6111111 3:0.055555556 4:0.055555556 9:0.11111111 13:0.11111111 16:0.055555556 #
-113.03871453972809035803948063403 1:0.6111111 3:0.083333336 4:0.1388889 9:0.055555556 13:0.083333336 16:0.027777778 #
113.03871453972809035803948063403 1:0.52777779 2:0.027777778 3:0.055555556 4:0.1388889 5:0.027777778 9:0.083333336 11:0.027777778 13:0.11111111 #
-113.03871453972809035803948063403 1:0.5 2:0.027777778 3:0.083333336 4:0.1388889 5:0.027777778 9:0.11111111 13:0.11111111 #
113.03871453972809035803948063403 1:0.64285713 3:0.053571429 4:0.089285716 9:0.053571429 11:0.035714287 12:0.017857144 13:0.089285716 15:0.017857144 #
-113.03871453972809035803948063403 1:0.625 3:0.071428575 4:0.089285716 9:0.053571429 11:0.035714287 12:0.017857144 13:0.10714286 #
113.03871453972809035803948063403 1:0.60294116 2:0.014705882 3:0.05882353 4:0.073529415 5:0.029411765 9:0.088235296 13:0.13235295 #
-113.03871453972809035803948063403 1:0.60294116 2:0.014705882 3:0.05882353 4:0.073529415 5:0.029411765 9:0.088235296 13:0.13235295 #
113.03871453972809035803948063403 1:0.74285716 3:0.057142857 4:0.085714288 9:0.028571429 13:0.085714288 #
-113.03871453972809035803948063403 1:0.74285716 3:0.057142857 4:0.085714288 9:0.057142857 13:0.057142857 #
113.03871453972809035803948063403 1:0.375 4:0.25 9:0.125 11:0.125 13:0.125 #
-113.03871453972809035803948063403 1:0.25 3:0.125 4:0.25 9:0.25 13:0.125 #
113.03871453972809035803948063403 1:0.75 3:0.083333336 9:0.11111111 13:0.055555556 #
-113.03871453972809035803948063403 1:0.66666669 3:0.083333336 4:0.055555556 9:0.11111111 11:0.027777778 13:0.055555556 #
113.03871453972809035803948063403 1:0.47499999 3:0.1 4:0.1 9:0.075000003 11:0.025 12:0.025 13:0.1 16:0.1 #
-113.03871453972809035803948063403 1:0.42500001 3:0.125 4:0.1 9:0.050000001 11:0.025 12:0.050000001 13:0.15000001 15:0.025 16:0.050000001 #
113.03871453972809035803948063403 1:0.68000001 3:0.059999999 4:0.1 9:0.059999999 13:0.1 #
-113.03871453972809035803948063403 1:0.63999999 3:0.059999999 4:0.1 9:0.079999998 13:0.12 #
113.03871453972809035803948063403 1:0.42857143 3:0.14285715 4:0.14285715 9:0.095238097 13:0.19047619 #
-113.03871453972809035803948063403 1:0.47619048 3:0.095238097 4:0.14285715 9:0.095238097 13:0.14285715 15:0.047619049 #
113.03871453972809035803948063403 1:0.56818181 3:0.11363637 4:0.11363637 9:0.090909094 11:0.022727273 13:0.090909094 #
-113.03871453972809035803948063403 1:0.54545456 3:0.090909094 4:0.090909094 9:0.13636364 11:0.022727273 13:0.11363637 #
113.03871453972809035803948063403 1:0.5 3:0.071428575 4:0.14285715 9:0.10714286 13:0.14285715 16:0.035714287 #
-113.03871453972809035803948063403 1:0.5714286 3:0.035714287 4:0.10714286 9:0.071428575 12:0.035714287 13:0.17857143 #
113.03871453972809035803948063403 1:0.5714286 3:0.028571429 4:0.11428571 9:0.057142857 12:0.028571429 13:0.14285715 15:0.028571429 16:0.028571429 #
-113.03871453972809035803948063403 1:0.51428574 3:0.085714288 4:0.14285715 9:0.057142857 13:0.14285715 16:0.057142857 #
113.03871453972809035803948063403 1:0.83333331 9:0.055555556 13:0.11111111 #
-113.03871453972809035803948063403 1:0.83333331 9:0.055555556 13:0.11111111 #
113.03871453972809035803948063403 1:0.45833334 3:0.125 4:0.083333336 9:0.125 12:0.041666668 13:0.125 15:0.041666668 #
-113.03871453972809035803948063403 1:0.41666666 3:0.125 4:0.125 9:0.125 11:0.041666668 13:0.125 15:0.041666668 #
113.03871453972809035803948063403 1:0.75 3:0.083333336 4:0.083333336 9:0.041666668 13:0.041666668 #
-113.03871453972809035803948063403 1:0.66666669 3:0.083333336 4:0.083333336 9:0.083333336 13:0.083333336 #
113.03871453972809035803948063403 1:0.66666669 3:0.022222223 4:0.088888891 9:0.088888891 13:0.088888891 15:0.022222223 16:0.022222223 #
-113.03871453972809035803948063403 1:0.64444447 3:0.06666667 4:0.088888891 9:0.044444446 12:0.022222223 13:0.11111111 16:0.022222223 #
113.03871453972809035803948063403 1:0.625 4:0.125 13:0.25 #
-113.03871453972809035803948063403 1:0.625 4:0.125 13:0.25 #
113.03871453972809035803948063403 1:0.64999998 3:0.1 4:0.083333336 9:0.06666667 12:0.016666668 13:0.06666667 15:0.016666668 #
-113.03871453972809035803948063403 1:0.60000002 3:0.083333336 4:0.083333336 9:0.1 12:0.016666668 13:0.11666667 #
113.03871453972809035803948063403 1:0.60000002 3:0.06666667 4:0.13333334 9:0.06666667 13:0.13333334 #
-113.03871453972809035803948063403 1:0.73333335 4:0.13333334 9:0.06666667 13:0.06666667 #
113.03871453972809035803948063403 1:0.71428573 3:0.054945055 4:0.08791209 9:0.054945055 13:0.08791209 #
-113.03871453972809035803948063403 1:0.72527474 3:0.054945055 4:0.07692308 9:0.054945055 13:0.08791209 #
113.03871453972809035803948063403 1:0.71428573 3:0.071428575 4:0.071428575 9:0.071428575 13:0.071428575 #
-113.03871453972809035803948063403 1:0.76190478 3:0.047619049 4:0.047619049 9:0.071428575 13:0.071428575 #
113.03871453972809035803948063403 1:0.77777779 4:0.11111111 13:0.11111111 #
-113.03871453972809035803948063403 1:0.72222221 4:0.11111111 13:0.16666667 #
113.03871453972809035803948063403 1:0.68333334 3:0.050000001 4:0.06666667 9:0.083333336 13:0.083333336 15:0.016666668 16:0.016666668 #
-113.03871453972809035803948063403 1:0.66666669 3:0.050000001 4:0.083333336 9:0.083333336 13:0.083333336 15:0.016666668 16:0.016666668 #
113.03871453972809035803948063403 1:0.80000001 3:0.022222223 4:0.06666667 9:0.022222223 13:0.088888891 #
-113.03871453972809035803948063403 1:0.80000001 3:0.022222223 4:0.06666667 9:0.022222223 13:0.088888891 #
113.03871453972809035803948063403 1:0.54166669 3:0.0625 4:0.125 9:0.083333336 13:0.16666667 16:0.020833334 #
-113.03871453972809035803948063403 1:0.5625 3:0.083333336 4:0.1875 9:0.041666668 13:0.125 #
113.03871453972809035803948063403 1:0.46666667 3:0.1 4:0.13333334 9:0.13333334 13:0.16666667 #
-113.03871453972809035803948063403 1:0.46666667 3:0.1 4:0.13333334 9:0.13333334 13:0.16666667 #
113.03871453972809035803948063403 1:0.66666669 3:0.041666668 4:0.10416666 5:0.020833334 9:0.041666668 13:0.10416666 15:0.020833334 #
-113.03871453972809035803948063403 1:0.58333331 3:0.0625 4:0.083333336 5:0.020833334 9:0.0625 12:0.020833334 13:0.16666667 #
113.03871453972809035803948063403 1:0.33333334 4:0.33333334 13:0.33333334 #
-113.03871453972809035803948063403 1:0.66666669 13:0.33333334 #
113.03871453972809035803948063403 1:0.66153848 3:0.030769231 4:0.092307694 7:0.015384615 9:0.061538462 11:0.015384615 13:0.12307692 #
-113.03871453972809035803948063403 1:0.58461541 2:0.015384615 3:0.07692308 4:0.10769231 5:0.015384615 9:0.07692308 13:0.12307692 #
113.03871453972809035803948063403 1:0.75 4:0.083333336 13:0.16666667 #
-113.03871453972809035803948063403 1:0.75 4:0.083333336 13:0.16666667 #
113.03871453972809035803948063403 1:0.67532468 3:0.077922076 4:0.077922076 9:0.077922076 13:0.090909094 #
-113.03871453972809035803948063403 1:0.64935064 3:0.064935066 4:0.090909094 9:0.090909094 13:0.090909094 15:0.012987013 #
113.03871453972809035803948063403 1:0.60000002 3:0.2 4:0.1 9:0.1 #
-113.03871453972809035803948063403 1:0.60000002 3:0.1 9:0.2 13:0.1 #
113.03871453972809035803948063403 1:0.72222221 3:0.074074075 4:0.055555556 9:0.074074075 13:0.055555556 16:0.018518519 #
-113.03871453972809035803948063403 1:0.7037037 3:0.074074075 4:0.055555556 9:0.074074075 13:0.09259259 #
113.03871453972809035803948063403 1:0.58333331 3:0.083333336 4:0.0625 9:0.14583333 13:0.083333336 15:0.020833334 16:0.020833334 #
-113.03871453972809035803948063403 1:0.625 3:0.10416666 4:0.083333336 9:0.0625 11:0.020833334 12:0.020833334 13:0.0625 16:0.020833334 #
113.03871453972809035803948063403 1:0.40000001 3:0.06666667 4:0.2 9:0.06666667 13:0.2 16:0.06666667 #
-113.03871453972809035803948063403 1:0.53333336 4:0.13333334 9:0.06666667 13:0.2 16:0.06666667 #
113.03871453972809035803948063403 1:0.52499998 3:0.1 4:0.075000003 9:0.125 13:0.075000003 15:0.025 16:0.075000003 #
-113.03871453972809035803948063403 1:0.5 3:0.1 4:0.125 9:0.1 12:0.025 13:0.1 15:0.025 16:0.025 #
113.03871453972809035803948063403 1:0.75 3:0.025 4:0.075000003 9:0.050000001 13:0.1 #
-113.03871453972809035803948063403 1:0.72500002 3:0.050000001 4:0.075000003 9:0.025 12:0.025 13:0.1 #
113.03871453972809035803948063403 1:0.75 4:0.25 #
-113.03871453972809035803948063403 1:0.75 13:0.25 #
113.03871453972809035803948063403 1:0.72500002 4:0.075000003 9:0.075000003 13:0.125 #
-113.03871453972809035803948063403 1:0.75 4:0.075000003 9:0.075000003 13:0.1 #
113.03871453972809035803948063403 1:0.5 2:0.033333335 3:0.1 4:0.16666667 5:0.033333335 9:0.033333335 10:0.033333335 13:0.1 #
-113.03871453972809035803948063403 1:0.46666667 3:0.033333335 4:0.1 5:0.06666667 9:0.06666667 10:0.033333335 11:0.033333335 13:0.2 #
113.03871453972809035803948063403 1:0.5 3:0.13333334 4:0.033333335 9:0.13333334 12:0.033333335 13:0.06666667 15:0.033333335 16:0.06666667 #
-113.03871453972809035803948063403 1:0.46666667 3:0.13333334 4:0.06666667 9:0.16666667 13:0.06666667 15:0.033333335 16:0.06666667 #
113.03871453972809035803948063403 1:0.71428573 3:0.047619049 4:0.095238097 9:0.047619049 13:0.095238097 #
-113.03871453972809035803948063403 1:0.71428573 3:0.047619049 4:0.095238097 9:0.047619049 13:0.095238097 #
113.03871453972809035803948063403 1:0.46666667 3:0.06666667 4:0.13333334 9:0.13333334 13:0.2 #
-113.03871453972809035803948063403 1:0.46666667 4:0.2 9:0.06666667 11:0.06666667 13:0.2 #
113.03871453972809035803948063403 1:0.66666669 4:0.2 13:0.13333334 #
-113.03871453972809035803948063403 1:0.60000002 4:0.2 13:0.2 #
113.03871453972809035803948063403 1:0.61904764 3:0.071428575 4:0.095238097 9:0.071428575 12:0.023809524 13:0.071428575 15:0.023809524 16:0.023809524 #
-113.03871453972809035803948063403 1:0.66666669 3:0.071428575 4:0.11904762 9:0.047619049 13:0.095238097 #
113.03871453972809035803948063403 1:0.5625 4:0.1875 13:0.1875 16:0.0625 #
-113.03871453972809035803948063403 1:0.5 4:0.1875 13:0.3125 #
113.03871453972809035803948063403 1:0.63265306 3:0.081632651 4:0.10204082 9:0.081632651 13:0.10204082 #
-113.03871453972809035803948063403 1:0.67346936 3:0.040816326 4:0.10204082 9:0.06122449 11:0.020408163 13:0.081632651 15:0.020408163 #
113.03871453972809035803948063403 8:0.14285715 9:0.42857143 13:0.2857143 15:0.14285715 #
-113.03871453972809035803948063403 8:0.14285715 9:0.42857143 13:0.2857143 15:0.14285715 #
113.03871453972809035803948063403 1:0.60000002 3:0.054545455 4:0.10909091 9:0.090909094 13:0.12727273 16:0.018181818 #
-113.03871453972809035803948063403 1:0.58181816 3:0.090909094 4:0.14545454 9:0.054545455 13:0.12727273 #
113.03871453972809035803948063403 1:0.63999999 3:0.12 4:0.079999998 9:0.039999999 12:0.039999999 13:0.079999998 #
-113.03871453972809035803948063403 1:0.60000002 3:0.12 4:0.12 9:0.079999998 13:0.079999998 #
113.03871453972809035803948063403 1:0.53333336 3:0.06666667 4:0.13333334 9:0.06666667 13:0.2 #
-113.03871453972809035803948063403 1:0.46666667 3:0.06666667 4:0.2 9:0.06666667 13:0.2 #
113.03871453972809035803948063403 1:0.60714287 3:0.071428575 4:0.10714286 9:0.10714286 13:0.10714286 #
-113.03871453972809035803948063403 1:0.60714287 3:0.10714286 4:0.10714286 9:0.071428575 13:0.10714286 #
113.03871453972809035803948063403 1:0.41666666 3:0.083333336 4:0.16666667 9:0.083333336 12:0.041666668 13:0.20833333 #
-113.03871453972809035803948063403 1:0.5 3:0.083333336 4:0.125 9:0.083333336 13:0.20833333 #
113.03871453972809035803948063403 1:0.75 3:0.083333336 4:0.041666668 9:0.083333336 13:0.041666668 #
-113.03871453972809035803948063403 1:0.79166669 3:0.083333336 4:0.041666668 9:0.041666668 13:0.041666668 #
113.03871453972809035803948063403 1:0.61904764 3:0.071428575 4:0.095238097 9:0.047619049 11:0.023809524 12:0.023809524 13:0.11904762 #
-113.03871453972809035803948063403 1:0.64285713 3:0.047619049 4:0.095238097 9:0.047619049 11:0.023809524 12:0.023809524 13:0.11904762 #
113.03871453972809035803948063403 1:0.75 3:0.055555556 4:0.055555556 9:0.027777778 13:0.11111111 #
-113.03871453972809035803948063403 1:0.75 3:0.027777778 4:0.083333336 9:0.027777778 13:0.11111111 #
113.03871453972809035803948063403 1:0.58181816 3:0.07272727 4:0.090909094 5:0.018181818 9:0.10909091 13:0.12727273 #
-113.03871453972809035803948063403 1:0.63636363 3:0.07272727 4:0.07272727 5:0.018181818 9:0.090909094 13:0.090909094 16:0.018181818 #
113.03871453972809035803948063403 1:0.66000003 3:0.079999998 4:0.059999999 9:0.079999998 12:0.02 13:0.1 #
-113.03871453972809035803948063403 1:0.57999998 3:0.1 4:0.1 9:0.1 13:0.12 #
113.03871453972809035803948063403 1:0.69999999 3:0.1 9:0.1 13:0.1 #
-113.03871453972809035803948063403 1:0.69999999 3:0.1 4:0.1 9:0.1 #
113.03871453972809035803948063403 1:0.64285713 3:0.071428575 4:0.14285715 13:0.071428575 16:0.071428575 #
-113.03871453972809035803948063403 1:0.5714286 3:0.071428575 4:0.14285715 9:0.071428575 13:0.071428575 16:0.071428575 #
113.03871453972809035803948063403 1:0.72857141 3:0.057142857 4:0.057142857 9:0.1 13:0.028571429 15:0.028571429 #
-113.03871453972809035803948063403 1:0.61428571 3:0.11428571 4:0.085714288 9:0.11428571 13:0.071428575 #
113.03871453972809035803948063403 1:0.67532468 3:0.064935066 4:0.090909094 9:0.051948052 12:0.012987013 13:0.090909094 15:0.012987013 #
-113.03871453972809035803948063403 1:0.63636363 3:0.077922076 4:0.1038961 9:0.077922076 13:0.1038961 #
113.03871453972809035803948063403 1:0.71428573 3:0.057142857 4:0.085714288 9:0.085714288 13:0.057142857 #
-113.03871453972809035803948063403 1:0.62857145 3:0.057142857 4:0.085714288 9:0.11428571 13:0.11428571 #
113.03871453972809035803948063403 1:0.45833334 3:0.083333336 4:0.125 9:0.16666667 13:0.125 15:0.041666668 #
-113.03871453972809035803948063403 1:0.5 3:0.125 4:0.125 9:0.083333336 12:0.041666668 13:0.125 #
113.03871453972809035803948063403 1:0.60000002 3:0.085714288 4:0.11428571 9:0.057142857 12:0.028571429 13:0.085714288 15:0.028571429 #
-113.03871453972809035803948063403 1:0.5714286 3:0.028571429 4:0.14285715 9:0.11428571 13:0.11428571 15:0.028571429 #
113.03871453972809035803948063403 1:0.6388889 3:0.11111111 4:0.055555556 9:0.11111111 13:0.083333336 #
-113.03871453972809035803948063403 1:0.75 3:0.027777778 4:0.027777778 9:0.11111111 13:0.083333336 #
113.03871453972809035803948063403 1:0.6857143 3:0.028571429 4:0.11428571 9:0.028571429 13:0.14285715 #
-113.03871453972809035803948063403 1:0.6857143 3:0.028571429 4:0.11428571 9:0.028571429 13:0.14285715 #
8.4068029224174019020665582502261 1:0.64999998 3:0.075000003 4:0.125 9:0.050000001 11:0.025 13:0.075000003 #
-8.4068029224174019020665582502261 1:0.5 3:0.125 4:0.15000001 9:0.1 13:0.125 #
113.03871453972809035803948063403 1:0.53125 3:0.09375 4:0.125 9:0.09375 13:0.15625 #
-113.03871453972809035803948063403 1:0.5 3:0.125 4:0.15625 9:0.0625 12:0.03125 13:0.125 #
113.03871453972809035803948063403 1:0.71428573 3:0.042857144 4:0.057142857 9:0.071428575 13:0.085714288 16:0.028571429 #
-113.03871453972809035803948063403 1:0.71428573 3:0.071428575 4:0.071428575 9:0.057142857 13:0.057142857 16:0.028571429 #
113.03871453972809035803948063403 1:0.6111111 3:0.11111111 4:0.11111111 9:0.083333336 13:0.083333336 #
-113.03871453972809035803948063403 1:0.66666669 3:0.083333336 4:0.083333336 9:0.055555556 13:0.11111111 #
113.03871453972809035803948063403 1:0.66666669 3:0.083333336 4:0.083333336 9:0.083333336 13:0.083333336 #
-113.03871453972809035803948063403 1:0.70833331 3:0.041666668 4:0.125 9:0.041666668 13:0.083333336 #
113.03871453972809035803948063403 1:0.66666669 4:0.13333334 9:0.033333335 13:0.16666667 #
-113.03871453972809035803948063403 1:0.66666669 3:0.033333335 4:0.13333334 9:0.033333335 13:0.13333334 #
113.03871453972809035803948063403 1:0.75 4:0.083333336 13:0.16666667 #
-113.03871453972809035803948063403 1:0.75 4:0.083333336 13:0.16666667 #
113.03871453972809035803948063403 1:0.66000003 3:0.079999998 4:0.1 9:0.079999998 13:0.079999998 #
-113.03871453972809035803948063403 1:0.66000003 3:0.079999998 4:0.079999998 9:0.079999998 13:0.1 #
113.03871453972809035803948063403 1:0.73333335 3:0.033333335 4:0.1 9:0.033333335 13:0.1 #
-113.03871453972809035803948063403 1:0.69999999 3:0.033333335 4:0.1 9:0.033333335 13:0.13333334 #
113.03871453972809035803948063403 1:0.66666669 3:0.083333336 4:0.083333336 9:0.083333336 13:0.083333336 #
-113.03871453972809035803948063403 1:0.66666669 3:0.083333336 4:0.083333336 9:0.083333336 13:0.083333336 #
113.03871453972809035803948063403 1:0.72500002 4:0.1 9:0.050000001 13:0.125 #
-113.03871453972809035803948063403 1:0.72500002 4:0.1 9:0.050000001 13:0.125 #
113.03871453972809035803948063403 1:0.625 3:0.0625 4:0.125 9:0.0625 13:0.125 #
-113.03871453972809035803948063403 1:0.5625 3:0.0625 4:0.1875 9:0.0625 13:0.125 #
113.03871453972809035803948063403 1:0.51999998 3:0.039999999 4:0.16 9:0.039999999 13:0.16 16:0.079999998 #
-113.03871453972809035803948063403 1:0.60000002 4:0.12 9:0.039999999 13:0.16 16:0.079999998 #
113.03871453972809035803948063403 1:0.64999998 3:0.050000001 4:0.1 9:0.075000003 13:0.125 #
-113.03871453972809035803948063403 1:0.625 3:0.050000001 4:0.125 9:0.075000003 13:0.125 #
113.03871453972809035803948063403 1:0.46666667 3:0.13333334 4:0.2 13:0.13333334 16:0.06666667 #
-113.03871453972809035803948063403 1:0.26666668 3:0.06666667 4:0.26666668 9:0.13333334 13:0.2 15:0.06666667 #
113.03871453972809035803948063403 1:0.69444442 3:0.083333336 4:0.055555556 9:0.083333336 13:0.083333336 #
-113.03871453972809035803948063403 1:0.80555558 3:0.027777778 4:0.055555556 9:0.055555556 13:0.055555556 #
113.03871453972809035803948063403 1:0.6388889 3:0.027777778 4:0.1388889 9:0.027777778 13:0.1388889 16:0.027777778 #
-113.03871453972809035803948063403 1:0.58333331 3:0.027777778 4:0.19444445 9:0.027777778 13:0.16666667 #
113.03871453972809035803948063403 1:0.5 3:0.1 4:0.050000001 9:0.15000001 12:0.050000001 13:0.15000001 #
-113.03871453972809035803948063403 1:0.5 3:0.1 4:0.1 9:0.15000001 13:0.1 15:0.050000001 #
113.03871453972809035803948063403 1:0.64444447 3:0.044444446 4:0.088888891 9:0.044444446 12:0.022222223 13:0.15555556 #
-113.03871453972809035803948063403 1:0.64444447 3:0.06666667 4:0.13333334 9:0.044444446 13:0.11111111 #
113.03871453972809035803948063403 1:0.5714286 3:0.028571429 4:0.11428571 9:0.057142857 12:0.028571429 13:0.14285715 15:0.028571429 16:0.028571429 #
-113.03871453972809035803948063403 1:0.48571429 3:0.057142857 4:0.17142858 9:0.057142857 12:0.028571429 13:0.17142858 15:0.028571429 #
113.03871453972809035803948063403 1:0.6857143 3:0.028571429 4:0.085714288 9:0.085714288 13:0.11428571 #
-113.03871453972809035803948063403 1:0.6857143 3:0.028571429 4:0.085714288 9:0.085714288 13:0.11428571 #
113.03871453972809035803948063403 1:0.74603176 3:0.015873017 4:0.11111111 9:0.015873017 13:0.095238097 16:0.015873017 #
-113.03871453972809035803948063403 1:0.6825397 3:0.031746034 4:0.12698413 9:0.031746034 13:0.12698413 #
113.03871453972809035803948063403 1:0.62857145 3:0.057142857 4:0.11428571 9:0.085714288 13:0.11428571 #
-113.03871453972809035803948063403 1:0.62857145 3:0.085714288 4:0.11428571 9:0.057142857 13:0.085714288 16:0.028571429 #
113.03871453972809035803948063403 1:0.64999998 3:0.075000003 4:0.075000003 9:0.1 13:0.1 #
-113.03871453972809035803948063403 1:0.69999999 3:0.075000003 4:0.075000003 9:0.075000003 13:0.075000003 #
113.03871453972809035803948063403 1:0.44444445 3:0.16666667 4:0.027777778 9:0.19444445 12:0.027777778 13:0.11111111 16:0.027777778 #
-113.03871453972809035803948063403 1:0.44444445 3:0.1388889 4:0.083333336 9:0.16666667 11:0.027777778 13:0.1388889 #
113.03871453972809035803948063403 1:0.16666667 3:0.16666667 4:0.16666667 9:0.16666667 13:0.16666667 16:0.16666667 #
-113.03871453972809035803948063403 1:0.16666667 3:0.16666667 4:0.16666667 9:0.16666667 13:0.16666667 16:0.16666667 #
113.03871453972809035803948063403 1:0.56 3:0.079999998 4:0.1 9:0.12 13:0.12 15:0.02 #
-113.03871453972809035803948063403 1:0.57999998 3:0.079999998 4:0.079999998 9:0.12 12:0.02 13:0.1 15:0.02 #
113.03871453972809035803948063403 1:0.6825397 2:0.015873017 3:0.031746034 4:0.095238097 5:0.015873017 9:0.031746034 12:0.015873017 13:0.095238097 15:0.015873017 #
-113.03871453972809035803948063403 1:0.76190478 2:0.015873017 3:0.015873017 4:0.095238097 12:0.015873017 13:0.079365082 15:0.015873017 #
113.03871453972809035803948063403 1:0.69999999 3:0.033333335 4:0.13333334 9:0.033333335 13:0.1 #
-113.03871453972809035803948063403 1:0.66666669 3:0.06666667 4:0.13333334 9:0.033333335 13:0.1 #
113.03871453972809035803948063403 1:0.60000002 3:0.06666667 4:0.13333334 9:0.033333335 13:0.13333334 16:0.033333335 #
-113.03871453972809035803948063403 1:0.56666666 3:0.033333335 4:0.13333334 9:0.033333335 12:0.033333335 13:0.2 #
113.03871453972809035803948063403 1:0.41666666 3:0.083333336 4:0.16666667 9:0.16666667 13:0.16666667 #
-113.03871453972809035803948063403 1:0.66666669 3:0.083333336 4:0.16666667 9:0.083333336 #
113.03871453972809035803948063403 1:0.66666669 3:0.06666667 4:0.06666667 9:0.1 13:0.1 #
-113.03871453972809035803948063403 1:0.63333333 3:0.06666667 4:0.1 9:0.06666667 12:0.033333335 13:0.1 #
113.03871453972809035803948063403 1:0.5 3:0.125 4:0.1 9:0.125 12:0.025 13:0.125 #
-113.03871453972809035803948063403 1:0.5 3:0.1 4:0.125 9:0.15000001 13:0.1 15:0.025 #
113.03871453972809035803948063403 1:0.71794873 3:0.051282052 4:0.064102568 5:0.012820513 9:0.07692308 13:0.07692308 #
-113.03871453972809035803948063403 1:0.70512819 2:0.012820513 3:0.089743592 4:0.064102568 5:0.012820513 9:0.064102568 13:0.03846154 16:0.012820513 #
113.03871453972809035803948063403 1:0.75 2:0.0089285718 3:0.026785715 4:0.071428575 5:0.0089285718 9:0.053571429 13:0.080357142 #
-113.03871453972809035803948063403 1:0.76785713 2:0.0089285718 3:0.044642858 4:0.071428575 7:0.0089285718 9:0.026785715 13:0.0625 16:0.0089285718 #
113.03871453972809035803948063403 1:0.75 3:0.055555556 4:0.055555556 9:0.055555556 13:0.083333336 #
-113.03871453972809035803948063403 1:0.72222221 3:0.083333336 4:0.055555556 9:0.055555556 13:0.083333336 #
113.03871453972809035803948063403 1:0.66666669 3:0.044444446 4:0.11111111 9:0.06666667 13:0.11111111 #
-113.03871453972809035803948063403 1:0.64444447 3:0.06666667 4:0.11111111 9:0.06666667 13:0.11111111 #
113.03871453972809035803948063403 1:0.58333331 3:0.041666668 4:0.16666667 9:0.041666668 13:0.16666667 #
-113.03871453972809035803948063403 1:0.58333331 3:0.041666668 4:0.16666667 9:0.041666668 13:0.16666667 #
113.03871453972809035803948063403 1:0.73469388 3:0.05102041 4:0.06122449 5:0.010204081 9:0.06122449 13:0.071428575 16:0.010204081 #
-113.03871453972809035803948063403 1:0.70408165 2:0.010204081 3:0.06122449 4:0.081632651 5:0.010204081 9:0.06122449 13:0.071428575 #
113.03871453972809035803948063403 1:0.56666666 4:0.2 9:0.033333335 11:0.033333335 13:0.1 15:0.06666667 #
-113.03871453972809035803948063403 1:0.5 3:0.033333335 4:0.1 9:0.06666667 11:0.033333335 12:0.033333335 13:0.16666667 15:0.033333335 16:0.033333335 #
113.03871453972809035803948063403 1:0.72727275 3:0.064935066 4:0.077922076 9:0.051948052 13:0.077922076 #
-113.03871453972809035803948063403 1:0.70129871 3:0.064935066 4:0.090909094 9:0.064935066 13:0.077922076 #
113.03871453972809035803948063403 1:0.625 3:0.083333336 4:0.125 9:0.041666668 13:0.083333336 16:0.041666668 #
-113.03871453972809035803948063403 1:0.54166669 3:0.083333336 4:0.16666667 9:0.083333336 13:0.125 #
113.03871453972809035803948063403 1:0.64935064 3:0.025974026 4:0.11688311 9:0.051948052 13:0.11688311 15:0.012987013 16:0.025974026 #
-113.03871453972809035803948063403 1:0.64935064 3:0.038961038 4:0.1038961 9:0.051948052 13:0.12987013 16:0.025974026 #
113.03871453972809035803948063403 1:0.71428573 4:0.14285715 13:0.14285715 #
-113.03871453972809035803948063403 1:0.71428573 4:0.14285715 13:0.14285715 #
113.03871453972809035803948063403 1:0.625 3:0.09375 4:0.125 9:0.0625 13:0.09375 #
-113.03871453972809035803948063403 1:0.53125 3:0.09375 4:0.125 9:0.09375 13:0.15625 #
113.03871453972809035803948063403 1:0.5 4:0.2 13:0.2 16:0.1 #
-113.03871453972809035803948063403 1:0.60000002 4:0.2 13:0.1 16:0.1 #
113.03871453972809035803948063403 1:0.54411763 3:0.11764706 4:0.11764706 9:0.11764706 13:0.10294118 #
-113.03871453972809035803948063403 1:0.57352942 3:0.088235296 4:0.10294118 9:0.11764706 13:0.11764706 #
113.03871453972809035803948063403 1:0.53333336 4:0.2 13:0.26666668 #
-113.03871453972809035803948063403 1:0.60000002 4:0.2 13:0.2 #
113.03871453972809035803948063403 1:0.765625 4:0.125 13:0.109375 #
-113.03871453972809035803948063403 1:0.78125 4:0.109375 13:0.109375 #
113.03871453972809035803948063403 1:0.58333331 3:0.083333336 4:0.10416666 9:0.10416666 13:0.10416666 16:0.020833334 #
-113.03871453972809035803948063403 1:0.5625 3:0.10416666 4:0.125 9:0.083333336 13:0.125 #
113.03871453972809035803948063403 1:0.60000002 3:0.039999999 4:0.079999998 9:0.039999999 12:0.039999999 13:0.2 #
-113.03871453972809035803948063403 1:0.51999998 3:0.039999999 4:0.16 9:0.079999998 13:0.2 #
113.03871453972809035803948063403 1:0.66666669 3:0.044444446 4:0.11111111 9:0.06666667 13:0.11111111 #
-113.03871453972809035803948063403 1:0.64444447 3:0.06666667 4:0.11111111 9:0.044444446 13:0.13333334 #
113.03871453972809035803948063403 1:0.73333335 4:0.1 9:0.033333335 13:0.13333334 #
-113.03871453972809035803948063403 1:0.66666669 3:0.033333335 4:0.13333334 9:0.033333335 13:0.13333334 #
113.03871453972809035803948063403 1:0.5714286 3:0.057142857 4:0.11428571 9:0.085714288 11:0.028571429 13:0.11428571 16:0.028571429 #
-113.03871453972809035803948063403 1:0.62857145 3:0.057142857 4:0.085714288 9:0.028571429 12:0.057142857 13:0.11428571 15:0.028571429 #
113.03871453972809035803948063403 1:0.60000002 2:0.0125 3:0.0625 4:0.1 5:0.0125 9:0.0625 11:0.025 12:0.0125 13:0.1 15:0.0125 #
-113.03871453972809035803948063403 1:0.61250001 2:0.0125 3:0.0625 4:0.087499999 5:0.0125 9:0.050000001 11:0.0125 12:0.037500001 13:0.1 15:0.0125 #
113.03871453972809035803948063403 1:0.55000001 3:0.075000003 4:0.1 8:0.025 9:0.075000003 13:0.1 15:0.025 16:0.050000001 #
-113.03871453972809035803948063403 1:0.5 3:0.1 4:0.15000001 8:0.025 9:0.050000001 12:0.025 13:0.1 14:0.025 15:0.025 #
113.03871453972809035803948063403 1:0.64999998 2:0.016666668 3:0.06666667 4:0.1 5:0.016666668 9:0.06666667 13:0.083333336 #
-113.03871453972809035803948063403 1:0.64999998 2:0.016666668 3:0.06666667 4:0.083333336 5:0.016666668 9:0.06666667 13:0.1 #
113.03871453972809035803948063403 1:0.80000001 3:0.050000001 4:0.050000001 9:0.025 13:0.075000003 #
-113.03871453972809035803948063403 1:0.75 3:0.050000001 4:0.075000003 9:0.050000001 13:0.075000003 #
113.03871453972809035803948063403 1:0.38095239 3:0.095238097 4:0.14285715 9:0.14285715 13:0.23809524 #
-113.03871453972809035803948063403 1:0.42857143 3:0.095238097 4:0.095238097 9:0.14285715 13:0.19047619 16:0.047619049 #
113.03871453972809035803948063403 1:0.63333333 3:0.06666667 4:0.06666667 9:0.1 13:0.13333334 #
-113.03871453972809035803948063403 1:0.56666666 3:0.1 4:0.1 9:0.1 13:0.13333334 #
113.03871453972809035803948063403 1:0.76785713 3:0.035714287 4:0.089285716 9:0.017857144 13:0.089285716 #
-113.03871453972809035803948063403 1:0.76785713 3:0.035714287 4:0.089285716 9:0.017857144 13:0.089285716 #
113.03871453972809035803948063403 1:0.59375 3:0.09375 4:0.125 9:0.09375 13:0.09375 #
-113.03871453972809035803948063403 1:0.59375 3:0.09375 4:0.09375 9:0.09375 13:0.125 #
113.03871453972809035803948063403 1:0.796875 3:0.0625 4:0.046875 9:0.046875 13:0.046875 #
-113.03871453972809035803948063403 1:0.75 3:0.0625 4:0.0625 9:0.0625 13:0.0625 #
113.03871453972809035803948063403 1:0.55000001 3:0.050000001 4:0.1 9:0.1 13:0.1 16:0.1 #
-113.03871453972809035803948063403 1:0.44999999 3:0.1 4:0.050000001 9:0.1 13:0.15000001 16:0.15000001 #
113.03871453972809035803948063403 1:0.58333331 3:0.125 4:0.125 9:0.083333336 13:0.083333336 #
-113.03871453972809035803948063403 1:0.5 3:0.125 4:0.125 9:0.125 13:0.125 #
113.03871453972809035803948063403 1:0.30000001 3:0.2 4:0.1 9:0.1 12:0.1 13:0.1 16:0.1 #
-113.03871453972809035803948063403 1:0.30000001 3:0.1 4:0.2 9:0.1 12:0.1 13:0.1 15:0.1 #
113.03871453972809035803948063403 1:0.46666667 3:0.13333334 4:0.2 9:0.06666667 13:0.06666667 16:0.06666667 #
-113.03871453972809035803948063403 1:0.53333336 3:0.13333334 4:0.13333334 9:0.06666667 13:0.06666667 16:0.06666667 #
113.03871453972809035803948063403 1:0.5714286 3:0.071428575 4:0.10714286 9:0.10714286 13:0.14285715 #
-113.03871453972809035803948063403 1:0.58928573 3:0.071428575 4:0.10714286 9:0.089285716 13:0.14285715 #
23.204874581255737098217650782317 1:0.60000002 2:0.02 3:0.059999999 4:0.059999999 5:0.059999999 9:0.079999998 13:0.059999999 15:0.02 16:0.039999999 #
-23.204874581255737098217650782317 1:0.5 2:0.059999999 3:0.079999998 4:0.1 5:0.039999999 7:0.02 9:0.079999998 13:0.079999998 16:0.039999999 #
113.03871453972809035803948063403 1:0.25 3:0.083333336 4:0.25 9:0.16666667 13:0.16666667 15:0.083333336 #
-113.03871453972809035803948063403 1:0.25 3:0.083333336 4:0.25 9:0.16666667 13:0.16666667 15:0.083333336 #
113.03871453972809035803948063403 1:0.73809522 3:0.023809524 4:0.095238097 9:0.047619049 13:0.095238097 #
-113.03871453972809035803948063403 1:0.69047618 3:0.047619049 4:0.095238097 9:0.047619049 13:0.11904762 #
113.03871453972809035803948063403 1:0.625 3:0.0625 4:0.0625 9:0.125 13:0.09375 15:0.03125 #
-113.03871453972809035803948063403 1:0.625 3:0.09375 4:0.0625 9:0.125 13:0.09375 #
113.03871453972809035803948063403 1:0.53333336 3:0.088888891 4:0.11111111 9:0.088888891 12:0.022222223 13:0.13333334 16:0.022222223 #
-113.03871453972809035803948063403 1:0.51111114 3:0.11111111 4:0.13333334 9:0.088888891 13:0.13333334 16:0.022222223 #
113.03871453972809035803948063403 1:0.5 3:0.11111111 4:0.1388889 9:0.11111111 13:0.1388889 #
-113.03871453972809035803948063403 1:0.6388889 3:0.055555556 4:0.055555556 9:0.083333336 12:0.027777778 13:0.1388889 #
113.03871453972809035803948063403 1:0.69047618 3:0.047619049 4:0.071428575 9:0.047619049 12:0.023809524 13:0.11904762 #
-113.03871453972809035803948063403 1:0.64285713 3:0.071428575 4:0.11904762 9:0.071428575 13:0.095238097 #
77.02875087532207487583946203813 1:0.55000001 3:0.1 4:0.050000001 8:0.025 9:0.15000001 10:0.025 13:0.075000003 15:0.025 #
-77.02875087532207487583946203813 1:0.5 2:0.025 3:0.125 4:0.075000003 5:0.025 9:0.125 11:0.025 13:0.1 #
113.03871453972809035803948063403 1:0.42857143 3:0.035714287 4:0.17857143 9:0.071428575 11:0.10714286 13:0.10714286 15:0.035714287 16:0.035714287 #
-113.03871453972809035803948063403 1:0.39285713 3:0.035714287 4:0.14285715 9:0.035714287 11:0.14285715 12:0.035714287 13:0.21428572 #
113.03871453972809035803948063403 1:0.61363637 3:0.045454547 4:0.15909091 9:0.045454547 13:0.11363637 15:0.022727273 #
-113.03871453972809035803948063403 1:0.52272725 3:0.06818182 4:0.13636364 9:0.06818182 12:0.022727273 13:0.18181819 #
113.03871453972809035803948063403 1:0.41666666 3:0.083333336 4:0.25 9:0.083333336 13:0.16666667 #
-113.03871453972809035803948063403 1:0.41666666 3:0.083333336 4:0.16666667 9:0.083333336 13:0.25 #
113.03871453972809035803948063403 1:0.71111113 4:0.11111111 9:0.044444446 13:0.13333334 #
-113.03871453972809035803948063403 1:0.71111113 3:0.044444446 4:0.13333334 13:0.11111111 #
113.03871453972809035803948063403 1:0.61538464 2:0.015384615 3:0.07692308 4:0.10769231 5:0.015384615 9:0.07692308 13:0.092307694 #
-113.03871453972809035803948063403 1:0.61538464 2:0.015384615 3:0.061538462 4:0.10769231 5:0.015384615 9:0.07692308 13:0.10769231 #
113.03871453972809035803948063403 1:0.60000002 3:0.079999998 4:0.1 9:0.1 13:0.12 #
-113.03871453972809035803948063403 1:0.60000002 3:0.059999999 4:0.12 9:0.079999998 11:0.02 13:0.12 #
113.03871453972809035803948063403 1:0.75 3:0.025 4:0.1 9:0.025 13:0.1 #
-113.03871453972809035803948063403 1:0.69999999 3:0.050000001 4:0.1 9:0.050000001 13:0.1 #
113.03871453972809035803948063403 1:0.69696969 3:0.060606062 4:0.075757578 9:0.075757578 13:0.075757578 16:0.015151516 #
-113.03871453972809035803948063403 1:0.68181819 3:0.060606062 4:0.10606061 9:0.060606062 13:0.090909094 #
113.03871453972809035803948063403 1:0.5625 3:0.125 4:0.09375 9:0.09375 12:0.03125 13:0.09375 #
-113.03871453972809035803948063403 1:0.625 3:0.09375 4:0.0625 9:0.09375 12:0.03125 13:0.09375 #
113.03871453972809035803948063403 1:0.625 3:0.050000001 4:0.125 9:0.050000001 13:0.15000001 #
-113.03871453972809035803948063403 1:0.64999998 3:0.050000001 4:0.125 9:0.050000001 13:0.125 #
113.03871453972809035803948063403 1:0.74074072 3:0.055555556 4:0.037037037 9:0.055555556 12:0.018518519 13:0.09259259 #
-113.03871453972809035803948063403 1:0.68518519 3:0.09259259 4:0.074074075 9:0.074074075 13:0.074074075 #
113.03871453972809035803948063403 1:0.64999998 3:0.1 4:0.1 9:0.075000003 13:0.075000003 #
-113.03871453972809035803948063403 1:0.67500001 3:0.075000003 4:0.075000003 9:0.075000003 13:0.1 #
113.03871453972809035803948063403 1:0.58181816 3:0.090909094 4:0.10909091 9:0.090909094 13:0.12727273 #
-113.03871453972809035803948063403 1:0.61818182 3:0.07272727 4:0.090909094 9:0.07272727 12:0.018181818 13:0.12727273 #
113.03871453972809035803948063403 1:0.625 3:0.1 4:0.1 9:0.075000003 13:0.1 #
-113.03871453972809035803948063403 1:0.60000002 3:0.1 4:0.1 9:0.1 13:0.1 #
113.03871453972809035803948063403 1:0.2857143 3:0.14285715 4:0.071428575 9:0.14285715 12:0.071428575 13:0.071428575 15:0.071428575 16:0.14285715 #
-113.03871453972809035803948063403 1:0.21428572 3:0.14285715 4:0.071428575 9:0.14285715 12:0.14285715 13:0.14285715 15:0.071428575 16:0.071428575 #
113.03871453972809035803948063403 1:0.72916669 3:0.020833334 4:0.10416666 9:0.020833334 13:0.125 #
-113.03871453972809035803948063403 1:0.6875 3:0.041666668 4:0.125 9:0.020833334 13:0.125 #
113.03871453972809035803948063403 1:0.61538464 3:0.07692308 4:0.07692308 8:0.012820513 9:0.07692308 12:0.012820513 13:0.12820514 #
-113.03871453972809035803948063403 1:0.55128205 2:0.012820513 3:0.07692308 4:0.11538462 5:0.012820513 9:0.089743592 11:0.012820513 13:0.11538462 16:0.012820513 #
113.03871453972809035803948063403 1:0.61904764 3:0.071428575 4:0.095238097 9:0.023809524 11:0.023809524 12:0.047619049 13:0.11904762 #
-113.03871453972809035803948063403 1:0.59523809 3:0.095238097 4:0.11904762 9:0.071428575 13:0.11904762 #
113.03871453972809035803948063403 1:0.69999999 4:0.15000001 9:0.050000001 13:0.1 #
-113.03871453972809035803948063403 1:0.69999999 3:0.050000001 4:0.1 9:0.050000001 13:0.1 #
113.03871453972809035803948063403 1:0.5 3:0.25 9:0.25 #
-113.03871453972809035803948063403 1:0.75 9:0.25 #
113.03871453972809035803948063403 1:0.56363636 3:0.10909091 4:0.090909094 9:0.10909091 13:0.12727273 #
-113.03871453972809035803948063403 1:0.60000002 3:0.07272727 4:0.090909094 9:0.10909091 13:0.10909091 15:0.018181818 #
113.03871453972809035803948063403 1:0.5714286 3:0.10714286 4:0.089285716 9:0.10714286 11:0.017857144 13:0.089285716 16:0.017857144 #
-113.03871453972809035803948063403 1:0.5714286 3:0.10714286 4:0.089285716 9:0.10714286 11:0.017857144 13:0.089285716 16:0.017857144 #
113.03871453972809035803948063403 1:0.30555555 2:0.027777778 3:0.083333336 4:0.1388889 5:0.027777778 8:0.027777778 9:0.1388889 11:0.027777778 13:0.1388889 14:0.027777778 15:0.027777778 16:0.027777778 #
-113.03871453972809035803948063403 1:0.41666666 2:0.027777778 3:0.11111111 4:0.1388889 5:0.027777778 9:0.083333336 11:0.027777778 13:0.083333336 14:0.027777778 16:0.055555556 #
113.03871453972809035803948063403 1:0.64444447 3:0.06666667 4:0.088888891 9:0.088888891 13:0.088888891 15:0.022222223 #
-113.03871453972809035803948063403 1:0.60000002 3:0.088888891 4:0.088888891 9:0.088888891 13:0.13333334 #
113.03871453972809035803948063403 1:0.69841272 3:0.031746034 4:0.095238097 9:0.047619049 13:0.11111111 16:0.015873017 #
-113.03871453972809035803948063403 1:0.71428573 3:0.031746034 4:0.095238097 9:0.047619049 13:0.11111111 #
113.03871453972809035803948063403 1:0.63333333 3:0.06666667 4:0.06666667 9:0.13333334 13:0.06666667 15:0.033333335 #
-113.03871453972809035803948063403 1:0.63333333 3:0.06666667 4:0.06666667 9:0.13333334 13:0.1 #
113.03871453972809035803948063403 1:0.33333334 4:0.33333334 13:0.33333334 #
-113.03871453972809035803948063403 1:0.33333334 13:0.33333334 16:0.33333334 #
113.03871453972809035803948063403 1:0.62 3:0.059999999 4:0.12 9:0.079999998 13:0.12 #
-113.03871453972809035803948063403 1:0.60000002 3:0.079999998 4:0.12 9:0.079999998 13:0.12 #
113.03871453972809035803948063403 1:0.80303031 3:0.030303031 4:0.060606062 9:0.030303031 13:0.075757578 #
-113.03871453972809035803948063403 1:0.80303031 3:0.030303031 4:0.075757578 9:0.030303031 13:0.060606062 #
113.03871453972809035803948063403 1:0.44999999 3:0.1 4:0.1 9:0.050000001 12:0.1 13:0.1 15:0.1 #
-113.03871453972809035803948063403 1:0.40000001 3:0.1 4:0.15000001 9:0.1 12:0.050000001 13:0.1 15:0.1 #
113.03871453972809035803948063403 1:0.63999999 4:0.16 9:0.039999999 13:0.16 #
-113.03871453972809035803948063403 1:0.63999999 3:0.039999999 4:0.16 13:0.16 #
113.03871453972809035803948063403 1:0.57499999 3:0.075000003 4:0.125 9:0.075000003 13:0.15000001 #
-113.03871453972809035803948063403 1:0.60000002 3:0.075000003 4:0.125 9:0.075000003 13:0.075000003 15:0.025 16:0.025 #
113.03871453972809035803948063403 1:0.69999999 3:0.050000001 4:0.083333336 9:0.050000001 12:0.016666668 13:0.1 #
-113.03871453972809035803948063403 1:0.64999998 3:0.083333336 4:0.1 9:0.050000001 12:0.016666668 13:0.1 #
113.03871453972809035803948063403 1:0.33333334 3:0.06666667 4:0.2 9:0.13333334 13:0.26666668 #
-113.03871453972809035803948063403 1:0.40000001 3:0.06666667 4:0.13333334 9:0.13333334 13:0.2 16:0.06666667 #
113.03871453972809035803948063403 1:0.79500002 2:0.0099999998 3:0.029999999 4:0.055 5:0.0099999998 9:0.025 12:0.0049999999 13:0.059999999 16:0.0099999998 #
-113.03871453972809035803948063403 1:0.78500003 2:0.0099999998 3:0.029999999 4:0.064999998 5:0.0099999998 9:0.029999999 13:0.064999998 16:0.0049999999 #
113.03871453972809035803948063403 1:0.6857143 3:0.071428575 4:0.085714288 9:0.071428575 11:0.014285714 13:0.057142857 16:0.014285714 #
-113.03871453972809035803948063403 1:0.61428571 3:0.085714288 4:0.1 9:0.1 13:0.1 #
113.03871453972809035803948063403 1:0.6964286 3:0.053571429 4:0.089285716 9:0.035714287 11:0.035714287 13:0.089285716 #
-113.03871453972809035803948063403 1:0.66071427 3:0.071428575 4:0.10714286 9:0.071428575 13:0.071428575 15:0.017857144 #
113.03871453972809035803948063403 1:0.5 3:0.0625 4:0.1875 9:0.0625 13:0.1875 #
-113.03871453972809035803948063403 1:0.6875 4:0.0625 9:0.0625 13:0.1875 #
113.03871453972809035803948063403 1:0.75 3:0.055555556 4:0.055555556 9:0.055555556 11:0.013888889 13:0.069444448 #
-113.03871453972809035803948063403 1:0.79166669 3:0.041666668 4:0.055555556 9:0.041666668 11:0.013888889 13:0.055555556 #
113.03871453972809035803948063403 1:0.76785713 3:0.035714287 4:0.089285716 9:0.017857144 13:0.089285716 #
-113.03871453972809035803948063403 1:0.75 3:0.035714287 4:0.089285716 9:0.035714287 13:0.089285716 #
113.03871453972809035803948063403 1:0.80000001 13:0.2 #
-113.03871453972809035803948063403 1:0.80000001 13:0.2 #
113.03871453972809035803948063403 1:0.83333331 3:0.018518519 4:0.074074075 13:0.074074075 #
-113.03871453972809035803948063403 1:0.81481481 3:0.018518519 4:0.09259259 13:0.074074075 #
113.03871453972809035803948063403 1:0.44 3:0.079999998 4:0.12 9:0.12 12:0.039999999 13:0.16 16:0.039999999 #
-113.03871453972809035803948063403 1:0.44 3:0.039999999 4:0.16 9:0.12 12:0.039999999 13:0.16 15:0.039999999 #
113.03871453972809035803948063403 1:0.5151515 2:0.030303031 3:0.090909094 4:0.15151516 9:0.090909094 13:0.12121212 #
-113.03871453972809035803948063403 1:0.4848485 2:0.030303031 3:0.12121212 4:0.15151516 9:0.090909094 13:0.12121212 #
113.03871453972809035803948063403 1:0.5714286 3:0.047619049 4:0.14285715 9:0.095238097 13:0.14285715 #
-113.03871453972809035803948063403 1:0.42857143 3:0.095238097 4:0.14285715 9:0.14285715 13:0.19047619 #
113.03871453972809035803948063403 1:0.75555557 3:0.044444446 4:0.055555556 9:0.044444446 13:0.077777781 16:0.022222223 #
-113.03871453972809035803948063403 1:0.75555557 3:0.044444446 4:0.06666667 9:0.044444446 13:0.06666667 16:0.022222223 #
113.03871453972809035803948063403 1:0.66666669 4:0.16666667 13:0.16666667 #
-113.03871453972809035803948063403 1:0.66666669 4:0.16666667 13:0.16666667 #
113.03871453972809035803948063403 1:0.5 3:0.083333336 4:0.083333336 9:0.16666667 13:0.16666667 #
-113.03871453972809035803948063403 1:0.5 3:0.083333336 4:0.083333336 9:0.16666667 13:0.16666667 #
113.03871453972809035803948063403 1:0.3888889 3:0.055555556 4:0.11111111 9:0.11111111 12:0.055555556 13:0.27777779 #
-113.03871453972809035803948063403 1:0.5 3:0.055555556 4:0.16666667 9:0.11111111 13:0.16666667 #
113.03871453972809035803948063403 1:0.45833334 3:0.125 4:0.16666667 9:0.083333336 11:0.041666668 13:0.125 #
-113.03871453972809035803948063403 1:0.54166669 3:0.16666667 4:0.083333336 9:0.083333336 13:0.083333336 16:0.041666668 #
113.03871453972809035803948063403 1:0.55000001 3:0.1 4:0.1 12:0.050000001 13:0.2 #
-113.03871453972809035803948063403 1:0.55000001 3:0.1 4:0.1 9:0.050000001 13:0.15000001 16:0.050000001 #
113.03871453972809035803948063403 1:0.59375 3:0.09375 4:0.09375 9:0.09375 11:0.03125 13:0.09375 #
-113.03871453972809035803948063403 1:0.53125 3:0.125 4:0.125 9:0.125 13:0.09375 #
113.03871453972809035803948063403 1:0.66666669 2:0.018518519 3:0.055555556 4:0.09259259 5:0.018518519 9:0.055555556 13:0.09259259 #
-113.03871453972809035803948063403 1:0.68518519 2:0.018518519 3:0.055555556 4:0.074074075 5:0.018518519 9:0.055555556 13:0.09259259 #
113.03871453972809035803948063403 1:0.625 3:0.050000001 4:0.15000001 9:0.075000003 13:0.1 #
-113.03871453972809035803948063403 1:0.625 3:0.050000001 4:0.125 9:0.050000001 13:0.15000001 #
113.03871453972809035803948063403 1:0.53125 3:0.09375 4:0.09375 9:0.125 13:0.125 16:0.03125 #
-113.03871453972809035803948063403 1:0.40625 3:0.125 4:0.125 9:0.15625 13:0.15625 16:0.03125 #
113.03871453972809035803948063403 1:0.71428573 3:0.047619049 4:0.095238097 9:0.047619049 13:0.095238097 #
-113.03871453972809035803948063403 1:0.71428573 3:0.047619049 4:0.095238097 9:0.047619049 13:0.095238097 #
113.03871453972809035803948063403 1:0.63529414 2:0.011764706 3:0.05882353 4:0.082352944 5:0.023529412 9:0.05882353 11:0.023529412 13:0.094117649 16:0.011764706 #
-113.03871453972809035803948063403 1:0.56470591 2:0.023529412 3:0.05882353 4:0.10588235 5:0.023529412 9:0.094117649 11:0.011764706 13:0.10588235 15:0.011764706 #
113.03871453972809035803948063403 1:0.44999999 3:0.050000001 4:0.125 9:0.125 13:0.125 15:0.050000001 16:0.075000003 #
-113.03871453972809035803948063403 1:0.47499999 3:0.050000001 4:0.15000001 9:0.1 13:0.125 15:0.050000001 16:0.050000001 #
113.03871453972809035803948063403 1:0.71428573 3:0.028571429 4:0.085714288 9:0.057142857 13:0.11428571 #
-113.03871453972809035803948063403 1:0.71428573 3:0.057142857 4:0.11428571 9:0.028571429 13:0.085714288 #
113.03871453972809035803948063403 1:0.60714287 3:0.071428575 4:0.10714286 9:0.035714287 12:0.035714287 13:0.10714286 15:0.035714287 #
-113.03871453972809035803948063403 1:0.5 3:0.071428575 4:0.14285715 9:0.071428575 12:0.035714287 13:0.14285715 15:0.035714287 #
113.03871453972809035803948063403 1:0.625 3:0.041666668 4:0.125 9:0.041666668 13:0.125 16:0.041666668 #
-113.03871453972809035803948063403 1:0.625 3:0.041666668 4:0.16666667 9:0.041666668 13:0.125 #
113.03871453972809035803948063403 1:0.56923079 2:0.015384615 3:0.046153847 4:0.07692308 5:0.030769231 9:0.092307694 12:0.015384615 13:0.12307692 15:0.015384615 16:0.015384615 #
-113.03871453972809035803948063403 1:0.55384618 2:0.015384615 3:0.061538462 4:0.07692308 5:0.030769231 9:0.10769231 13:0.10769231 15:0.015384615 16:0.030769231 #
113.03871453972809035803948063403 1:0.68055558 3:0.041666668 4:0.097222224 9:0.027777778 11:0.013888889 12:0.013888889 13:0.11111111 15:0.013888889 #
-113.03871453972809035803948063403 1:0.66666669 3:0.041666668 4:0.11111111 9:0.027777778 11:0.013888889 12:0.013888889 13:0.11111111 15:0.013888889 #
113.03871453972809035803948063403 1:0.58333331 3:0.083333336 4:0.25 13:0.083333336 #
-113.03871453972809035803948063403 1:0.41666666 3:0.083333336 4:0.16666667 9:0.083333336 13:0.25 #
113.03871453972809035803948063403 1:0.75757575 3:0.030303031 4:0.05050505 5:0.01010101 9:0.04040404 12:0.01010101 13:0.080808081 16:0.02020202 #
-113.03871453972809035803948063403 1:0.75757575 2:0.01010101 3:0.04040404 4:0.05050505 5:0.01010101 9:0.030303031 12:0.01010101 13:0.05050505 16:0.04040404 #
