SVM-light Version V6.02
0 # kernel type
3 # kernel parameter -d 
1 # kernel parameter -g 
1 # kernel parameter -s 
1 # kernel parameter -r 
empty# kernel parameter -u 
16 # highest feature index 
2562 # number of training documents 
2496 # number of support vectors plus 1 
0 # threshold b, each following line is a SV (starting with alpha*y)
-15.228581359744623568985844030976 2:0.16666667 5:0.16666667 6:0.33333334 14:0.16666667 16:0.16666667 #
-15.228581359744623568985844030976 2:0.33333334 5:0.33333334 13:0.16666667 16:0.16666667 #
-15.228581359744623568985844030976 2:0.16666667 5:0.16666667 6:0.5 14:0.16666667 #
73.604809905432347250098246149719 1:0.11111111 2:0.11111111 3:0.11111111 5:0.22222222 6:0.11111111 8:0.11111111 10:0.11111111 14:0.11111111 #
-15.228581359744623568985844030976 1:0.16666667 5:0.33333334 6:0.16666667 8:0.16666667 14:0.16666667 #
-15.228581359744623568985844030976 2:0.33333334 5:0.22222222 6:0.11111111 16:0.33333334 #
-15.228581359744623568985844030976 1:0.11111111 2:0.11111111 4:0.11111111 5:0.22222222 6:0.22222222 7:0.11111111 9:0.11111111 #
-15.228581359744623568985844030976 2:0.125 5:0.375 6:0.25 14:0.125 16:0.125 #
73.604809905432347250098246149719 1:0.083333336 3:0.083333336 4:0.16666667 5:0.16666667 6:0.25 9:0.083333336 14:0.16666667 #
65.990519225560035465605324134231 2:0.25 4:0.25 6:0.25 15:0.25 #
-6.6074517047742737929638678906485 1:0.375 2:0.125 4:0.125 5:0.125 13:0.125 16:0.125 #
-15.228581359744623568985844030976 3:0.16666667 5:0.33333334 6:0.33333334 9:0.16666667 #
2.5380968932907705948309740051627 1:0.5 2:0.125 4:0.125 5:0.125 13:0.125 #
-15.228581359744623568985844030976 1:0.16666667 2:0.16666667 5:0.16666667 6:0.16666667 8:0.16666667 13:0.16666667 #
-15.228581359744623568985844030976 5:0.25 8:0.25 10:0.25 14:0.25 #
65.990519225560035465605324134231 2:0.16666667 5:0.33333334 6:0.16666667 8:0.16666667 14:0.16666667 #
-15.228581359744623568985844030976 2:0.33333334 5:0.33333334 6:0.33333334 #
-88.833391265176970819084090180695 5:0.2 6:0.2 11:0.40000001 16:0.2 #
73.604809905432347250098246149719 1:0.11111111 3:0.11111111 5:0.22222222 6:0.33333334 9:0.11111111 14:0.11111111 #
-15.228581359744623568985844030976 1:0.16666667 2:0.33333334 5:0.16666667 6:0.33333334 #
-15.228581359744623568985844030976 2:0.125 3:0.25 5:0.125 6:0.25 10:0.125 11:0.125 #
-20.304775146326164758647792041302 7:0.5 8:0.5 #
-15.228581359744623568985844030976 13:0.5 16:0.5 #
-15.228581359744623568985844030976 3:0.1 4:0.1 5:0.1 6:0.2 7:0.1 9:0.2 10:0.1 13:0.1 #
65.990519225560035465605324134231 2:0.16666667 3:0.16666667 6:0.33333334 10:0.16666667 14:0.16666667 #
-5.0761937865815411896619480103254 1:0.35714287 2:0.071428575 3:0.071428575 4:0.14285715 5:0.14285715 10:0.071428575 13:0.14285715 #
-15.228581359744623568985844030976 2:0.33333334 5:0.33333334 6:0.33333334 #
-15.228581359744623568985844030976 2:0.25 4:0.25 5:0.25 9:0.25 #
-15.228581359744623568985844030976 1:0.16666667 2:0.16666667 5:0.16666667 6:0.16666667 8:0.16666667 13:0.16666667 #
-7.2385734132991412792534902109765 1:0.375 2:0.125 4:0.125 5:0.125 13:0.125 16:0.125 #
-15.228581359744623568985844030976 1:0.25 2:0.125 4:0.125 5:0.25 9:0.125 14:0.125 #
-15.228581359744623568985844030976 1:0.33333334 5:0.33333334 6:0.16666667 14:0.16666667 #
-15.228581359744623568985844030976 2:0.5 6:0.33333334 13:0.16666667 #
76.142906798723117844929220154881 1:0.22222222 2:0.22222222 4:0.11111111 5:0.22222222 6:0.11111111 13:0.11111111 #
-88.833391265176970819084090180695 5:0.2 6:0.2 11:0.40000001 16:0.2 #
-15.228581359744623568985844030976 2:0.25 5:0.5 14:0.25 #
-15.228581359744623568985844030976 5:0.33333334 6:0.33333334 14:0.33333334 #
69.684156770470366382141946814954 2:0.25 6:0.25 12:0.25 16:0.25 #
50.761937865815411896619480103254 6:0.5 10:0.5 #
-22.842872039616935353478766046464 1:0.22222222 2:0.11111111 5:0.22222222 6:0.22222222 7:0.11111111 14:0.11111111 #
-12.690484466453852974154870025814 1:0.25 2:0.25 4:0.25 13:0.25 #
-20.304775146326164758647792041302 1:0.16666667 2:0.16666667 8:0.16666667 13:0.16666667 16:0.33333334 #
32.995259612780017732802662067115 5:0.33333334 6:0.33333334 7:0.16666667 14:0.16666667 #
55.83813165239695308628142811358 4:0.33333334 5:0.33333334 13:0.33333334 #
-22.842872039616935353478766046464 4:0.5 14:0.5 #
50.761937865815411896619480103254 6:0.5 10:0.5 #
-25.380968932907705948309740051627 5:0.33333334 6:0.33333334 7:0.16666667 14:0.16666667 #
-22.842872039616935353478766046464 2:0.44444445 5:0.11111111 8:0.22222222 13:0.11111111 14:0.11111111 #
55.83813165239695308628142811358 1:0.16666667 2:0.16666667 5:0.33333334 14:0.16666667 16:0.16666667 #
-22.842872039616935353478766046464 6:0.25 7:0.25 12:0.25 13:0.25 #
-17.766678253035394163816818036139 1:0.16666667 2:0.083333336 4:0.25 5:0.083333336 13:0.33333334 16:0.083333336 #
-7.6142906798723117844929220154881 1:0.33333334 4:0.33333334 5:0.33333334 #
45.685744079233870706957532092929 6:0.33333334 7:0.33333334 9:0.33333334 #
48.223840972524641301788506098092 2:0.16666667 5:0.33333334 7:0.16666667 12:0.16666667 13:0.16666667 #
-22.842872039616935353478766046464 6:1 #
-15.228581359744623568985844030976 1:0.25 2:0.125 4:0.125 5:0.125 8:0.125 13:0.25 #
-7.6142906798723117844929220154881 1:0.40000001 2:0.1 4:0.1 5:0.2 13:0.2 #
-22.842872039616935353478766046464 1:0.125 2:0.125 4:0.125 5:0.125 8:0.125 13:0.25 14:0.125 #
58.376228545687723681112402118742 1:0.33333334 2:0.083333336 4:0.083333336 5:0.33333334 14:0.16666667 #
43.147647185943100112126558087766 8:0.33333334 13:0.33333334 14:0.33333334 #
-22.842872039616935353478766046464 1:0.125 2:0.375 5:0.125 8:0.125 13:0.125 16:0.125 #
-86.295294371886200224253116175532 2:0.33333334 5:0.33333334 13:0.33333334 #
88.833391265176970819084090180695 1:0.5 2:0.125 5:0.125 8:0.125 14:0.125 #
-22.842872039616935353478766046464 4:0.33333334 5:0.33333334 13:0.33333334 #
-81.219100585304659034591168165207 1:0.33333334 2:0.33333334 7:0.33333334 #
-22.842872039616935353478766046464 6:0.5 10:0.5 #
-22.842872039616935353478766046464 2:0.25 5:0.25 6:0.5 #
-22.842872039616935353478766046464 1:0.16666667 2:0.16666667 5:0.33333334 14:0.16666667 16:0.16666667 #
-20.304775146326164758647792041302 3:0.33333334 5:0.33333334 10:0.33333334 #
-22.842872039616935353478766046464 4:0.33333334 5:0.33333334 6:0.33333334 #
55.83813165239695308628142811358 16:1 #
-20.304775146326164758647792041302 1:0.2 2:0.30000001 5:0.40000001 6:0.1 #
2.5380968932907705948309740051627 1:0.70454544 2:0.022727273 4:0.090909094 5:0.045454547 9:0.022727273 13:0.090909094 15:0.022727273 #
-68.528616118850806060436298139393 4:0.25 5:0.125 8:0.125 13:0.25 14:0.25 #
43.147647185943100112126558087766 8:0.33333334 13:0.33333334 14:0.33333334 #
-25.380968932907705948309740051627 1:0.11111111 3:0.11111111 4:0.11111111 5:0.11111111 6:0.11111111 9:0.22222222 13:0.22222222 #
58.376228545687723681112402118742 5:0.5 6:0.5 #
27.91906582619847654314071405679 3:0.16666667 4:0.16666667 5:0.16666667 9:0.16666667 13:0.16666667 16:0.16666667 #
-22.842872039616935353478766046464 1:0.125 3:0.125 4:0.125 12:0.125 13:0.375 16:0.125 #
-15.228581359744623568985844030976 1:0.5 5:0.125 6:0.125 8:0.125 13:0.125 #
32.995259612780017732802662067115 1:0.25 2:0.16666667 4:0.083333336 5:0.16666667 6:0.083333336 10:0.083333336 13:0.083333336 16:0.083333336 #
27.91906582619847654314071405679 3:0.16666667 4:0.16666667 5:0.16666667 9:0.16666667 13:0.16666667 16:0.16666667 #
-25.380968932907705948309740051627 2:0.33333334 5:0.16666667 8:0.16666667 9:0.16666667 13:0.16666667 #
25.380968932907705948309740051627 4:0.16666667 5:0.33333334 10:0.16666667 14:0.16666667 15:0.16666667 #
32.995259612780017732802662067115 1:0.375 2:0.125 5:0.375 14:0.125 #
27.91906582619847654314071405679 1:0.22222222 2:0.11111111 5:0.22222222 6:0.11111111 7:0.11111111 9:0.11111111 14:0.11111111 #
-25.380968932907705948309740051627 1:0.083333336 2:0.083333336 3:0.083333336 4:0.16666667 5:0.25 6:0.083333336 10:0.083333336 13:0.16666667 #
-68.528616118850806060436298139393 4:0.25 5:0.125 8:0.125 13:0.25 14:0.25 #
65.990519225560035465605324134231 2:0.25 3:0.25 7:0.25 9:0.25 #
-25.380968932907705948309740051627 5:0.5 10:0.5 #
55.83813165239695308628142811358 2:0.33333334 13:0.33333334 16:0.33333334 #
-25.380968932907705948309740051627 2:0.5 6:0.5 #
-25.380968932907705948309740051627 2:0.16666667 6:0.5 8:0.16666667 16:0.16666667 #
-68.528616118850806060436298139393 1:0.16666667 6:0.16666667 7:0.16666667 9:0.16666667 13:0.16666667 16:0.16666667 #
-22.842872039616935353478766046464 1:0.16666667 2:0.16666667 3:0.16666667 5:0.16666667 6:0.16666667 12:0.16666667 #
27.91906582619847654314071405679 4:0.33333334 13:0.33333334 16:0.33333334 #
63.452422332269264870774350129068 1:0.5 2:0.25 13:0.25 #
-25.380968932907705948309740051627 1:0.25 2:0.083333336 4:0.16666667 6:0.083333336 7:0.083333336 9:0.083333336 13:0.083333336 15:0.083333336 16:0.083333336 #
-25.380968932907705948309740051627 5:0.5 6:0.5 #
5.0761937865815411896619480103254 1:0.72727275 4:0.090909094 5:0.090909094 13:0.090909094 #
25.380968932907705948309740051627 2:0.5 6:0.25 7:0.25 #
-25.380968932907705948309740051627 2:0.33333334 5:0.16666667 6:0.33333334 8:0.16666667 #
-25.380968932907705948309740051627 2:0.22222222 4:0.11111111 5:0.11111111 6:0.11111111 8:0.11111111 12:0.11111111 13:0.11111111 15:0.11111111 #
20.304775146326164758647792041302 1:0.25 4:0.25 13:0.5 #
-40.609550292652329517295584082603 3:0.25 8:0.25 13:0.25 14:0.25 #
-15.228581359744623568985844030976 1:0.60000002 2:0.2 5:0.2 #
15.228581359744623568985844030976 4:0.33333334 5:0.33333334 14:0.33333334 #
53.300034759106182491450454108417 4:0.25 7:0.25 11:0.25 14:0.25 #
-38.071453399361558922464610077441 3:0.5 5:0.5 #
-40.609550292652329517295584082603 2:0.33333334 5:0.33333334 13:0.33333334 #
-38.071453399361558922464610077441 3:0.5 5:0.5 #
58.376228545687723681112402118742 1:0.16666667 2:0.16666667 4:0.16666667 5:0.16666667 7:0.16666667 14:0.16666667 #
15.228581359744623568985844030976 4:0.33333334 5:0.33333334 14:0.33333334 #
45.685744079233870706957532092929 4:0.5 14:0.5 #
5.0761937865815411896619480103254 5:0.5 14:0.5 #
-40.609550292652329517295584082603 5:0.33333334 8:0.33333334 14:0.33333334 #
25.380968932907705948309740051627 1:0.40000001 2:0.2 5:0.2 6:0.2 #
20.304775146326164758647792041302 1:0.25 2:0.16666667 3:0.083333336 4:0.083333336 5:0.083333336 6:0.083333336 11:0.083333336 13:0.083333336 14:0.083333336 #
-38.071453399361558922464610077441 1:0.11111111 2:0.22222222 4:0.33333334 5:0.22222222 13:0.11111111 #
15.228581359744623568985844030976 3:0.25 5:0.25 8:0.25 14:0.25 #
15.228581359744623568985844030976 2:0.16666667 4:0.16666667 5:0.5 13:0.16666667 #
25.380968932907705948309740051627 1:0.33333334 3:0.33333334 5:0.33333334 #
-40.609550292652329517295584082603 3:0.25 8:0.25 13:0.25 14:0.25 #
-38.071453399361558922464610077441 1:0.2 2:0.30000001 5:0.30000001 8:0.1 13:0.1 #
20.304775146326164758647792041302 1:0.16666667 2:0.33333334 4:0.16666667 9:0.16666667 13:0.16666667 #
-40.609550292652329517295584082603 5:0.33333334 8:0.33333334 14:0.33333334 #
20.304775146326164758647792041302 1:0.25 2:0.25 8:0.25 13:0.25 #
-15.228581359744623568985844030976 1:0.60000002 2:0.15000001 3:0.050000001 5:0.15000001 9:0.050000001 #
15.228581359744623568985844030976 2:0.16666667 4:0.16666667 5:0.5 13:0.16666667 #
15.228581359744623568985844030976 4:0.5 13:0.5 #
-7.6142906798723117844929220154881 2:0.33333334 5:0.66666669 #
12.690484466453852974154870025814 7:0.5 9:0.5 #
-22.842872039616935353478766046464 1:0.33333334 2:0.06666667 3:0.13333334 4:0.13333334 5:0.13333334 9:0.13333334 13:0.06666667 #
-12.690484466453852974154870025814 1:0.40000001 2:0.2 5:0.40000001 #
7.6142906798723117844929220154881 5:0.5 6:0.5 #
-10.152387573163082379323896020651 2:0.16666667 5:0.16666667 7:0.33333334 9:0.16666667 10:0.16666667 #
10.152387573163082379323896020651 1:0.69999999 2:0.1 5:0.2 #
-20.304775146326164758647792041302 1:0.58333331 2:0.16666667 5:0.083333336 6:0.083333336 13:0.083333336 #
7.6142906798723117844929220154881 1:0.33333334 13:0.33333334 16:0.33333334 #
-7.6142906798723117844929220154881 1:0.46666667 2:0.06666667 3:0.06666667 5:0.2 10:0.06666667 13:0.06666667 16:0.06666667 #
7.6142906798723117844929220154881 1:0.26666668 2:0.13333334 3:0.06666667 4:0.06666667 5:0.06666667 7:0.06666667 9:0.13333334 13:0.13333334 16:0.06666667 #
17.766678253035394163816818036139 4:0.66666669 13:0.33333334 #
-2.5380968932907705948309740051627 2:0.25 4:0.25 5:0.25 13:0.25 #
-10.152387573163082379323896020651 1:0.41666666 2:0.083333336 3:0.16666667 5:0.16666667 12:0.083333336 13:0.083333336 #
30.457162719489247137971688061953 1:0.5 13:0.25 16:0.25 #
5.0761937865815411896619480103254 12:0.25 14:0.25 15:0.25 16:0.25 #
7.6142906798723117844929220154881 4:0.25 6:0.25 8:0.25 14:0.25 #
7.6142906798723117844929220154881 1:0.1875 2:0.125 3:0.0625 4:0.125 5:0.0625 7:0.125 10:0.125 13:0.1875 #
-7.6142906798723117844929220154881 1:0.69999999 2:0.050000001 3:0.050000001 4:0.050000001 5:0.050000001 12:0.050000001 13:0.050000001 #
7.6142906798723117844929220154881 1:0.22222222 5:0.22222222 6:0.11111111 8:0.22222222 14:0.22222222 #
7.6142906798723117844929220154881 4:0.33333334 14:0.33333334 16:0.33333334 #
7.6142906798723117844929220154881 4:0.33333334 13:0.33333334 16:0.33333334 #
7.6142906798723117844929220154881 1:0.1875 2:0.125 3:0.0625 4:0.125 5:0.0625 7:0.125 10:0.125 13:0.1875 #
12.690484466453852974154870025814 1:0.45833334 2:0.041666668 3:0.041666668 4:0.041666668 6:0.041666668 7:0.041666668 8:0.083333336 10:0.041666668 12:0.041666668 13:0.083333336 14:0.083333336 #
7.6142906798723117844929220154881 1:0.25 2:0.33333334 4:0.083333336 5:0.083333336 8:0.083333336 13:0.083333336 15:0.083333336 #
7.6142906798723117844929220154881 1:0.16666667 2:0.16666667 4:0.16666667 5:0.25 13:0.16666667 16:0.083333336 #
2.5380968932907705948309740051627 7:0.33333334 12:0.33333334 14:0.33333334 #
7.6142906798723117844929220154881 1:0.25 2:0.0625 4:0.125 5:0.25 6:0.0625 8:0.0625 9:0.0625 13:0.0625 15:0.0625 #
-76.142906798723117844929220154881 10:1 #
7.6142906798723117844929220154881 3:0.33333334 6:0.33333334 10:0.33333334 #
7.6142906798723117844929220154881 2:0.5 8:0.25 13:0.25 #
7.6142906798723117844929220154881 11:0.33333334 12:0.33333334 16:0.33333334 #
7.6142906798723117844929220154881 2:0.375 5:0.25 8:0.125 13:0.125 16:0.125 #
7.6142906798723117844929220154881 1:0.16666667 3:0.083333336 4:0.083333336 5:0.16666667 6:0.083333336 8:0.083333336 12:0.083333336 13:0.083333336 14:0.16666667 #
-78.681003692013888439760194160044 3:0.33333334 12:0.33333334 13:0.33333334 #
7.6142906798723117844929220154881 4:0.33333334 5:0.33333334 16:0.33333334 #
7.6142906798723117844929220154881 4:0.33333334 13:0.33333334 16:0.33333334 #
7.6142906798723117844929220154881 2:0.25 5:0.25 11:0.25 15:0.25 #
7.6142906798723117844929220154881 5:0.25 6:0.25 10:0.25 15:0.25 #
10.152387573163082379323896020651 1:0.2857143 2:0.071428575 4:0.14285715 6:0.071428575 8:0.071428575 9:0.071428575 13:0.071428575 14:0.071428575 15:0.071428575 16:0.071428575 #
7.6142906798723117844929220154881 6:0.25 8:0.25 13:0.25 14:0.25 #
7.6142906798723117844929220154881 1:0.16666667 2:0.083333336 4:0.083333336 5:0.083333336 6:0.083333336 7:0.083333336 8:0.083333336 9:0.083333336 13:0.25 #
7.6142906798723117844929220154881 2:0.16666667 3:0.16666667 9:0.16666667 12:0.16666667 15:0.16666667 16:0.16666667 #
7.6142906798723117844929220154881 12:0.5 13:0.5 #
7.6142906798723117844929220154881 16:1 #
12.690484466453852974154870025814 1:0.25 2:0.083333336 4:0.083333336 5:0.083333336 6:0.083333336 9:0.16666667 11:0.083333336 13:0.083333336 16:0.083333336 #
7.6142906798723117844929220154881 2:0.25 5:0.25 11:0.25 15:0.25 #
7.6142906798723117844929220154881 11:0.33333334 12:0.33333334 16:0.33333334 #
2.5380968932907705948309740051627 8:0.5 14:0.5 #
12.690484466453852974154870025814 1:0.33333334 2:0.13333334 4:0.13333334 5:0.2 13:0.06666667 16:0.13333334 #
-83.75719747859542962942214217037 2:0.33333334 5:0.33333334 13:0.083333336 16:0.25 #
7.6142906798723117844929220154881 1:0.22222222 2:0.11111111 5:0.22222222 6:0.11111111 8:0.11111111 10:0.11111111 15:0.11111111 #
-10.152387573163082379323896020651 1:0.54545456 3:0.090909094 4:0.18181819 9:0.090909094 13:0.090909094 #
2.5380968932907705948309740051627 1:0.33333334 13:0.33333334 16:0.33333334 #
58.376228545687723681112402118742 1:0.375 2:0.125 5:0.25 13:0.125 16:0.125 #
-2.5380968932907705948309740051627 2:0.25 4:0.25 6:0.25 16:0.25 #
-2.5380968932907705948309740051627 4:0.33333334 13:0.33333334 16:0.33333334 #
-53.300034759106182491450454108417 4:0.5 16:0.5 #
2.5380968932907705948309740051627 1:0.33333334 13:0.33333334 16:0.33333334 #
50.761937865815411896619480103254 1:0.16666667 2:0.16666667 5:0.33333334 6:0.33333334 #
12.690484466453852974154870025814 1:0.625 4:0.25 13:0.125 #
2.5380968932907705948309740051627 1:0.33333334 4:0.33333334 16:0.33333334 #
-2.5380968932907705948309740051627 2:0.33333334 8:0.33333334 13:0.33333334 #
2.5380968932907705948309740051627 1:0.33333334 4:0.33333334 16:0.33333334 #
-53.300034759106182491450454108417 1:0.16666667 2:0.16666667 5:0.5 6:0.16666667 #
-2.5380968932907705948309740051627 4:0.33333334 13:0.66666669 #
2.5380968932907705948309740051627 1:0.33333334 2:0.33333334 6:0.33333334 #
-22.842872039616935353478766046464 1:0.60000002 2:0.1 4:0.1 5:0.1 13:0.1 #
2.5380968932907705948309740051627 1:0.25 2:0.125 4:0.125 5:0.125 6:0.125 13:0.125 16:0.125 #
53.300034759106182491450454108417 1:0.16666667 2:0.33333334 5:0.33333334 13:0.16666667 #
50.761937865815411896619480103254 1:0.16666667 2:0.16666667 5:0.33333334 6:0.33333334 #
-43.147647185943100112126558087766 1:0.5 2:0.125 4:0.125 6:0.125 16:0.125 #
-55.83813165239695308628142811358 5:0.25 10:0.25 13:0.25 16:0.25 #
-53.300034759106182491450454108417 4:0.66666669 13:0.33333334 #
-2.5380968932907705948309740051627 2:0.16666667 5:0.16666667 6:0.33333334 7:0.16666667 10:0.16666667 #
2.5380968932907705948309740051627 1:0.25 2:0.25 5:0.5 #
53.300034759106182491450454108417 1:0.16666667 2:0.5 5:0.33333334 #
-2.5380968932907705948309740051627 2:0.33333334 5:0.66666669 #
30.457162719489247137971688061953 6:0.5 15:0.25 16:0.25 #
-10.152387573163082379323896020651 1:0.5 4:0.25 13:0.25 #
-25.380968932907705948309740051627 7:0.33333334 8:0.16666667 9:0.16666667 10:0.16666667 13:0.16666667 #
-25.380968932907705948309740051627 5:0.5 6:0.5 #
30.457162719489247137971688061953 6:0.5 15:0.25 16:0.25 #
-22.842872039616935353478766046464 3:0.125 5:0.125 6:0.125 9:0.125 13:0.125 16:0.375 #
-22.842872039616935353478766046464 1:0.06666667 2:0.2 3:0.06666667 4:0.06666667 5:0.13333334 6:0.13333334 9:0.06666667 12:0.06666667 13:0.13333334 16:0.06666667 #
-30.457162719489247137971688061953 2:0.25 5:0.25 7:0.25 14:0.25 #
-30.457162719489247137971688061953 6:0.25 7:0.25 9:0.25 14:0.25 #
-55.83813165239695308628142811358 2:0.25 3:0.25 8:0.25 9:0.25 #
35.533356506070788327633636072278 5:0.16666667 6:0.33333334 7:0.16666667 9:0.16666667 14:0.16666667 #
-65.990519225560035465605324134231 2:0.16666667 3:0.16666667 4:0.16666667 6:0.16666667 10:0.16666667 16:0.16666667 #
40.609550292652329517295584082603 3:0.25 5:0.25 6:0.25 10:0.25 #
-25.380968932907705948309740051627 7:0.33333334 8:0.16666667 9:0.16666667 10:0.16666667 13:0.16666667 #
-5.0761937865815411896619480103254 1:0.33333334 2:0.083333336 4:0.083333336 5:0.25 6:0.083333336 13:0.16666667 #
-5.0761937865815411896619480103254 1:0.33333334 4:0.33333334 14:0.33333334 #
40.609550292652329517295584082603 2:0.33333334 6:0.33333334 8:0.33333334 #
-65.990519225560035465605324134231 3:0.25 4:0.25 9:0.25 14:0.25 #
40.609550292652329517295584082603 4:0.33333334 13:0.66666669 #
-22.842872039616935353478766046464 4:0.5 13:0.5 #
40.609550292652329517295584082603 4:0.33333334 13:0.33333334 16:0.33333334 #
-53.300034759106182491450454108417 2:0.25 3:0.25 6:0.25 11:0.25 #
48.223840972524641301788506098092 1:0.16666667 3:0.16666667 4:0.16666667 5:0.16666667 9:0.16666667 14:0.16666667 #
48.223840972524641301788506098092 1:0.11111111 2:0.22222222 3:0.11111111 4:0.22222222 5:0.11111111 9:0.11111111 13:0.11111111 #
32.995259612780017732802662067115 2:0.16666667 5:0.16666667 6:0.16666667 8:0.16666667 14:0.16666667 15:0.16666667 #
12.690484466453852974154870025814 6:0.5 7:0.5 #
40.609550292652329517295584082603 6:0.5 11:0.5 #
40.609550292652329517295584082603 2:0.25 3:0.25 5:0.25 13:0.25 #
-10.152387573163082379323896020651 1:0.33333334 9:0.33333334 11:0.33333334 #
68.528616118850806060436298139393 5:0.25 6:0.25 8:0.25 14:0.25 #
-25.380968932907705948309740051627 4:0.16666667 6:0.33333334 12:0.16666667 15:0.16666667 16:0.16666667 #
40.609550292652329517295584082603 12:0.5 16:0.5 #
-65.990519225560035465605324134231 1:0.06666667 2:0.2 3:0.06666667 4:0.06666667 5:0.13333334 6:0.13333334 9:0.06666667 12:0.06666667 13:0.13333334 16:0.06666667 #
-22.842872039616935353478766046464 1:0.16666667 2:0.16666667 6:0.16666667 8:0.16666667 14:0.16666667 16:0.16666667 #
-30.457162719489247137971688061953 1:0.25 2:0.125 4:0.125 5:0.125 9:0.125 13:0.125 16:0.125 #
-50.761937865815411896619480103254 1:0.33333334 3:0.16666667 12:0.16666667 13:0.16666667 16:0.16666667 #
-43.147647185943100112126558087766 1:0.44444445 4:0.22222222 9:0.055555556 13:0.22222222 16:0.055555556 #
15.228581359744623568985844030976 1:0.33333334 4:0.33333334 13:0.33333334 #
-7.6142906798723117844929220154881 5:0.25 10:0.25 15:0.25 16:0.25 #
50.761937865815411896619480103254 1:0.22222222 2:0.11111111 4:0.22222222 9:0.11111111 13:0.22222222 16:0.11111111 #
-5.0761937865815411896619480103254 1:0.22222222 3:0.22222222 4:0.11111111 5:0.11111111 12:0.11111111 13:0.11111111 16:0.11111111 #
-7.6142906798723117844929220154881 1:0.16666667 4:0.5 13:0.16666667 14:0.16666667 #
-12.690484466453852974154870025814 2:0.2 4:0.2 8:0.2 13:0.40000001 #
35.533356506070788327633636072278 1:0.375 3:0.125 4:0.125 5:0.125 13:0.25 #
-38.071453399361558922464610077441 2:0.25 4:0.25 5:0.25 13:0.25 #
40.609550292652329517295584082603 4:0.5 13:0.5 #
35.533356506070788327633636072278 1:0.16666667 2:0.083333336 4:0.25 5:0.16666667 13:0.25 14:0.083333336 #
-30.457162719489247137971688061953 1:0.25 2:0.125 4:0.125 5:0.125 9:0.125 13:0.125 16:0.125 #
-30.457162719489247137971688061953 1:0.33333334 2:0.16666667 4:0.16666667 5:0.16666667 13:0.16666667 #
-25.380968932907705948309740051627 5:0.5 14:0.5 #
38.071453399361558922464610077441 1:0.5 3:0.083333336 4:0.16666667 9:0.083333336 13:0.16666667 #
35.533356506070788327633636072278 1:0.33333334 2:0.16666667 4:0.16666667 9:0.16666667 13:0.16666667 #
-22.842872039616935353478766046464 1:0.5 3:0.25 5:0.25 #
7.6142906798723117844929220154881 4:0.2 13:0.40000001 16:0.40000001 #
17.766678253035394163816818036139 1:0.5 3:0.055555556 4:0.11111111 9:0.11111111 13:0.16666667 16:0.055555556 #
-30.457162719489247137971688061953 1:0.375 4:0.25 7:0.125 9:0.125 13:0.125 #
58.376228545687723681112402118742 1:0.33333334 2:0.33333334 5:0.33333334 #
-68.528616118850806060436298139393 1:0.16666667 2:0.16666667 3:0.16666667 5:0.33333334 10:0.16666667 #
-68.528616118850806060436298139393 1:0.16666667 2:0.083333336 4:0.25 5:0.083333336 6:0.083333336 13:0.25 16:0.083333336 #
40.609550292652329517295584082603 1:0.16666667 2:0.16666667 5:0.16666667 6:0.16666667 7:0.16666667 10:0.16666667 #
-15.228581359744623568985844030976 6:0.66666669 10:0.33333334 #
-15.228581359744623568985844030976 2:0.16666667 4:0.33333334 5:0.16666667 9:0.16666667 13:0.16666667 #
-15.228581359744623568985844030976 1:0.33333334 2:0.16666667 9:0.16666667 12:0.16666667 13:0.16666667 #
43.147647185943100112126558087766 1:0.25 3:0.083333336 5:0.083333336 6:0.083333336 9:0.16666667 13:0.083333336 16:0.25 #
43.147647185943100112126558087766 1:0.16666667 3:0.16666667 4:0.33333334 10:0.16666667 13:0.16666667 #
-15.228581359744623568985844030976 2:0.5 5:0.5 #
43.147647185943100112126558087766 1:0.33333334 5:0.33333334 6:0.33333334 #
-15.228581359744623568985844030976 3:0.5 13:0.5 #
45.685744079233870706957532092929 1:0.33333334 2:0.16666667 3:0.16666667 9:0.16666667 10:0.16666667 #
-15.228581359744623568985844030976 2:0.16666667 3:0.16666667 4:0.16666667 5:0.33333334 10:0.16666667 #
-68.528616118850806060436298139393 1:0.16666667 2:0.16666667 4:0.16666667 5:0.25 10:0.083333336 13:0.083333336 16:0.083333336 #
-15.228581359744623568985844030976 2:0.5 6:0.5 #
65.990519225560035465605324134231 1:0.2 2:0.2 3:0.2 5:0.2 10:0.2 #
-15.228581359744623568985844030976 3:0.5 13:0.5 #
65.990519225560035465605324134231 1:0.35714287 2:0.071428575 3:0.071428575 4:0.14285715 7:0.071428575 9:0.14285715 13:0.14285715 #
-15.228581359744623568985844030976 2:0.16666667 4:0.16666667 5:0.16666667 9:0.16666667 13:0.16666667 16:0.16666667 #
-15.228581359744623568985844030976 1:0.16666667 2:0.083333336 3:0.083333336 4:0.16666667 5:0.083333336 9:0.083333336 13:0.083333336 16:0.25 #
-10.152387573163082379323896020651 1:0.5 2:0.083333336 4:0.083333336 6:0.083333336 7:0.083333336 9:0.083333336 16:0.083333336 #
-15.228581359744623568985844030976 1:0.25 3:0.083333336 5:0.083333336 6:0.083333336 9:0.16666667 13:0.083333336 16:0.25 #
-15.228581359744623568985844030976 4:0.33333334 16:0.66666669 #
65.990519225560035465605324134231 1:0.33333334 8:0.33333334 13:0.33333334 #
-15.228581359744623568985844030976 1:0.33333334 4:0.33333334 16:0.33333334 #
-15.228581359744623568985844030976 2:0.16666667 4:0.16666667 5:0.16666667 9:0.16666667 13:0.16666667 16:0.16666667 #
-15.228581359744623568985844030976 1:0.16666667 2:0.16666667 3:0.16666667 5:0.16666667 13:0.16666667 16:0.16666667 #
60.914325438978494275943376123905 2:0.16666667 4:0.16666667 5:0.16666667 6:0.16666667 9:0.16666667 13:0.16666667 #
-15.228581359744623568985844030976 1:0.2 2:0.2 3:0.2 5:0.2 9:0.2 #
-15.228581359744623568985844030976 2:0.16666667 4:0.33333334 7:0.16666667 9:0.16666667 13:0.16666667 #
-45.685744079233870706957532092929 1:0.33333334 2:0.33333334 8:0.33333334 #
43.147647185943100112126558087766 2:0.2 5:0.2 8:0.2 14:0.2 16:0.2 #
-35.533356506070788327633636072278 1:0.40000001 4:0.40000001 13:0.2 #
17.766678253035394163816818036139 2:0.11111111 3:0.11111111 4:0.11111111 5:0.22222222 9:0.11111111 10:0.11111111 13:0.22222222 #
15.228581359744623568985844030976 1:0.1 2:0.1 3:0.1 5:0.1 8:0.2 9:0.1 13:0.1 14:0.2 #
-30.457162719489247137971688061953 1:0.16666667 4:0.16666667 5:0.16666667 9:0.16666667 14:0.16666667 16:0.16666667 #
-10.152387573163082379323896020651 1:0.63636363 4:0.18181819 13:0.18181819 #
-30.457162719489247137971688061953 1:0.25 13:0.25 16:0.5 #
22.842872039616935353478766046464 1:0.375 2:0.125 4:0.125 5:0.25 13:0.125 #
-50.761937865815411896619480103254 1:0.33333334 2:0.33333334 6:0.33333334 #
22.842872039616935353478766046464 1:0.25 3:0.25 5:0.25 10:0.25 #
15.228581359744623568985844030976 2:0.5 13:0.5 #
5.0761937865815411896619480103254 6:0.33333334 8:0.33333334 14:0.33333334 #
17.766678253035394163816818036139 1:0.11111111 2:0.11111111 3:0.11111111 5:0.33333334 10:0.11111111 14:0.11111111 16:0.11111111 #
-35.533356506070788327633636072278 13:0.33333334 16:0.66666669 #
15.228581359744623568985844030976 5:0.5 10:0.5 #
20.304775146326164758647792041302 1:0.33333334 8:0.33333334 13:0.33333334 #
22.842872039616935353478766046464 1:0.70454544 2:0.045454547 3:0.045454547 4:0.090909094 5:0.022727273 9:0.022727273 13:0.06818182 #
22.842872039616935353478766046464 1:0.22222222 3:0.11111111 4:0.11111111 5:0.22222222 9:0.11111111 10:0.11111111 13:0.11111111 #
20.304775146326164758647792041302 1:0.33333334 8:0.33333334 13:0.33333334 #
-38.071453399361558922464610077441 4:0.25 5:0.25 6:0.25 14:0.25 #
15.228581359744623568985844030976 2:0.5 8:0.5 #
-35.533356506070788327633636072278 4:0.33333334 5:0.33333334 14:0.33333334 #
20.304775146326164758647792041302 1:0.25 5:0.125 10:0.125 16:0.5 #
15.228581359744623568985844030976 3:0.25 5:0.25 7:0.25 9:0.25 #
-38.071453399361558922464610077441 2:0.25 7:0.25 8:0.25 10:0.25 #
20.304775146326164758647792041302 1:0.3125 2:0.0625 3:0.0625 4:0.0625 5:0.1875 9:0.0625 10:0.0625 13:0.0625 15:0.0625 16:0.0625 #
63.452422332269264870774350129068 1:0.11111111 4:0.11111111 6:0.22222222 9:0.11111111 10:0.11111111 12:0.11111111 13:0.11111111 15:0.11111111 #
-32.995259612780017732802662067115 1:0.33333334 3:0.11111111 4:0.055555556 5:0.11111111 8:0.055555556 10:0.055555556 12:0.055555556 13:0.16666667 14:0.055555556 #
20.304775146326164758647792041302 1:0.2 3:0.2 4:0.2 9:0.2 13:0.2 #
-71.066713012141576655267272144556 2:0.11111111 3:0.11111111 4:0.11111111 5:0.33333334 6:0.11111111 11:0.11111111 14:0.11111111 #
63.452422332269264870774350129068 1:0.33333334 2:0.083333336 3:0.083333336 4:0.083333336 5:0.083333336 9:0.25 13:0.083333336 #
-68.528616118850806060436298139393 1:0.1875 2:0.125 3:0.0625 4:0.0625 5:0.1875 6:0.125 8:0.0625 10:0.0625 13:0.0625 15:0.0625 #
-38.071453399361558922464610077441 4:0.16666667 5:0.16666667 7:0.16666667 10:0.16666667 12:0.16666667 15:0.16666667 #
-38.071453399361558922464610077441 1:0.16666667 2:0.16666667 4:0.16666667 5:0.33333334 13:0.16666667 #
63.452422332269264870774350129068 2:0.25 4:0.25 9:0.5 #
-38.071453399361558922464610077441 2:0.40000001 5:0.40000001 6:0.2 #
-35.533356506070788327633636072278 1:0.125 3:0.125 4:0.125 5:0.125 9:0.125 11:0.125 13:0.25 #
63.452422332269264870774350129068 1:0.5 2:0.071428575 3:0.071428575 5:0.071428575 9:0.071428575 11:0.071428575 13:0.071428575 16:0.071428575 #
20.304775146326164758647792041302 2:0.16666667 3:0.16666667 4:0.16666667 5:0.16666667 10:0.16666667 13:0.16666667 #
20.304775146326164758647792041302 1:0.25 3:0.16666667 4:0.083333336 5:0.083333336 6:0.083333336 9:0.083333336 10:0.083333336 13:0.16666667 #
20.304775146326164758647792041302 3:0.11111111 4:0.11111111 5:0.11111111 6:0.22222222 9:0.22222222 15:0.11111111 16:0.11111111 #
63.452422332269264870774350129068 2:0.25 9:0.25 12:0.25 16:0.25 #
-38.071453399361558922464610077441 2:0.11111111 4:0.11111111 5:0.22222222 7:0.11111111 9:0.11111111 11:0.11111111 13:0.22222222 #
15.228581359744623568985844030976 9:0.33333334 12:0.33333334 15:0.33333334 #
20.304775146326164758647792041302 2:0.16666667 3:0.16666667 5:0.33333334 9:0.16666667 13:0.16666667 #
-38.071453399361558922464610077441 2:0.1 3:0.1 5:0.30000001 8:0.2 13:0.1 14:0.2 #
20.304775146326164758647792041302 1:0.3888889 2:0.055555556 3:0.11111111 4:0.11111111 5:0.055555556 8:0.11111111 13:0.11111111 14:0.055555556 #
12.690484466453852974154870025814 2:0.33333334 7:0.33333334 13:0.33333334 #
20.304775146326164758647792041302 1:0.16666667 5:0.16666667 10:0.16666667 12:0.33333334 15:0.16666667 #
17.766678253035394163816818036139 3:0.16666667 4:0.16666667 5:0.16666667 9:0.16666667 14:0.16666667 15:0.16666667 #
20.304775146326164758647792041302 1:0.25 3:0.16666667 4:0.083333336 5:0.083333336 6:0.083333336 9:0.083333336 10:0.083333336 13:0.16666667 #
-30.457162719489247137971688061953 1:0.33333334 2:0.16666667 4:0.083333336 8:0.083333336 9:0.16666667 13:0.16666667 #
-40.609550292652329517295584082603 5:0.16666667 7:0.16666667 8:0.16666667 13:0.16666667 14:0.33333334 #
-38.071453399361558922464610077441 2:0.33333334 7:0.33333334 13:0.33333334 #
-5.0761937865815411896619480103254 4:0.33333334 13:0.33333334 16:0.33333334 #
10.152387573163082379323896020651 5:0.25 6:0.25 8:0.25 14:0.25 #
35.533356506070788327633636072278 2:0.25 9:0.25 14:0.25 16:0.25 #
-50.761937865815411896619480103254 1:0.25 4:0.25 5:0.125 6:0.125 13:0.25 #
53.300034759106182491450454108417 4:0.5 16:0.5 #
-35.533356506070788327633636072278 2:0.33333334 4:0.16666667 5:0.16666667 6:0.16666667 8:0.16666667 #
22.842872039616935353478766046464 4:0.5 13:0.5 #
-32.995259612780017732802662067115 2:0.25 4:0.25 13:0.25 16:0.25 #
2.5380968932907705948309740051627 1:0.40000001 2:0.06666667 4:0.2 5:0.13333334 13:0.13333334 16:0.06666667 #
-10.152387573163082379323896020651 2:0.5 6:0.5 #
45.685744079233870706957532092929 4:0.5 16:0.5 #
-5.0761937865815411896619480103254 4:0.33333334 13:0.66666669 #
-10.152387573163082379323896020651 2:0.5 6:0.5 #
22.842872039616935353478766046464 1:0.33333334 4:0.16666667 13:0.33333334 16:0.16666667 #
-30.457162719489247137971688061953 1:0.33333334 2:0.083333336 4:0.083333336 5:0.083333336 6:0.16666667 13:0.16666667 16:0.083333336 #
-40.609550292652329517295584082603 1:0.375 2:0.25 4:0.125 5:0.125 13:0.125 #
-32.995259612780017732802662067115 2:0.25 4:0.25 5:0.25 13:0.25 #
-7.6142906798723108963145023153629 2:0.33333334 4:0.16666667 5:0.16666667 6:0.16666667 8:0.16666667 #
22.842872039616935353478766046464 1:0.33333334 2:0.33333334 13:0.33333334 #
-32.995259612780017732802662067115 2:0.33333334 4:0.33333334 13:0.33333334 #
48.223840972524641301788506098092 13:0.5 16:0.5 #
22.842872039616935353478766046464 1:0.3125 2:0.125 4:0.0625 5:0.1875 13:0.125 14:0.0625 16:0.125 #
-35.533356506070788327633636072278 1:0.30000001 3:0.2 4:0.1 5:0.1 9:0.1 10:0.1 13:0.1 #
43.147647185943100112126558087766 1:0.33333334 2:0.33333334 9:0.33333334 #
-5.0761937865815411896619480103254 2:0.25 4:0.25 9:0.5 #
-5.0761937865815411896619480103254 2:0.5 5:0.25 9:0.25 #
55.83813165239695308628142811358 1:0.22222222 2:0.11111111 5:0.33333334 6:0.11111111 12:0.11111111 13:0.11111111 #
-48.223840972524641301788506098092 3:0.33333334 5:0.16666667 9:0.16666667 10:0.16666667 13:0.16666667 #
40.609550292652329517295584082603 1:0.5 4:0.25 13:0.25 #
-5.0761937865815411896619480103254 1:0.14285715 4:0.2857143 13:0.2857143 16:0.2857143 #
25.380968932907705948309740051627 5:0.5 6:0.25 10:0.25 #
53.300034759106182491450454108417 2:0.16666667 5:0.16666667 6:0.16666667 9:0.16666667 12:0.16666667 16:0.16666667 #
-35.533356506070788327633636072278 1:0.33333334 2:0.16666667 3:0.16666667 6:0.16666667 12:0.16666667 #
35.533356506070788327633636072278 2:0.16666667 3:0.16666667 5:0.16666667 9:0.33333334 13:0.16666667 #
5.0761937865815411896619480103254 1:0.40000001 2:0.2 4:0.2 13:0.2 #
25.380968932907705948309740051627 5:0.25 6:0.25 12:0.25 13:0.25 #
43.147647185943100112126558087766 1:0.69999999 4:0.15000001 13:0.15000001 #
-5.0761937865815411896619480103254 5:0.16666667 6:0.16666667 9:0.16666667 11:0.16666667 12:0.16666667 13:0.16666667 #
-48.223840972524641301788506098092 5:0.5 6:0.5 #
38.071453399361558922464610077441 2:0.16666667 5:0.33333334 6:0.16666667 12:0.16666667 13:0.16666667 #
-5.0761937865815411896619480103254 1:0.125 2:0.25 3:0.125 4:0.125 5:0.25 9:0.125 #
-5.0761937865815411896619480103254 1:0.25 2:0.25 4:0.25 5:0.25 #
-35.533356506070788327633636072278 1:0.25 2:0.25 3:0.25 9:0.25 #
-48.223840972524641301788506098092 1:0.33333334 2:0.33333334 6:0.33333334 #
-5.0761937865815411896619480103254 4:0.33333334 13:0.66666669 #
-32.995259612780017732802662067115 1:0.42857143 2:0.071428575 3:0.071428575 4:0.071428575 7:0.071428575 9:0.071428575 12:0.071428575 13:0.14285715 #
35.533356506070788327633636072278 1:0.33333334 7:0.16666667 9:0.16666667 13:0.16666667 16:0.16666667 #
-12.690484466453852974154870025814 4:0.33333334 6:0.33333334 14:0.33333334 #
-48.223840972524641301788506098092 1:0.125 4:0.375 5:0.125 13:0.25 14:0.125 #
-12.690484466453852974154870025814 5:0.25 6:0.25 12:0.25 13:0.25 #
15.228581359744623568985844030976 1:0.40000001 8:0.2 13:0.2 14:0.2 #
-53.300034759106182491450454108417 1:0.16666667 4:0.16666667 9:0.16666667 13:0.16666667 16:0.33333334 #
25.380968932907705948309740051627 1:0.44444445 2:0.22222222 5:0.33333334 #
58.376228545687723681112402118742 2:0.5 8:0.5 #
35.533356506070788327633636072278 6:1 #
2.5380968932907705948309740051627 2:0.5 5:0.5 #
43.147647185943100112126558087766 4:0.33333334 8:0.33333334 13:0.33333334 #
-65.990519225560035465605324134231 4:0.2 12:0.2 14:0.2 15:0.2 16:0.2 #
20.304775146326164758647792041302 1:0.40000001 2:0.2 6:0.2 13:0.2 #
35.533356506070788327633636072278 6:1 #
2.5380968932907705948309740051627 2:0.5 13:0.5 #
-27.91906582619847654314071405679 1:0.33333334 2:0.33333334 13:0.33333334 #
2.5380968932907705948309740051627 8:0.5 13:0.5 #
-10.152387573163082379323896020651 1:0.5 4:0.16666667 13:0.33333334 #
-30.457162719489247137971688061953 8:0.25 13:0.25 16:0.5 #
-25.380968932907705948309740051627 1:0.60000002 2:0.2 6:0.2 #
30.457162719489247137971688061953 1:0.60000002 4:0.2 13:0.2 #
17.766678253035394163816818036139 1:0.2 4:0.40000001 5:0.2 13:0.2 #
-5.0761937865815411896619480103254 5:0.33333334 14:0.33333334 16:0.33333334 #
-17.766678253035394163816818036139 1:0.25 8:0.25 13:0.25 16:0.25 #
22.842872039616935353478766046464 4:0.33333334 5:0.33333334 14:0.33333334 #
6.7544345469333393339184112846851 6:0.33333334 8:0.33333334 14:0.33333334 #
-17.766678253035394163816818036139 1:0.33333334 2:0.16666667 5:0.16666667 6:0.16666667 14:0.16666667 #
-44.825887946294898256383021362126 1:0.25 9:0.25 15:0.25 16:0.25 #
40.609550292652329517295584082603 1:0.25 4:0.25 13:0.25 14:0.25 #
40.609550292652329517295584082603 2:0.25 8:0.25 13:0.25 14:0.25 #
-48.223840972524641301788506098092 2:0.2 5:0.2 6:0.2 8:0.2 13:0.2 #
-40.609550292652329517295584082603 5:0.5 14:0.5 #
40.609550292652329517295584082603 2:0.5 13:0.5 #
-53.300034759106182491450454108417 1:0.16666667 4:0.16666667 9:0.16666667 13:0.16666667 16:0.33333334 #
40.609550292652329517295584082603 2:0.33333334 4:0.33333334 5:0.33333334 #
40.609550292652329517295584082603 2:0.33333334 3:0.33333334 5:0.33333334 #
15.228581359744623568985844030976 1:0.66666669 3:0.16666667 5:0.16666667 #
-15.228581359744623568985844030976 1:0.33333334 4:0.33333334 15:0.33333334 #
-25.380968932907705948309740051627 1:0.66666669 2:0.074074075 3:0.037037037 4:0.074074075 5:0.074074075 13:0.074074075 #
40.609550292652329517295584082603 2:0.33333334 4:0.33333334 5:0.33333334 #
-25.380968932907705948309740051627 4:0.5 14:0.5 #
35.533356506070788327633636072278 2:0.33333334 5:0.33333334 13:0.33333334 #
-17.766678253035394163816818036139 2:0.33333334 4:0.33333334 5:0.33333334 #
-35.533356506070788327633636072278 1:0.25 2:0.25 3:0.25 9:0.25 #
-10.152387573163082379323896020651 1:0.70833331 2:0.041666668 4:0.083333336 5:0.041666668 6:0.041666668 13:0.083333336 #
35.533356506070788327633636072278 6:0.5 10:0.5 #
-5.0761937865815411896619480103254 1:0.33333334 4:0.11111111 5:0.11111111 8:0.11111111 10:0.11111111 13:0.11111111 16:0.11111111 #
-48.223840972524641301788506098092 1:0.30000001 2:0.2 3:0.1 5:0.1 7:0.1 9:0.2 #
-15.228581359744623568985844030976 1:0.16666667 3:0.16666667 5:0.16666667 6:0.16666667 10:0.33333334 #
-20.304775146326164758647792041302 3:0.25 5:0.25 6:0.25 13:0.25 #
35.533356506070788327633636072278 1:0.125 2:0.125 5:0.125 6:0.125 7:0.125 8:0.125 9:0.125 14:0.125 #
-38.071453399361558922464610077441 1:0.40000001 2:0.2 3:0.1 5:0.1 7:0.1 9:0.1 #
-5.0761937865815411896619480103254 1:0.33333334 5:0.33333334 10:0.33333334 #
50.761937865815411896619480103254 1:0.25 2:0.25 3:0.25 9:0.25 #
-10.152387573163082379323896020651 1:0.66666669 3:0.16666667 5:0.16666667 #
40.609550292652329517295584082603 1:0.16666667 2:0.16666667 3:0.083333336 5:0.16666667 6:0.083333336 8:0.083333336 9:0.16666667 13:0.083333336 #
-60.914325438978494275943376123905 3:0.16666667 4:0.33333334 5:0.16666667 10:0.16666667 13:0.16666667 #
-17.766678253035394163816818036139 1:0.16666667 2:0.16666667 3:0.16666667 5:0.16666667 7:0.16666667 9:0.16666667 #
-22.842872039616935353478766046464 2:0.33333334 5:0.22222222 6:0.11111111 8:0.22222222 13:0.11111111 #
-17.766678253035394163816818036139 1:0.22222222 2:0.11111111 5:0.11111111 6:0.11111111 7:0.11111111 8:0.11111111 10:0.11111111 13:0.11111111 #
-5.0761937865815411896619480103254 1:0.33333334 2:0.33333334 13:0.33333334 #
40.609550292652329517295584082603 3:0.5 5:0.5 #
25.380968932907705948309740051627 2:0.25 5:0.25 6:0.5 #
-25.380968932907705948309740051627 5:0.16666667 6:0.33333334 7:0.16666667 9:0.16666667 14:0.16666667 #
20.304775146326164758647792041302 6:1 #
58.376228545687723681112402118742 2:0.5 6:0.5 #
71.066713012141576655267272144556 1:0.5 2:0.16666667 4:0.16666667 5:0.16666667 #
32.995259612780017732802662067115 1:0.06666667 2:0.2 5:0.33333334 6:0.06666667 8:0.06666667 9:0.06666667 11:0.06666667 13:0.13333334 #
-25.380968932907705948309740051627 1:0.5 2:0.16666667 5:0.22222222 6:0.11111111 #
55.83813165239695308628142811358 2:0.33333334 5:0.66666669 #
35.533356506070788327633636072278 1:0.33333334 2:0.25 4:0.083333336 5:0.083333336 6:0.083333336 8:0.041666668 13:0.083333336 16:0.041666668 #
-30.457162719489247137971688061953 2:0.25 5:0.25 6:0.5 #
-25.380968932907705948309740051627 2:0.16666667 3:0.16666667 5:0.33333334 9:0.33333334 #
25.380968932907705948309740051627 2:0.125 5:0.375 6:0.375 14:0.125 #
25.380968932907705948309740051627 2:0.16666667 5:0.33333334 8:0.16666667 13:0.16666667 14:0.16666667 #
55.83813165239695308628142811358 1:0.083333336 2:0.083333336 3:0.083333336 5:0.33333334 6:0.33333334 14:0.083333336 #
-30.457162719489247137971688061953 4:0.1 5:0.2 6:0.5 14:0.1 16:0.1 #
32.995259612780017732802662067115 1:0.25 2:0.125 3:0.0625 4:0.125 5:0.125 8:0.0625 10:0.0625 13:0.1875 #
-25.380968932907705948309740051627 2:0.16666667 3:0.16666667 5:0.16666667 8:0.16666667 10:0.16666667 13:0.16666667 #
-22.842872039616935353478766046464 1:0.45833334 2:0.125 3:0.041666668 4:0.041666668 5:0.16666667 6:0.041666668 9:0.041666668 13:0.041666668 16:0.041666668 #
27.91906582619847654314071405679 2:0.2 4:0.1 6:0.30000001 8:0.1 9:0.1 11:0.1 14:0.1 #
-15.228581359744623568985844030976 1:0.33333334 2:0.22222222 4:0.11111111 5:0.22222222 13:0.11111111 #
-30.457162719489247137971688061953 2:0.33333334 6:0.66666669 #
35.533356506070788327633636072278 1:0.375 2:0.25 4:0.0625 5:0.0625 6:0.125 13:0.125 #
25.380968932907705948309740051627 2:0.25 4:0.125 6:0.375 8:0.125 14:0.125 #
-30.457162719489247137971688061953 2:0.25 5:0.25 6:0.125 7:0.125 9:0.125 13:0.125 #
-25.380968932907705948309740051627 1:0.33333334 7:0.33333334 9:0.33333334 #
27.91906582619847654314071405679 2:0.16666667 4:0.083333336 5:0.41666666 6:0.25 13:0.083333336 #
-30.457162719489247137971688061953 2:0.25 5:0.25 6:0.125 7:0.125 9:0.125 13:0.125 #
-27.91906582619847654314071405679 2:0.25 4:0.25 6:0.25 16:0.25 #
-30.457162719489247137971688061953 2:0.25 4:0.125 6:0.375 8:0.125 14:0.125 #
-30.457162719489247137971688061953 2:0.5 5:0.5 #
-30.457162719489247137971688061953 4:0.1 5:0.2 6:0.5 14:0.1 16:0.1 #
-30.457162719489247137971688061953 2:0.16666667 4:0.16666667 5:0.33333334 6:0.16666667 13:0.16666667 #
-68.528616118850806060436298139393 1:0.25 2:0.16666667 5:0.33333334 6:0.16666667 14:0.083333336 #
-12.690484466453852974154870025814 2:0.25 6:0.25 12:0.25 13:0.25 #
-12.690484466453852974154870025814 7:0.5 9:0.5 #
-12.690484466453852974154870025814 2:0.33333334 8:0.33333334 13:0.33333334 #
73.604809905432347250098246149719 4:0.16666667 5:0.33333334 6:0.16666667 10:0.16666667 14:0.16666667 #
-12.690484466453852974154870025814 6:1 #
-12.690484466453852974154870025814 2:0.33333334 5:0.33333334 6:0.33333334 #
-12.690484466453852974154870025814 2:0.33333334 5:0.66666669 #
-12.690484466453852974154870025814 2:0.5 6:0.5 #
-12.690484466453852974154870025814 6:0.5 7:0.5 #
-12.690484466453852974154870025814 1:0.16666667 5:0.33333334 6:0.16666667 10:0.16666667 14:0.16666667 #
-12.690484466453852974154870025814 6:1 #
2.5380968932907705948309740051627 1:0.5 2:0.14285715 4:0.071428575 5:0.14285715 13:0.071428575 16:0.071428575 #
86.295294371886200224253116175532 1:0.16666667 6:0.16666667 7:0.16666667 9:0.16666667 10:0.16666667 15:0.16666667 #
-12.690484466453852974154870025814 4:0.5 5:0.5 #
-12.690484466453852974154870025814 1:0.22222222 2:0.11111111 5:0.11111111 6:0.11111111 7:0.11111111 8:0.11111111 9:0.11111111 13:0.11111111 #
-12.690484466453852974154870025814 1:0.16666667 6:0.16666667 7:0.16666667 9:0.16666667 10:0.16666667 15:0.16666667 #
-12.690484466453852974154870025814 2:0.33333334 8:0.33333334 13:0.33333334 #
-12.690484466453852974154870025814 6:0.16666667 7:0.33333334 10:0.16666667 12:0.16666667 13:0.16666667 #
-12.690484466453852974154870025814 7:0.25 8:0.25 10:0.25 15:0.25 #
-12.690484466453852974154870025814 2:0.33333334 7:0.33333334 9:0.33333334 #
78.681003692013888439760194160044 1:0.083333336 2:0.083333336 3:0.083333336 4:0.083333336 5:0.16666667 6:0.25 8:0.083333336 13:0.16666667 #
-12.690484466453852974154870025814 1:0.69230771 2:0.051282052 3:0.025641026 4:0.07692308 5:0.051282052 9:0.025641026 13:0.07692308 #
-12.690484466453852974154870025814 4:0.25 5:0.125 6:0.125 13:0.25 14:0.125 16:0.125 #
-12.690484466453852974154870025814 2:0.11111111 4:0.22222222 6:0.33333334 8:0.11111111 13:0.11111111 14:0.11111111 #
-5.0761937865815411896619480103254 1:0.33333334 2:0.33333334 5:0.33333334 #
63.452422332269264870774350129068 6:1 #
-12.690484466453852974154870025814 2:0.22222222 3:0.11111111 5:0.11111111 6:0.11111111 7:0.11111111 9:0.11111111 12:0.11111111 14:0.11111111 #
-12.690484466453852974154870025814 6:1 #
-5.0761937865815411896619480103254 1:0.33333334 2:0.33333334 5:0.33333334 #
-12.690484466453852974154870025814 7:0.25 10:0.25 13:0.25 16:0.25 #
-12.690484466453852974154870025814 2:0.11111111 4:0.11111111 5:0.33333334 6:0.33333334 14:0.11111111 #
-10.152387573163082379323896020651 1:0.33333334 7:0.33333334 9:0.33333334 #
-7.6142906798723117844929220154881 1:0.375 2:0.25 6:0.125 7:0.125 8:0.125 #
-12.690484466453852974154870025814 2:0.33333334 6:0.33333334 7:0.33333334 #
-12.690484466453852974154870025814 4:0.16666667 5:0.33333334 6:0.33333334 14:0.16666667 #
65.990519225560035465605324134231 2:0.25 8:0.25 13:0.25 14:0.25 #
-12.690484466453852974154870025814 2:0.25 6:0.5 8:0.25 #
-12.03038728860141404197747760918 1:0.55555558 3:0.055555556 4:0.11111111 9:0.055555556 11:0.055555556 13:0.11111111 16:0.055555556 #
-2.5380968932907705948309740051627 1:0.25 2:0.25 4:0.25 13:0.25 #
15.228581359744623568985844030976 1:0.33333334 3:0.33333334 11:0.33333334 #
-5.0761937865815411896619480103254 2:0.125 3:0.125 4:0.125 6:0.125 9:0.125 11:0.125 15:0.125 16:0.125 #
-5.0761937865815411896619480103254 2:0.25 4:0.25 7:0.25 16:0.25 #
-5.0761937865815411896619480103254 13:0.33333334 16:0.66666669 #
-65.990519225560035465605324134231 2:0.125 6:0.125 7:0.125 9:0.125 13:0.125 15:0.125 16:0.25 #
-5.0761937865815411896619480103254 2:0.125 3:0.25 4:0.125 6:0.125 11:0.125 13:0.125 16:0.125 #
-65.990519225560035465605324134231 13:0.5 16:0.5 #
-65.990519225560035465605324134231 5:0.25 6:0.25 9:0.083333336 11:0.083333336 13:0.16666667 16:0.16666667 #
-5.0761937865815411896619480103254 3:0.25 10:0.5 15:0.25 #
-5.0761937865815411896619480103254 4:0.33333334 8:0.16666667 13:0.33333334 15:0.16666667 #
-5.0761937865815411896619480103254 4:0.33333334 13:0.33333334 16:0.33333334 #
-65.990519225560035465605324134231 6:0.40000001 11:0.2 16:0.40000001 #
-5.0761937865815411896619480103254 2:0.5 9:0.5 #
55.83813165239695308628142811358 2:0.5 8:0.5 #
-5.0761937865815411896619480103254 1:0.25 4:0.25 5:0.25 14:0.25 #
-2.5380968932907705948309740051627 1:0.33333334 2:0.33333334 8:0.33333334 #
55.83813165239695308628142811358 13:0.5 16:0.5 #
-5.0761937865815411896619480103254 1:0.125 4:0.375 13:0.5 #
-5.0761937865815411896619480103254 7:0.5 9:0.5 #
55.83813165239695308628142811358 2:0.33333334 5:0.16666667 7:0.16666667 16:0.33333334 #
-5.0761937865815411896619480103254 5:0.5 6:0.5 #
-5.0761937865815411896619480103254 4:0.22222222 5:0.11111111 7:0.11111111 9:0.11111111 10:0.11111111 13:0.33333334 #
60.254228261126058896479662507772 2:0.25 3:0.25 9:0.25 10:0.25 #
-5.0761937865815411896619480103254 2:0.25 13:0.25 14:0.25 16:0.25 #
55.83813165239695308628142811358 2:0.25 5:0.25 6:0.25 10:0.25 #
-2.5380968932907705948309740051627 1:0.25 4:0.25 13:0.5 #
73.604809905432347250098246149719 2:0.25 3:0.25 6:0.25 12:0.25 #
55.83813165239695308628142811358 2:0.25 5:0.25 6:0.25 10:0.25 #
-5.0761937865815411896619480103254 1:0.69999999 3:0.050000001 4:0.1 9:0.050000001 11:0.050000001 13:0.050000001 #
-65.990519225560035465605324134231 2:0.083333336 4:0.25 5:0.083333336 6:0.083333336 9:0.16666667 13:0.25 15:0.083333336 #
-2.5380968932907705948309740051627 1:0.25 4:0.25 13:0.5 #
60.914325438978494275943376123905 16:1 #
20.304775146326164758647792041302 16:1 #
-45.685744079233870706957532092929 2:0.16666667 3:0.16666667 5:0.5 10:0.16666667 #
20.304775146326164758647792041302 1:0.33333334 4:0.16666667 13:0.16666667 16:0.33333334 #
20.304775146326164758647792041302 4:0.5 16:0.5 #
15.228581359744623568985844030976 2:0.22222222 4:0.11111111 5:0.11111111 6:0.11111111 8:0.11111111 13:0.22222222 16:0.11111111 #
-40.609550292652329517295584082603 1:0.33333334 2:0.33333334 5:0.11111111 6:0.11111111 13:0.11111111 #
65.990519225560035465605324134231 1:0.33333334 2:0.33333334 13:0.33333334 #
20.304775146326164758647792041302 4:0.5 16:0.5 #
22.842872039616935353478766046464 1:0.40000001 4:0.40000001 13:0.2 #
2.5380968932907705948309740051627 8:0.33333334 13:0.33333334 14:0.33333334 #
-40.609550292652329517295584082603 1:0.25 2:0.125 4:0.125 5:0.375 13:0.125 #
20.304775146326164758647792041302 1:0.25 2:0.25 4:0.083333336 5:0.16666667 8:0.083333336 13:0.16666667 #
20.304775146326164758647792041302 1:0.33333334 5:0.16666667 6:0.16666667 8:0.16666667 13:0.16666667 #
-40.609550292652329517295584082603 11:0.5 12:0.5 #
20.304775146326164758647792041302 1:0.33333334 13:0.33333334 16:0.33333334 #
-38.071453399361558922464610077441 1:0.33333334 4:0.33333334 16:0.33333334 #
22.842872039616935353478766046464 1:0.60000002 4:0.2 13:0.2 #
-40.609550292652329517295584082603 1:0.25 2:0.25 8:0.25 16:0.25 #
-40.609550292652329517295584082603 1:0.33333334 4:0.33333334 5:0.33333334 #
-45.685744079233870706957532092929 2:0.33333334 5:0.66666669 #
20.304775146326164758647792041302 1:0.16666667 5:0.16666667 6:0.16666667 8:0.16666667 13:0.16666667 16:0.16666667 #
20.304775146326164758647792041302 1:0.33333334 13:0.33333334 16:0.33333334 #
-38.071453399361558922464610077441 1:0.40000001 2:0.26666668 4:0.06666667 5:0.2 9:0.06666667 #
-45.685744079233870706957532092929 2:0.375 4:0.125 5:0.375 13:0.125 #
2.5380968932907705948309740051627 9:0.5 15:0.5 #
20.304775146326164758647792041302 1:0.33333334 13:0.33333334 16:0.33333334 #
20.304775146326164758647792041302 16:1 #
38.071453399361558922464610077441 1:0.4375 3:0.0625 4:0.0625 9:0.125 12:0.0625 13:0.0625 15:0.0625 16:0.125 #
38.071453399361558922464610077441 1:0.16666667 3:0.16666667 4:0.16666667 9:0.33333334 16:0.16666667 #
20.304775146326164758647792041302 8:0.5 13:0.5 #
12.690484466453852974154870025814 6:1 #
27.91906582619847654314071405679 1:0.16666667 4:0.083333336 5:0.16666667 6:0.16666667 9:0.083333336 11:0.083333336 13:0.083333336 14:0.083333336 16:0.083333336 #
-20.304775146326164758647792041302 1:0.55000001 3:0.050000001 4:0.15000001 9:0.1 13:0.15000001 #
38.071453399361558922464610077441 1:0.33333334 3:0.16666667 4:0.16666667 9:0.16666667 16:0.16666667 #
-48.223840972524641301788506098092 3:0.083333336 4:0.083333336 5:0.083333336 6:0.25 9:0.083333336 11:0.083333336 13:0.083333336 14:0.083333336 16:0.16666667 #
27.91906582619847654314071405679 1:0.1875 2:0.1875 5:0.375 16:0.25 #
78.681003692013888439760194160044 3:0.16666667 4:0.16666667 9:0.33333334 16:0.33333334 #
38.071453399361558922464610077441 1:0.25 2:0.083333336 3:0.16666667 8:0.16666667 9:0.083333336 13:0.16666667 16:0.083333336 #
-25.380968932907705948309740051627 1:0.5 2:0.083333336 3:0.041666668 4:0.041666668 5:0.083333336 6:0.083333336 9:0.083333336 13:0.083333336 #
86.295294371886200224253116175532 1:0.1875 3:0.1875 4:0.1875 9:0.1875 13:0.125 16:0.125 #
20.304775146326164758647792041302 3:0.25 5:0.25 11:0.25 15:0.25 #
73.604809905432347250098246149719 4:0.33333334 13:0.33333334 16:0.33333334 #
-10.152387573163082379323896020651 1:0.69444442 3:0.027777778 4:0.11111111 12:0.027777778 13:0.1388889 #
-32.995259612780017732802662067115 1:0.5 4:0.125 5:0.125 9:0.125 14:0.125 #
33.412876569860600284300744533539 1:0.33333334 8:0.33333334 13:0.33333334 #
-40.609550292652329517295584082603 1:0.625 3:0.041666668 4:0.041666668 5:0.083333336 6:0.083333336 11:0.041666668 13:0.041666668 16:0.041666668 #
-48.223840972524641301788506098092 2:0.25 9:0.25 13:0.25 16:0.25 #
-40.609550292652329517295584082603 1:0.25 4:0.25 13:0.5 #
-48.223840972524641301788506098092 3:0.33333334 12:0.33333334 15:0.33333334 #
12.690484466453852974154870025814 6:1 #
-48.223840972524641301788506098092 13:0.33333334 16:0.66666669 #
-48.223840972524641301788506098092 13:0.5 16:0.5 #
35.533356506070788327633636072278 1:0.11111111 3:0.11111111 4:0.22222222 9:0.11111111 11:0.11111111 13:0.22222222 16:0.11111111 #
-48.223840972524641301788506098092 13:0.25 16:0.75 #
-40.609550292652329517295584082603 1:0.2 2:0.1 3:0.1 4:0.1 5:0.1 9:0.1 13:0.1 16:0.2 #
30.457162719489247137971688061953 3:0.16666667 4:0.16666667 9:0.33333334 16:0.33333334 #
-13.108101423534435525652952492237 1:0.58333331 3:0.16666667 4:0.083333336 9:0.083333336 16:0.083333336 #
25.380968932907705948309740051627 4:0.33333334 13:0.5 16:0.16666667 #
-40.609550292652329517295584082603 1:0.25 2:0.0625 3:0.0625 5:0.0625 9:0.1875 15:0.0625 16:0.3125 #
-48.223840972524641301788506098092 1:0.16666667 13:0.33333334 16:0.5 #
-48.223840972524641301788506098092 3:0.16666667 4:0.16666667 5:0.16666667 13:0.16666667 16:0.33333334 #
-32.995259612780017732802662067115 11:1 #
20.304775146326164758647792041302 3:0.125 5:0.125 6:0.375 11:0.125 16:0.25 #
25.380968932907705948309740051627 3:0.125 4:0.125 5:0.125 6:0.25 11:0.125 16:0.25 #
-10.152387573163082379323896020651 8:0.33333334 10:0.33333334 13:0.33333334 #
-10.152387573163082379323896020651 2:0.33333334 5:0.33333334 8:0.16666667 13:0.16666667 #
25.380968932907705948309740051627 8:0.33333334 10:0.33333334 15:0.33333334 #
-7.6142906798723117844929220154881 1:0.42857143 6:0.14285715 8:0.14285715 13:0.14285715 16:0.14285715 #
-7.6142906798723117844929220154881 3:0.5 11:0.5 #
-2.5380968932907705948309740051627 1:0.70833331 4:0.125 9:0.041666668 13:0.083333336 15:0.041666668 #
-60.914325438978494275943376123905 1:0.25 4:0.25 13:0.5 #
-10.152387573163082379323896020651 2:0.16666667 3:0.16666667 4:0.16666667 6:0.16666667 11:0.16666667 16:0.16666667 #
-10.152387573163082379323896020651 2:0.33333334 5:0.33333334 9:0.33333334 #
43.147647185943100112126558087766 2:0.25 4:0.25 5:0.25 13:0.25 #
-10.152387573163082379323896020651 2:0.16666667 5:0.16666667 8:0.16666667 13:0.16666667 14:0.16666667 16:0.16666667 #
43.147647185943100112126558087766 2:0.25 4:0.25 5:0.25 13:0.25 #
-2.5380968932907705948309740051627 1:0.5 2:0.125 4:0.125 5:0.125 13:0.125 #
-10.152387573163082379323896020651 2:0.33333334 8:0.33333334 13:0.33333334 #
50.761937865815411896619480103254 1:0.40000001 4:0.2 7:0.2 9:0.2 #
-10.152387573163082379323896020651 3:0.25 4:0.25 5:0.25 12:0.25 #
-10.152387573163082379323896020651 4:0.25 5:0.5 14:0.25 #
-7.6142906798723117844929220154881 1:0.40000001 7:0.2 12:0.2 13:0.2 #
63.452422332269264870774350129068 1:0.33333334 2:0.16666667 8:0.16666667 13:0.16666667 16:0.16666667 #
-10.152387573163082379323896020651 2:0.33333334 8:0.33333334 13:0.33333334 #
-2.5380968932907705948309740051627 1:0.25 3:0.5 9:0.25 #
-10.152387573163082379323896020651 1:0.16666667 4:0.16666667 7:0.16666667 8:0.16666667 9:0.16666667 14:0.16666667 #
-7.6142906798723117844929220154881 3:0.25 11:0.25 12:0.25 13:0.25 #
-10.152387573163082379323896020651 1:0.16666667 2:0.16666667 3:0.16666667 5:0.16666667 7:0.16666667 9:0.16666667 #
-7.6142906798723117844929220154881 1:0.40000001 3:0.1 4:0.1 5:0.1 10:0.1 13:0.1 16:0.1 #
-7.6142906798723117844929220154881 1:0.33333334 8:0.33333334 13:0.33333334 #
38.071453399361558922464610077441 1:0.25 2:0.25 3:0.25 5:0.25 #
-25.380968932907705948309740051627 5:0.33333334 7:0.33333334 10:0.33333334 #
38.071453399361558922464610077441 1:0.16666667 2:0.16666667 3:0.16666667 5:0.5 #
-10.152387573163082379323896020651 1:0.33333334 7:0.33333334 9:0.33333334 #
22.842872039616935353478766046464 2:0.33333334 5:0.66666669 #
-40.609550292652329517295584082603 1:0.33333334 2:0.13333334 3:0.2 5:0.13333334 9:0.2 #
63.452422332269264870774350129068 1:0.60000002 2:0.1 5:0.1 6:0.1 10:0.1 #
-40.609550292652329517295584082603 1:0.33333334 5:0.16666667 9:0.16666667 10:0.16666667 11:0.16666667 #
-10.152387573163082379323896020651 1:0.25 2:0.25 5:0.5 #
38.071453399361558922464610077441 1:0.25 2:0.25 5:0.25 6:0.25 #
71.066713012141576655267272144556 1:0.2 4:0.40000001 13:0.40000001 #
63.452422332269264870774350129068 1:0.60000002 8:0.2 13:0.2 #
38.071453399361558922464610077441 1:0.33333334 5:0.33333334 6:0.33333334 #
35.533356506070788327633636072278 1:0.25 5:0.25 7:0.25 10:0.25 #
-58.376228545687723681112402118742 1:0.40000001 3:0.2 5:0.2 9:0.2 #
-40.609550292652329517295584082603 1:0.5 2:0.1 7:0.2 9:0.2 #
-22.842872039616935353478766046464 2:0.33333334 5:0.16666667 6:0.33333334 9:0.16666667 #
-12.690484466453852974154870025814 1:0.16666667 2:0.16666667 3:0.16666667 5:0.33333334 6:0.16666667 #
22.842872039616935353478766046464 2:0.33333334 5:0.66666669 #
-53.300034759106182491450454108417 3:0.25 4:0.25 9:0.25 14:0.25 #
-5.0761937865815411896619480103254 1:0.5 7:0.25 9:0.25 #
-12.690484466453852974154870025814 1:0.16666667 2:0.16666667 3:0.16666667 5:0.33333334 6:0.16666667 #
-27.91906582619847654314071405679 1:0.60000002 2:0.15000001 4:0.050000001 5:0.15000001 13:0.050000001 #
-10.152387573163082379323896020651 3:0.33333334 5:0.33333334 9:0.33333334 #
-22.842872039616935353478766046464 2:0.33333334 5:0.16666667 6:0.33333334 9:0.16666667 #
-12.690484466453852974154870025814 1:0.125 2:0.125 4:0.125 5:0.125 6:0.125 9:0.125 10:0.125 13:0.125 #
-12.690484466453852974154870025814 1:0.125 2:0.125 4:0.125 5:0.125 6:0.125 9:0.125 10:0.125 13:0.125 #
38.071453399361558922464610077441 1:0.16666667 2:0.33333334 3:0.16666667 5:0.16666667 10:0.16666667 #
-50.761937865815411896619480103254 1:0.30000001 2:0.1 3:0.1 4:0.1 5:0.2 9:0.1 13:0.1 #
-40.609550292652329517295584082603 1:0.25 2:0.125 3:0.125 7:0.125 9:0.25 13:0.125 #
10.152387573163082379323896020651 1:0.33333334 7:0.33333334 9:0.33333334 #
10.152387573163082379323896020651 1:0.33333334 5:0.16666667 6:0.16666667 8:0.16666667 13:0.16666667 #
-10.152387573163082379323896020651 1:0.40000001 4:0.2 13:0.40000001 #
-17.766678253035394163816818036139 1:0.25 4:0.5 13:0.25 #
43.147647185943100112126558087766 1:0.16666667 2:0.16666667 5:0.16666667 9:0.16666667 13:0.16666667 16:0.16666667 #
5.0761937865815411896619480103254 1:0.11111111 2:0.22222222 4:0.11111111 7:0.22222222 9:0.22222222 15:0.11111111 #
7.6142906798723117844929220154881 1:0.16666667 2:0.16666667 7:0.16666667 9:0.16666667 13:0.16666667 16:0.16666667 #
5.0761937865815411896619480103254 1:0.11111111 2:0.22222222 4:0.11111111 7:0.22222222 9:0.22222222 15:0.11111111 #
5.0761937865815411896619480103254 2:0.33333334 5:0.66666669 #
-27.91906582619847654314071405679 1:0.16666667 3:0.16666667 7:0.16666667 9:0.16666667 12:0.16666667 13:0.16666667 #
35.533356506070788327633636072278 2:0.25 5:0.25 8:0.25 13:0.25 #
10.152387573163082379323896020651 1:0.33333334 5:0.33333334 6:0.33333334 #
2.5380968932907705948309740051627 8:0.5 13:0.5 #
10.152387573163082379323896020651 3:0.5 9:0.5 #
-25.380968932907705948309740051627 1:0.5 3:0.25 5:0.25 #
10.152387573163082379323896020651 1:0.25 2:0.25 7:0.25 9:0.25 #
-27.91906582619847654314071405679 1:0.16666667 3:0.16666667 7:0.16666667 9:0.16666667 12:0.16666667 13:0.16666667 #
-5.0761937865815411896619480103254 1:0.78571427 4:0.071428575 9:0.071428575 15:0.071428575 #
-17.766678253035394163816818036139 1:0.16666667 2:0.16666667 4:0.16666667 5:0.16666667 6:0.16666667 13:0.16666667 #
-17.766678253035394163816818036139 2:0.25 4:0.25 5:0.25 13:0.25 #
-2.5380968932907705948309740051627 1:0.33333334 4:0.33333334 16:0.33333334 #
38.071453399361558922464610077441 1:0.60000002 3:0.2 12:0.2 #
-30.457162719489247137971688061953 1:0.375 2:0.125 4:0.125 5:0.125 9:0.125 13:0.125 #
35.533356506070788327633636072278 5:0.33333334 6:0.66666669 #
-17.766678253035394163816818036139 4:0.5 16:0.5 #
20.304775146326164758647792041302 2:0.5 5:0.5 #
35.533356506070788327633636072278 5:0.5 6:0.5 #
-22.842872039616935353478766046464 5:0.5 6:0.5 #
45.685744079233870706957532092929 4:0.5 13:0.5 #
35.533356506070788327633636072278 1:0.5 13:0.25 16:0.25 #
-20.304775146326164758647792041302 2:0.5 5:0.5 #
-17.766678253035394163816818036139 1:0.16666667 2:0.16666667 4:0.16666667 5:0.16666667 6:0.16666667 13:0.16666667 #
2.5380968932907705948309740051627 1:0.5625 3:0.0625 4:0.125 5:0.0625 9:0.0625 13:0.125 #
-12.690484466453852974154870025814 1:0.54166669 3:0.125 4:0.125 9:0.083333336 13:0.125 #
-43.147647185943100112126558087766 1:0.16666667 9:0.16666667 11:0.16666667 13:0.16666667 16:0.33333334 #
25.380968932907705948309740051627 4:0.5 13:0.5 #
20.304775146326164758647792041302 4:0.5 14:0.5 #
-17.766678253035394163816818036139 9:0.16666667 11:0.33333334 13:0.16666667 16:0.33333334 #
-22.842872039616935353478766046464 5:0.33333334 6:0.66666669 #
-20.304775146326164758647792041302 2:0.5 5:0.5 #
20.304775146326164758647792041302 13:0.5 16:0.5 #
-15.228581359744623568985844030976 1:0.25 2:0.25 5:0.5 #
22.842872039616935353478766046464 1:0.16666667 3:0.33333334 4:0.16666667 9:0.16666667 14:0.16666667 #
5.0761937865815411896619480103254 2:0.5 7:0.5 #
-17.766678253035394163816818036139 2:0.16666667 3:0.16666667 4:0.16666667 5:0.16666667 6:0.16666667 9:0.16666667 #
-32.995259612780017732802662067115 1:0.33333334 2:0.16666667 4:0.16666667 5:0.16666667 13:0.16666667 #
-25.380968932907705948309740051627 1:0.25 3:0.25 9:0.25 11:0.25 #
53.300034759106182491450454108417 3:0.5 10:0.5 #
50.761937865815411896619480103254 1:0.2 2:0.30000001 3:0.1 5:0.2 7:0.1 9:0.1 #
-60.914325438978494275943376123905 6:0.5 8:0.5 #
15.228581359744623568985844030976 1:0.1 2:0.2 4:0.1 5:0.1 8:0.1 9:0.1 13:0.2 15:0.1 #
60.914325438978494275943376123905 1:0.16666667 2:0.33333334 5:0.25 12:0.083333336 13:0.16666667 #
45.685744079233870706957532092929 2:0.5 5:0.5 #
-17.766678253035394163816818036139 1:0.16666667 2:0.16666667 4:0.16666667 5:0.33333334 14:0.16666667 #
-27.91906582619847654314071405679 4:0.5 14:0.5 #
-40.609550292652329517295584082603 1:0.25 2:0.25 5:0.25 9:0.25 #
20.304775146326164758647792041302 2:0.16666667 3:0.33333334 5:0.16666667 13:0.33333334 #
5.0761937865815411896619480103254 1:0.63636363 2:0.090909094 3:0.090909094 5:0.090909094 9:0.090909094 #
7.6142906798723117844929220154881 2:0.33333334 5:0.16666667 6:0.16666667 9:0.16666667 15:0.16666667 #
-10.152387573163082379323896020651 1:0.33333334 2:0.06666667 4:0.2 5:0.13333334 13:0.2 16:0.06666667 #
-25.380968932907705948309740051627 5:0.5 10:0.5 #
-38.071453399361558922464610077441 1:0.25 3:0.25 9:0.25 11:0.25 #
22.842872039616935353478766046464 1:0.125 3:0.25 4:0.125 8:0.125 9:0.125 12:0.125 13:0.125 #
7.6142906798723117844929220154881 2:0.33333334 5:0.16666667 6:0.16666667 9:0.16666667 15:0.16666667 #
-10.152387573163082379323896020651 1:0.33333334 2:0.33333334 5:0.16666667 8:0.16666667 #
20.304775146326164758647792041302 1:0.16666667 2:0.16666667 5:0.5 10:0.16666667 #
-30.457162719489247137971688061953 7:0.25 9:0.25 14:0.25 15:0.25 #
43.147647185943100112126558087766 4:0.5 14:0.5 #
40.609550292652329517295584082603 2:0.25 5:0.25 6:0.25 14:0.25 #
-2.5380968932907705948309740051627 1:0.69999999 3:0.050000001 4:0.050000001 5:0.050000001 12:0.050000001 13:0.1 #
45.685744079233870706957532092929 2:0.33333334 5:0.33333334 6:0.33333334 #
-32.995259612780017732802662067115 5:0.16666667 6:0.5 15:0.16666667 16:0.16666667 #
29.769787220342784905824373709038 8:0.25 14:0.25 15:0.25 16:0.25 #
-7.6142906798723117844929220154881 1:0.55555558 2:0.055555556 4:0.11111111 8:0.055555556 9:0.055555556 13:0.16666667 #
-30.457162719489247137971688061953 2:0.25 5:0.25 6:0.25 14:0.25 #
-30.457162719489247137971688061953 5:0.5 10:0.5 #
-30.457162719489247137971688061953 2:0.33333334 5:0.33333334 6:0.33333334 #
-30.457162719489247137971688061953 1:0.16666667 2:0.083333336 5:0.083333336 6:0.083333336 7:0.083333336 8:0.083333336 9:0.083333336 10:0.083333336 11:0.083333336 15:0.16666667 #
-30.457162719489247137971688061953 2:0.16666667 3:0.16666667 7:0.16666667 10:0.33333334 13:0.16666667 #
-15.228581359744623568985844030976 1:0.25 4:0.25 13:0.375 16:0.125 #
48.223840972524641301788506098092 1:0.22222222 4:0.22222222 5:0.11111111 6:0.11111111 9:0.11111111 13:0.11111111 15:0.11111111 #
-30.457162719489247137971688061953 2:0.16666667 5:0.16666667 6:0.33333334 8:0.16666667 14:0.16666667 #
40.609550292652329517295584082603 2:0.16666667 5:0.33333334 6:0.16666667 8:0.16666667 14:0.16666667 #
38.071453399361558922464610077441 5:0.5 6:0.25 14:0.25 #
-30.457162719489247137971688061953 2:0.25 13:0.5 16:0.25 #
50.761937865815411896619480103254 1:0.5 3:0.25 10:0.25 #
35.533356506070788327633636072278 6:0.33333334 7:0.33333334 8:0.16666667 13:0.16666667 #
45.685744079233870706957532092929 1:0.125 2:0.125 4:0.25 5:0.125 6:0.125 13:0.25 #
-27.91906582619847654314071405679 1:0.125 2:0.25 5:0.25 8:0.125 13:0.125 16:0.125 #
-29.769787220342784905824373709038 1:0.16666667 2:0.16666667 5:0.33333334 6:0.16666667 13:0.16666667 #
-30.457162719489247137971688061953 5:0.16666667 6:0.5 8:0.16666667 13:0.16666667 #
-68.528616118850806060436298139393 3:0.16666667 4:0.16666667 9:0.5 13:0.16666667 #
-25.380968932907705948309740051627 3:0.33333334 5:0.33333334 12:0.33333334 #
-27.91906582619847654314071405679 1:0.25 5:0.25 6:0.5 #
-30.457162719489247137971688061953 4:0.5 14:0.5 #
-12.690484466453852974154870025814 1:0.40000001 2:0.1 5:0.1 6:0.2 8:0.1 13:0.1 #
38.071453399361558922464610077441 5:0.25 6:0.5 14:0.25 #
50.761937865815411896619480103254 1:0.5 2:0.25 7:0.25 #
48.223840972524641301788506098092 1:0.33333334 5:0.33333334 6:0.33333334 #
-30.457162719489247137971688061953 1:0.16666667 2:0.083333336 5:0.083333336 6:0.083333336 7:0.083333336 8:0.083333336 9:0.083333336 10:0.083333336 11:0.083333336 15:0.16666667 #
-22.842872039616935353478766046464 4:0.33333334 13:0.33333334 16:0.33333334 #
-25.380968932907705948309740051627 2:0.25 5:0.25 6:0.5 #
-10.152387573163082379323896020651 1:0.66666669 3:0.055555556 4:0.11111111 5:0.055555556 9:0.055555556 14:0.055555556 #
-25.380968932907705948309740051627 2:0.5 6:0.5 #
32.995259612780017732802662067115 5:0.5 6:0.5 #
-25.380968932907705948309740051627 8:0.5 13:0.5 #
-22.842872039616935353478766046464 1:0.25 2:0.25 5:0.5 #
-10.152387573163082379323896020651 1:0.2 4:0.40000001 13:0.40000001 #
35.533356506070788327633636072278 8:0.5 13:0.5 #
36.074014506223505804882734082639 2:0.33333334 5:0.5 6:0.16666667 #
-22.842872039616935353478766046464 1:0.22222222 2:0.22222222 5:0.33333334 6:0.22222222 #
-25.380968932907705948309740051627 5:0.5 6:0.5 #
32.995259612780017732802662067115 5:0.5 6:0.5 #
-25.380968932907705948309740051627 5:0.5 6:0.5 #
-22.842872039616935353478766046464 1:0.2 2:0.2 4:0.06666667 5:0.2 6:0.26666668 14:0.06666667 #
38.071453399361558922464610077441 13:0.5 16:0.5 #
43.147647185943100112126558087766 4:0.25 12:0.25 13:0.5 #
-22.842872039616935353478766046464 1:0.33333334 5:0.33333334 6:0.33333334 #
7.6142906798723117844929220154881 1:0.5 3:0.25 12:0.25 #
-22.842872039616935353478766046464 3:0.33333334 5:0.33333334 10:0.33333334 #
-22.842872039616935353478766046464 1:0.16666667 2:0.16666667 3:0.083333336 4:0.083333336 5:0.25 6:0.083333336 10:0.083333336 13:0.083333336 #
-10.152387573163082379323896020651 1:0.60000002 3:0.1 4:0.1 9:0.1 13:0.1 #
-38.071453399361558922464610077441 1:0.40000001 2:0.2 4:0.2 13:0.2 #
38.071453399361558922464610077441 2:0.5 8:0.5 #
45.685744079233870706957532092929 1:0.16666667 2:0.16666667 3:0.083333336 4:0.083333336 5:0.25 6:0.083333336 10:0.083333336 13:0.083333336 #
35.533356506070788327633636072278 2:0.16666667 5:0.16666667 6:0.33333334 8:0.16666667 13:0.16666667 #
43.147647185943100112126558087766 1:0.16666667 2:0.16666667 5:0.25 6:0.083333336 9:0.083333336 12:0.083333336 13:0.083333336 15:0.083333336 #
-68.528616118850806060436298139393 3:0.16666667 5:0.33333334 6:0.33333334 13:0.16666667 #
-3.0787548934434898484369114157744 1:0.5 2:0.25 7:0.25 #
2.5380968932907705948309740051627 1:0.5 2:0.125 5:0.125 6:0.25 #
-10.152387573163082379323896020651 1:0.60000002 3:0.1 4:0.1 9:0.1 13:0.1 #
45.685744079233870706957532092929 1:0.25 2:0.25 5:0.5 #
63.452422332269264870774350129068 4:0.33333334 13:0.33333334 16:0.33333334 #
40.609550292652329517295584082603 1:0.11111111 2:0.22222222 4:0.11111111 5:0.33333334 13:0.11111111 16:0.11111111 #
-22.842872039616935353478766046464 1:0.30000001 2:0.1 3:0.050000001 4:0.15000001 5:0.050000001 8:0.050000001 9:0.050000001 10:0.050000001 13:0.15000001 16:0.050000001 #
-22.842872039616935353478766046464 1:0.25 4:0.25 13:0.5 #
-22.842872039616935353478766046464 1:0.5 5:0.25 14:0.25 #
-25.380968932907705948309740051627 13:0.5 16:0.5 #
63.452422332269264870774350129068 4:0.33333334 13:0.33333334 16:0.33333334 #
63.452422332269264870774350129068 1:0.11111111 2:0.22222222 4:0.11111111 5:0.33333334 13:0.11111111 16:0.11111111 #
-25.380968932907705948309740051627 5:0.16666667 6:0.16666667 9:0.16666667 11:0.16666667 13:0.16666667 16:0.16666667 #
-25.380968932907705948309740051627 1:0.083333336 2:0.16666667 4:0.083333336 5:0.25 8:0.083333336 13:0.25 16:0.083333336 #
-24.912088418939440259691764367744 1:0.125 2:0.125 4:0.125 5:0.25 13:0.25 16:0.125 #
-22.842872039616935353478766046464 1:0.25 4:0.16666667 5:0.083333336 6:0.083333336 7:0.083333336 9:0.083333336 13:0.16666667 16:0.083333336 #
43.147647185943100112126558087766 3:0.25 8:0.25 11:0.25 16:0.25 #
-22.842872039616935353478766046464 1:0.25 4:0.16666667 5:0.083333336 6:0.083333336 7:0.083333336 9:0.083333336 13:0.16666667 16:0.083333336 #
42.678766671974834423508582403883 10:0.5 15:0.5 #
81.219100585304659034591168165207 1:0.2857143 2:0.14285715 4:0.21428572 5:0.14285715 13:0.21428572 #
-15.228581359744623568985844030976 1:0.40000001 4:0.40000001 13:0.2 #
-25.380968932907705948309740051627 13:0.33333334 16:0.66666669 #
-22.842872039616935353478766046464 1:0.33333334 2:0.055555556 4:0.22222222 5:0.055555556 9:0.11111111 13:0.11111111 15:0.055555556 16:0.055555556 #
38.071453399361558922464610077441 4:0.25 13:0.25 16:0.5 #
-22.842872039616935353478766046464 1:0.16666667 2:0.16666667 4:0.16666667 5:0.16666667 6:0.16666667 16:0.16666667 #
-25.380968932907705948309740051627 13:0.25 16:0.75 #
-22.842872039616935353478766046464 1:0.375 4:0.125 5:0.125 6:0.125 13:0.125 16:0.125 #
40.609550292652329517295584082603 1:0.11111111 2:0.22222222 4:0.11111111 5:0.11111111 8:0.11111111 13:0.22222222 16:0.11111111 #
-25.380968932907705948309740051627 7:0.16666667 12:0.16666667 13:0.16666667 16:0.5 #
-83.75719747859542962942214217037 13:0.5 16:0.5 #
38.071453399361558922464610077441 4:0.25 13:0.25 16:0.5 #
-25.380968932907705948309740051627 5:0.5 6:0.5 #
60.914325438978494275943376123905 2:0.25 4:0.25 6:0.25 13:0.25 #
-22.842872039616935353478766046464 1:0.16666667 2:0.16666667 5:0.16666667 16:0.5 #
-22.842872039616935353478766046464 1:0.11111111 3:0.11111111 5:0.11111111 6:0.11111111 9:0.11111111 11:0.11111111 16:0.33333334 #
-22.842872039616935353478766046464 1:0.2857143 2:0.071428575 3:0.071428575 4:0.14285715 5:0.071428575 9:0.071428575 11:0.071428575 13:0.071428575 16:0.14285715 #
-22.842872039616935353478766046464 1:0.25 3:0.125 4:0.25 9:0.125 13:0.25 #
-45.685744079233870706957532092929 1:0.16666667 2:0.16666667 4:0.16666667 7:0.16666667 13:0.16666667 16:0.16666667 #
-32.995259612780017732802662067115 1:0.5 5:0.25 6:0.25 #
27.91906582619847654314071405679 2:0.33333334 5:0.33333334 6:0.33333334 #
-45.685744079233870706957532092929 2:0.33333334 5:0.33333334 6:0.33333334 #
32.995259612780017732802662067115 1:0.33333334 3:0.33333334 5:0.33333334 #
-35.533356506070788327633636072278 1:0.33333334 2:0.33333334 5:0.33333334 #
25.380968932907705948309740051627 5:0.33333334 7:0.33333334 10:0.33333334 #
-45.685744079233870706957532092929 1:0.16666667 2:0.16666667 4:0.16666667 7:0.16666667 13:0.16666667 16:0.16666667 #
-25.380968932907705948309740051627 1:0.46666667 2:0.13333334 4:0.06666667 5:0.13333334 7:0.06666667 9:0.06666667 16:0.06666667 #
30.457162719489247137971688061953 3:0.33333334 5:0.33333334 6:0.33333334 #
-45.685744079233870706957532092929 2:0.25 5:0.25 16:0.5 #
32.995259612780017732802662067115 2:0.25 3:0.25 5:0.5 #
32.995259612780017732802662067115 1:0.33333334 2:0.13333334 3:0.06666667 4:0.13333334 5:0.13333334 9:0.06666667 13:0.13333334 #
32.995259612780017732802662067115 1:0.16666667 2:0.33333334 3:0.16666667 5:0.33333334 #
30.457162719489247137971688061953 2:0.5 5:0.5 #
32.995259612780017732802662067115 2:0.33333334 5:0.33333334 9:0.33333334 #
-45.685744079233870706957532092929 2:0.25 5:0.25 13:0.25 16:0.25 #
32.995259612780017732802662067115 3:0.5 5:0.5 #
-45.685744079233870706957532092929 3:0.25 5:0.25 8:0.25 10:0.25 #
32.995259612780017732802662067115 2:0.33333334 5:0.33333334 9:0.33333334 #
32.995259612780017732802662067115 1:0.33333334 2:0.33333334 5:0.33333334 #
-45.685744079233870706957532092929 1:0.25 5:0.25 6:0.5 #
22.842872039616935353478766046464 6:0.33333334 7:0.33333334 10:0.33333334 #
-45.685744079233870706957532092929 2:0.25 5:0.25 6:0.25 9:0.25 #
32.995259612780017732802662067115 3:0.33333334 10:0.33333334 13:0.33333334 #
20.304775146326164758647792041302 6:1 #
-43.147647185943100112126558087766 1:0.25 2:0.25 5:0.25 6:0.25 #
30.457162719489247137971688061953 3:0.33333334 5:0.33333334 6:0.33333334 #
22.842872039616935353478766046464 2:0.25 6:0.25 7:0.25 8:0.25 #
-38.071453399361558922464610077441 1:0.22222222 6:0.11111111 8:0.11111111 9:0.11111111 11:0.11111111 13:0.22222222 16:0.11111111 #
32.995259612780017732802662067115 1:0.5 2:0.25 6:0.25 #
-17.766678253035394163816818036139 1:0.25 2:0.25 3:0.25 5:0.25 #
30.457162719489247137971688061953 2:0.33333334 7:0.33333334 9:0.33333334 #
7.6142906798723117844929220154881 2:0.5 5:0.5 #
15.228581359744623568985844030976 1:0.33333334 2:0.16666667 4:0.16666667 6:0.16666667 16:0.16666667 #
30.457162719489247137971688061953 2:0.5 7:0.25 8:0.25 #
-25.380968932907705948309740051627 1:0.25 2:0.083333336 3:0.083333336 4:0.083333336 5:0.16666667 6:0.083333336 12:0.083333336 13:0.083333336 14:0.083333336 #
10.152387573163082379323896020651 1:0.33333334 2:0.33333334 6:0.33333334 #
-30.457162719489247137971688061953 2:0.5 13:0.5 #
10.152387573163082379323896020651 1:0.33333334 2:0.33333334 6:0.33333334 #
-2.5380968932907705948309740051627 5:0.25 6:0.25 12:0.25 15:0.25 #
-32.995259612780017732802662067115 5:0.5 6:0.5 #
7.6142906798723117844929220154881 2:0.33333334 5:0.5 13:0.16666667 #
2.5380968932907705948309740051627 2:0.33333334 5:0.33333334 6:0.33333334 #
10.152387573163082379323896020651 1:0.25 4:0.25 5:0.25 14:0.25 #
-22.842872039616935353478766046464 1:0.5 4:0.16666667 13:0.16666667 16:0.16666667 #
10.152387573163082379323896020651 1:0.33333334 2:0.083333336 4:0.083333336 5:0.25 6:0.083333336 13:0.083333336 14:0.083333336 #
40.609550292652329517295584082603 3:0.25 5:0.25 6:0.25 12:0.25 #
-25.380968932907705948309740051627 1:0.25 2:0.25 4:0.083333336 5:0.16666667 13:0.16666667 16:0.083333336 #
15.228581359744623568985844030976 1:0.40000001 4:0.2 5:0.2 14:0.2 #
-32.995259612780017732802662067115 1:0.25 2:0.125 3:0.125 5:0.25 9:0.25 #
25.380968932907705948309740051627 1:0.5 5:0.25 6:0.25 #
22.842872039616935353478766046464 1:0.33333334 9:0.33333334 15:0.33333334 #
-25.380968932907705948309740051627 10:1 #
-25.380968932907705948309740051627 1:0.5 9:0.25 15:0.25 #
22.842872039616935353478766046464 1:0.11111111 2:0.33333334 4:0.11111111 5:0.22222222 9:0.11111111 13:0.11111111 #
22.842872039616935353478766046464 1:0.33333334 2:0.33333334 8:0.33333334 #
-25.380968932907705948309740051627 3:0.33333334 12:0.33333334 13:0.33333334 #
15.228581359744623568985844030976 2:0.5 5:0.5 #
-15.228581359744623568985844030976 1:0.5 4:0.25 16:0.25 #
15.228581359744623568985844030976 13:0.5 16:0.5 #
-25.380968932907705948309740051627 8:1 #
25.380968932907705948309740051627 1:0.5 4:0.25 16:0.25 #
-15.228581359744623568985844030976 1:0.33333334 3:0.33333334 13:0.33333334 #
15.228581359744623568985844030976 12:0.5 13:0.5 #
-15.228581359744623568985844030976 1:0.33333334 3:0.33333334 13:0.33333334 #
35.533356506070788327633636072278 2:0.33333334 5:0.66666669 #
-25.380968932907705948309740051627 1:0.33333334 12:0.33333334 13:0.33333334 #
-25.380968932907705948309740051627 8:1 #
22.842872039616935353478766046464 3:0.5 12:0.5 #
-25.380968932907705948309740051627 4:0.5 16:0.5 #
2.5380968932907705948309740051627 13:0.25 16:0.75 #
-0.18850313859025513707479149161372 1:0.40000001 3:0.2 5:0.2 10:0.2 #
-45.685744079233870706957532092929 1:0.375 2:0.125 4:0.125 5:0.25 6:0.125 #
50.761937865815411896619480103254 4:0.5 14:0.25 16:0.25 #
-53.300034759106182491450454108417 2:0.25 4:0.25 8:0.25 13:0.25 #
-15.228581359744623568985844030976 1:0.375 4:0.125 12:0.125 13:0.125 15:0.125 16:0.125 #
60.914325438978494275943376123905 1:0.40000001 2:0.2 7:0.2 9:0.2 #
27.91906582619847654314071405679 2:0.33333334 5:0.16666667 6:0.16666667 8:0.16666667 14:0.16666667 #
12.690484466453852974154870025814 1:0.125 4:0.375 13:0.5 #
32.995259612780017732802662067115 1:0.125 2:0.25 5:0.25 6:0.125 13:0.25 #
12.690484466453852974154870025814 1:0.25 2:0.25 8:0.25 13:0.25 #
-5.0761937865815411896619480103254 1:0.375 4:0.25 13:0.25 16:0.125 #
-45.685744079233870706957532092929 1:0.5 5:0.25 14:0.25 #
2.5380968932907705948309740051627 1:0.58333331 4:0.16666667 8:0.083333336 13:0.16666667 #
2.5380968932907705948309740051627 13:0.25 16:0.75 #
-25.380968932907705948309740051627 2:0.33333334 7:0.33333334 9:0.33333334 #
53.300034759106182491450454108417 1:0.63636363 2:0.090909094 4:0.090909094 5:0.090909094 13:0.090909094 #
-27.91906582619847654314071405679 1:0.5 4:0.125 8:0.125 13:0.125 16:0.125 #
25.380968932907705948309740051627 2:0.16666667 5:0.16666667 6:0.16666667 13:0.16666667 16:0.33333334 #
50.950441004405668365961901145056 10:0.33333334 16:0.66666669 #
15.228581359744623568985844030976 2:0.16666667 5:0.16666667 6:0.16666667 13:0.16666667 16:0.33333334 #
-53.300034759106182491450454108417 1:0.2 4:0.2 5:0.2 13:0.2 16:0.2 #
-10.152387573163082379323896020651 1:0.375 2:0.125 5:0.125 6:0.125 9:0.125 11:0.125 #
27.91906582619847654314071405679 1:0.33333334 4:0.33333334 14:0.33333334 #
-53.300034759106182491450454108417 4:0.33333334 5:0.33333334 13:0.33333334 #
-25.380968932907705948309740051627 2:0.16666667 5:0.33333334 6:0.16666667 14:0.16666667 16:0.16666667 #
-17.766678253035394163816818036139 1:0.33333334 8:0.33333334 13:0.33333334 #
-17.766678253035394163816818036139 2:0.33333334 8:0.33333334 13:0.33333334 #
-17.766678253035394163816818036139 2:0.33333334 5:0.66666669 #
58.376228545687723681112402118742 4:0.5 13:0.5 #
-15.228581359744623568985844030976 1:0.16666667 2:0.16666667 5:0.16666667 6:0.16666667 8:0.16666667 13:0.16666667 #
-15.228581359744623568985844030976 2:0.25 8:0.25 9:0.25 16:0.25 #
-17.766678253035394163816818036139 13:0.5 16:0.5 #
-15.228581359744623568985844030976 1:0.1 2:0.1 3:0.1 4:0.2 5:0.1 9:0.1 13:0.30000001 #
-17.766678253035394163816818036139 8:0.5 14:0.5 #
58.376228545687723681112402118742 1:0.22222222 2:0.22222222 5:0.22222222 6:0.11111111 8:0.11111111 14:0.11111111 #
-15.228581359744623568985844030976 1:0.16666667 2:0.16666667 3:0.16666667 5:0.16666667 6:0.16666667 13:0.16666667 #
-12.690484466453852974154870025814 1:0.25 4:0.25 9:0.25 13:0.25 #
60.914325438978494275943376123905 1:0.375 2:0.25 5:0.125 8:0.125 13:0.125 #
53.300034759106182491450454108417 16:1 #
-12.690484466453852974154870025814 1:0.33333334 2:0.33333334 13:0.33333334 #
-15.228581359744623568985844030976 1:0.25 5:0.25 14:0.25 16:0.25 #
-15.228581359744623568985844030976 2:0.33333334 4:0.16666667 5:0.16666667 13:0.16666667 16:0.16666667 #
-15.228581359744623568985844030976 1:0.16666667 4:0.16666667 5:0.33333334 6:0.16666667 13:0.16666667 #
-15.228581359744623568985844030976 1:0.25 2:0.125 4:0.125 5:0.25 6:0.125 13:0.125 #
-15.228581359744623568985844030976 1:0.33333334 5:0.33333334 6:0.33333334 #
-15.228581359744623568985844030976 1:0.16666667 4:0.16666667 5:0.33333334 6:0.16666667 13:0.16666667 #
-5.0761937865815411896619480103254 1:0.60000002 5:0.2 6:0.2 #
-15.228581359744623568985844030976 1:0.1 2:0.1 3:0.1 4:0.2 5:0.1 9:0.1 13:0.30000001 #
-5.0761937865815411896619480103254 1:0.60000002 5:0.2 14:0.2 #
48.223840972524641301788506098092 4:0.25 5:0.5 6:0.25 #
-58.376228545687723681112402118742 1:0.5 5:0.25 6:0.25 #
-15.228581359744623568985844030976 4:0.33333334 5:0.33333334 13:0.33333334 #
-7.6142906798723117844929220154881 1:0.5 5:0.25 6:0.25 #
40.609550292652329517295584082603 4:0.33333334 5:0.33333334 14:0.33333334 #
48.223840972524641301788506098092 2:0.33333334 5:0.66666669 #
-12.690484466453852974154870025814 1:0.33333334 5:0.33333334 10:0.33333334 #
-38.071453399361558922464610077441 1:0.5 4:0.16666667 9:0.16666667 15:0.16666667 #
-7.6142906798723117844929220154881 7:0.33333334 12:0.33333334 16:0.33333334 #
-60.914325438978494275943376123905 1:0.25 2:0.25 5:0.16666667 6:0.083333336 7:0.083333336 9:0.083333336 13:0.083333336 #
20.304775146326164758647792041302 7:0.5 9:0.5 #
63.452422332269264870774350129068 3:0.33333334 9:0.33333334 13:0.33333334 #
-5.0761937865815411896619480103254 4:0.25 9:0.25 13:0.25 15:0.25 #
10.152387573163082379323896020651 1:0.41666666 2:0.083333336 4:0.083333336 7:0.083333336 8:0.083333336 9:0.083333336 13:0.083333336 14:0.083333336 #
65.990519225560035465605324134231 1:0.33333334 4:0.33333334 5:0.33333334 #
12.690484466453852974154870025814 1:0.5 4:0.2857143 13:0.21428572 #
20.304775146326164758647792041302 4:0.33333334 5:0.33333334 15:0.33333334 #
-5.0761937865815411896619480103254 7:0.5 11:0.5 #
32.995259612780017732802662067115 5:0.5 10:0.5 #
12.690484466453852974154870025814 1:0.33333334 3:0.33333334 9:0.33333334 #
45.685744079233870706957532092929 3:0.33333334 9:0.33333334 13:0.33333334 #
-59.802602624532617880959151079878 1:0.16666667 4:0.33333334 5:0.16666667 13:0.33333334 #
12.690484466453852974154870025814 1:0.33333334 9:0.33333334 11:0.33333334 #
10.152387573163082379323896020651 1:0.33333334 2:0.33333334 9:0.33333334 #
-60.914325438978494275943376123905 1:0.25 2:0.25 5:0.16666667 6:0.083333336 7:0.083333336 9:0.083333336 13:0.083333336 #
-43.147647185943100112126558087766 8:1 #
-30.457162719489247137971688061953 1:0.25 4:0.25 5:0.25 13:0.25 #
10.152387573163082379323896020651 9:0.5 11:0.5 #
-10.152387573163082379323896020651 1:0.66666669 2:0.16666667 13:0.16666667 #
10.152387573163082379323896020651 1:0.2 2:0.1 3:0.1 4:0.1 5:0.2 9:0.1 13:0.1 16:0.1 #
-20.304775146326164758647792041302 1:0.5 2:0.1 3:0.1 5:0.1 8:0.1 13:0.1 #
19.193052331880288363663566997275 12:0.66666669 15:0.33333334 #
-5.0761937865815411896619480103254 5:0.5 10:0.5 #
-32.995259612780017732802662067115 2:0.33333334 5:0.33333334 8:0.33333334 #
38.071453399361558922464610077441 1:0.16666667 2:0.083333336 3:0.16666667 5:0.16666667 6:0.083333336 9:0.16666667 13:0.083333336 16:0.083333336 #
38.071453399361558922464610077441 2:0.25 4:0.25 9:0.25 13:0.25 #
27.91906582619847654314071405679 5:0.25 6:0.25 8:0.25 14:0.25 #
-32.995259612780017732802662067115 2:0.16666667 4:0.16666667 6:0.5 16:0.16666667 #
38.071453399361558922464610077441 1:0.5 2:0.25 5:0.25 #
38.071453399361558922464610077441 3:0.5 10:0.5 #
38.071453399361558922464610077441 1:0.16666667 2:0.16666667 4:0.16666667 5:0.16666667 6:0.16666667 15:0.16666667 #
-27.91906582619847654314071405679 1:0.25 2:0.5 5:0.25 #
-73.604809905432347250098246149719 4:0.25 5:0.25 13:0.25 16:0.25 #
-35.533356506070788327633636072278 5:0.5 6:0.5 #
32.995259612780017732802662067115 2:0.33333334 5:0.33333334 6:0.33333334 #
-32.995259612780017732802662067115 1:0.083333336 3:0.083333336 4:0.16666667 5:0.16666667 6:0.25 9:0.083333336 11:0.083333336 13:0.083333336 #
-32.995259612780017732802662067115 2:0.16666667 4:0.16666667 6:0.5 16:0.16666667 #
35.533356506070788327633636072278 5:0.125 6:0.25 7:0.125 9:0.125 11:0.125 16:0.25 #
-20.304775146326164758647792041302 1:0.25 4:0.5 13:0.25 #
38.071453399361558922464610077441 1:0.2 2:0.30000001 4:0.1 5:0.2 6:0.1 13:0.1 #
-60.914325438978494275943376123905 1:0.25 2:0.16666667 3:0.083333336 4:0.083333336 5:0.083333336 9:0.083333336 11:0.083333336 13:0.083333336 16:0.083333336 #
-27.91906582619847654314071405679 1:0.13333334 3:0.13333334 4:0.13333334 5:0.13333334 6:0.06666667 9:0.2 11:0.06666667 13:0.06666667 14:0.06666667 #
-32.995259612780017732802662067115 1:0.16666667 2:0.33333334 6:0.5 #
38.071453399361558922464610077441 1:0.25 2:0.25 5:0.25 6:0.25 #
-35.533356506070788327633636072278 5:0.5 6:0.5 #
-73.604809905432347250098246149719 2:0.25 4:0.25 9:0.25 13:0.25 #
32.995259612780017732802662067115 2:0.5 6:0.5 #
-35.533356506070788327633636072278 5:0.5 6:0.5 #
-35.533356506070788327633636072278 2:0.5 6:0.5 #
78.681003692013888439760194160044 1:0.16666667 2:0.083333336 3:0.16666667 5:0.16666667 6:0.083333336 9:0.16666667 13:0.083333336 16:0.083333336 #
27.91906582619847654314071405679 6:1 #
38.071453399361558922464610077441 4:0.33333334 13:0.33333334 16:0.33333334 #
-32.995259612780017732802662067115 1:0.125 2:0.0625 3:0.0625 4:0.1875 5:0.1875 6:0.0625 9:0.1875 14:0.0625 15:0.0625 #
-32.995259612780017732802662067115 3:0.16666667 4:0.16666667 8:0.16666667 9:0.16666667 10:0.16666667 16:0.16666667 #
38.071453399361558922464610077441 1:0.25 2:0.25 5:0.25 6:0.25 #
78.681003692013888439760194160044 1:0.40000001 4:0.2 5:0.2 14:0.2 #
65.990519225560035465605324134231 1:0.33333334 7:0.33333334 9:0.33333334 #
65.990519225560035465605324134231 1:0.5714286 3:0.14285715 4:0.071428575 5:0.071428575 9:0.071428575 13:0.071428575 #
-53.300034759106182491450454108417 1:0.27777779 4:0.16666667 5:0.11111111 11:0.055555556 12:0.055555556 13:0.11111111 14:0.055555556 15:0.055555556 16:0.11111111 #
-15.228581359744623568985844030976 5:0.25 6:0.25 13:0.25 16:0.25 #
-40.609550292652329517295584082603 2:0.5 5:0.5 #
-12.690484466453852974154870025814 5:0.25 6:0.25 16:0.5 #
-22.842872039616935353478766046464 5:0.25 6:0.25 15:0.25 16:0.25 #
-12.690484466453852974154870025814 2:0.5 13:0.5 #
20.304775146326164758647792041302 2:0.25 4:0.25 5:0.25 13:0.25 #
43.147647185943100112126558087766 11:0.5 16:0.5 #
-58.376228545687723681112402118742 3:0.16666667 8:0.16666667 9:0.33333334 14:0.16666667 16:0.16666667 #
-12.690484466453852974154870025814 2:0.5 13:0.5 #
-50.761937865815411896619480103254 1:0.22222222 2:0.055555556 3:0.11111111 4:0.16666667 5:0.055555556 8:0.055555556 9:0.16666667 13:0.16666667 #
43.147647185943100112126558087766 3:0.33333334 5:0.16666667 9:0.16666667 10:0.16666667 15:0.16666667 #
-12.690484466453852974154870025814 2:0.25 4:0.25 5:0.25 13:0.25 #
17.766678253035394163816818036139 9:0.25 11:0.25 15:0.25 16:0.25 #
43.147647185943100112126558087766 3:0.33333334 5:0.16666667 9:0.16666667 10:0.16666667 15:0.16666667 #
65.990519225560035465605324134231 1:0.55555558 2:0.11111111 3:0.11111111 5:0.11111111 9:0.11111111 #
40.609550292652329517295584082603 2:0.25 3:0.125 4:0.125 6:0.125 7:0.125 13:0.125 16:0.125 #
-40.609550292652329517295584082603 5:0.25 6:0.25 16:0.5 #
65.990519225560035465605324134231 11:0.5 16:0.5 #
-2.5380968932907705948309740051627 1:0.5 8:0.25 13:0.25 #
27.91906582619847654314071405679 9:0.5 15:0.5 #
22.842872039616935353478766046464 11:0.5 16:0.5 #
-73.604809905432347250098246149719 4:0.25 13:0.25 16:0.5 #
-12.690484466453852974154870025814 2:0.125 3:0.125 5:0.25 6:0.125 11:0.125 16:0.25 #
17.766678253035394163816818036139 1:0.16666667 3:0.16666667 5:0.16666667 12:0.16666667 14:0.16666667 15:0.16666667 #
-53.300034759106182491450454108417 1:0.125 2:0.125 3:0.125 4:0.125 5:0.125 9:0.125 13:0.125 16:0.125 #
-53.300034759106182491450454108417 1:0.13333334 3:0.2 4:0.06666667 6:0.06666667 8:0.06666667 9:0.06666667 10:0.13333334 11:0.06666667 12:0.06666667 13:0.13333334 #
-12.690484466453852974154870025814 3:0.25 9:0.25 14:0.25 16:0.25 #
73.604809905432347250098246149719 1:0.25 4:0.25 5:0.25 14:0.25 #
2.5380968932907705948309740051627 1:0.083333336 2:0.083333336 5:0.25 6:0.25 7:0.083333336 8:0.083333336 9:0.083333336 14:0.083333336 #
-68.528616118850806060436298139393 2:0.33333334 8:0.33333334 13:0.33333334 #
10.152387573163082379323896020651 1:0.54166669 2:0.083333336 4:0.16666667 5:0.083333336 13:0.125 #
2.5380968932907705948309740051627 1:0.22222222 5:0.11111111 6:0.22222222 7:0.22222222 9:0.11111111 12:0.11111111 #
10.152387573163082379323896020651 1:0.5 4:0.125 8:0.125 13:0.125 16:0.125 #
2.5380968932907705948309740051627 1:0.083333336 2:0.083333336 3:0.083333336 4:0.083333336 5:0.083333336 6:0.33333334 8:0.083333336 10:0.083333336 14:0.083333336 #
76.142906798723117844929220154881 1:0.3125 2:0.1875 5:0.1875 6:0.125 8:0.0625 13:0.0625 14:0.0625 #
-68.528616118850806060436298139393 2:0.33333334 6:0.33333334 13:0.33333334 #
10.152387573163082379323896020651 1:0.33333334 2:0.13333334 3:0.06666667 5:0.2 6:0.06666667 8:0.06666667 9:0.06666667 13:0.06666667 #
-22.842872039616935353478766046464 1:0.60000002 4:0.2 13:0.2 #
-25.380968932907705948309740051627 1:0.5 5:0.083333336 6:0.083333336 9:0.083333336 11:0.083333336 13:0.083333336 16:0.083333336 #
10.152387573163082379323896020651 3:0.33333334 9:0.66666669 #
10.152387573163082379323896020651 1:0.5 5:0.25 6:0.25 #
-50.761937865815411896619480103254 1:0.33333334 2:0.33333334 5:0.33333334 #
2.5380968932907705948309740051627 2:0.375 4:0.125 6:0.25 8:0.125 14:0.125 #
2.5380968932907705948309740051627 1:0.11111111 2:0.11111111 4:0.11111111 5:0.33333334 6:0.11111111 13:0.11111111 16:0.11111111 #
2.5380968932907705948309740051627 1:0.16666667 2:0.16666667 5:0.16666667 8:0.16666667 10:0.16666667 14:0.16666667 #
10.152387573163082379323896020651 1:0.34999999 2:0.15000001 4:0.25 5:0.050000001 13:0.2 #
10.152387573163082379323896020651 1:0.375 2:0.125 4:0.0625 5:0.1875 6:0.0625 12:0.0625 13:0.0625 16:0.0625 #
48.223840972524641301788506098092 5:0.5 14:0.5 #
10.152387573163082379323896020651 1:0.46666667 2:0.06666667 4:0.06666667 5:0.06666667 8:0.06666667 13:0.13333334 14:0.06666667 16:0.06666667 #
2.5380968932907705948309740051627 2:0.16666667 4:0.16666667 5:0.16666667 6:0.33333334 13:0.16666667 #
-68.528616118850806060436298139393 5:0.33333334 6:0.33333334 14:0.33333334 #
2.5380968932907705948309740051627 2:0.25 4:0.125 5:0.375 6:0.125 13:0.125 #
2.5380968932907705948309740051627 1:0.16666667 2:0.16666667 5:0.25 6:0.083333336 7:0.083333336 10:0.083333336 11:0.083333336 15:0.083333336 #
2.5380968932907705948309740051627 1:0.0625 2:0.1875 3:0.0625 5:0.25 6:0.1875 8:0.0625 10:0.0625 13:0.0625 14:0.0625 #
-58.376228545687723681112402118742 1:0.25 2:0.15000001 3:0.15000001 4:0.050000001 5:0.1 9:0.2 13:0.1 #
-58.376228545687723681112402118742 1:0.25 2:0.15000001 3:0.15000001 4:0.050000001 5:0.1 9:0.2 13:0.1 #
27.91906582619847654314071405679 1:0.11111111 4:0.11111111 6:0.22222222 8:0.11111111 10:0.11111111 13:0.33333334 #
27.91906582619847654314071405679 1:0.25 2:0.25 5:0.25 6:0.125 13:0.125 #
22.842872039616935353478766046464 2:0.11111111 5:0.33333334 10:0.11111111 11:0.11111111 13:0.11111111 16:0.22222222 #
27.91906582619847654314071405679 1:0.25 2:0.083333336 4:0.16666667 5:0.16666667 6:0.083333336 13:0.16666667 14:0.083333336 #
-7.6142906798723117844929220154881 1:0.30000001 3:0.2 4:0.2 9:0.1 10:0.1 13:0.1 #
-20.304775146326164758647792041302 12:0.5 13:0.5 #
55.83813165239695308628142811358 1:0.22222222 3:0.11111111 4:0.22222222 5:0.11111111 10:0.11111111 13:0.11111111 15:0.11111111 #
-83.75719747859542962942214217037 1:0.125 2:0.25 5:0.375 6:0.25 #
-20.304775146326164758647792041302 2:0.25 4:0.25 6:0.25 13:0.25 #
27.91906582619847654314071405679 1:0.25 2:0.0625 3:0.0625 4:0.0625 6:0.0625 7:0.0625 9:0.125 10:0.0625 13:0.0625 16:0.1875 #
-60.914325438978494275943376123905 1:0.25 2:0.2 3:0.050000001 4:0.050000001 5:0.2 6:0.050000001 12:0.050000001 13:0.15000001 #
-20.304775146326164758647792041302 3:0.33333334 5:0.33333334 7:0.16666667 9:0.16666667 #
-60.914325438978494275943376123905 1:0.125 2:0.125 3:0.0625 4:0.125 5:0.0625 6:0.0625 7:0.0625 9:0.0625 11:0.0625 12:0.0625 13:0.1875 #
71.066713012141576655267272144556 9:0.25 11:0.25 16:0.5 #
83.75719747859542962942214217037 1:0.3125 2:0.0625 3:0.0625 4:0.125 5:0.125 6:0.0625 10:0.125 13:0.0625 14:0.0625 #
-20.304775146326164758647792041302 4:0.16666667 5:0.16666667 9:0.16666667 15:0.16666667 16:0.33333334 #
-20.304775146326164758647792041302 3:0.33333334 5:0.33333334 7:0.16666667 9:0.16666667 #
-35.533356506070788327633636072278 1:0.44444445 2:0.14814815 3:0.037037037 4:0.11111111 5:0.11111111 9:0.037037037 13:0.11111111 #
71.066713012141576655267272144556 2:0.25 3:0.25 9:0.25 10:0.25 #
71.066713012141576655267272144556 1:0.25 2:0.125 5:0.125 6:0.125 8:0.125 13:0.125 16:0.125 #
22.842872039616935353478766046464 2:0.25 4:0.25 6:0.25 13:0.25 #
27.91906582619847654314071405679 10:0.25 11:0.25 16:0.5 #
-60.914325438978494275943376123905 2:0.16666667 4:0.083333336 5:0.25 7:0.083333336 12:0.083333336 13:0.083333336 14:0.083333336 15:0.083333336 16:0.083333336 #
-17.766678253035394163816818036139 1:0.25 2:0.083333336 4:0.16666667 5:0.083333336 9:0.083333336 13:0.083333336 14:0.083333336 16:0.16666667 #
-25.380968932907705948309740051627 2:0.33333334 7:0.33333334 9:0.33333334 #
27.91906582619847654314071405679 1:0.083333336 2:0.083333336 3:0.083333336 5:0.33333334 6:0.083333336 11:0.083333336 12:0.083333336 14:0.083333336 16:0.083333336 #
65.990519225560035465605324134231 4:0.16666667 6:0.16666667 7:0.16666667 10:0.16666667 11:0.16666667 16:0.16666667 #
-17.766678253035394163816818036139 1:0.22222222 2:0.11111111 4:0.11111111 6:0.22222222 7:0.11111111 11:0.11111111 16:0.11111111 #
55.83813165239695308628142811358 3:0.25 10:0.25 16:0.5 #
-60.914325438978494275943376123905 2:0.11111111 3:0.11111111 5:0.22222222 9:0.22222222 16:0.33333334 #
-60.914325438978494275943376123905 1:0.11111111 6:0.11111111 7:0.11111111 9:0.22222222 11:0.11111111 12:0.11111111 13:0.11111111 15:0.11111111 #
22.842872039616935353478766046464 5:0.25 10:0.25 16:0.5 #
22.842872039616935353478766046464 1:0.25 2:0.25 3:0.083333336 5:0.25 6:0.083333336 10:0.083333336 #
22.842872039616935353478766046464 2:0.25 3:0.25 9:0.5 #
20.304775146326164758647792041302 5:0.5 10:0.5 #
10.152387573163082379323896020651 2:0.16666667 5:0.16666667 8:0.33333334 14:0.16666667 15:0.16666667 #
20.304775146326164758647792041302 5:0.5 10:0.5 #
17.766678253035394163816818036139 5:0.25 10:0.25 13:0.25 16:0.25 #
22.842872039616935353478766046464 1:0.25 3:0.25 5:0.25 9:0.25 #
-30.457162719489247137971688061953 1:0.33333334 2:0.33333334 9:0.33333334 #
22.842872039616935353478766046464 3:0.5 5:0.5 #
10.152387573163082379323896020651 2:0.5 7:0.5 #
-43.147647185943100112126558087766 1:0.16666667 2:0.16666667 3:0.16666667 6:0.16666667 9:0.16666667 11:0.16666667 #
-38.071453399361558922464610077441 1:0.25 2:0.125 3:0.25 5:0.25 9:0.125 #
20.304775146326164758647792041302 4:0.33333334 5:0.33333334 13:0.33333334 #
-48.223840972524641301788506098092 5:0.5 10:0.5 #
22.842872039616935353478766046464 1:0.33333334 3:0.083333336 4:0.083333336 5:0.083333336 6:0.083333336 12:0.083333336 13:0.16666667 15:0.083333336 #
-36.965025107696817485702922567725 1:0.25 3:0.125 4:0.25 9:0.25 13:0.125 #
17.766678253035394163816818036139 2:0.5 13:0.5 #
16.660249961370652727055130526423 2:0.5 13:0.5 #
-48.223840972524641301788506098092 7:0.33333334 12:0.33333334 14:0.33333334 #
-20.304775146326164758647792041302 1:0.45454547 3:0.18181819 9:0.090909094 11:0.090909094 12:0.090909094 13:0.090909094 #
22.842872039616935353478766046464 1:0.33333334 7:0.33333334 9:0.33333334 #
22.842872039616935353478766046464 2:0.25 3:0.25 9:0.5 #
-48.223840972524641301788506098092 3:0.25 8:0.25 9:0.25 13:0.25 #
-48.223840972524641301788506098092 2:0.33333334 6:0.66666669 #
22.842872039616935353478766046464 1:0.16666667 3:0.16666667 4:0.16666667 9:0.16666667 13:0.16666667 16:0.16666667 #
12.690484466453852974154870025814 4:0.33333334 5:0.33333334 14:0.33333334 #
20.304775146326164758647792041302 1:0.25 7:0.25 12:0.25 13:0.25 #
12.690484466453852974154870025814 4:0.33333334 9:0.33333334 15:0.33333334 #
-32.995259612780017732802662067115 1:0.16666667 2:0.16666667 5:0.16666667 6:0.16666667 7:0.083333336 9:0.083333336 10:0.083333336 13:0.083333336 #
44.942841143136696757665049517527 4:0.16666667 5:0.16666667 6:0.16666667 7:0.16666667 13:0.16666667 14:0.16666667 #
17.766678253035394163816818036139 12:0.5 14:0.5 #
-32.995259612780017732802662067115 3:0.25 6:0.5 9:0.25 #
-20.304775146326164758647792041302 3:0.33333334 9:0.66666669 #
32.995259612780017732802662067115 1:0.11111111 2:0.11111111 5:0.22222222 8:0.11111111 9:0.11111111 11:0.11111111 13:0.11111111 14:0.11111111 #
35.938465458869501389926881529391 2:0.25 5:0.25 11:0.5 #
-22.842872039616935353478766046464 1:0.16666667 2:0.16666667 5:0.33333334 9:0.16666667 11:0.16666667 #
-32.995259612780017732802662067115 7:0.33333334 10:0.66666669 #
32.995259612780017732802662067115 3:0.25 5:0.25 9:0.25 10:0.25 #
35.871150489369242109205515589565 2:0.25 5:0.25 11:0.5 #
-32.995259612780017732802662067115 1:0.11111111 2:0.22222222 5:0.11111111 6:0.11111111 7:0.11111111 8:0.11111111 9:0.11111111 13:0.11111111 #
-20.304775146326164758647792041302 3:0.33333334 9:0.66666669 #
-17.766678253035394163816818036139 3:0.25 5:0.25 11:0.5 #
22.842872039616935353478766046464 5:0.16666667 6:0.33333334 7:0.16666667 9:0.16666667 10:0.16666667 #
60.914325438978494275943376123905 1:0.22222222 2:0.22222222 6:0.11111111 7:0.11111111 8:0.11111111 9:0.11111111 13:0.11111111 #
-32.995259612780017732802662067115 1:0.125 2:0.125 4:0.25 5:0.125 6:0.125 13:0.125 14:0.125 #
-32.995259612780017732802662067115 2:0.25 3:0.25 5:0.25 9:0.25 #
32.995259612780017732802662067115 2:0.16666667 4:0.16666667 5:0.16666667 6:0.16666667 11:0.33333334 #
-32.995259612780017732802662067115 8:0.25 9:0.25 11:0.25 15:0.25 #
-20.304775146326164758647792041302 1:0.5 3:0.16666667 4:0.16666667 13:0.16666667 #
-32.995259612780017732802662067115 1:0.11111111 3:0.11111111 4:0.11111111 5:0.22222222 6:0.11111111 9:0.22222222 14:0.11111111 #
-32.995259612780017732802662067115 1:0.083333336 2:0.083333336 4:0.16666667 5:0.16666667 6:0.083333336 8:0.083333336 10:0.083333336 11:0.083333336 13:0.16666667 #
65.990519225560035465605324134231 2:0.25 8:0.25 14:0.25 16:0.25 #
-32.995259612780017732802662067115 3:0.25 5:0.25 9:0.25 10:0.25 #
-17.766678253035394163816818036139 3:0.33333334 9:0.33333334 11:0.33333334 #
32.995259612780017732802662067115 2:0.11111111 3:0.11111111 4:0.11111111 5:0.22222222 6:0.11111111 10:0.22222222 13:0.11111111 #
-32.995259612780017732802662067115 5:0.25 6:0.25 9:0.25 15:0.25 #
71.066713012141576655267272144556 1:0.16666667 3:0.16666667 4:0.16666667 7:0.16666667 9:0.16666667 14:0.16666667 #
17.766678253035394163816818036139 12:0.5 14:0.5 #
-22.842872039616935353478766046464 1:0.33333334 2:0.16666667 6:0.16666667 8:0.16666667 13:0.16666667 #
-45.685744079233870706957532092929 5:0.5 6:0.5 #
-38.071453399361558922464610077441 1:0.25 3:0.083333336 4:0.16666667 9:0.16666667 13:0.083333336 15:0.083333336 16:0.16666667 #
-5.0761937865815411896619480103254 1:0.33333334 2:0.33333334 8:0.33333334 #
32.995259612780017732802662067115 1:0.33333334 2:0.33333334 5:0.33333334 #
25.380968932907705948309740051627 8:0.5 16:0.5 #
60.914325438978494275943376123905 1:0.16666667 4:0.16666667 5:0.16666667 6:0.16666667 10:0.16666667 15:0.16666667 #
-35.533356506070788327633636072278 1:0.40000001 2:0.1 3:0.1 4:0.1 5:0.1 6:0.1 9:0.1 #
-20.304775146326164758647792041302 2:0.25 5:0.25 9:0.25 15:0.25 #
-45.685744079233870706957532092929 8:0.5 16:0.5 #
32.995259612780017732802662067115 3:0.25 12:0.25 13:0.25 16:0.25 #
32.995259612780017732802662067115 1:0.125 2:0.125 4:0.125 6:0.375 13:0.125 16:0.125 #
32.995259612780017732802662067115 3:0.16666667 4:0.16666667 9:0.16666667 11:0.16666667 13:0.16666667 16:0.16666667 #
63.452422332269264870774350129068 1:0.33333334 2:0.33333334 5:0.33333334 #
32.995259612780017732802662067115 2:0.11111111 3:0.11111111 4:0.11111111 5:0.22222222 9:0.22222222 13:0.22222222 #
-38.071453399361558922464610077441 1:0.16666667 4:0.16666667 9:0.16666667 11:0.16666667 13:0.16666667 16:0.16666667 #
-43.147647185943100112126558087766 1:0.25 4:0.25 5:0.25 13:0.25 #
12.690484466453852974154870025814 5:0.33333334 14:0.33333334 16:0.33333334 #
