SVM-light Version V6.02
0 # kernel type
3 # kernel parameter -d 
1 # kernel parameter -g 
1 # kernel parameter -s 
1 # kernel parameter -r 
empty# kernel parameter -u 
16 # highest feature index 
1526 # number of training documents 
3 # number of support vectors plus 1 
0 # threshold b, each following line is a SV (starting with alpha*y)
inf 1:0.5 3:0.1 4:0.050000001 9:0.15000001 12:0.050000001 13:0.15000001 #
-inf 1:0.5 3:0.1 4:0.050000001 9:0.15000001 12:0.050000001 13:0.15000001 #
