SVM-light Version V6.02
0 # kernel type
3 # kernel parameter -d 
1 # kernel parameter -g 
1 # kernel parameter -s 
1 # kernel parameter -r 
empty# kernel parameter -u 
16 # highest feature index 
918 # number of training documents 
775 # number of support vectors plus 1 
0 # threshold b, each following line is a SV (starting with alpha*y)
4993.9739984441566775785759091377 1:0.95892859 2:0.0071428572 3:0.0017857143 4:0.010714286 5:0.0083333338 9:0.0017857143 13:0.011309524 #
-4993.9739984441566775785759091377 1:0.96488094 2:0.0065476191 4:0.010119048 5:0.0071428572 9:0.00059523812 13:0.010714286 #
4993.9739984441566775785759091377 1:0.94730395 2:0.017156864 3:0.0024509805 4:0.004901961 5:0.018382354 6:0.0012254902 9:0.0024509805 13:0.0061274511 #
-4993.9739984441566775785759091377 1:0.94485295 2:0.019607844 3:0.0024509805 4:0.0061274511 5:0.018382354 9:0.0024509805 13:0.0061274511 #
4993.9739984441566775785759091377 1:0.9755609 2:0.0052083335 3:0.0016025641 4:0.0052083335 5:0.0044070515 8:0.00040064103 9:0.0016025641 13:0.0060096155 #
-4993.9739984441566775785759091377 1:0.96965814 2:0.0064102565 3:0.0017094017 4:0.0064102565 5:0.0064102565 6:0.00042735043 9:0.0017094017 13:0.0068376069 16:0.00042735043 #
4993.9739984441566775785759091377 1:0.9668597 2:0.0096525094 3:0.0025740026 4:0.0041827541 5:0.0090090092 6:0.00032175033 7:0.00032175033 9:0.0025740026 13:0.0041827541 16:0.00032175033 #
-4993.9739984441566775785759091377 1:0.96975547 2:0.0090090092 3:0.0019305019 4:0.0041827541 5:0.0086872587 6:0.00032175033 9:0.0019305019 13:0.0041827541 #
4993.9739984441566775785759091377 1:0.97760469 2:0.0051119765 3:0.0012171373 4:0.0041382667 5:0.0051119765 6:0.00024342746 8:0.00024342746 9:0.0014605648 13:0.0046251216 16:0.00024342746 #
-4993.9739984441566775785759091377 1:0.97419029 2:0.0065789474 3:0.0010121458 4:0.0050607286 5:0.0063259108 8:0.00025303644 9:0.0012651822 13:0.0050607286 15:0.00025303644 #
4993.9739984441566775785759091377 1:0.95510662 2:0.0089786761 3:0.0033670033 4:0.0095398426 5:0.0089786761 9:0.0033670033 13:0.0095398426 16:0.0011223345 #
-4993.9739984441566775785759091377 1:0.95977962 2:0.0082644625 3:0.0033057851 4:0.0082644625 5:0.0077134985 9:0.0033057851 13:0.0088154273 16:0.00055096421 #
4993.9739984441566775785759091377 1:0.9727273 2:0.0056818184 3:0.0005681818 4:0.0062500001 5:0.0062500001 9:0.0011363636 13:0.0068181818 16:0.0005681818 #
-4993.9739984441566775785759091377 1:0.97346699 2:0.0053066039 3:0.00058962265 4:0.0070754718 5:0.0053066039 9:0.00058962265 13:0.0076650945 #
4993.9739984441566775785759091377 1:0.93864012 2:0.020453289 3:0.0011055832 4:0.0082918741 5:0.020453289 6:0.00055279158 9:0.0011055832 13:0.0093974574 #
-4993.9739984441566775785759091377 1:0.93773484 2:0.020933978 3:0.0010735373 4:0.0091250669 5:0.019323671 6:0.00053676864 8:0.00053676864 9:0.001610306 13:0.0085882982 15:0.00053676864 #
4993.9739984441566775785759091377 1:0.9234286 2:0.019428572 3:0.0057142857 4:0.009142857 5:0.020571429 7:0.0011428571 8:0.0011428571 9:0.0057142857 13:0.011428571 16:0.0022857143 #
-4993.9739984441566775785759091377 1:0.92307693 2:0.01948718 3:0.0061538462 4:0.011282051 5:0.01948718 9:0.0051282053 12:0.001025641 13:0.012307692 16:0.002051282 #
4993.9739984441566775785759091377 1:0.96177155 2:0.007925408 3:0.0023310024 4:0.007925408 5:0.008857809 9:0.0023310024 13:0.008857809 #
-4993.9739984441566775785759091377 1:0.96055794 2:0.0067340066 3:0.0028860029 4:0.0096200099 5:0.0076960078 9:0.0028860029 13:0.0091390088 14:0.00048100049 #
4993.9739984441566775785759091377 1:0.96428573 2:0.011544012 3:0.0014430014 4:0.0043290043 5:0.011183261 6:0.00072150072 8:0.00036075036 9:0.0014430014 13:0.0046897549 #
-4993.9739984441566775785759091377 1:0.96370685 2:0.0098661026 3:0.0024665256 4:0.0056377728 5:0.010570824 9:0.0024665256 13:0.0052854121 #
4993.9739984441566775785759091377 1:0.88275862 2:0.031034483 3:0.0068965517 4:0.024137931 5:0.017241379 6:0.0068965517 9:0.0034482758 13:0.027586207 #
-4993.9739984441566775785759091377 1:0.89655173 2:0.020689655 3:0.0068965517 4:0.024137931 5:0.024137931 9:0.0068965517 13:0.020689655 #
4993.9739984441566775785759091377 1:0.96845526 2:0.0068292683 3:0.0016260162 4:0.0068292683 5:0.0071544717 9:0.0019512195 13:0.0071544717 #
-4993.9739984441566775785759091377 1:0.97300816 2:0.0052032522 3:0.0016260162 4:0.0061788619 5:0.0058536585 9:0.0016260162 13:0.0061788619 16:0.00032520326 #
4993.9739984441566775785759091377 1:0.95941556 2:0.0083874455 3:0.0037878789 4:0.0070346319 5:0.0089285718 7:0.00027056277 8:0.00027056277 9:0.0040584416 13:0.00784632 #
-4993.9739984441566775785759091377 1:0.96031743 2:0.0067155068 3:0.0033577534 4:0.0091575095 5:0.0070207571 6:0.00030525032 9:0.0036630037 11:0.00030525032 13:0.0088522593 16:0.00030525032 #
4993.9739984441566775785759091377 1:0.80000001 2:0.034285713 3:0.017142856 4:0.037142858 5:0.037142858 6:0.0057142857 9:0.02 10:0.0028571428 13:0.037142858 15:0.0028571428 16:0.0057142857 #
-4993.9739984441566775785759091377 1:0.78571427 2:0.039999999 3:0.017142856 4:0.039999999 5:0.039999999 6:0.0057142857 9:0.02 10:0.0028571428 13:0.045714285 16:0.0028571428 #
4993.9739984441566775785759091377 1:0.92448515 2:0.013729977 3:0.0091533177 4:0.011441648 5:0.012585812 8:0.0011441647 9:0.0091533177 11:0.0011441647 13:0.014874142 15:0.0011441647 16:0.0011441647 #
-4993.9739984441566775785759091377 1:0.92677343 2:0.011441648 3:0.010297483 4:0.014874142 5:0.010297483 7:0.0011441647 9:0.011441648 13:0.013729977 #
3400.8973693688044477312359958887 1:0.76666665 2:0.037500001 3:0.033333335 4:0.025 5:0.041666668 8:0.0041666669 9:0.045833334 10:0.0041666669 11:0.0083333338 13:0.025 14:0.0083333338 #
-3400.8973693688044477312359958887 1:0.77083331 2:0.033333335 3:0.041666668 4:0.025 5:0.029166667 7:0.0083333338 8:0.0041666669 9:0.041666668 10:0.0083333338 11:0.0041666669 12:0.0041666669 13:0.020833334 14:0.0041666669 15:0.0041666669 #
4993.9739984441566775785759091377 1:0.82065219 2:0.048913043 4:0.027173912 5:0.059782609 6:0.0054347827 7:0.0054347827 9:0.0054347827 13:0.027173912 #
-4993.9739984441566775785759091377 1:0.82065219 2:0.054347824 3:0.0054347827 4:0.021739131 5:0.054347824 6:0.010869565 10:0.0054347827 13:0.027173912 #
4993.9739984441566775785759091377 1:0.88368797 2:0.032624114 3:0.008510638 4:0.008510638 5:0.032624114 6:0.004255319 8:0.004255319 9:0.0070921984 12:0.0014184397 13:0.014184397 16:0.0028368793 #
-4993.9739984441566775785759091377 1:0.88510638 2:0.031205675 3:0.008510638 4:0.0099290777 5:0.035460994 6:0.0028368793 8:0.0014184397 9:0.008510638 13:0.008510638 14:0.0028368793 16:0.0056737587 #
4993.9739984441566775785759091377 1:0.79259259 2:0.048148148 3:0.014814815 4:0.022222223 5:0.04074074 6:0.011111111 8:0.0074074073 9:0.018518519 12:0.0037037036 13:0.029629629 15:0.0074074073 16:0.0037037036 #
-4993.9739984441566775785759091377 1:0.81851852 2:0.044444446 3:0.0074074073 4:0.014814815 5:0.037037037 6:0.014814815 8:0.0074074073 9:0.014814815 13:0.022222223 14:0.0037037036 15:0.0037037036 16:0.011111111 #
4993.9739984441566775785759091377 1:0.88235295 2:0.032352943 3:0.0088235298 4:0.014705882 5:0.038235296 9:0.0029411765 12:0.0029411765 13:0.014705882 16:0.0029411765 #
-4993.9739984441566775785759091377 1:0.87941176 2:0.032352943 3:0.0088235298 4:0.014705882 5:0.032352943 7:0.0029411765 9:0.0088235298 12:0.0029411765 13:0.01764706 #
1809.6698042860662098973989486694 1:0.80923074 2:0.030769231 3:0.015384615 4:0.030769231 5:0.036923077 7:0.0030769231 8:0.0061538462 9:0.015384615 12:0.0061538462 13:0.033846155 14:0.0092307692 16:0.0030769231 #
-1809.6698042860662098973989486694 1:0.80615383 2:0.043076921 3:0.0061538462 4:0.036923077 5:0.036923077 7:0.0030769231 8:0.0030769231 9:0.015384615 10:0.0030769231 11:0.0030769231 13:0.030769231 15:0.0061538462 16:0.0061538462 #
4993.9739984441566775785759091377 1:0.86458331 2:0.03125 3:0.010416667 4:0.018750001 5:0.035416666 6:0.0020833334 8:0.0020833334 9:0.0083333338 10:0.0020833334 12:0.0020833334 13:0.018750001 14:0.0020833334 16:0.0020833334 #
-4993.9739984441566775785759091377 1:0.86458331 2:0.037500001 3:0.0083333338 4:0.0125 5:0.039583333 8:0.0020833334 9:0.0083333338 11:0.0020833334 13:0.0125 15:0.0020833334 16:0.010416667 #
4476.9259741548448801040649414062 1:0.80000001 2:0.042857144 3:0.0071428572 4:0.021428572 5:0.057142857 9:0.021428572 12:0.0071428572 13:0.042857144 #
-4476.9259741548448801040649414062 1:0.8142857 2:0.042857144 3:0.0071428572 4:0.028571429 5:0.042857144 9:0.028571429 13:0.035714287 #
4993.9739984441566775785759091377 1:0.91282052 2:0.017948719 3:0.0025641026 4:0.020512821 5:0.020512821 6:0.0025641026 9:0.0025641026 13:0.020512821 #
-4993.9739984441566775785759091377 1:0.92307693 2:0.017948719 4:0.017948719 5:0.012820513 6:0.0025641026 9:0.0025641026 13:0.023076924 #
4993.9739984441566775785759091377 1:0.94988346 2:0.0087412586 3:0.0046620048 4:0.0099067595 5:0.0093240095 6:0.0023310024 9:0.0046620048 13:0.0099067595 16:0.0005827506 #
-4993.9739984441566775785759091377 1:0.93956041 2:0.012820513 3:0.0054945056 4:0.012210012 5:0.012820513 9:0.0048840051 13:0.011599512 16:0.00061050063 #
4993.9739984441566775785759091377 1:0.94159931 2:0.016172506 3:0.0017969452 4:0.0089847259 5:0.016172506 6:0.0026954177 9:0.0017969452 13:0.010781671 #
-4993.9739984441566775785759091377 1:0.94091713 2:0.016754851 3:0.0017636684 4:0.0097001763 5:0.018518519 6:0.00088183419 9:0.0017636684 13:0.0088183424 14:0.00088183419 #
4993.9739984441566775785759091377 1:0.88163263 2:0.024489796 3:0.0061224489 4:0.022448979 5:0.026530612 8:0.0020408162 9:0.010204081 13:0.026530612 #
-4993.9739984441566775785759091377 1:0.8877551 2:0.022448979 3:0.010204081 4:0.024489796 5:0.024489796 9:0.0061224489 13:0.024489796 #
4993.9739984441566775785759091377 1:0.95879483 2:0.010190519 3:0.00088613201 4:0.0084182546 5:0.010190519 6:0.001772264 9:0.00088613201 13:0.0088613201 #
-4993.9739984441566775785759091377 1:0.95968097 2:0.010633584 3:0.000443066 4:0.0088613201 5:0.010633584 6:0.000443066 9:0.000443066 13:0.0084182546 16:0.000443066 #
4993.9739984441566775785759091377 1:0.90641713 2:0.029411765 4:0.01604278 5:0.026737968 6:0.0026737968 13:0.01604278 16:0.0026737968 #
-4993.9739984441566775785759091377 1:0.90106952 2:0.029411765 4:0.021390375 5:0.026737968 13:0.021390375 #
4993.9739984441566775785759091377 1:0.88703704 2:0.025925925 3:0.0092592593 4:0.02037037 5:0.02037037 7:0.0018518518 8:0.0018518518 9:0.011111111 13:0.022222223 #
-4993.9739984441566775785759091377 1:0.89999998 2:0.024074074 3:0.0074074073 4:0.016666668 5:0.022222223 9:0.0074074073 13:0.016666668 16:0.0055555557 #
4993.9739984441566775785759091377 1:0.81818181 2:0.025252525 3:0.015151516 4:0.04040404 5:0.035353534 9:0.01010101 12:0.005050505 13:0.035353534 14:0.005050505 15:0.005050505 16:0.005050505 #
-4993.9739984441566775785759091377 1:0.79292929 2:0.045454547 3:0.015151516 4:0.035353534 5:0.045454547 9:0.01010101 12:0.005050505 13:0.04040404 15:0.005050505 16:0.005050505 #
4993.9739984441566775785759091377 1:0.91051805 2:0.02511774 3:0.0047095763 4:0.014128729 5:0.02511774 9:0.0047095763 13:0.010989011 14:0.0015698588 15:0.0015698588 16:0.0015698588 #
-4993.9739984441566775785759091377 1:0.91208792 2:0.026687598 3:0.0047095763 4:0.014128729 5:0.021978023 8:0.0015698588 9:0.0047095763 13:0.01255887 15:0.0015698588 #
4993.9739984441566775785759091377 1:0.92241377 2:0.015673982 3:0.0070532914 4:0.011755486 5:0.016457681 6:0.00078369904 8:0.00078369904 9:0.0086206896 10:0.00078369904 11:0.0015673981 13:0.011755486 15:0.00078369904 16:0.0015673981 #
-4993.9739984441566775785759091377 1:0.92424244 2:0.01754386 3:0.0087719299 4:0.010366826 5:0.016746411 8:0.00079744816 9:0.0095693776 11:0.00079744816 13:0.0087719299 14:0.00079744816 15:0.0015948963 #
4993.9739984441566775785759091377 1:0.92733335 2:0.012666667 3:0.011333333 4:0.010666667 5:0.013333334 8:0.0013333333 9:0.011333333 13:0.0099999998 14:0.0020000001 #
-4993.9739984441566775785759091377 1:0.9320513 2:0.012820513 3:0.010897436 4:0.009615385 5:0.011538462 8:0.0012820513 9:0.010897436 13:0.010256411 14:0.00064102566 #
4993.9739984441566775785759091377 1:0.8125 2:0.048076924 3:0.01923077 4:0.009615385 5:0.052884616 9:0.024038462 13:0.009615385 16:0.024038462 #
-4993.9739984441566775785759091377 1:0.8125 2:0.052884616 3:0.01923077 4:0.0048076925 5:0.048076924 7:0.0048076925 9:0.01923077 12:0.0048076925 13:0.014423077 16:0.01923077 #
4993.9739984441566775785759091377 1:0.875 2:0.035984848 3:0.0075757578 4:0.015151516 5:0.041666668 6:0.0037878789 9:0.0075757578 13:0.011363637 14:0.0018939395 #
-4993.9739984441566775785759091377 1:0.875 2:0.041666668 3:0.0037878789 4:0.017045455 5:0.041666668 9:0.0037878789 13:0.015151516 14:0.0018939395 #
4993.9739984441566775785759091377 1:0.87440383 2:0.025437202 3:0.017488075 4:0.017488075 5:0.023847377 8:0.0015898251 9:0.015898252 10:0.0015898251 13:0.020667726 16:0.0015898251 #
-4993.9739984441566775785759091377 1:0.86963433 2:0.023847377 3:0.017488075 4:0.019077901 5:0.027027028 8:0.0015898251 9:0.015898252 10:0.0015898251 12:0.0015898251 13:0.022257552 #
4993.9739984441566775785759091377 1:0.95132214 2:0.01161859 3:0.0048076925 4:0.006610577 5:0.01161859 7:0.00040064103 8:0.00040064103 9:0.0052083335 10:0.00020032052 11:0.00040064103 13:0.006610577 14:0.00040064103 16:0.00040064103 #
-4993.9739984441566775785759091377 1:0.94919026 2:0.01194332 3:0.0052631581 4:0.0076923077 5:0.01194332 6:0.00040485829 9:0.0048582996 10:0.00020242915 11:0.00040485829 12:0.00020242915 13:0.0076923077 16:0.00020242915 #
4993.9739984441566775785759091377 1:0.94344831 2:0.012643678 3:0.0043678163 4:0.0094252871 5:0.012413793 6:0.00045977012 7:0.00091954024 9:0.0057471264 10:0.00022988506 11:0.00022988506 12:0.00022988506 13:0.0089655174 14:0.00022988506 15:0.00068965519 #
-4993.9739984441566775785759091377 1:0.94164705 2:0.012235294 3:0.006117647 4:0.0096470593 5:0.012470588 6:0.00047058825 7:0.00023529412 8:0.00023529412 9:0.0065882355 10:0.00023529412 13:0.0087058824 14:0.00070588232 15:0.00047058825 16:0.00023529412 #
4993.9739984441566775785759091377 1:0.9372822 2:0.014634146 3:0.0041811848 4:0.0090592336 5:0.014982578 6:0.00034843205 7:0.0013937282 8:0.0006968641 9:0.0055749128 10:0.0006968641 11:0.0006968641 13:0.0094076656 14:0.00034843205 15:0.00034843205 16:0.00034843205 #
-4993.9739984441566775785759091377 1:0.93803787 2:0.014457831 3:0.0051635113 4:0.0096385544 5:0.014457831 6:0.0010327023 7:0.00068846816 9:0.0058519794 10:0.00068846816 13:0.0092943199 15:0.00068846816 #
4993.9739984441566775785759091377 1:0.93206519 2:0.015398551 3:0.0063405796 4:0.011775362 5:0.015398551 6:0.00090579712 9:0.0054347827 10:0.00090579712 11:0.00090579712 13:0.0099637685 14:0.00090579712 #
-4993.9739984441566775785759091377 1:0.92102927 2:0.016858917 3:0.0088731144 4:0.010647737 5:0.016858917 6:0.00088731147 9:0.0088731144 11:0.00088731147 13:0.010647737 16:0.0044365572 #
4993.9739984441566775785759091377 1:0.93074006 2:0.014231499 3:0.0037950664 4:0.013282732 5:0.015180266 6:0.00142315 7:0.0004743833 9:0.0047438331 13:0.014231499 16:0.0018975332 #
-4993.9739984441566775785759091377 1:0.93394405 2:0.013982642 3:0.0043394407 4:0.012536162 5:0.014464802 6:0.00048216007 7:0.00048216007 9:0.0043394407 10:0.00048216007 13:0.013018322 16:0.0019286403 #
4993.9739984441566775785759091377 1:0.88725489 2:0.022058824 3:0.0098039219 4:0.018382354 5:0.025735294 6:0.0036764706 9:0.012254902 13:0.017156864 14:0.0024509805 16:0.0012254902 #
-4993.9739984441566775785759091377 1:0.88357842 2:0.025735294 3:0.011029412 4:0.017156864 5:0.029411765 8:0.0012254902 9:0.012254902 13:0.015931373 14:0.0024509805 16:0.0012254902 #
4993.9739984441566775785759091377 1:0.90909094 2:0.016441006 3:0.012572533 4:0.012572533 5:0.015473888 6:0.001934236 8:0.001934236 9:0.010638298 10:0.00096711802 12:0.00096711802 13:0.014506769 14:0.00096711802 16:0.001934236 #
-4993.9739984441566775785759091377 1:0.91382575 2:0.017045455 3:0.0085227275 4:0.014204546 5:0.017992424 6:0.00094696973 7:0.00094696973 9:0.0094696973 12:0.00094696973 13:0.013257576 14:0.00094696973 16:0.0018939395 #
4993.9739984441566775785759091377 1:0.97936869 2:0.0041559469 3:0.0020284979 4:0.0035622402 5:0.0042054225 6:4.9475559e-05 7:9.8951117e-05 8:4.9475559e-05 9:0.0019790223 10:4.9475559e-05 11:9.8951117e-05 12:0.00014842668 13:0.0033643381 14:0.00014842668 15:0.00014842668 16:0.00054423115 #
-4993.9739984441566775785759091377 1:0.97916251 2:0.0036565817 3:0.0022540572 4:0.0042075738 5:0.003957123 6:5.0090162e-05 9:0.0022039672 10:5.0090162e-05 11:5.0090162e-05 13:0.0040072128 14:0.00015027048 16:0.0002504508 #
4993.9739984441566775785759091377 1:0.8186813 2:0.03846154 3:0.016483517 4:0.027472528 5:0.04945055 9:0.016483517 13:0.027472528 14:0.0054945056 #
-4993.9739984441566775785759091377 1:0.8186813 2:0.03846154 3:0.016483517 4:0.032967035 5:0.043956045 9:0.021978023 13:0.021978023 14:0.0054945056 #
4993.9739984441566775785759091377 1:0.84389138 2:0.049773756 3:0.011312217 4:0.011312217 5:0.04524887 6:0.0045248871 8:0.0045248871 9:0.013574661 13:0.013574661 14:0.0022624435 #
-4993.9739984441566775785759091377 1:0.83710408 2:0.049773756 3:0.013574661 4:0.013574661 5:0.049773756 6:0.0022624435 8:0.0022624435 9:0.013574661 13:0.013574661 14:0.0022624435 16:0.0022624435 #
1924.9583616613235790282487869263 1:0.86904764 2:0.041666668 3:0.011904762 4:0.017857144 5:0.029761905 9:0.011904762 13:0.017857144 #
-1924.9583616613235790282487869263 1:0.84523809 2:0.041666668 3:0.011904762 4:0.029761905 5:0.041666668 9:0.011904762 13:0.017857144 #
4993.9739984441566775785759091377 1:0.79411763 2:0.049019609 3:0.039215688 4:0.0098039219 5:0.039215688 9:0.039215688 13:0.029411765 #
-4993.9739984441566775785759091377 1:0.78431374 2:0.029411765 3:0.039215688 4:0.019607844 5:0.049019609 9:0.049019609 13:0.019607844 14:0.0098039219 #
4993.9739984441566775785759091377 1:0.77272725 2:0.075757578 3:0.015151516 4:0.015151516 5:0.045454547 6:0.015151516 9:0.015151516 13:0.045454547 #
-4993.9739984441566775785759091377 1:0.72727275 2:0.075757578 4:0.045454547 5:0.090909094 10:0.015151516 13:0.045454547 #
4993.9739984441566775785759091377 1:0.83333331 2:0.043859649 3:0.01754386 4:0.01754386 5:0.043859649 6:0.0029239766 9:0.014619883 13:0.020467836 16:0.0058479533 #
-4993.9739984441566775785759091377 1:0.82748538 2:0.046783626 3:0.01754386 4:0.020467836 5:0.046783626 9:0.01754386 13:0.020467836 16:0.0029239766 #
4993.9739984441566775785759091377 1:0.9823643 2:0.0047395979 3:0.0017084596 4:0.0018186829 5:0.0047947094 6:0.00027555801 8:0.0001653348 9:0.001653348 10:0.00011022321 11:0.0001653348 12:5.5111603e-05 13:0.0018737945 14:5.5111603e-05 15:0.00011022321 16:0.00011022321 #
-4993.9739984441566775785759091377 1:0.9812929 2:0.0050915331 3:0.0018306636 4:0.0021167048 5:0.0051487414 6:0.00017162472 8:0.00011441648 9:0.0018306636 10:5.7208239e-05 11:0.00011441648 13:0.0021167048 14:5.7208239e-05 15:5.7208239e-05 #
4993.9739984441566775785759091377 1:0.93367934 2:0.012687428 3:0.004036909 4:0.013264129 5:0.013840831 6:0.00057670125 8:0.00057670125 9:0.004036909 10:0.00057670125 12:0.00057670125 13:0.012687428 14:0.00057670125 15:0.00057670125 16:0.002306805 #
-4993.9739984441566775785759091377 1:0.94117647 2:0.011437909 3:0.0043572984 4:0.010893246 5:0.01198257 7:0.0005446623 8:0.0010893246 9:0.004901961 10:0.0005446623 13:0.010893246 14:0.0005446623 15:0.0005446623 16:0.0010893246 #
4993.9739984441566775785759091377 1:0.91836733 2:0.015084295 3:0.0088731144 4:0.01242236 5:0.015971607 6:0.0017746229 7:0.00088731147 9:0.010647737 12:0.00088731147 13:0.013309672 14:0.00088731147 16:0.00088731147 #
-4993.9739984441566775785759091377 1:0.92572463 2:0.015398551 3:0.0072463769 4:0.010869565 5:0.019021738 6:0.00090579712 9:0.0081521738 13:0.0099637685 14:0.0018115942 16:0.00090579712 #
4993.9739984441566775785759091377 1:0.97080982 2:0.0068267421 3:0.0023540489 4:0.0047080978 5:0.0068267421 6:0.00047080978 8:0.00023540489 9:0.0021186441 10:0.00047080978 13:0.0051789079 #
-4993.9739984441566775785759091377 1:0.96997577 2:0.0065375301 3:0.0026634382 4:0.0053268764 5:0.0065375301 7:0.00048426149 9:0.002905569 10:0.00024213074 13:0.0053268764 #
4993.9739984441566775785759091377 1:0.9549498 2:0.01348637 3:0.0028694405 4:0.0043041608 5:0.013773315 6:0.00028694404 8:0.00057388807 9:0.0025824965 11:0.00028694404 12:0.00057388807 13:0.005164993 14:0.00028694404 16:0.00086083217 #
-4993.9739984441566775785759091377 1:0.95236731 2:0.013773315 3:0.0028694405 4:0.005738881 5:0.014921091 9:0.0028694405 11:0.00028694404 12:0.00028694404 13:0.005164993 14:0.00057388807 15:0.00028694404 16:0.00086083217 #
4993.9739984441566775785759091377 1:0.96070075 2:0.0099431816 3:0.0037878789 4:0.0047348486 5:0.010890151 6:0.00023674243 8:0.00023674243 9:0.0035511365 10:0.00023674243 12:0.00023674243 13:0.0052083335 14:0.00023674243 #
-4993.9739984441566775785759091377 1:0.96335804 2:0.010435993 3:0.0034786642 4:0.0039424859 5:0.0099721709 7:0.00023191095 8:0.00023191095 9:0.0037105752 13:0.0044063078 16:0.00023191095 #
4993.9739984441566775785759091377 1:0.94117647 2:0.013480392 3:0.0018382353 4:0.012254902 5:0.014705882 9:0.0030637255 10:0.00061274512 13:0.011642157 15:0.00061274512 16:0.00061274512 #
-4993.9739984441566775785759091377 1:0.94191921 2:0.01199495 3:0.0025252525 4:0.01199495 5:0.013257576 7:0.00063131313 8:0.00063131313 9:0.0025252525 10:0.0012626263 13:0.01199495 15:0.00063131313 16:0.00063131313 #
4993.9739984441566775785759091377 1:0.95684803 2:0.0084427763 3:0.0037523452 4:0.0084427763 5:0.009380863 9:0.0056285178 13:0.0075046904 #
-4993.9739984441566775785759091377 1:0.95684803 2:0.009380863 3:0.0046904315 4:0.0075046904 5:0.009380863 9:0.0046904315 13:0.0075046904 #
4993.9739984441566775785759091377 1:0.95723683 2:0.013157895 3:0.0032894737 4:0.0065789474 5:0.0098684207 13:0.0098684207 #
-4993.9739984441566775785759091377 1:0.97039473 2:0.0032894737 4:0.0098684207 5:0.0065789474 13:0.0098684207 #
4993.9739984441566775785759091377 1:0.97794914 2:0.0044642859 3:0.0025703462 4:0.0036525973 5:0.0043290043 6:0.00013528139 8:0.00013528139 9:0.0027056278 13:0.0037878789 16:0.00027056277 #
-4993.9739984441566775785759091377 1:0.97853166 2:0.0043731779 3:0.002915452 4:0.003445534 5:0.0043731779 9:0.0027829313 13:0.003445534 16:0.00013252054 #
4993.9739984441566775785759091377 1:0.93803924 2:0.010980392 3:0.0062745097 4:0.010980392 5:0.014117647 9:0.0070588235 13:0.011764706 15:0.00078431371 #
-4993.9739984441566775785759091377 1:0.94566035 2:0.010566038 3:0.0045283018 4:0.010566038 5:0.0090566035 8:0.00075471698 9:0.0045283018 12:0.00075471698 13:0.012075472 15:0.00075471698 16:0.00075471698 #
4993.9739984441566775785759091377 1:0.93333334 2:0.0090090092 3:0.0036036037 4:0.014414415 5:0.014414415 9:0.0072072074 13:0.016216217 15:0.0018018018 #
-4993.9739984441566775785759091377 1:0.92252254 2:0.016216217 3:0.0036036037 4:0.016216217 5:0.018018018 9:0.0054054055 13:0.016216217 15:0.0018018018 #
4993.9739984441566775785759091377 1:0.91233766 2:0.012987013 3:0.0064935065 4:0.022727273 5:0.012987013 9:0.0032467532 13:0.025974026 16:0.0032467532 #
-4993.9739984441566775785759091377 1:0.91558444 2:0.0097402595 3:0.0064935065 4:0.022727273 5:0.012987013 9:0.0064935065 13:0.022727273 16:0.0032467532 #
4993.9739984441566775785759091377 1:0.96080583 2:0.0073260074 3:0.002930403 4:0.0080586085 5:0.006959707 6:0.00073260075 8:0.00036630037 9:0.002930403 10:0.00036630037 13:0.0084249089 14:0.00036630037 15:0.00036630037 16:0.00036630037 #
-4993.9739984441566775785759091377 1:0.96030909 2:0.0077274325 3:0.0031612224 4:0.0080786794 5:0.0070249387 6:0.00035124694 8:0.00070249388 9:0.0035124694 13:0.0091324197 #
4993.9739984441566775785759091377 1:0.95856875 2:0.0094161956 3:0.0047080978 4:0.0047080978 5:0.0098870052 6:0.00094161957 8:0.00094161957 9:0.0042372881 13:0.0061205272 16:0.00047080978 #
-4993.9739984441566775785759091377 1:0.95258623 2:0.013409962 3:0.0047892719 4:0.0052681994 5:0.012452107 7:0.00047892719 9:0.0052681994 13:0.0052681994 16:0.00047892719 #
4993.9739984441566775785759091377 1:0.943295 2:0.0091954023 3:0.0015325671 4:0.01532567 5:0.0091954023 6:0.00076628354 7:0.00076628354 9:0.0030651342 13:0.016091954 16:0.00076628354 #
-4993.9739984441566775785759091377 1:0.93985564 2:0.011226945 3:0.0024057738 4:0.016038492 5:0.012028869 9:0.0024057738 13:0.015236568 16:0.00080192462 #
4993.9739984441566775785759091377 1:0.94762683 2:0.010638298 3:0.0049099838 4:0.0098199677 5:0.012274959 6:0.00081833062 9:0.004091653 13:0.0090016369 14:0.00081833062 #
-4993.9739984441566775785759091377 1:0.94899666 2:0.011705685 3:0.0050167223 4:0.0091973245 5:0.011705685 9:0.0041806018 13:0.0091973245 #
4993.9739984441566775785759091377 1:0.94904763 2:0.012380952 3:0.0038095238 4:0.0090476191 5:0.013333334 9:0.0038095238 13:0.0076190475 14:0.00047619047 16:0.00047619047 #
-4993.9739984441566775785759091377 1:0.947541 2:0.01264637 3:0.0032786885 4:0.0088992976 5:0.011709602 7:0.00046838407 8:0.00093676813 9:0.0032786885 12:0.00046838407 13:0.010772834 #
4993.9739984441566775785759091377 1:0.90350878 2:0.015789473 3:0.010526316 4:0.015789473 5:0.01754386 8:0.001754386 9:0.010526316 12:0.001754386 13:0.019298246 14:0.001754386 16:0.001754386 #
-4993.9739984441566775785759091377 1:0.90256411 2:0.017094018 3:0.011965812 4:0.01880342 5:0.017094018 9:0.011965812 13:0.020512821 #
4993.9739984441566775785759091377 1:0.8742857 2:0.037142858 3:0.014285714 4:0.014285714 5:0.034285713 9:0.011428571 13:0.011428571 14:0.0028571428 #
-4993.9739984441566775785759091377 1:0.87714285 2:0.031428572 3:0.0085714282 4:0.011428571 5:0.037142858 6:0.0057142857 7:0.0028571428 9:0.011428571 11:0.0028571428 13:0.011428571 #
4993.9739984441566775785759091377 1:0.71875 2:0.041666668 3:0.041666668 4:0.020833334 5:0.041666668 7:0.020833334 8:0.010416667 9:0.041666668 10:0.020833334 13:0.020833334 14:0.010416667 16:0.010416667 #
-4993.9739984441566775785759091377 1:0.73958331 2:0.052083332 3:0.052083332 4:0.010416667 5:0.052083332 8:0.020833334 9:0.020833334 10:0.010416667 11:0.010416667 13:0.020833334 14:0.010416667 #
4993.9739984441566775785759091377 1:0.89285713 2:0.023214286 3:0.0089285718 4:0.0125 5:0.028571429 6:0.0035714286 8:0.0017857143 9:0.0071428572 10:0.0017857143 12:0.0017857143 13:0.016071429 15:0.0017857143 #
-4993.9739984441566775785759091377 1:0.89107144 2:0.028571429 3:0.010714286 4:0.014285714 5:0.025 6:0.0035714286 8:0.0017857143 9:0.010714286 13:0.014285714 #
4993.9739984441566775785759091377 1:0.94444442 2:0.016239317 3:0.002991453 4:0.0059829061 5:0.016666668 6:0.00085470086 7:0.00042735043 8:0.00085470086 9:0.002991453 10:0.00042735043 11:0.00042735043 13:0.0059829061 14:0.00085470086 16:0.00085470086 #
-4993.9739984441566775785759091377 1:0.94675326 2:0.015151516 3:0.0034632036 4:0.0064935065 5:0.015584416 6:0.00043290044 8:0.00086580089 9:0.0034632036 13:0.0056277057 14:0.0012987013 16:0.00086580089 #
4993.9739984441566775785759091377 1:0.97307867 2:0.0073630926 3:0.0020708698 4:0.0036815463 5:0.0073630926 6:0.00023009664 9:0.0023009663 13:0.0034514496 16:0.00046019329 #
-4993.9739984441566775785759091377 1:0.97194636 2:0.0076961271 3:0.0022343595 4:0.0039721946 5:0.0071996027 6:0.00024826216 9:0.0027308839 13:0.0034756702 15:0.00024826216 16:0.00024826216 #
4993.9739984441566775785759091377 1:0.96695155 2:0.0051282053 3:0.0017094017 4:0.0096866097 5:0.0051282053 9:0.0017094017 13:0.0096866097 #
-4993.9739984441566775785759091377 1:0.96783626 2:0.0046783625 3:0.001754386 4:0.0087719299 5:0.0046783625 8:0.00058479531 9:0.001754386 13:0.0099415202 #
4993.9739984441566775785759091377 1:0.94502163 2:0.011688312 3:0.0069264071 4:0.0073593073 5:0.010822511 6:0.00043290044 7:0.00043290044 8:0.00043290044 9:0.0073593073 10:0.00043290044 11:0.00043290044 13:0.0077922079 15:0.00043290044 16:0.00043290044 #
-4993.9739984441566775785759091377 1:0.94486535 2:0.011784512 3:0.0067340066 4:0.0084175086 5:0.012626262 9:0.0054713804 10:0.00084175082 11:0.00084175082 13:0.0075757578 14:0.00042087541 15:0.00042087541 #
4993.9739984441566775785759091377 1:0.97166055 2:0.0056678923 3:0.0021446079 4:0.0056678923 5:0.0056678923 8:0.00015318628 9:0.0019914217 13:0.0056678923 15:0.00015318628 16:0.0012254902 #
-4993.9739984441566775785759091377 1:0.97055286 2:0.005859375 3:0.0024038462 4:0.0057091345 5:0.0060096155 9:0.0022536058 10:0.00015024039 11:0.00015024039 13:0.0052584135 14:0.00015024039 16:0.0015024039 #
4993.9739984441566775785759091377 1:0.96271473 2:0.0093562352 3:0.0039100684 4:0.0046082949 5:0.0086580086 6:0.0002792906 7:0.0001396453 8:0.0004189359 9:0.0039100684 10:0.0001396453 11:0.0002792906 12:0.0001396453 13:0.0048875855 14:0.0001396453 16:0.0004189359 #
-4993.9739984441566775785759091377 1:0.96257508 2:0.0089372993 3:0.0043290043 4:0.0050272308 5:0.0089372993 6:0.0004189359 7:0.0001396453 9:0.0039100684 10:0.0001396453 12:0.0001396453 13:0.0053065214 14:0.0001396453 #
4993.9739984441566775785759091377 1:0.98734176 2:0.0025022079 3:0.0015209499 4:0.0021587675 5:0.0025022079 9:0.0015209499 12:4.9062899e-05 13:0.0022078305 16:0.0001962516 #
-4993.9739984441566775785759091377 1:0.98710018 2:0.0025606339 3:0.0014011016 4:0.0024156924 5:0.0025606339 6:4.8313846e-05 9:0.0014011016 12:4.8313846e-05 13:0.0024640062 #
4993.9739984441566775785759091377 1:0.9296537 2:0.017316017 3:0.0075757578 4:0.0086580086 5:0.018398268 9:0.0086580086 13:0.0097402595 #
-4993.9739984441566775785759091377 1:0.92159092 2:0.020454545 3:0.0079545453 4:0.011363637 5:0.020454545 9:0.0079545453 13:0.010227272 #
4993.9739984441566775785759091377 1:0.95357144 2:0.0098214289 3:0.0062500001 4:0.0062500001 5:0.0098214289 9:0.0062500001 13:0.0071428572 16:0.00089285715 #
-4993.9739984441566775785759091377 1:0.95446426 2:0.0098214289 3:0.005357143 4:0.0080357147 5:0.0098214289 9:0.005357143 13:0.0071428572 #
4993.9739984441566775785759091377 1:0.95973718 2:0.0096024256 3:0.0030323451 4:0.0065700808 5:0.009939353 6:0.00050539081 7:0.00016846361 9:0.0033692722 10:0.00016846361 12:0.00016846361 13:0.0062331539 15:0.00033692722 16:0.00016846361 #
-4993.9739984441566775785759091377 1:0.95935374 2:0.010204081 3:0.0034013605 4:0.0066326531 5:0.0096938778 6:0.00017006803 7:0.00017006803 9:0.0034013605 10:0.00017006803 13:0.0064625852 16:0.00034013606 #
4993.9739984441566775785759091377 1:0.84191179 2:0.047794119 3:0.0073529412 4:0.014705882 5:0.051470589 6:0.0036764706 9:0.0036764706 10:0.0036764706 13:0.022058824 16:0.0036764706 #
-4993.9739984441566775785759091377 1:0.83455884 2:0.055147059 3:0.0036764706 4:0.018382354 5:0.051470589 7:0.0036764706 9:0.0073529412 13:0.018382354 16:0.0073529412 #
4993.9739984441566775785759091377 1:0.96365917 2:0.0087719299 3:0.0027847397 4:0.0057087163 5:0.0089111673 6:0.00041771095 7:0.00013923699 8:0.00013923699 9:0.0029239766 12:0.00013923699 13:0.0059871902 16:0.00041771095 #
-4993.9739984441566775785759091377 1:0.96210164 2:0.0090439273 3:0.0028710882 4:0.0064599481 5:0.0090439273 6:0.00028710882 7:0.00014355441 8:0.00014355441 9:0.003158197 13:0.0061728396 14:0.00043066323 16:0.00014355441 #
4993.9739984441566775785759091377 1:0.82222223 2:0.055555556 3:0.011111111 4:0.022222223 5:0.055555556 9:0.011111111 13:0.022222223 #
-4993.9739984441566775785759091377 1:0.78888887 2:0.055555556 3:0.011111111 4:0.033333335 5:0.077777781 9:0.011111111 13:0.022222223 #
4993.9739984441566775785759091377 1:0.92800701 2:0.01404741 3:0.0061457418 4:0.01404741 5:0.014925373 6:0.00087796315 9:0.0061457418 13:0.015803337 #
-4993.9739984441566775785759091377 1:0.92449516 2:0.016681299 3:0.0061457418 4:0.015803337 5:0.015803337 9:0.0052677789 13:0.015803337 #
4993.9739984441566775785759091377 1:0.90799397 2:0.013574661 3:0.015082956 4:0.015082956 5:0.018099548 9:0.012066365 10:0.0015082957 13:0.016591253 #
-4993.9739984441566775785759091377 1:0.91402715 2:0.018099548 3:0.012066365 4:0.013574661 5:0.016591253 9:0.01055807 13:0.012066365 15:0.0015082957 16:0.0015082957 #
4993.9739984441566775785759091377 1:0.93306196 2:0.013116237 3:0.0058796923 4:0.010854817 5:0.014020805 6:0.0018091361 7:0.00045228403 8:0.00045228403 9:0.0063319765 10:0.00045228403 12:0.00045228403 13:0.011759385 15:0.00045228403 16:0.00090456806 #
-4993.9739984441566775785759091377 1:0.92201424 2:0.015597148 3:0.0084670233 4:0.013368984 5:0.015597148 6:0.00044563279 7:0.00044563279 8:0.00044563279 9:0.0084670233 12:0.00044563279 13:0.014260249 14:0.00044563279 #
4993.9739984441566775785759091377 1:0.89022297 2:0.024013722 3:0.010291595 4:0.013722127 5:0.027444255 8:0.0034305318 9:0.0085763289 10:0.0017152659 13:0.015437393 14:0.0017152659 16:0.0034305318 #
-4993.9739984441566775785759091377 1:0.88507718 2:0.030874785 3:0.0068610637 4:0.015437393 5:0.03259005 6:0.0017152659 9:0.0068610637 12:0.0017152659 13:0.018867925 #
4993.9739984441566775785759091377 1:0.95048308 2:0.011775362 3:0.0051328503 4:0.006642512 5:0.012379227 6:0.00060386473 9:0.0051328503 10:0.00030193236 13:0.006642512 15:0.00030193236 16:0.00060386473 #
-4993.9739984441566775785759091377 1:0.94943821 2:0.010611735 3:0.0053058676 4:0.0078027467 5:0.011860175 6:0.0009363296 8:0.00031210986 9:0.0053058676 10:0.00031210986 13:0.0078027467 15:0.00031210986 #
4993.9739984441566775785759091377 1:0.93935484 2:0.014838709 3:0.0038709678 4:0.0090322578 5:0.018064516 9:0.0051612905 10:0.00064516132 13:0.0077419356 14:0.00064516132 15:0.00064516132 #
-4993.9739984441566775785759091377 1:0.94158733 2:0.015873017 3:0.0057142857 4:0.0076190475 5:0.016507937 9:0.0044444446 10:0.00063492061 13:0.0076190475 #
4993.9739984441566775785759091377 1:0.94249648 2:0.01542777 3:0.0035063114 4:0.0070126229 5:0.017531557 9:0.0042075738 11:0.00070126227 13:0.0070126229 15:0.00070126227 16:0.0014025245 #
-4993.9739984441566775785759091377 1:0.94064873 2:0.016563147 3:0.0055210488 4:0.0082815737 5:0.016563147 9:0.0048309178 13:0.0069013112 14:0.0006901311 #
4993.9739984441566775785759091377 1:0.98290598 2:0.0039529917 3:0.0016025641 4:0.0026175214 5:0.0039529917 6:5.3418804e-05 7:0.00016025642 9:0.0016025641 10:0.00016025642 11:5.3418804e-05 12:0.00010683761 13:0.0026175214 15:0.00010683761 16:0.00010683761 #
-4993.9739984441566775785759091377 1:0.98283374 2:0.0039859693 3:0.0015412415 4:0.0026573129 5:0.0039859693 6:5.3146257e-05 7:5.3146257e-05 8:0.00010629251 9:0.0015943878 10:5.3146257e-05 11:0.00010629251 12:0.00010629251 13:0.0027636054 14:5.3146257e-05 15:5.3146257e-05 16:5.3146257e-05 #
4993.9739984441566775785759091377 1:0.95546371 2:0.0091827363 3:0.005050505 4:0.0073461891 5:0.0096418737 9:0.0045913681 11:0.00091827364 13:0.0073461891 14:0.00045913682 #
-4993.9739984441566775785759091377 1:0.95041323 2:0.01010101 3:0.005509642 4:0.0087235998 5:0.01010101 9:0.0059687789 13:0.0091827363 #
4993.9739984441566775785759091377 1:0.93431371 2:0.012745098 3:0.004901961 4:0.0098039219 5:0.016666668 8:0.00098039221 9:0.0039215689 10:0.00098039221 12:0.00098039221 13:0.01372549 14:0.00098039221 #
-4993.9739984441566775785759091377 1:0.93469387 2:0.015306123 3:0.0051020407 4:0.01122449 5:0.013265306 8:0.0010204081 9:0.0071428572 13:0.012244898 #
4993.9739984441566775785759091377 1:0.91639608 2:0.016233766 3:0.0081168832 4:0.014610389 5:0.016233766 9:0.0081168832 12:0.00081168831 13:0.017045455 16:0.0024350649 #
-4993.9739984441566775785759091377 1:0.91964287 2:0.015422078 3:0.0081168832 4:0.016233766 5:0.013798702 9:0.0073051946 13:0.015422078 14:0.00081168831 15:0.00081168831 16:0.0024350649 #
4993.9739984441566775785759091377 1:0.97633493 2:0.0053094658 3:0.0033373786 4:0.0028822816 5:0.0056128642 6:0.00015169903 9:0.0028822816 10:0.00030339806 13:0.0028822816 16:0.00030339806 #
-4993.9739984441566775785759091377 1:0.97702205 2:0.005514706 3:0.0029105393 4:0.002757353 5:0.0053615198 8:0.00030637256 9:0.002757353 10:0.00015318628 13:0.0030637255 16:0.00015318628 #
4993.9739984441566775785759091377 1:0.9365741 2:0.014351852 3:0.0087962961 4:0.0078703705 5:0.014351852 6:0.00046296295 9:0.0083333338 12:0.00046296295 13:0.0087962961 #
-4993.9739984441566775785759091377 1:0.94399279 2:0.013550135 3:0.0067750677 4:0.008130081 5:0.012195121 8:0.00045167119 9:0.0067750677 13:0.008130081 #
4993.9739984441566775785759091377 1:0.97121012 2:0.0066688354 3:0.0021145088 4:0.0050422903 5:0.0061808717 6:0.00016265453 7:0.00032530905 8:0.00016265453 9:0.0022771633 12:0.00016265453 13:0.0053675994 14:0.00016265453 16:0.00016265453 #
-4993.9739984441566775785759091377 1:0.97020423 2:0.0063608973 3:0.0025108806 4:0.005691329 5:0.0065282891 6:0.00033478407 9:0.0023434884 10:0.00016739203 13:0.0058587212 #
4993.9739984441566775785759091377 1:0.97178131 2:0.0065507684 3:0.0032753842 4:0.0045351475 5:0.0065507684 9:0.0025195263 13:0.0047871 #
-4993.9739984441566775785759091377 1:0.96959913 2:0.0075329565 3:0.0029593757 4:0.0051116492 5:0.0067258542 7:0.00026903418 9:0.0026903418 10:0.00026903418 13:0.0048426152 #
4993.9739984441566775785759091377 1:0.96153843 2:0.0090497741 3:0.0039592762 4:0.0062217196 5:0.0084841633 9:0.0039592762 13:0.0062217196 16:0.00056561088 #
-4993.9739984441566775785759091377 1:0.96176469 2:0.0070588235 3:0.0035294117 4:0.006470588 5:0.0082352944 9:0.0035294117 13:0.0076470589 16:0.0017647059 #
4993.9739984441566775785759091377 1:0.79723501 2:0.055299539 3:0.0092165899 4:0.02764977 5:0.046082951 6:0.0046082949 7:0.0092165899 9:0.01843318 10:0.0046082949 13:0.02764977 #
-4993.9739984441566775785759091377 1:0.79262674 2:0.055299539 3:0.013824885 4:0.02764977 5:0.046082951 6:0.0092165899 7:0.0046082949 9:0.023041476 13:0.02764977 #
4993.9739984441566775785759091377 1:0.8611111 2:0.03125 3:0.020833334 4:0.013888889 5:0.027777778 7:0.0034722222 9:0.024305556 13:0.017361112 #
-4993.9739984441566775785759091377 1:0.875 2:0.020833334 3:0.020833334 4:0.013888889 5:0.027777778 8:0.0034722222 9:0.013888889 10:0.0034722222 13:0.017361112 15:0.0034722222 #
4993.9739984441566775785759091377 1:0.89550263 2:0.03042328 3:0.0092592593 4:0.01058201 5:0.02910053 6:0.0013227513 8:0.0013227513 9:0.0092592593 13:0.011904762 14:0.0013227513 #
-4993.9739984441566775785759091377 1:0.89285713 2:0.034391534 3:0.0079365084 4:0.013227513 5:0.031746034 6:0.0013227513 9:0.0079365084 13:0.0092592593 15:0.0013227513 #
4993.9739984441566775785759091377 1:0.85000002 2:0.050000001 3:0.016666668 4:0.0055555557 5:0.044444446 9:0.022222223 13:0.011111111 #
-4993.9739984441566775785759091377 1:0.85000002 2:0.050000001 3:0.016666668 4:0.0055555557 5:0.044444446 9:0.022222223 13:0.011111111 #
4993.9739984441566775785759091377 1:0.84848487 2:0.038961038 3:0.017316017 4:0.017316017 5:0.043290045 9:0.012987013 13:0.012987013 14:0.0086580086 #
-4993.9739984441566775785759091377 1:0.84848487 2:0.043290045 3:0.012987013 4:0.017316017 5:0.043290045 9:0.012987013 13:0.021645023 #
4993.9739984441566775785759091377 1:0.90166974 2:0.025974026 3:0.012987013 4:0.011131725 5:0.024118738 9:0.012987013 10:0.0018552876 13:0.0092764376 #
-4993.9739984441566775785759091377 1:0.89981449 2:0.025974026 3:0.012987013 4:0.0074211503 5:0.024118738 7:0.0018552876 9:0.014842301 13:0.012987013 #
4993.9739984441566775785759091377 1:0.86428571 2:0.032142859 3:0.017857144 4:0.014285714 5:0.032142859 6:0.0035714286 8:0.0035714286 9:0.010714286 10:0.0035714286 13:0.017857144 #
-4993.9739984441566775785759091377 1:0.86071426 2:0.042857144 3:0.014285714 4:0.010714286 5:0.035714287 8:0.0035714286 9:0.014285714 13:0.014285714 16:0.0035714286 #
4993.9739984441566775785759091377 1:0.87165773 2:0.021390375 3:0.0053475937 4:0.021390375 5:0.01604278 6:0.026737968 9:0.010695187 13:0.021390375 15:0.0053475937 #
-4993.9739984441566775785759091377 1:0.87700534 2:0.026737968 3:0.010695187 4:0.010695187 5:0.01604278 6:0.021390375 8:0.0053475937 9:0.0053475937 12:0.0053475937 13:0.021390375 #
4993.9739984441566775785759091377 1:0.8660714 2:0.040178571 3:0.022321429 5:0.026785715 8:0.0044642859 9:0.022321429 13:0.013392857 16:0.0044642859 #
-4993.9739984441566775785759091377 1:0.84375 2:0.03125 3:0.03125 4:0.0089285718 5:0.026785715 8:0.0089285718 9:0.03125 13:0.013392857 14:0.0044642859 #
4993.9739984441566775785759091377 1:0.8035714 2:0.042857144 3:0.017857144 4:0.035714287 5:0.053571429 9:0.010714286 13:0.035714287 #
-4993.9739984441566775785759091377 1:0.79642856 2:0.053571429 3:0.017857144 4:0.028571429 5:0.046428572 8:0.0035714286 9:0.017857144 13:0.032142859 16:0.0035714286 #
4993.9739984441566775785759091377 1:0.90714288 2:0.035714287 4:0.0071428572 5:0.035714287 13:0.014285714 #
-4993.9739984441566775785759091377 1:0.90714288 2:0.035714287 4:0.014285714 5:0.028571429 6:0.0071428572 13:0.0071428572 #
4993.9739984441566775785759091377 1:0.90972221 2:0.034722224 3:0.0069444445 4:0.0069444445 5:0.041666668 #
-4993.9739984441566775785759091377 1:0.90277779 2:0.034722224 3:0.0069444445 4:0.0069444445 5:0.034722224 9:0.0069444445 13:0.0069444445 #
4993.9739984441566775785759091377 1:0.92517006 2:0.011904762 3:0.011904762 4:0.013605442 5:0.013605442 9:0.010204081 13:0.013605442 #
-4993.9739984441566775785759091377 1:0.92517006 2:0.013605442 3:0.011904762 4:0.011904762 5:0.013605442 9:0.011904762 13:0.011904762 #
4993.9739984441566775785759091377 1:0.87903225 2:0.048387095 3:0.016129032 5:0.024193548 9:0.0080645159 13:0.016129032 16:0.0080645159 #
-4993.9739984441566775785759091377 1:0.87096775 2:0.024193548 3:0.0080645159 4:0.024193548 5:0.032258064 9:0.016129032 13:0.024193548 #
4993.9739984441566775785759091377 1:0.77419353 2:0.058064517 3:0.025806451 4:0.019354839 5:0.064516127 9:0.032258064 13:0.019354839 16:0.0064516128 #
-4993.9739984441566775785759091377 1:0.80000001 2:0.051612902 3:0.019354839 4:0.019354839 5:0.051612902 9:0.025806451 12:0.0064516128 13:0.012903226 14:0.0064516128 15:0.0064516128 #
4993.9739984441566775785759091377 1:0.79310346 2:0.05172414 3:0.011494253 4:0.028735632 5:0.05172414 6:0.0057471264 9:0.017241379 13:0.040229887 #
-4993.9739984441566775785759091377 1:0.79310346 2:0.057471264 3:0.011494253 4:0.022988506 5:0.057471264 9:0.017241379 13:0.034482758 16:0.0057471264 #
4993.9739984441566775785759091377 1:0.80246913 2:0.040123455 3:0.021604938 4:0.027777778 5:0.046296295 6:0.012345679 9:0.018518519 10:0.0030864198 13:0.027777778 #
-4993.9739984441566775785759091377 1:0.82098764 2:0.040123455 3:0.015432099 4:0.027777778 5:0.046296295 6:0.0030864198 7:0.0030864198 9:0.012345679 10:0.0030864198 13:0.027777778 #
4993.9739984441566775785759091377 1:0.90532547 2:0.020710059 3:0.013313609 4:0.0088757398 5:0.023668639 6:0.00147929 8:0.00147929 9:0.010355029 12:0.00147929 13:0.01183432 14:0.00147929 #
-4993.9739984441566775785759091377 1:0.90088755 2:0.023668639 3:0.010355029 4:0.0147929 5:0.023668639 7:0.00147929 9:0.01183432 11:0.00147929 13:0.01183432 #
4993.9739984441566775785759091377 1:0.95185184 2:0.013168724 3:0.0024691359 4:0.0061728396 5:0.012757202 6:0.00041152263 7:0.00041152263 8:0.00082304527 9:0.0028806585 13:0.0074074073 14:0.00041152263 16:0.001234568 #
-4993.9739984441566775785759091377 1:0.94961238 2:0.013781223 3:0.0025839794 4:0.0090439273 5:0.012919896 9:0.0030146425 13:0.0086132642 14:0.00043066323 #
4993.9739984441566775785759091377 1:0.78181821 2:0.054545455 4:0.054545455 5:0.054545455 13:0.054545455 #
-4993.9739984441566775785759091377 1:0.80000001 2:0.036363635 4:0.054545455 5:0.036363635 6:0.018181818 13:0.054545455 #
4993.9739984441566775785759091377 1:0.91458333 2:0.013541667 3:0.0072916667 4:0.015625 5:0.017708333 6:0.0010416667 7:0.0010416667 9:0.0093750004 13:0.017708333 16:0.0020833334 #
-4993.9739984441566775785759091377 1:0.91250002 2:0.018750001 3:0.0072916667 4:0.014583333 5:0.017708333 7:0.0010416667 9:0.0072916667 10:0.0010416667 11:0.0010416667 13:0.015625 16:0.003125 #
4993.9739984441566775785759091377 1:0.86349207 2:0.022222223 3:0.0095238099 4:0.028571429 5:0.022222223 9:0.012698413 11:0.0063492064 13:0.034920637 #
-4993.9739984441566775785759091377 1:0.88571429 2:0.01904762 3:0.0095238099 4:0.025396826 5:0.01904762 6:0.0031746032 9:0.0095238099 13:0.025396826 16:0.0031746032 #
4993.9739984441566775785759091377 1:0.85561496 2:0.01604278 3:0.01604278 4:0.026737968 5:0.010695187 7:0.0053475937 8:0.0053475937 9:0.01604278 10:0.0053475937 11:0.0053475937 12:0.0053475937 13:0.03208556 #
-4993.9739984441566775785759091377 1:0.8449198 2:0.010695187 3:0.01604278 4:0.03208556 5:0.0053475937 7:0.0053475937 8:0.010695187 9:0.026737968 10:0.0053475937 13:0.03208556 14:0.0053475937 16:0.0053475937 #
4993.9739984441566775785759091377 1:0.69999999 2:0.1 3:0.016666668 4:0.033333335 5:0.1 9:0.033333335 13:0.016666668 #
-4993.9739984441566775785759091377 1:0.69999999 2:0.083333336 3:0.016666668 4:0.033333335 5:0.1 9:0.033333335 13:0.016666668 14:0.016666668 #
4993.9739984441566775785759091377 1:0.88761902 2:0.022857143 3:0.0057142857 4:0.022857143 5:0.022857143 8:0.0038095238 9:0.0038095238 10:0.0019047619 13:0.028571429 #
-4993.9739984441566775785759091377 1:0.88190478 2:0.026666667 3:0.0038095238 4:0.022857143 5:0.026666667 8:0.0019047619 9:0.0057142857 13:0.026666667 16:0.0038095238 #
4993.9739984441566775785759091377 1:0.95361328 2:0.0083007812 3:0.0034179688 4:0.010253906 5:0.0087890625 9:0.0043945312 13:0.010742188 16:0.00048828125 #
-4993.9739984441566775785759091377 1:0.967803 2:0.0066287881 3:0.0018939395 4:0.0075757578 5:0.0066287881 9:0.00094696973 12:0.00047348486 13:0.0080492422 #
4993.9739984441566775785759091377 1:0.94426078 2:0.012281531 3:0.0028341992 4:0.010392064 5:0.014170997 6:0.0009447331 7:0.00047236655 9:0.0033065658 13:0.010392064 14:0.00047236655 16:0.00047236655 #
-4993.9739984441566775785759091377 1:0.94574714 2:0.012873563 3:0.0032183907 4:0.010114943 5:0.014712644 6:0.00045977012 9:0.0032183907 13:0.0091954023 14:0.00045977012 #
4993.9739984441566775785759091377 1:0.94618398 2:0.011089367 3:0.0058708414 4:0.0078277886 5:0.010110893 6:0.00065231574 7:0.00032615787 8:0.00097847357 9:0.0061969995 10:0.00032615787 11:0.00032615787 13:0.0091324197 15:0.00032615787 16:0.00065231574 #
-4993.9739984441566775785759091377 1:0.94611531 2:0.011278195 3:0.006265664 4:0.0084586469 5:0.011591478 6:0.00062656641 7:0.00031328321 9:0.0059523811 10:0.00062656641 13:0.0084586469 16:0.00031328321 #
4993.9739984441566775785759091377 1:0.92748541 2:0.018128656 3:0.0058479533 4:0.0099415202 5:0.018128656 6:0.0011695906 8:0.00058479531 9:0.0064327484 13:0.011695907 16:0.00058479531 #
-4993.9739984441566775785759091377 1:0.92982459 2:0.01754386 3:0.0046783625 4:0.011111111 5:0.018128656 6:0.00058479531 7:0.00058479531 9:0.0052631581 13:0.011695907 16:0.00058479531 #
4993.9739984441566775785759091377 1:0.92307693 2:0.013986014 3:0.0069930069 4:0.015151516 5:0.016317016 9:0.0058275056 10:0.0011655012 13:0.017482517 #
-4993.9739984441566775785759091377 1:0.92793792 2:0.016629713 3:0.0066518849 4:0.01330377 5:0.014412417 9:0.0066518849 13:0.014412417 #
4993.9739984441566775785759091377 1:0.93499625 2:0.013605442 3:0.0045351475 4:0.012093727 5:0.015873017 9:0.0045351475 10:0.00075585791 13:0.012849584 16:0.00075585791 #
-4993.9739984441566775785759091377 1:0.93925923 2:0.014814815 3:0.0044444446 4:0.0096296296 5:0.015555556 9:0.0059259259 13:0.01037037 #
4993.9739984441566775785759091377 1:0.93868452 2:0.016722407 3:0.0039018951 4:0.0083612036 5:0.018394649 8:0.00055741362 9:0.0039018951 11:0.00055741362 13:0.0083612036 14:0.00055741362 #
-4993.9739984441566775785759091377 1:0.93901098 2:0.017582418 3:0.0038461538 4:0.0082417587 5:0.017582418 7:0.00054945057 9:0.0043956046 13:0.0087912092 #
4993.9739984441566775785759091377 1:0.95759583 2:0.010503793 3:0.0027232056 4:0.0066134995 5:0.011281852 6:0.00038902936 7:0.00019451468 8:0.00019451468 9:0.0027232056 10:0.00038902936 13:0.0060299551 14:0.00077805872 15:0.00019451468 16:0.00038902936 #
-4993.9739984441566775785759091377 1:0.9608739 2:0.0097318767 3:0.0025819265 4:0.0065541212 5:0.010129096 6:0.00059582922 9:0.0027805362 13:0.0065541212 15:0.00019860973 #
4993.9739984441566775785759091377 1:0.71428573 2:0.071428575 3:0.057142857 4:0.014285714 5:0.085714288 9:0.042857144 13:0.014285714 #
-4993.9739984441566775785759091377 1:0.74285716 2:0.071428575 3:0.057142857 4:0.014285714 5:0.071428575 9:0.028571429 13:0.014285714 #
4993.9739984441566775785759091377 1:0.93135011 2:0.016781082 3:0.0038138826 4:0.012204424 5:0.01754386 6:0.00076277653 8:0.00076277653 9:0.0038138826 13:0.012967201 #
-4993.9739984441566775785759091377 1:0.92624223 2:0.018633541 3:0.0046583852 4:0.01242236 5:0.020962734 9:0.0046583852 13:0.011645962 14:0.00077639753 #
4993.9739984441566775785759091377 1:0.92727274 2:0.012987013 3:0.0060606059 4:0.015584416 5:0.016450217 9:0.0060606059 13:0.014718615 14:0.00086580089 #
-4993.9739984441566775785759091377 1:0.92900431 2:0.016450217 3:0.0060606059 4:0.013852814 5:0.014718615 9:0.0051948051 13:0.013852814 16:0.00086580089 #
4993.9739984441566775785759091377 1:0.9717685 2:0.0077636619 3:0.0013107482 4:0.0043355515 5:0.0075620087 6:0.00060496066 8:0.00020165356 9:0.0011090946 10:0.00010082678 12:0.00010082678 13:0.0045372052 14:0.00010082678 16:0.00050413387 #
-4993.9739984441566775785759091377 1:0.97265863 2:0.0071413997 3:0.0012242399 4:0.0048969598 5:0.0076514995 6:0.00020403998 9:0.0012242399 13:0.0047949399 14:0.00020403998 #
4993.9739984441566775785759091377 1:0.95207375 2:0.0092165899 3:0.002764977 4:0.011059908 5:0.0082949307 7:0.0004608295 9:0.002764977 10:0.0004608295 12:0.0004608295 13:0.010599079 15:0.000921659 16:0.000921659 #
-4993.9739984441566775785759091377 1:0.94700462 2:0.0096774194 3:0.003686636 4:0.011520738 5:0.010138249 7:0.0004608295 9:0.0041474653 12:0.0004608295 13:0.011981566 14:0.0004608295 16:0.0004608295 #
4993.9739984441566775785759091377 1:0.95161289 2:0.0091164093 3:0.0028050491 4:0.010518934 5:0.0091164093 6:0.00070126227 9:0.0035063114 13:0.010518934 16:0.0021037869 #
-4993.9739984441566775785759091377 1:0.95231414 2:0.0084151477 3:0.0028050491 4:0.011220196 5:0.0091164093 6:0.00070126227 9:0.0028050491 12:0.00070126227 13:0.011220196 15:0.00070126227 #
4993.9739984441566775785759091377 1:0.94234234 2:0.015015015 3:0.0030030031 4:0.007807808 5:0.013213214 7:0.00060060062 8:0.0024024025 9:0.0036036037 13:0.0096096098 14:0.0012012012 16:0.0012012012 #
-4993.9739984441566775785759091377 1:0.93633634 2:0.016816817 3:0.0036036037 4:0.0096096098 5:0.016816817 6:0.0012012012 8:0.00060060062 9:0.0036036037 13:0.01021021 16:0.0012012012 #
4993.9739984441566775785759091377 1:0.95149255 2:0.0093283579 3:0.0011194029 4:0.012686567 5:0.010074627 9:0.0011194029 13:0.012686567 14:0.00037313433 16:0.0011194029 #
-4993.9739984441566775785759091377 1:0.94884616 2:0.010384616 3:0.0011538462 4:0.012307692 5:0.01076923 8:0.00038461538 9:0.0015384615 13:0.013846153 16:0.00076923077 #
4993.9739984441566775785759091377 1:0.97181374 2:0.0075980392 3:0.0014705883 4:0.0046568629 5:0.0078431377 9:0.0017156863 13:0.0046568629 16:0.00024509805 #
-4993.9739984441566775785759091377 1:0.97332424 2:0.0070679435 3:0.0015959872 4:0.0047879615 5:0.0070679435 9:0.0013679891 13:0.0047879615 #
4993.9739984441566775785759091377 1:0.94872957 2:0.010889292 3:0.0013611615 4:0.013157895 5:0.010889292 9:0.0013611615 13:0.013611616 #
-4993.9739984441566775785759091377 1:0.94826049 2:0.010258698 3:0.001338091 4:0.01427297 5:0.010704728 9:0.001338091 13:0.01382694 #
4993.9739984441566775785759091377 1:0.89680231 2:0.027616279 3:0.0058139535 4:0.014534884 5:0.029069768 7:0.0014534884 9:0.0072674421 13:0.014534884 14:0.0014534884 16:0.0014534884 #
-4993.9739984441566775785759091377 1:0.89534885 2:0.027616279 3:0.0058139535 4:0.017441861 5:0.027616279 6:0.0014534884 9:0.0072674421 13:0.017441861 #
4993.9739984441566775785759091377 1:0.86890244 2:0.030487806 3:0.0091463411 4:0.021341464 5:0.033536587 6:0.0030487804 9:0.0091463411 13:0.021341464 16:0.0030487804 #
-4993.9739984441566775785759091377 1:0.88109756 2:0.024390243 3:0.0060975607 4:0.015243903 5:0.039634146 9:0.0060975607 10:0.0030487804 13:0.018292682 16:0.0060975607 #
4993.9739984441566775785759091377 1:0.9155702 2:0.016447369 3:0.010964912 4:0.012061403 5:0.019736841 9:0.0098684207 10:0.0010964912 13:0.014254386 #
-4993.9739984441566775785759091377 1:0.91228068 2:0.01754386 3:0.010964912 4:0.013157895 5:0.018640351 6:0.0021929825 9:0.010964912 11:0.0010964912 13:0.010964912 14:0.0010964912 16:0.0010964912 #
4993.9739984441566775785759091377 1:0.91470587 2:0.011764706 3:0.014705882 4:0.014705882 5:0.0088235298 6:0.0029411765 9:0.01764706 13:0.011764706 14:0.0029411765 #
-4993.9739984441566775785759091377 1:0.90882355 2:0.01764706 3:0.014705882 4:0.014705882 5:0.0058823531 6:0.0029411765 8:0.0029411765 9:0.01764706 13:0.014705882 #
4993.9739984441566775785759091377 1:0.93877554 2:0.014196984 3:0.0044365572 4:0.011535048 5:0.015084295 9:0.0044365572 13:0.010647737 16:0.00088731147 #
-4993.9739984441566775785759091377 1:0.94384056 2:0.012681159 3:0.0045289854 4:0.0099637685 5:0.013586956 9:0.0036231885 12:0.00090579712 13:0.0099637685 16:0.00090579712 #
4993.9739984441566775785759091377 1:0.94591343 2:0.014823718 3:0.0044070515 4:0.0064102565 5:0.016426282 6:0.00040064103 9:0.0040064105 10:0.00040064103 13:0.0052083335 14:0.00040064103 15:0.00040064103 16:0.0012019231 #
-4993.9739984441566775785759091377 1:0.9448052 2:0.015422078 3:0.0044642859 4:0.0056818184 5:0.016639611 6:0.00040584416 9:0.0048701297 11:0.00040584416 12:0.00040584416 13:0.0056818184 14:0.00040584416 15:0.00040584416 16:0.00040584416 #
4993.9739984441566775785759091377 1:0.96956521 2:0.0080091534 3:0.0020594965 4:0.0048054918 5:0.0080091534 6:0.00022883296 9:0.0025171624 13:0.0045766588 15:0.00022883296 #
-4993.9739984441566775785759091377 1:0.96687031 2:0.0084586469 3:0.0032894737 4:0.0046992479 5:0.0086936094 6:0.00023496241 9:0.0030545113 10:0.00023496241 13:0.0044642859 #
4993.9739984441566775785759091377 1:0.94774437 2:0.014285714 3:0.0018796993 4:0.0078947367 5:0.016165413 6:0.00037593985 8:0.00037593985 9:0.0018796993 10:0.00037593985 13:0.0078947367 14:0.00075187971 16:0.00037593985 #
-4993.9739984441566775785759091377 1:0.95238096 2:0.013888889 3:0.0019841271 4:0.0067460318 5:0.015079365 6:0.0003968254 9:0.0023809525 13:0.0067460318 14:0.0003968254 #
4993.9739984441566775785759091377 1:0.80000001 2:0.053333335 4:0.026666667 5:0.079999998 13:0.039999999 #
-4993.9739984441566775785759091377 1:0.78666669 2:0.053333335 4:0.026666667 5:0.079999998 13:0.053333335 #
4993.9739984441566775785759091377 1:0.69999999 2:0.077777781 3:0.011111111 4:0.044444446 5:0.055555556 6:0.011111111 7:0.011111111 9:0.033333335 10:0.011111111 13:0.044444446 #
-4993.9739984441566775785759091377 1:0.68888891 2:0.077777781 3:0.022222223 4:0.033333335 5:0.077777781 6:0.022222223 9:0.033333335 13:0.033333335 16:0.011111111 #
4993.9739984441566775785759091377 1:0.96835017 2:0.0094276099 3:0.0026936026 4:0.0047138049 5:0.0090909088 9:0.0023569025 13:0.0033670033 #
-4993.9739984441566775785759091377 1:0.96645701 2:0.0080363378 3:0.0024458421 4:0.00524109 5:0.0094339624 6:0.00069881201 9:0.002096436 10:0.00034940601 13:0.0048916843 14:0.00034940601 #
4993.9739984441566775785759091377 1:0.89459461 2:0.032432433 3:0.0081081083 4:0.010810811 5:0.02972973 6:0.0054054055 8:0.0027027028 9:0.0054054055 13:0.0081081083 14:0.0027027028 #
-4993.9739984441566775785759091377 1:0.88918918 2:0.035135135 3:0.0081081083 4:0.010810811 5:0.035135135 6:0.0027027028 9:0.0081081083 13:0.010810811 #
4993.9739984441566775785759091377 1:0.96186167 2:0.010180996 3:0.0022624435 4:0.0058177118 5:0.010827408 6:0.00032320622 7:0.00016160311 9:0.0024240466 13:0.0053329025 14:0.00032320622 16:0.00048480931 #
-4993.9739984441566775785759091377 1:0.96235335 2:0.010593221 3:0.0024445893 4:0.0052151238 5:0.010267275 7:0.00016297262 8:0.00032594524 9:0.0022816167 10:0.00016297262 12:0.00016297262 13:0.0057040416 14:0.00016297262 16:0.00016297262 #
4993.9739984441566775785759091377 1:0.89122808 2:0.03508772 3:0.0046783625 4:0.011695907 5:0.036257312 6:0.0023391813 9:0.0058479533 13:0.012865497 #
-4993.9739984441566775785759091377 1:0.89707601 2:0.03508772 3:0.0058479533 4:0.010526316 5:0.032748539 8:0.0011695906 9:0.0058479533 13:0.011695907 #
4993.9739984441566775785759091377 1:0.96127683 2:0.0086342227 3:0.0041862899 4:0.0054945056 5:0.0091575095 6:0.00052328623 7:0.00026164312 8:0.00052328623 9:0.0036630037 10:0.00026164312 11:0.00026164312 13:0.0054945056 14:0.00026164312 #
-4993.9739984441566775785759091377 1:0.96089095 2:0.0095830094 3:0.0041440041 4:0.0056980057 5:0.008547009 6:0.00077700079 7:0.00025900026 9:0.0044030044 11:0.00025900026 13:0.0054390053 #
4993.9739984441566775785759091377 1:0.94490355 2:0.010625738 3:0.0059031877 4:0.0098386463 5:0.011019284 6:0.00039354584 9:0.0059031877 13:0.010625738 16:0.00078709167 #
-4993.9739984441566775785759091377 1:0.94832945 2:0.0097125098 3:0.0054390053 4:0.0093240095 5:0.0093240095 6:0.0003885004 8:0.00077700079 9:0.0062160064 13:0.01010101 16:0.0003885004 #
4993.9739984441566775785759091377 1:0.96127683 2:0.006541078 3:0.0060177916 4:0.0054945056 5:0.0070643644 6:0.00052328623 8:0.00026164312 9:0.0054945056 10:0.00052328623 11:0.00026164312 12:0.00052328623 13:0.0057561486 14:0.00026164312 #
-4993.9739984441566775785759091377 1:0.95887446 2:0.0081168832 3:0.0054112556 4:0.0067640692 5:0.0086580086 9:0.0054112556 13:0.0067640692 #
4993.9739984441566775785759091377 1:0.95562309 2:0.011550152 3:0.0024316108 4:0.0060790274 5:0.012765957 6:0.0012158054 9:0.0024316108 10:0.00060790271 13:0.0066869301 16:0.00060790271 #
-4993.9739984441566775785759091377 1:0.95978838 2:0.01005291 3:0.0026455026 4:0.0052910051 5:0.011111111 6:0.0010582011 8:0.00052910054 9:0.0026455026 13:0.0058201058 16:0.0010582011 #
4993.9739984441566775785759091377 1:0.96673501 2:0.0077466392 3:0.0018227387 4:0.0063795852 5:0.0079744812 7:0.00022784233 9:0.0020505809 12:0.00022784233 13:0.0061517428 14:0.00022784233 15:0.00022784233 16:0.00022784233 #
-4993.9739984441566775785759091377 1:0.96419132 2:0.008651766 3:0.0019226148 4:0.0064888247 5:0.008651766 7:0.00024032684 9:0.0019226148 12:0.00048065369 13:0.0067291516 14:0.00024032684 15:0.00024032684 16:0.00024032684 #
4993.9739984441566775785759091377 1:0.97927296 2:0.0059523811 3:0.00095663266 4:0.0032950679 5:0.0059523811 6:0.00010629251 9:0.00095663266 13:0.0034013605 16:0.00010629251 #
-4993.9739984441566775785759091377 1:0.97931337 2:0.0059419014 3:0.00088028167 4:0.0033010563 5:0.0061619719 6:0.00011003521 9:0.00088028167 13:0.0034110916 #
4993.9739984441566775785759091377 1:0.96305221 2:0.008433735 3:0.0030120481 4:0.0066265059 5:0.0080321282 7:0.00020080322 8:0.00020080322 9:0.0032128515 13:0.0070281127 16:0.00020080322 #
-4993.9739984441566775785759091377 1:0.96170634 2:0.0081349211 3:0.0033730159 4:0.0071428572 5:0.0087301591 6:0.0001984127 9:0.0031746032 12:0.0001984127 13:0.0067460318 14:0.0003968254 16:0.0001984127 #
4993.9739984441566775785759091377 1:0.91364205 2:0.017521903 3:0.0050062579 4:0.018773466 5:0.018773466 9:0.0050062579 11:0.0012515645 13:0.018773466 14:0.0012515645 #
-4993.9739984441566775785759091377 1:0.9086358 2:0.018773466 3:0.0075093866 4:0.017521903 5:0.020025032 9:0.0075093866 11:0.0012515645 13:0.018773466 #
4993.9739984441566775785759091377 1:0.94736844 2:0.012899897 3:0.0025799794 4:0.0098039219 5:0.012899897 6:0.0005159959 9:0.0025799794 11:0.0005159959 13:0.010319917 16:0.0005159959 #
-4993.9739984441566775785759091377 1:0.94716775 2:0.01198257 3:0.0021786492 4:0.010348584 5:0.013071896 6:0.0010893246 9:0.0021786492 11:0.0005446623 13:0.010348584 14:0.0005446623 16:0.0005446623 #
4993.9739984441566775785759091377 1:0.92482269 2:0.017021276 3:0.008510638 4:0.0099290777 5:0.017021276 7:0.0014184397 9:0.011347517 13:0.008510638 16:0.0014184397 #
-4993.9739984441566775785759091377 1:0.92056739 2:0.017021276 3:0.0099290777 4:0.012765957 5:0.018439716 9:0.0070921984 11:0.0014184397 13:0.012765957 #
4993.9739984441566775785759091377 1:0.9522413 2:0.011311269 3:0.0037704231 4:0.008797654 5:0.010892333 6:0.0004189359 9:0.0033514872 13:0.008797654 16:0.0004189359 #
-4993.9739984441566775785759091377 1:0.95450789 2:0.0095119933 3:0.0033085195 4:0.0099255582 5:0.0090984283 9:0.0033085195 13:0.0099255582 14:0.00041356494 #
4993.9739984441566775785759091377 1:0.82936507 2:0.031746034 3:0.011904762 4:0.035714287 5:0.043650795 9:0.011904762 13:0.027777778 14:0.0039682542 16:0.0039682542 #
-4993.9739984441566775785759091377 1:0.82539684 2:0.039682541 3:0.015873017 4:0.027777778 5:0.043650795 9:0.011904762 13:0.027777778 14:0.0039682542 16:0.0039682542 #
4993.9739984441566775785759091377 1:0.88615382 2:0.018461538 3:0.015384615 4:0.018461538 5:0.018461538 7:0.0015384615 9:0.018461538 11:0.0015384615 13:0.02 16:0.0015384615 #
-4993.9739984441566775785759091377 1:0.88153845 2:0.023076924 3:0.015384615 4:0.02 5:0.02 8:0.0015384615 9:0.015384615 13:0.018461538 15:0.0015384615 16:0.0030769231 #
4993.9739984441566775785759091377 1:0.76190478 2:0.047619049 3:0.013605442 4:0.047619049 5:0.047619049 9:0.020408163 13:0.054421768 16:0.0068027209 #
-4993.9739984441566775785759091377 1:0.80272108 2:0.027210884 3:0.013605442 4:0.040816326 5:0.040816326 9:0.020408163 13:0.040816326 16:0.013605442 #
4993.9739984441566775785759091377 1:0.8901099 2:0.016483517 3:0.018315019 4:0.016483517 5:0.020146521 9:0.016483517 10:0.0018315018 11:0.0018315018 13:0.014652015 14:0.0018315018 16:0.0018315018 #
-4993.9739984441566775785759091377 1:0.89560437 2:0.014652015 3:0.018315019 4:0.016483517 5:0.018315019 9:0.018315019 13:0.016483517 16:0.0018315018 #
4993.9739984441566775785759091377 1:0.85904759 2:0.022857143 3:0.01904762 4:0.022857143 5:0.022857143 6:0.0019047619 8:0.0019047619 9:0.020952381 13:0.024761904 16:0.0038095238 #
-4993.9739984441566775785759091377 1:0.85523808 2:0.020952381 3:0.01904762 4:0.026666667 5:0.026666667 7:0.0019047619 9:0.015238095 10:0.0038095238 12:0.0019047619 13:0.024761904 14:0.0019047619 16:0.0019047619 #
4993.9739984441566775785759091377 1:0.87777776 2:0.025396826 3:0.012698413 4:0.017460318 5:0.026984127 9:0.011111111 10:0.0015873016 12:0.0015873016 13:0.01904762 16:0.0063492064 #
-4993.9739984441566775785759091377 1:0.88095236 2:0.01904762 3:0.012698413 4:0.01904762 5:0.026984127 6:0.0015873016 9:0.0095238099 10:0.0015873016 12:0.0031746032 13:0.022222223 14:0.0015873016 16:0.0015873016 #
4993.9739984441566775785759091377 1:0.90508473 2:0.015254238 3:0.015254238 4:0.012711864 5:0.016949153 6:0.0016949152 8:0.00084745762 9:0.012711864 10:0.00084745762 12:0.00084745762 13:0.016101696 16:0.0016949152 #
-4993.9739984441566775785759091377 1:0.90499997 2:0.018333333 3:0.0125 4:0.015 5:0.016666668 7:0.00083333335 8:0.00083333335 9:0.013333334 13:0.015 15:0.0016666667 16:0.00083333335 #
4993.9739984441566775785759091377 1:0.90358973 2:0.025641026 3:0.007179487 4:0.014358974 5:0.024615385 6:0.001025641 7:0.001025641 9:0.0092307692 13:0.013333334 #
-4993.9739984441566775785759091377 1:0.9046154 2:0.024615385 3:0.0092307692 4:0.011282051 5:0.027692307 9:0.0082051279 10:0.001025641 13:0.012307692 14:0.001025641 #
4993.9739984441566775785759091377 1:0.85116279 2:0.030232558 3:0.013953488 4:0.025581395 5:0.034883723 8:0.0023255814 9:0.013953488 13:0.023255814 14:0.0046511628 #
-4993.9739984441566775785759091377 1:0.85348839 2:0.034883723 3:0.013953488 4:0.020930232 5:0.037209302 8:0.0023255814 9:0.011627907 13:0.023255814 14:0.0023255814 #
4993.9739984441566775785759091377 1:0.86796534 2:0.030303031 3:0.010822511 4:0.019480519 5:0.032467533 7:0.0021645022 9:0.015151516 11:0.0021645022 13:0.019480519 #
-4993.9739984441566775785759091377 1:0.86580086 2:0.034632035 3:0.010822511 4:0.015151516 5:0.030303031 7:0.0021645022 8:0.0021645022 9:0.015151516 12:0.0021645022 13:0.017316017 15:0.0021645022 16:0.0021645022 #
4993.9739984441566775785759091377 1:0.82352942 2:0.03267974 3:0.013071896 4:0.029411765 5:0.035947714 6:0.0032679739 8:0.0032679739 9:0.01633987 10:0.0032679739 11:0.0032679739 13:0.03267974 14:0.0032679739 #
-4993.9739984441566775785759091377 1:0.83333331 2:0.035947714 3:0.013071896 4:0.029411765 5:0.03267974 6:0.0032679739 8:0.0032679739 9:0.01633987 10:0.0032679739 13:0.026143791 15:0.0032679739 #
4993.9739984441566775785759091377 1:0.95205724 2:0.013237925 3:0.0028622539 4:0.0071556349 5:0.013595707 8:0.00035778174 9:0.0028622539 13:0.0075134169 14:0.00035778174 #
-4993.9739984441566775785759091377 1:0.95690835 2:0.011285909 3:0.0034199727 4:0.006497948 5:0.010943913 6:0.00034199728 8:0.00034199728 9:0.0030779755 10:0.00034199728 13:0.0068399454 #
4993.9739984441566775785759091377 1:0.96585858 2:0.0060606059 3:0.0024242424 4:0.0072727273 5:0.0052525252 6:0.00040404042 7:0.00020202021 8:0.00040404042 9:0.0026262626 11:0.00080808083 13:0.0076767677 16:0.0010101011 #
-4993.9739984441566775785759091377 1:0.96324784 2:0.0068376069 3:0.0027777778 4:0.008547009 5:0.0064102565 9:0.0032051282 13:0.0089743594 #
4993.9739984441566775785759091377 1:0.96226418 2:0.0070754718 3:0.0034067086 4:0.0081236893 5:0.0068134172 6:0.000524109 9:0.0036687632 13:0.0078616356 15:0.0002620545 #
-4993.9739984441566775785759091377 1:0.96357441 2:0.0070754718 3:0.0034067086 4:0.0070754718 5:0.0075995806 8:0.0002620545 9:0.0034067086 13:0.0073375264 16:0.0002620545 #
4993.9739984441566775785759091377 1:0.91462451 2:0.021343874 3:0.0047430829 4:0.013438735 5:0.022924902 6:0.0023715415 8:0.00079051382 9:0.0047430829 13:0.013438735 14:0.0015810276 #
-4993.9739984441566775785759091377 1:0.9130435 2:0.022165388 3:0.0051150895 4:0.014492754 5:0.023017902 6:0.0025575447 9:0.0051150895 13:0.014492754 #
4993.9739984441566775785759091377 1:0.97318077 2:0.0046486678 3:0.002503129 4:0.0059002326 5:0.0046486678 9:0.0023243339 10:0.00017879491 11:0.00017879491 13:0.0059002326 16:0.00053638476 #
-4993.9739984441566775785759091377 1:0.9722479 2:0.0053654024 3:0.0024051804 4:0.0062904716 5:0.0053654024 9:0.0022201666 13:0.0061054579 #
4993.9739984441566775785759091377 1:0.99033678 2:0.0032367015 3:0.00037526974 4:0.0011727179 5:0.0032367015 6:4.6908717e-05 9:0.000328361 12:4.6908717e-05 13:0.0012196266 #
-4993.9739984441566775785759091377 1:0.99034166 2:0.0032517957 3:0.00038827411 4:0.0011648224 5:0.0032517957 6:4.8534264e-05 9:0.00038827411 13:0.0011648224 #
4993.9739984441566775785759091377 1:0.95323569 2:0.011336797 3:0.0028341992 4:0.0070854984 5:0.011336797 6:0.0018894662 8:0.00047236655 9:0.0028341992 13:0.0085025979 16:0.00047236655 #
-4993.9739984441566775785759091377 1:0.94967383 2:0.013979496 3:0.0027958993 4:0.0088536814 5:0.01304753 9:0.0027958993 13:0.0088536814 #
4993.9739984441566775785759091377 1:0.97294903 2:0.0048780488 3:0.00066518848 4:0.0075388025 5:0.0048780488 6:0.00044345899 8:0.0002217295 9:0.00066518848 13:0.0073170732 14:0.0002217295 16:0.0002217295 #
-4993.9739984441566775785759091377 1:0.97059494 2:0.0054707089 3:0.00091178482 4:0.0084340097 5:0.0054707089 9:0.00091178482 13:0.008206063 #
4993.9739984441566775785759091377 1:0.93652743 2:0.018018018 3:0.0028665029 4:0.0069615068 5:0.020475021 6:0.0028665029 8:0.00040950041 9:0.0028665029 10:0.00040950041 13:0.0073710075 14:0.00081900082 16:0.00040950041 #
-4993.9739984441566775785759091377 1:0.93050504 2:0.021818181 3:0.0028282828 4:0.0080808084 5:0.023030303 6:0.0012121212 7:0.00040404042 9:0.0032323233 11:0.00040404042 13:0.006868687 14:0.0012121212 16:0.00040404042 #
4993.9739984441566775785759091377 1:0.93466222 2:0.013289036 3:0.0055370987 4:0.0099667776 5:0.015503876 8:0.0011074197 9:0.0055370987 13:0.012181616 16:0.0022148394 #
-4993.9739984441566775785759091377 1:0.93909192 2:0.014396456 3:0.0044296789 4:0.011074197 5:0.012181616 8:0.0011074197 9:0.0055370987 13:0.012181616 #
4993.9739984441566775785759091377 1:0.96051836 2:0.01084991 3:0.0027124775 4:0.0054249549 5:0.010247136 7:0.00060277275 9:0.0033152502 13:0.0060277274 16:0.00030138638 #
-4993.9739984441566775785759091377 1:0.96127367 2:0.010613884 3:0.003155479 4:0.0057372348 5:0.01004016 6:0.00028686173 9:0.0028686174 13:0.0060240962 #
4993.9739984441566775785759091377 1:0.93099546 2:0.022624435 3:0.0045248871 4:0.0056561087 5:0.023755657 9:0.0045248871 13:0.0067873304 16:0.0011312218 #
-4993.9739984441566775785759091377 1:0.9468326 2:0.01923077 3:0.0011312218 4:0.0056561087 5:0.018099548 9:0.0022624435 13:0.0056561087 15:0.0011312218 #
4993.9739984441566775785759091377 1:0.95174634 2:0.012408088 3:0.0036764706 4:0.0068933824 5:0.012867647 9:0.0041360296 13:0.0078125 16:0.00045955883 #
-4993.9739984441566775785759091377 1:0.96150362 2:0.0099637685 3:0.0031702898 4:0.0058876812 5:0.0086050723 8:0.00045289856 9:0.0031702898 11:0.00045289856 13:0.006793478 #
4993.9739984441566775785759091377 1:0.93055558 2:0.017592592 3:0.0046296297 4:0.0092592593 5:0.022222223 9:0.0046296297 13:0.011111111 #
-4993.9739984441566775785759091377 1:0.92980766 2:0.023076924 3:0.0057692309 4:0.0076923077 5:0.022115385 9:0.0048076925 13:0.0067307693 #
4993.9739984441566775785759091377 1:0.93663913 2:0.01446281 3:0.0048209368 4:0.010330578 5:0.015151516 6:0.0013774105 8:0.00068870524 9:0.005509642 13:0.011019284 #
-4993.9739984441566775785759091377 1:0.9240163 2:0.017639078 3:0.0054274085 4:0.014925373 5:0.017639078 6:0.0013568521 9:0.0047489824 13:0.013568521 14:0.00067842606 #
4993.9739984441566775785759091377 1:0.93425924 2:0.017592592 3:0.0055555557 4:0.0092592593 5:0.018518519 9:0.0055555557 13:0.0092592593 #
-4993.9739984441566775785759091377 1:0.94999999 2:0.011111111 3:0.0046296297 4:0.0074074073 5:0.012962963 6:0.0018518518 9:0.0046296297 13:0.0074074073 #
4993.9739984441566775785759091377 1:0.86290324 2:0.024193548 3:0.010752688 4:0.029569892 5:0.024193548 9:0.01344086 13:0.029569892 14:0.002688172 16:0.002688172 #
-4993.9739984441566775785759091377 1:0.87096775 2:0.024193548 3:0.010752688 4:0.029569892 5:0.018817205 6:0.002688172 9:0.010752688 13:0.029569892 16:0.002688172 #
4993.9739984441566775785759091377 1:0.95616317 2:0.011284722 3:0.0026041667 4:0.0069444445 5:0.01171875 9:0.0026041667 10:0.00043402778 13:0.0078125 16:0.00043402778 #
-4993.9739984441566775785759091377 1:0.95588237 2:0.011029412 3:0.0018382353 4:0.0087316176 5:0.01148897 9:0.0022977942 13:0.0082720593 14:0.00045955883 #
4993.9739984441566775785759091377 1:0.94588238 2:0.012352942 3:0.0041176472 4:0.0088235298 5:0.011764706 8:0.0011764705 9:0.0041176472 12:0.00058823527 13:0.011176471 #
-4993.9739984441566775785759091377 1:0.94411767 2:0.013529412 3:0.0041176472 4:0.0094117643 5:0.014117647 9:0.0041176472 13:0.0099999998 14:0.00058823527 #
4993.9739984441566775785759091377 1:0.97143179 2:0.0070009031 3:0.0023712737 4:0.0045167119 5:0.0068879854 7:0.0001129178 8:0.0002258356 9:0.0023712737 10:0.0002258356 13:0.0045167119 15:0.0001129178 16:0.0002258356 #
-4993.9739984441566775785759091377 1:0.97289425 2:0.0064964159 3:0.0021281361 4:0.004480287 5:0.0068324371 6:0.00022401434 9:0.0022401435 10:0.00011200717 13:0.0043682796 15:0.00022401434 #
4993.9739984441566775785759091377 1:0.88923079 2:0.027692307 3:0.0030769231 4:0.018461538 5:0.030769231 7:0.0030769231 9:0.0061538462 13:0.021538461 #
-4993.9739984441566775785759091377 1:0.88307691 2:0.033846155 3:0.0061538462 4:0.015384615 5:0.030769231 8:0.0030769231 9:0.0061538462 13:0.018461538 16:0.0030769231 #
4993.9739984441566775785759091377 1:0.94656086 2:0.01058201 3:0.0058201058 4:0.0068783071 5:0.01058201 6:0.0010582011 8:0.0015873016 9:0.0058201058 12:0.00052910054 13:0.0095238099 15:0.00052910054 16:0.00052910054 #
-4993.9739984441566775785759091377 1:0.94157541 2:0.01304121 3:0.0036515389 4:0.011476265 5:0.012519562 7:0.00052164838 9:0.0057381326 13:0.0099113202 14:0.00052164838 15:0.0010432968 #
4993.9739984441566775785759091377 1:0.9695248 2:0.006069215 3:0.0024535125 4:0.006069215 5:0.006069215 6:0.00064566114 8:0.00012913223 9:0.0024535125 11:0.00012913223 13:0.0063274791 16:0.00012913223 #
-4993.9739984441566775785759091377 1:0.96887809 2:0.0067879097 3:0.0025614754 4:0.0061475411 5:0.006659836 9:0.0025614754 11:0.00012807376 13:0.006019467 16:0.00025614753 #
4993.9739984441566775785759091377 1:0.99531251 5:0.0046875002 #
-4993.9739984441566775785759091377 1:0.99062502 2:0.0046875002 5:0.0046875002 #
4993.9739984441566775785759091377 1:0.92307693 2:0.021794872 3:0.0025641026 4:0.011538462 5:0.021794872 8:0.0012820513 9:0.0038461538 13:0.011538462 14:0.0012820513 16:0.0012820513 #
-4993.9739984441566775785759091377 1:0.92307693 2:0.021794872 3:0.0025641026 4:0.012820513 5:0.021794872 8:0.0012820513 9:0.0012820513 11:0.0012820513 13:0.012820513 16:0.0012820513 #
4993.9739984441566775785759091377 1:0.96519524 2:0.0096208267 3:0.0031126202 4:0.0042444821 5:0.0099037914 6:0.00028296548 8:0.00028296548 9:0.0028296548 10:0.00028296548 11:0.00028296548 13:0.0039615165 #
-4993.9739984441566775785759091377 1:0.96661007 2:0.0082059987 3:0.0033955858 4:0.0042444821 5:0.0090548955 6:0.00028296548 9:0.0036785512 11:0.00028296548 13:0.0042444821 #
4993.9739984441566775785759091377 1:0.93978381 2:0.0092640249 3:0.0092640249 4:0.008234689 5:0.010293361 7:0.0010293361 9:0.010293361 10:0.00051466806 12:0.0010293361 13:0.0077200206 14:0.00051466806 15:0.0010293361 16:0.0010293361 #
-4993.9739984441566775785759091377 1:0.94234914 2:0.0096982755 3:0.0096982755 4:0.0075431033 5:0.009159483 7:0.0005387931 9:0.0070043104 10:0.0010775862 11:0.0010775862 12:0.0016163794 13:0.010237069 #
4993.9739984441566775785759091377 1:0.93544137 2:0.015810277 3:0.0059288535 4:0.0098814229 5:0.014492754 7:0.00065876154 9:0.0059288535 12:0.00065876154 13:0.011198946 #
-4993.9739984441566775785759091377 1:0.93194705 2:0.017643353 3:0.0056710774 4:0.0094517963 5:0.018273473 6:0.0006301197 9:0.0063011972 13:0.0094517963 16:0.0006301197 #
4993.9739984441566775785759091377 1:0.93530703 2:0.0076754387 3:0.0054824562 4:0.015350877 5:0.010964912 6:0.0010964912 8:0.0010964912 9:0.0054824562 13:0.016447369 14:0.0010964912 #
-4993.9739984441566775785759091377 1:0.92982459 2:0.012061403 3:0.0054824562 4:0.01754386 5:0.010964912 9:0.0054824562 13:0.018640351 #
4993.9739984441566775785759091377 1:0.88468468 2:0.032432433 3:0.0054054055 4:0.016216217 5:0.030630631 6:0.0018018018 8:0.0036036037 9:0.0072072074 13:0.014414415 14:0.0036036037 #
-4993.9739984441566775785759091377 1:0.88288289 2:0.032432433 3:0.0054054055 4:0.016216217 5:0.034234233 6:0.0018018018 8:0.0018018018 9:0.0072072074 13:0.014414415 14:0.0036036037 #
4993.9739984441566775785759091377 1:0.97278911 2:0.0082604466 3:0.0024295433 4:0.0027534824 5:0.0080984775 8:0.00016196955 9:0.0024295433 13:0.002915452 16:0.00016196955 #
-4993.9739984441566775785759091377 1:0.97250801 2:0.0086017875 3:0.0021926125 4:0.0028672626 5:0.00877045 9:0.0021926125 13:0.0025299375 14:0.00033732501 #
4993.9739984441566775785759091377 1:0.93714285 2:0.015238095 3:0.0038095238 4:0.0095238099 5:0.016190477 6:0.0028571428 9:0.0057142857 13:0.0095238099 #
-4993.9739984441566775785759091377 1:0.94035089 2:0.015789473 3:0.0043859649 4:0.0078947367 5:0.016666668 6:0.000877193 9:0.0052631581 13:0.0087719299 #
4993.9739984441566775785759091377 1:0.83064514 2:0.052419353 3:0.012096774 4:0.016129032 5:0.044354837 6:0.0080645159 9:0.02016129 13:0.016129032 #
-4993.9739984441566775785759091377 1:0.79435486 2:0.060483869 3:0.02016129 4:0.016129032 5:0.064516127 6:0.0040322579 9:0.02016129 13:0.02016129 #
4993.9739984441566775785759091377 1:0.96026731 2:0.011197399 3:0.0041538738 4:0.0041538738 5:0.011016796 6:0.00072241283 8:0.00018060321 9:0.0034314611 10:0.00036120642 11:0.00054180966 13:0.0036120643 14:0.00036120642 #
-4993.9739984441566775785759091377 1:0.95716125 2:0.011583012 3:0.0047802906 4:0.0045964331 5:0.012134584 6:0.00018385732 9:0.0045964331 10:0.00018385732 11:0.00018385732 13:0.0044125756 14:0.00018385732 #
4993.9739984441566775785759091377 1:0.91268384 2:0.015625 3:0.012867647 4:0.012867647 5:0.017463235 8:0.00091911765 9:0.01194853 12:0.00091911765 13:0.013786765 14:0.00091911765 #
-4993.9739984441566775785759091377 1:0.91268384 2:0.015625 3:0.012867647 4:0.012867647 5:0.016544119 8:0.00091911765 9:0.013786765 13:0.014705882 #
4993.9739984441566775785759091377 1:0.85897434 2:0.041025642 3:0.017948719 4:0.010256411 5:0.041025642 6:0.0025641026 9:0.017948719 13:0.010256411 #
-4993.9739984441566775785759091377 1:0.86410254 2:0.030769231 3:0.020512821 4:0.012820513 5:0.033333335 6:0.0051282053 9:0.015384615 10:0.0025641026 11:0.0025641026 13:0.010256411 14:0.0025641026 #
4993.9739984441566775785759091377 1:0.90151513 2:0.028787879 3:0.0045454544 4:0.018181818 5:0.025757575 9:0.0045454544 11:0.0015151515 13:0.015151516 #
-4993.9739984441566775785759091377 1:0.90454543 2:0.024242423 3:0.0045454544 4:0.018181818 5:0.025757575 9:0.0045454544 10:0.0015151515 13:0.016666668 #
4993.9739984441566775785759091377 1:0.97901112 2:0.0045628008 3:0.0022399204 4:0.0030695205 5:0.0043139206 6:0.00024888004 7:0.00016592002 9:0.0027376805 11:8.296001e-05 13:0.0027376805 14:8.296001e-05 15:0.00033184004 16:0.00041480007 #
-4993.9739984441566775785759091377 1:0.97913086 2:0.0042081759 3:0.0024046719 4:0.0035211267 5:0.0039505325 6:0.00017176228 7:8.588114e-05 8:8.588114e-05 9:0.0024905531 11:8.588114e-05 12:8.588114e-05 13:0.0033493645 14:0.00017176228 15:8.588114e-05 16:0.00017176228 #
4993.9739984441566775785759091377 1:0.75641024 2:0.03846154 3:0.012820513 4:0.064102568 5:0.051282052 6:0.012820513 9:0.012820513 13:0.03846154 14:0.012820513 #
-4993.9739984441566775785759091377 1:0.79487181 2:0.025641026 4:0.051282052 5:0.051282052 6:0.012820513 9:0.012820513 13:0.03846154 14:0.012820513 #
4993.9739984441566775785759091377 1:0.77310926 2:0.067226894 3:0.0084033618 4:0.033613447 5:0.067226894 8:0.0084033618 9:0.0084033618 13:0.025210084 14:0.0084033618 #
-4993.9739984441566775785759091377 1:0.8067227 2:0.067226894 3:0.0084033618 4:0.016806724 5:0.042016808 6:0.0084033618 8:0.0084033618 9:0.0084033618 13:0.025210084 16:0.0084033618 #
4993.9739984441566775785759091377 1:0.92632848 2:0.019323671 3:0.0036231885 4:0.013285024 5:0.019323671 6:0.0012077295 9:0.0036231885 13:0.013285024 #
-4993.9739984441566775785759091377 1:0.93719804 2:0.016908212 3:0.0036231885 4:0.0096618356 5:0.016908212 6:0.0012077295 9:0.0036231885 13:0.010869565 #
4993.9739984441566775785759091377 1:0.95347065 2:0.0099160941 3:0.0045766588 4:0.0083905412 5:0.0099160941 7:0.00076277653 9:0.0030511061 10:0.00076277653 13:0.0076277652 16:0.0015255531 #
-4993.9739984441566775785759091377 1:0.94810659 2:0.009817672 3:0.0035063114 4:0.010518934 5:0.011220196 6:0.00070126227 8:0.00070126227 9:0.0042075738 13:0.011220196 #
4993.9739984441566775785759091377 1:0.94615382 2:0.0084615387 3:0.0084615387 4:0.01076923 5:0.0076923077 6:0.00076923077 9:0.0084615387 13:0.0084615387 14:0.00076923077 #
-4993.9739984441566775785759091377 1:0.95169812 2:0.0067924527 3:0.0060377358 4:0.0098113203 5:0.0075471699 7:0.00075471698 9:0.0067924527 13:0.010566038 #
4993.9739984441566775785759091377 1:0.93956041 2:0.0068681319 3:0.0082417587 4:0.01510989 5:0.0068681319 9:0.0082417587 13:0.01510989 #
-4993.9739984441566775785759091377 1:0.93681318 2:0.0068681319 3:0.0068681319 4:0.016483517 5:0.0068681319 9:0.0068681319 11:0.0013736264 13:0.017857144 #
4993.9739984441566775785759091377 1:0.95197737 2:0.011299435 3:0.0045197741 4:0.0079096043 5:0.011299435 9:0.0039548022 12:0.00056497176 13:0.0084745763 #
-4993.9739984441566775785759091377 1:0.94731182 2:0.010752688 3:0.0053763441 4:0.010215053 5:0.010752688 9:0.0053763441 13:0.010215053 #
4993.9739984441566775785759091377 1:0.90724635 2:0.023188407 3:0.0086956518 4:0.014492754 5:0.023188407 9:0.0086956518 13:0.014492754 #
-4993.9739984441566775785759091377 1:0.91014493 2:0.023188407 3:0.0086956518 4:0.011594203 5:0.023188407 9:0.0086956518 13:0.014492754 #
4993.9739984441566775785759091377 1:0.90724635 2:0.020289855 3:0.011594203 4:0.014492754 5:0.020289855 9:0.011594203 13:0.014492754 #
-4993.9739984441566775785759091377 1:0.90434784 2:0.017391304 3:0.014492754 4:0.014492754 5:0.020289855 9:0.014492754 13:0.014492754 #
4993.9739984441566775785759091377 1:0.9163059 2:0.015873017 3:0.0086580086 4:0.017316017 5:0.011544012 6:0.0014430014 7:0.0014430014 8:0.0014430014 9:0.0086580086 13:0.017316017 #
-4993.9739984441566775785759091377 1:0.92784995 2:0.012987013 3:0.0086580086 4:0.012987013 5:0.011544012 9:0.0086580086 13:0.017316017 #
4993.9739984441566775785759091377 1:0.8680352 2:0.035190616 3:0.0058651026 4:0.014662757 5:0.043988269 6:0.0058651026 9:0.0058651026 13:0.017595308 14:0.0029325513 #
-4993.9739984441566775785759091377 1:0.85923755 2:0.043988269 3:0.0029325513 4:0.017595308 5:0.046920821 6:0.0029325513 9:0.0058651026 13:0.02052786 #
4993.9739984441566775785759091377 1:0.93300653 2:0.01633987 3:0.0065359478 4:0.011437909 5:0.014705882 9:0.0065359478 13:0.011437909 #
-4993.9739984441566775785759091377 1:0.93790847 2:0.014705882 3:0.0065359478 4:0.011437909 5:0.01633987 9:0.0032679739 13:0.0098039219 #
4993.9739984441566775785759091377 1:0.85277778 2:0.030555556 3:0.0083333338 4:0.027777778 5:0.030555556 9:0.0083333338 12:0.0027777778 13:0.033333335 15:0.0027777778 16:0.0027777778 #
-4993.9739984441566775785759091377 1:0.85833335 2:0.025 3:0.0083333338 4:0.033333335 5:0.027777778 9:0.0083333338 12:0.0027777778 13:0.033333335 15:0.0027777778 #
4993.9739984441566775785759091377 1:0.844697 2:0.026515152 3:0.011363637 4:0.026515152 5:0.030303031 6:0.0037878789 9:0.018939395 11:0.0037878789 13:0.026515152 15:0.0037878789 16:0.0037878789 #
-4993.9739984441566775785759091377 1:0.84848487 2:0.026515152 3:0.015151516 4:0.018939395 5:0.022727273 6:0.0037878789 7:0.0037878789 8:0.0037878789 9:0.0075757578 10:0.0037878789 11:0.0037878789 12:0.0075757578 13:0.030303031 16:0.0037878789 #
4993.9739984441566775785759091377 1:0.85823756 2:0.026819924 3:0.011494253 4:0.026819924 5:0.03065134 6:0.0038314175 8:0.0038314175 9:0.011494253 13:0.026819924 #
-4993.9739984441566775785759091377 1:0.86206895 2:0.01532567 3:0.0076628351 4:0.034482758 5:0.026819924 6:0.0038314175 9:0.0076628351 10:0.0076628351 13:0.03065134 14:0.0038314175 #
4993.9739984441566775785759091377 1:0.87081337 2:0.033492822 3:0.0047846888 4:0.019138755 5:0.035885166 6:0.0023923444 9:0.011961723 13:0.016746411 15:0.0023923444 16:0.0023923444 #
-4993.9739984441566775785759091377 1:0.86363637 2:0.033492822 3:0.011961723 4:0.019138755 5:0.035885166 6:0.0023923444 9:0.0095693776 12:0.0023923444 13:0.019138755 16:0.0023923444 #
4993.9739984441566775785759091377 1:0.90942031 2:0.018115941 3:0.0054347827 4:0.019927537 5:0.019927537 9:0.0054347827 13:0.019927537 16:0.0018115942 #
-4993.9739984441566775785759091377 1:0.91123188 2:0.018115941 3:0.0036231885 4:0.021739131 5:0.018115941 9:0.0054347827 13:0.021739131 #
4993.9739984441566775785759091377 1:0.92156863 2:0.024767801 3:0.0061919503 4:0.0072239423 5:0.024767801 6:0.0010319918 9:0.0061919503 13:0.0082559343 #
-4993.9739984441566775785759091377 1:0.92697769 2:0.022312373 3:0.0050709941 4:0.0060851928 5:0.022312373 6:0.0030425964 9:0.0060851928 13:0.0070993914 16:0.0010141988 #
4993.9739984441566775785759091377 1:0.91666669 2:0.022222223 3:0.0055555557 4:0.012222222 5:0.023333333 9:0.0055555557 13:0.014444444 #
-4993.9739984441566775785759091377 1:0.92111111 2:0.02 3:0.0044444446 4:0.013333334 5:0.02 6:0.0011111111 8:0.0011111111 9:0.0055555557 13:0.013333334 #
4993.9739984441566775785759091377 1:0.85357141 2:0.035714287 3:0.010714286 4:0.021428572 5:0.039285716 6:0.0071428572 9:0.0071428572 10:0.0035714286 13:0.017857144 14:0.0035714286 #
-4993.9739984441566775785759091377 1:0.85000002 2:0.039285716 3:0.010714286 4:0.017857144 5:0.042857144 6:0.0071428572 8:0.0035714286 9:0.010714286 13:0.014285714 14:0.0035714286 #
4993.9739984441566775785759091377 1:0.87267905 2:0.03183024 3:0.010610079 4:0.01591512 5:0.039787799 6:0.0026525198 9:0.00795756 11:0.0026525198 13:0.0132626 14:0.0026525198 #
-4993.9739984441566775785759091377 1:0.87002653 2:0.039787799 3:0.00795756 4:0.01591512 5:0.034482758 6:0.0026525198 9:0.010610079 11:0.0026525198 13:0.01591512 #
4993.9739984441566775785759091377 1:0.85483873 2:0.048387095 3:0.0064516128 4:0.016129032 5:0.048387095 6:0.0032258064 9:0.0064516128 13:0.012903226 14:0.0032258064 #
-4993.9739984441566775785759091377 1:0.86774194 2:0.038709678 3:0.0064516128 4:0.0096774194 5:0.048387095 6:0.0096774194 9:0.0064516128 13:0.012903226 #
4993.9739984441566775785759091377 1:0.92414528 2:0.018162394 3:0.0042735045 4:0.014957265 5:0.014957265 6:0.0010683761 8:0.0010683761 9:0.0042735045 13:0.017094018 #
-4993.9739984441566775785759091377 1:0.91880339 2:0.021367522 3:0.0042735045 4:0.013888889 5:0.020299146 6:0.0010683761 8:0.0010683761 9:0.0042735045 13:0.014957265 #
4993.9739984441566775785759091377 1:0.89009285 2:0.02631579 3:0.0046439627 4:0.020123839 5:0.021671826 7:0.0015479876 8:0.0046439627 9:0.0061919503 11:0.0015479876 13:0.023219815 #
-4993.9739984441566775785759091377 1:0.89009285 2:0.021671826 3:0.0061919503 4:0.023219815 5:0.021671826 8:0.0030959751 9:0.0077399379 13:0.023219815 14:0.0030959751 #
4993.9739984441566775785759091377 1:0.92026579 2:0.016611295 3:0.0066445181 4:0.015503876 5:0.016611295 6:0.0022148394 9:0.0055370987 13:0.016611295 #
-4993.9739984441566775785759091377 1:0.91836733 2:0.015873017 3:0.0068027209 4:0.015873017 5:0.015873017 6:0.0022675737 9:0.0079365084 13:0.017006803 #
4993.9739984441566775785759091377 1:0.97355932 2:0.0058757062 3:0.0031638418 4:0.0036158192 5:0.0061016949 6:0.0002259887 7:0.00011299435 8:0.00011299435 9:0.0032768361 13:0.0036158192 14:0.0002259887 16:0.00011299435 #
-4993.9739984441566775785759091377 1:0.97395062 2:0.0060288934 3:0.003412581 4:0.0035263337 5:0.0056876349 8:0.0001137527 9:0.0035263337 10:0.0001137527 13:0.0035263337 16:0.0001137527 #
4993.9739984441566775785759091377 1:0.97758067 2:0.0055913976 3:0.0020967743 4:0.0028494624 5:0.0056451615 6:0.00037634408 7:0.00021505376 8:0.00016129033 9:0.0021505377 10:0.00016129033 12:5.3763441e-05 13:0.0027956988 14:0.00021505376 16:0.00010752688 #
-4993.9739984441566775785759091377 1:0.97709882 2:0.0061517782 3:0.0019127378 4:0.0029983458 5:0.0058416044 6:0.00046526056 7:0.00015508685 8:0.00010339123 9:0.0019644334 12:0.00010339123 13:0.0030500414 14:5.1695617e-05 15:5.1695617e-05 16:5.1695617e-05 #
4342.9539706012001261115074157715 1:0.80681819 2:0.022727273 3:0.022727273 4:0.03409091 5:0.037878789 8:0.0037878789 9:0.018939395 10:0.0075757578 13:0.03409091 14:0.0037878789 15:0.0037878789 16:0.0037878789 #
-4342.9539706012001261115074157715 1:0.80681819 2:0.026515152 3:0.030303031 4:0.026515152 5:0.026515152 6:0.0037878789 8:0.0037878789 9:0.022727273 10:0.0037878789 13:0.03409091 14:0.0037878789 16:0.011363637 #
4993.9739984441566775785759091377 1:0.98260868 2:0.0045548654 3:0.0016563147 4:0.0022360249 5:0.0046376809 6:0.00016563147 8:8.2815735e-05 9:0.0015734989 10:8.2815735e-05 11:8.2815735e-05 13:0.0022360249 14:8.2815735e-05 #
-4993.9739984441566775785759091377 1:0.98323107 2:0.0044989777 3:0.0016359919 4:0.0022903886 5:0.0044989777 6:8.179959e-05 9:0.0015541923 13:0.0022085889 #
4993.9739984441566775785759091377 1:0.95281249 2:0.00875 3:0.0065624998 4:0.0078125 5:0.0090624997 9:0.0065624998 13:0.0081249997 16:0.00031249999 #
-4993.9739984441566775785759091377 1:0.95284808 2:0.0082278484 3:0.0056962026 4:0.0088607594 5:0.0085443035 6:0.0003164557 9:0.0063291141 13:0.0091772154 #
4993.9739984441566775785759091377 1:0.97469038 2:0.0056501548 3:0.0030959751 4:0.003250774 5:0.0054179565 6:0.00023219814 7:7.7399382e-05 8:0.00030959753 9:0.0029411765 10:7.7399382e-05 11:7.7399382e-05 12:0.00015479876 13:0.0036377709 14:7.7399382e-05 16:0.00030959753 #
-4993.9739984441566775785759091377 1:0.97541356 2:0.0057894737 3:0.0024812031 4:0.0036842106 5:0.0052631581 6:7.5187971e-05 7:0.00015037594 8:0.00022556391 9:0.0027819548 13:0.0036842106 14:0.00015037594 15:7.5187971e-05 16:0.00022556391 #
4993.9739984441566775785759091377 1:0.92064518 2:0.016774194 3:0.0083870972 4:0.010967742 5:0.019354839 7:0.00064516132 9:0.0096774194 10:0.00064516132 11:0.00064516132 12:0.00064516132 13:0.010967742 14:0.00064516132 #
-4993.9739984441566775785759091377 1:0.91873014 2:0.018412698 3:0.010793651 4:0.010793651 5:0.017142856 7:0.00063492061 8:0.00063492061 9:0.01015873 12:0.00063492061 13:0.010793651 14:0.00063492061 16:0.00063492061 #
4993.9739984441566775785759091377 1:0.96935779 2:0.0047706421 3:0.0056880736 4:0.0036697248 5:0.0045871558 6:0.00018348623 8:0.00036697247 9:0.0060550459 11:0.00018348623 12:0.00036697247 13:0.0040366971 14:0.00018348623 15:0.00018348623 16:0.00036697247 #
-4993.9739984441566775785759091377 1:0.96872729 2:0.0052727275 3:0.0058181817 4:0.0040000002 5:0.0052727275 7:0.00018181818 8:0.00018181818 9:0.0056363638 10:0.00018181818 12:0.00018181818 13:0.0041818181 14:0.00018181818 16:0.00018181818 #
4993.9739984441566775785759091377 1:0.94810814 2:0.010450451 3:0.0072072074 4:0.0072072074 5:0.01009009 6:0.00036036037 8:0.00072072074 9:0.0064864866 12:0.00072072074 13:0.0082882885 16:0.00036036037 #
-4993.9739984441566775785759091377 1:0.95322245 2:0.0097020101 3:0.0055440054 4:0.0076230075 5:0.0093555097 9:0.0058905059 13:0.0083160084 16:0.00034650034 #
4993.9739984441566775785759091377 1:0.93917966 2:0.016619518 3:0.004950495 4:0.0067185289 5:0.016619518 6:0.0014144272 8:0.00070721359 9:0.004950495 10:0.0003536068 12:0.0003536068 13:0.0077793496 15:0.0003536068 #
-4993.9739984441566775785759091377 1:0.93837535 2:0.016106443 3:0.0059523811 4:0.0080532217 5:0.016806724 6:0.00070028013 8:0.00035014006 9:0.005602241 13:0.0077030812 14:0.00035014006 #
4993.9739984441566775785759091377 1:0.92741936 2:0.021774193 3:0.0024193549 4:0.011290323 5:0.021774193 6:0.0008064516 9:0.0032258064 13:0.011290323 #
-4993.9739984441566775785759091377 1:0.92573529 2:0.024264706 3:0.0029411765 4:0.0095588239 5:0.022794118 8:0.00073529413 9:0.0029411765 13:0.011029412 #
4993.9739984441566775785759091377 1:0.91983807 2:0.025910931 3:0.0024291498 4:0.0089068823 5:0.024291499 6:0.0024291498 7:0.00080971658 8:0.0016194332 9:0.0024291498 13:0.0097165992 14:0.0016194332 #
-4993.9739984441566775785759091377 1:0.91896409 2:0.026733501 3:0.0033416876 4:0.0083542187 5:0.024227235 6:0.0016708438 8:0.0025062656 9:0.0033416876 13:0.0083542187 14:0.0016708438 16:0.0008354219 #
4993.9739984441566775785759091377 1:0.93917966 2:0.016619518 3:0.004950495 4:0.0067185289 5:0.016619518 6:0.0014144272 8:0.00070721359 9:0.004950495 10:0.0003536068 12:0.0003536068 13:0.0077793496 15:0.0003536068 #
-4993.9739984441566775785759091377 1:0.93921703 2:0.017170331 3:0.0044642859 4:0.0072115385 5:0.01820055 6:0.0003434066 9:0.0054945056 13:0.0068681319 14:0.0003434066 16:0.0006868132 #
4993.9739984441566775785759091377 1:0.84444445 2:0.059259258 3:0.014814815 5:0.059259258 9:0.014814815 13:0.0074074073 #
-4993.9739984441566775785759091377 1:0.85185188 2:0.05185185 3:0.0074074073 5:0.05185185 6:0.0074074073 7:0.0074074073 9:0.014814815 13:0.0074074073 #
4993.9739984441566775785759091377 1:0.89200002 2:0.02 3:0.017999999 4:0.014 5:0.02 7:0.0020000001 9:0.017999999 10:0.0020000001 13:0.014 #
-4993.9739984441566775785759091377 1:0.884 2:0.022 3:0.017999999 4:0.014 5:0.026000001 9:0.02 12:0.0020000001 13:0.014 #
4993.9739984441566775785759091377 1:0.93352115 2:0.01802817 3:0.0033802816 4:0.0084507046 5:0.01971831 6:0.0028169013 9:0.0033802816 13:0.0084507046 14:0.00056338031 16:0.0016901408 #
-4993.9739984441566775785759091377 1:0.94111109 2:0.017222222 3:0.0027777778 4:0.0072222222 5:0.018333333 6:0.00055555557 8:0.0011111111 9:0.0022222223 13:0.0072222222 14:0.00055555557 16:0.0016666667 #
4993.9739984441566775785759091377 1:0.89329267 2:0.018292682 3:0.012195121 4:0.012195121 5:0.021341464 6:0.0030487804 8:0.0091463411 9:0.0091463411 13:0.012195121 14:0.0060975607 16:0.0030487804 #
-4993.9739984441566775785759091377 1:0.89329267 2:0.024390243 3:0.012195121 4:0.0030487804 5:0.018292682 6:0.0091463411 8:0.0030487804 9:0.012195121 13:0.012195121 14:0.0030487804 16:0.0091463411 #
4993.9739984441566775785759091377 1:0.94850951 2:0.013796502 3:0.0046809558 4:0.0064055184 5:0.013550135 6:0.00049273222 8:0.00024636611 9:0.0046809558 12:0.00024636611 13:0.0068982509 15:0.00024636611 16:0.00024636611 #
-4993.9739984441566775785759091377 1:0.94981241 2:0.012898686 3:0.0046904315 4:0.0068011256 5:0.012195121 6:0.00046904315 7:0.00046904315 8:0.00023452158 9:0.004924953 12:0.00023452158 13:0.0068011256 14:0.00046904315 #
4993.9739984441566775785759091377 1:0.83908045 2:0.038314175 3:0.011494253 4:0.026819924 5:0.045977011 6:0.0038314175 9:0.0076628351 11:0.0038314175 13:0.022988506 #
-4993.9739984441566775785759091377 1:0.82375479 2:0.049808428 3:0.0076628351 4:0.019157087 5:0.053639848 6:0.0038314175 9:0.011494253 11:0.0038314175 13:0.026819924 #
4993.9739984441566775785759091377 1:0.92307693 2:0.024291499 3:0.0060728746 4:0.010121457 5:0.01417004 9:0.0080971662 13:0.012145749 16:0.0020242915 #
-4993.9739984441566775785759091377 1:0.91902834 2:0.01417004 3:0.0080971662 4:0.012145749 5:0.02631579 9:0.0080971662 13:0.010121457 16:0.0020242915 #
4993.9739984441566775785759091377 1:0.92730498 2:0.012411348 3:0.0044326242 4:0.015070922 5:0.013297873 8:0.0017730496 9:0.0044326242 10:0.00088652479 13:0.017730497 14:0.00088652479 15:0.00088652479 16:0.00088652479 #
-4993.9739984441566775785759091377 1:0.92464536 2:0.015070922 3:0.0053191488 4:0.017730497 5:0.012411348 9:0.0053191488 13:0.017730497 16:0.0017730496 #
2495.7088153309887275099754333496 1:0.86551726 2:0.031034483 3:0.013793103 4:0.017241379 5:0.034482758 9:0.013793103 13:0.020689655 16:0.0034482758 #
-2495.7088153309887275099754333496 1:0.8586207 2:0.031034483 3:0.013793103 4:0.024137931 5:0.027586207 6:0.0034482758 9:0.013793103 13:0.024137931 14:0.0034482758 #
4993.9739984441566775785759091377 1:0.80113637 2:0.028409092 3:0.017045455 4:0.045454547 5:0.039772727 9:0.011363637 13:0.051136363 16:0.0056818184 #
-4993.9739984441566775785759091377 1:0.79545456 2:0.039772727 3:0.017045455 4:0.039772727 5:0.039772727 9:0.017045455 13:0.045454547 16:0.0056818184 #
4993.9739984441566775785759091377 1:0.90561223 2:0.017857144 3:0.0076530613 4:0.017857144 5:0.017857144 9:0.0076530613 13:0.022959184 16:0.0025510204 #
-4993.9739984441566775785759091377 1:0.90306121 2:0.017857144 3:0.0076530613 4:0.020408163 5:0.017857144 9:0.0076530613 13:0.025510205 #
4993.9739984441566775785759091377 1:0.91538459 2:0.015384615 3:0.0025641026 4:0.020512821 5:0.020512821 9:0.0025641026 13:0.020512821 14:0.0025641026 #
-4993.9739984441566775785759091377 1:0.91538459 2:0.017948719 3:0.0025641026 4:0.020512821 5:0.020512821 9:0.0025641026 13:0.020512821 #
4993.9739984441566775785759091377 1:0.8611111 2:0.022727273 3:0.0075757578 4:0.030303031 5:0.022727273 6:0.0075757578 7:0.0025252525 9:0.015151516 13:0.025252525 14:0.0025252525 15:0.0025252525 #
-4993.9739984441566775785759091377 1:0.8611111 2:0.025252525 3:0.012626262 4:0.025252525 5:0.025252525 6:0.005050505 7:0.0025252525 9:0.0075757578 10:0.0025252525 12:0.0025252525 13:0.027777778 16:0.0025252525 #
4993.9739984441566775785759091377 1:0.80000001 2:0.030303031 3:0.021212121 4:0.039393939 5:0.039393939 6:0.0030303029 9:0.018181818 13:0.042424243 16:0.0060606059 #
-4993.9739984441566775785759091377 1:0.81515151 2:0.042424243 3:0.012121212 4:0.027272727 5:0.036363635 6:0.0030303029 7:0.0030303029 9:0.021212121 13:0.036363635 16:0.0030303029 #
4993.9739984441566775785759091377 1:0.88006759 2:0.027027028 3:0.010135135 4:0.018581081 5:0.028716216 9:0.0084459456 12:0.0016891892 13:0.021959459 16:0.0033783785 #
-4993.9739984441566775785759091377 1:0.87837839 2:0.028716216 3:0.0084459456 4:0.021959459 5:0.028716216 8:0.0016891892 9:0.0084459456 13:0.020270269 15:0.0016891892 16:0.0016891892 #
4993.9739984441566775785759091377 1:0.86225897 2:0.041322313 3:0.005509642 4:0.019283747 5:0.038567495 6:0.002754821 9:0.0082644625 13:0.019283747 16:0.002754821 #
-4993.9739984441566775785759091377 1:0.8567493 2:0.044077136 3:0.0082644625 4:0.019283747 5:0.041322313 9:0.0082644625 13:0.022038568 #
4993.9739984441566775785759091377 1:0.902439 2:0.020731708 3:0.0085365856 4:0.017073171 5:0.019512195 9:0.0073170732 12:0.0012195122 13:0.019512195 16:0.0036585366 #
-4993.9739984441566775785759091377 1:0.89878047 2:0.019512195 3:0.0085365856 4:0.020731708 5:0.020731708 6:0.0012195122 8:0.0012195122 9:0.0060975607 10:0.0012195122 13:0.020731708 14:0.0012195122 #
4993.9739984441566775785759091377 1:0.8918919 2:0.020270269 3:0.010810811 4:0.017567568 5:0.022972973 8:0.0013513514 9:0.0081081083 10:0.0013513514 12:0.0027027028 13:0.020270269 14:0.0013513514 16:0.0013513514 #
-4993.9739984441566775785759091377 1:0.89054054 2:0.020270269 3:0.012162162 4:0.021621622 5:0.021621622 6:0.0013513514 9:0.012162162 13:0.020270269 #
4993.9739984441566775785759091377 1:0.91532975 2:0.015151516 3:0.0089126555 4:0.014260249 5:0.014260249 8:0.0026737968 9:0.0071301246 10:0.00089126558 12:0.0017825312 13:0.016934047 14:0.00089126558 15:0.00089126558 16:0.00089126558 #
-4993.9739984441566775785759091377 1:0.90909094 2:0.017045455 3:0.0085227275 4:0.018939395 5:0.017045455 9:0.0085227275 13:0.018939395 14:0.00094696973 16:0.00094696973 #
4993.9739984441566775785759091377 1:0.90823531 2:0.015294118 3:0.0070588235 4:0.02117647 5:0.01764706 8:0.0011764705 9:0.0070588235 13:0.02117647 14:0.0011764705 #
-4993.9739984441566775785759091377 1:0.91058826 2:0.012941176 3:0.0070588235 4:0.02117647 5:0.018823529 9:0.0070588235 13:0.01764706 14:0.0035294117 16:0.0011764705 #
4993.9739984441566775785759091377 1:0.87798411 2:0.021220159 3:0.0132626 4:0.018567638 5:0.023872679 9:0.0132626 12:0.0026525198 13:0.023872679 16:0.0053050397 #
-4993.9739984441566775785759091377 1:0.87002653 2:0.021220159 3:0.01591512 4:0.026525199 5:0.023872679 9:0.01591512 13:0.026525199 #
4993.9739984441566775785759091377 1:0.91251385 2:0.022148395 3:0.0044296789 4:0.015503876 5:0.022148395 6:0.0011074197 9:0.0044296789 13:0.016611295 16:0.0011074197 #
-4993.9739984441566775785759091377 1:0.9164021 2:0.021164021 3:0.0042328043 4:0.015873017 5:0.021164021 9:0.0042328043 13:0.015873017 16:0.0010582011 #
4993.9739984441566775785759091377 1:0.78881985 2:0.037267081 3:0.037267081 4:0.037267081 5:0.031055901 6:0.0062111802 9:0.024844721 13:0.031055901 16:0.0062111802 #
-4993.9739984441566775785759091377 1:0.79503107 2:0.031055901 3:0.031055901 4:0.024844721 5:0.037267081 9:0.037267081 13:0.031055901 16:0.01242236 #
4993.9739984441566775785759091377 1:0.94020063 2:0.013888889 3:0.0065586418 4:0.0073302467 5:0.014660493 6:0.00038580247 9:0.0065586418 10:0.00038580247 12:0.00077160494 13:0.0065586418 15:0.0011574074 16:0.0015432099 #
-4993.9739984441566775785759091377 1:0.93711418 2:0.015046297 3:0.0073302467 4:0.0073302467 5:0.013503087 6:0.00038580247 7:0.00038580247 8:0.00077160494 9:0.0077160494 12:0.00038580247 13:0.0073302467 14:0.00038580247 15:0.00077160494 16:0.0015432099 #
4993.9739984441566775785759091377 1:0.90384614 2:0.024475524 3:0.01048951 4:0.0087412586 5:0.02972028 6:0.0017482517 9:0.0087412586 10:0.0017482517 13:0.01048951 #
-4993.9739984441566775785759091377 1:0.90559441 2:0.026223777 3:0.0069930069 4:0.01048951 5:0.026223777 6:0.0034965035 9:0.01048951 13:0.0087412586 15:0.0017482517 #
4993.9739984441566775785759091377 1:0.95968646 2:0.010918253 3:0.0027995522 4:0.0058790594 5:0.010638298 6:0.00027995522 8:0.00027995522 9:0.0025195968 12:0.00027995522 13:0.0064389696 16:0.00027995522 #
-4993.9739984441566775785759091377 1:0.96204984 2:0.0099722994 3:0.0030470914 4:0.0055401661 5:0.0099722994 6:0.00027700831 8:0.00027700831 9:0.0030470914 13:0.0052631581 14:0.00055401662 #
4993.9739984441566775785759091377 1:0.94942611 2:0.016140603 3:0.0021520804 4:0.005738881 5:0.016140603 6:0.00071736012 8:0.00071736012 9:0.0021520804 13:0.0060975607 14:0.00035868006 16:0.00035868006 #
-4993.9739984441566775785759091377 1:0.95535082 2:0.013111268 3:0.001771793 4:0.0056697377 5:0.014174344 6:0.00070871721 8:0.00035435861 9:0.001771793 13:0.0060240962 14:0.00070871721 16:0.00035435861 #
